{"learner":{"attributes":{"scikit_learn":"{\"_estimator_type\": \"regressor\"}"},"feature_names":["home_elo","home_gf_adj5","home_ga_adj5","home_gf_adj10","home_ga_adj10","home_form5_perf","home_comp_share10","away_elo","away_gf_adj5","away_ga_adj5","away_gf_adj10","away_ga_adj10","away_form5_perf","away_comp_share10","elo_diff","elo_expected_home","true_home_advantage","match_type","home_squad","away_squad","squad_diff"],"feature_types":["float","float","float","float","float","float","float","float","float","float","float","float","float","float","float","float","int","c","float","float","float"],"gradient_booster":{"model":{"cats":{"enc":[{"offsets":[],"values":[]},{"offsets":[],"values":[]},{"offsets":[],"values":[]},{"offsets":[],"values":[]},{"offsets":[],"values":[]},{"offsets":[],"values":[]},{"offsets":[],"values":[]},{"offsets":[],"values":[]},{"offsets":[],"values":[]},{"offsets":[],"values":[]},{"offsets":[],"values":[]},{"offsets":[],"values":[]},{"offsets":[],"values":[]},{"offsets":[],"values":[]},{"offsets":[],"values":[]},{"offsets":[],"values":[]},{"offsets":[],"values":[]},{"offsets":[0,11,32,40,54,59,71,80],"values":[99,111,110,116,105,110,101,110,116,97,108,99,111,110,116,105,110,101,110,116,97,108,95,113,117,97,108,105,102,105,101,114,102,114,105,101,110,100,108,121,110,97,116,105,111,110,115,95,108,101,97,103,117,101,111,116,104,101,114,119,99,95,113,117,97,108,105,102,105,101,114,119,111,114,108,100,95,99,117,112]},{"offsets":[],"values":[]},{"offsets":[],"values":[]},{"offsets":[],"values":[]}],"feature_segments":[0,0,0,0,0,0,0,0,0,0,0,0,0,0,0,0,0,0,7,7,7,7],"sorted_idx":[0,1,2,3,4,5,6]},"gbtree_model_param":{"num_parallel_tree":"1","num_trees":"124"},"iteration_indptr":[0,1,2,3,4,5,6,7,8,9,10,11,12,13,14,15,16,17,18,19,20,21,22,23,24,25,26,27,28,29,30,31,32,33,34,35,36,37,38,39,40,41,42,43,44,45,46,47,48,49,50,51,52,53,54,55,56,57,58,59,60,61,62,63,64,65,66,67,68,69,70,71,72,73,74,75,76,77,78,79,80,81,82,83,84,85,86,87,88,89,90,91,92,93,94,95,96,97,98,99,100,101,102,103,104,105,106,107,108,109,110,111,112,113,114,115,116,117,118,119,120,121,122,123,124],"tree_info":[0,0,0,0,0,0,0,0,0,0,0,0,0,0,0,0,0,0,0,0,0,0,0,0,0,0,0,0,0,0,0,0,0,0,0,0,0,0,0,0,0,0,0,0,0,0,0,0,0,0,0,0,0,0,0,0,0,0,0,0,0,0,0,0,0,0,0,0,0,0,0,0,0,0,0,0,0,0,0,0,0,0,0,0,0,0,0,0,0,0,0,0,0,0,0,0,0,0,0,0,0,0,0,0,0,0,0,0,0,0,0,0,0,0,0,0,0,0,0,0,0,0,0,0],"trees":[{"base_weights":[1.543345E-3,-9.9500686E-2,3.3204088E-1,-2.0550337E-1,4.8304955E-3,2.6523525E-1,7E-1,-3.068703E-1,-1.6069703E-1,-1.6243618E-2,5.0656664E-1,2.227979E-1,6.723373E-1,5.288973E-1,7E-1,-2.3363048E-2,4.765072E-2,-1.2458365E-2,3.9655104E-2,-5.5211782E-3,3.3173335E-3,1.7271888E-2,5.281715E-2,1.07152015E-2,2.135608E-2,5.281715E-2,1.9573843E-2,3.2898147E-2,5.281715E-2,5.9653283E-4,5.281715E-2],"categories":[],"categories_nodes":[],"categories_segments":[],"categories_sizes":[],"default_left":[0,0,0,0,0,0,0,1,1,0,1,0,0,0,0,0,0,0,0,0,0,0,0,0,0,0,0,0,0,0,0],"id":0,"left_children":[1,3,5,7,9,11,13,15,17,19,21,23,25,27,29,-1,-1,-1,-1,-1,-1,-1,-1,-1,-1,-1,-1,-1,-1,-1,-1],"loss_changes":[1.96506E3,4.984012E2,3.4495496E2,1.0125244E2,2.4024983E2,2.0144257E2,3.0114014E1,1.88656E1,4.750992E1,7.476579E1,7.977585E1,5.1417175E1,6.106369E1,2.664032E1,4.643799E0,0E0,0E0,0E0,0E0,0E0,0E0,0E0,0E0,0E0,0E0,0E0,0E0,0E0,0E0,0E0,0E0],"parents":[2147483647,0,0,1,1,2,2,3,3,4,4,5,5,6,6,7,7,8,8,9,9,10,10,11,11,12,12,13,13,14,14],"right_children":[2,4,6,8,10,12,14,16,18,20,22,24,26,28,30,-1,-1,-1,-1,-1,-1,-1,-1,-1,-1,-1,-1,-1,-1,-1,-1],"split_conditions":[8.2049954E-1,5.315535E-1,9.6009386E-1,2.4388292E-1,2.087688E0,1.4667442E0,9.7895724E-1,2.9079647E0,2.9079647E0,6.868053E-1,7.1428573E-1,8.7750816E-1,1.4605066E3,1.1124467E0,2.793733E-1,-2.3363048E-2,4.765072E-2,-1.2458365E-2,3.9655104E-2,-5.5211782E-3,3.3173335E-3,1.7271888E-2,5.281715E-2,1.07152015E-2,2.135608E-2,5.281715E-2,1.9573843E-2,3.2898147E-2,5.281715E-2,5.9653283E-4,5.281715E-2],"split_indices":[15,15,15,15,9,11,15,11,11,15,6,15,7,11,1,0,0,0,0,0,0,0,0,0,0,0,0,0,0,0,0],"split_type":[0,0,0,0,0,0,0,0,0,0,0,0,0,0,0,0,0,0,0,0,0,0,0,0,0,0,0,0,0,0,0],"sum_hessian":[5.883217E4,4.5059805E4,1.3772367E4,2.234817E4,2.2711635E4,1.170291E4,2.069457E3,6.8403413E3,1.5507829E4,2.1801336E4,9.1029913E2,1.0605967E4,1.0969431E3,1.11659E3,9.5286707E2,6.8239688E3,1.6372286E1,1.541287E4,9.495926E1,1.1205192E4,1.0596144E4,5.206387E2,3.896604E2,4.5383975E3,6.0675693E3,7.6949744E2,3.274457E2,8.873779E2,2.29212E2,9.823372E0,9.430437E2],"tree_param":{"num_deleted":"0","num_feature":"21","num_nodes":"31","size_leaf_vector":"1"}},{"base_weights":[3.0107275E-3,-1.0776506E-1,2.874211E-1,-2.4668524E-1,-3.4676883E-2,2.1781538E-1,6.148086E-1,-2.9499002E-2,-2.2680289E-1,-4.222589E-2,7E-1,1.8975039E-1,6.636415E-1,7E-1,4.193324E-1,-1.7412059E-2,4.194383E-2,-6.9597424E-3,1.7349093E-3,5.281715E-2,-1.7327638E-2,1.1094899E-2,2.330043E-2,5.281715E-2,1.8911062E-2,3.122449E-2,5.281715E-2,2.4708789E-2,4.656387E-2],"categories":[],"categories_nodes":[],"categories_segments":[],"categories_sizes":[],"default_left":[0,0,0,0,1,0,0,0,1,0,0,0,0,0,1,0,0,0,0,0,0,0,0,0,0,0,0,0,0],"id":1,"left_children":[1,3,5,7,9,11,13,-1,15,17,19,21,23,25,27,-1,-1,-1,-1,-1,-1,-1,-1,-1,-1,-1,-1,-1,-1],"loss_changes":[1.8521793E3,4.2953815E2,3.7477942E2,4.1340942E1,1.7224936E2,1.694419E2,5.9461914E1,0E0,4.0527344E1,8.966842E1,1.9198761E1,6.483292E1,5.1808746E1,3.0343994E1,1.804834E1,0E0,0E0,0E0,0E0,0E0,0E0,0E0,0E0,0E0,0E0,0E0,0E0,0E0,0E0],"parents":[2147483647,0,0,1,1,2,2,3,3,4,4,5,5,6,6,8,8,9,9,10,10,11,11,12,12,13,13,14,14],"right_children":[2,4,6,8,10,12,14,-1,16,18,20,22,24,26,28,-1,-1,-1,-1,-1,-1,-1,-1,-1,-1,-1,-1,-1,-1],"split_conditions":[1.5903973E2,4.0879864E-1,4.254035E2,9.519485E-2,2.6783476E0,1.8369485E0,1.3238419E3,-2.9499002E-2,3.0063915E0,6.4556766E-1,1.560919E3,3.1264194E2,1.4785518E3,1.945E1,1.365E1,-1.7412059E-2,4.194383E-2,-6.9597424E-3,1.7349093E-3,5.281715E-2,-1.7327638E-2,1.1094899E-2,2.330043E-2,5.281715E-2,1.8911062E-2,3.122449E-2,5.281715E-2,2.4708789E-2,4.656387E-2],"split_indices":[14,15,14,15,9,9,7,0,9,15,7,14,7,20,20,0,0,0,0,0,0,0,0,0,0,0,0,0,0],"split_type":[0,0,0,0,0,0,0,0,0,0,0,0,0,0,0,0,0,0,0,0,0,0,0,0,0,0,0,0,0],"sum_hessian":[5.8777453E4,4.2303875E4,1.6473582E4,1.4579344E4,2.772453E4,1.3592907E4,2.8806738E3,1.7532013E3,1.2826143E4,2.7480967E4,2.435631E2,1.2795399E4,7.975081E2,1.8307367E3,1.049937E3,1.2765437E4,6.07068E1,1.5552314E4,1.1928651E4,2.2376924E2,1.979385E1,9.426515E3,3.3688853E3,5.27709E2,2.6979913E2,3.9837653E2,1.4323601E3,7.270966E2,3.2284048E2],"tree_param":{"num_deleted":"0","num_feature":"21","num_nodes":"29","size_leaf_vector":"1"}},{"base_weights":[-3.1361527E-5,-9.4165616E-2,2.934266E-1,-2.0525716E-1,1.5215468E-4,2.4613538E-1,6.8701774E-1,-3.1230164E-1,-1.6039921E-1,-1.5284474E-2,5.1586765E-1,2.1552955E-1,7E-1,5.0766635E-1,7E-1,-2.9378796E-2,-2.1152027E-2,-1.23212E-2,3.3959977E-2,-4.0153395E-3,3.8078062E-3,1.8801397E-2,5.281715E-2,2.656902E-2,1.3827064E-2,5.281715E-2,1.3579078E-2,3.1149251E-2,5.2751083E-2,2.123368E-2,5.281715E-2],"categories":[],"categories_nodes":[],"categories_segments":[],"categories_sizes":[],"default_left":[0,0,0,0,0,0,0,0,1,0,1,0,0,0,0,0,0,0,0,0,0,0,0,0,0,0,0,0,0,0,0],"id":2,"left_children":[1,3,5,7,9,11,13,15,17,19,21,23,25,27,29,-1,-1,-1,-1,-1,-1,-1,-1,-1,-1,-1,-1,-1,-1,-1,-1],"loss_changes":[1.621991E3,4.65801E2,2.6448657E2,9.773724E1,1.9149176E2,1.8872559E2,2.9263428E1,1.4225708E1,2.5871185E1,5.826321E1,4.9804688E1,5.252826E1,3.3945923E1,1.4221008E1,1.1173462E1,0E0,0E0,0E0,0E0,0E0,0E0,0E0,0E0,0E0,0E0,0E0,0E0,0E0,0E0,0E0,0E0],"parents":[2147483647,0,0,1,1,2,2,3,3,4,4,5,5,6,6,7,7,8,8,9,9,10,10,11,11,12,12,13,13,14,14],"right_children":[2,4,6,8,10,12,14,16,18,20,22,24,26,28,30,-1,-1,-1,-1,-1,-1,-1,-1,-1,-1,-1,-1,-1,-1,-1,-1],"split_conditions":[8.2049954E-1,5.110957E-1,9.708355E-1,2.3223826E-1,2.0839853E0,1.6509626E0,8.8045686E-1,9.519485E-2,2.9079647E0,7.160827E-1,7.1428573E-1,1.2477476E3,1.795672E3,9.892851E-1,1.306E1,-2.9378796E-2,-2.1152027E-2,-1.23212E-2,3.3959977E-2,-4.0153395E-3,3.8078062E-3,1.8801397E-2,5.281715E-2,2.656902E-2,1.3827064E-2,5.281715E-2,1.3579078E-2,3.1149251E-2,5.2751083E-2,2.123368E-2,5.281715E-2],"split_indices":[15,15,15,15,11,11,11,15,11,15,6,7,0,15,20,0,0,0,0,0,0,0,0,0,0,0,0,0,0,0,0],"split_type":[0,0,0,0,0,0,0,0,0,0,0,0,0,0,0,0,0,0,0,0,0,0,0,0,0,0,0,0,0,0,0],"sum_hessian":[5.8704598E4,4.4449926E4,1.4254671E4,2.0407047E4,2.4042879E4,1.2733756E4,1.520915E3,6.0165166E3,1.4390531E4,2.3349398E4,6.9348047E2,1.1990756E4,7.430003E2,8.664782E2,6.544368E2,1.7457208E3,4.270796E3,1.432664E4,6.3891666E1,1.4807753E4,8.541646E3,3.6956277E2,3.2391766E2,2.2811416E3,9.709614E3,6.129379E2,1.3006233E2,5.912509E2,2.752273E2,7.38134E1,5.806234E2],"tree_param":{"num_deleted":"0","num_feature":"21","num_nodes":"31","size_leaf_vector":"1"}},{"base_weights":[7.465284E-4,-1.430418E-1,1.865945E-1,-2.3586161E-1,-7.291477E-2,9.744005E-2,3.4082526E-1,-3.2046697E-1,-1.9922999E-1,-8.700571E-2,3.7873408E-1,7.9704784E-2,7E-1,3.0394322E-1,7E-1,-2.4514483E-2,4.433107E-2,-1.5215731E-2,2.373345E-2,-9.204549E-3,-4.2725476E-3,1.4071784E-2,5.281715E-2,3.7121675E-3,1.3534191E-2,-2.4930043E-3,5.281715E-2,2.0085216E-2,5.1955517E-2,5.281715E-2,2.23157E-2],"categories":[2,3,6],"categories_nodes":[14],"categories_segments":[0],"categories_sizes":[3],"default_left":[0,0,0,0,0,1,0,1,1,0,1,0,0,0,1,0,0,0,0,0,0,0,0,0,0,0,0,0,0,0,0],"id":3,"left_children":[1,3,5,7,9,11,13,15,17,19,21,23,25,27,29,-1,-1,-1,-1,-1,-1,-1,-1,-1,-1,-1,-1,-1,-1,-1,-1],"loss_changes":[1.5698718E3,2.1549554E2,3.521731E2,4.3812683E1,1.2030762E2,2.1015599E2,1.430802E2,1.8351807E1,1.2780853E1,1.9420547E1,4.4668495E1,4.824591E1,1.5548553E1,1.2453613E2,3.6812927E1,0E0,0E0,0E0,0E0,0E0,0E0,0E0,0E0,0E0,0E0,0E0,0E0,0E0,0E0,0E0,0E0],"parents":[2147483647,0,0,1,1,2,2,3,3,4,4,5,5,6,6,7,7,8,8,9,9,10,10,11,11,12,12,13,13,14,14],"right_children":[2,4,6,8,10,12,14,16,18,20,22,24,26,28,30,-1,-1,-1,-1,-1,-1,-1,-1,-1,-1,-1,-1,-1,-1,-1,-1],"split_conditions":[6.868053E-1,4.0879864E-1,8.74908E-1,1.8643714E-1,2.3413367E0,2.0839853E0,1.4667442E0,2.9079647E0,3.0063915E0,5.518467E-1,9E-1,1.1621834E0,1E-1,9.8323184E-1,1E-45,-2.4514483E-2,4.433107E-2,-1.5215731E-2,2.373345E-2,-9.204549E-3,-4.2725476E-3,1.4071784E-2,5.281715E-2,3.7121675E-3,1.3534191E-2,-2.4930043E-3,5.281715E-2,2.0085216E-2,5.1955517E-2,5.281715E-2,2.23157E-2],"split_indices":[15,15,15,15,9,11,11,11,9,15,6,11,13,15,17,0,0,0,0,0,0,0,0,0,0,0,0,0,0,0,0],"split_type":[0,0,0,0,0,0,0,0,0,0,0,0,0,0,1,0,0,0,0,0,0,0,0,0,0,0,0,0,0,0,0],"sum_hessian":[5.8735426E4,3.3115586E4,2.561984E4,1.4246187E4,1.8869398E4,1.6240814E4,9.379025E3,4.2913843E3,9.954803E3,1.830288E4,5.6651654E2,1.5878383E4,3.6243155E2,8.642167E3,7.368586E2,4.2741206E3,1.7263567E1,9.911355E3,4.3447605E1,8.498999E3,9.803882E3,3.9813272E2,1.6838379E2,1.2163657E4,3.714726E3,2.8443192E1,3.3398834E2,7.878433E3,7.637335E2,5.0041156E2,2.36447E2],"tree_param":{"num_deleted":"0","num_feature":"21","num_nodes":"31","size_leaf_vector":"1"}},{"base_weights":[2.3600925E-3,-1.05096795E-1,2.3251219E-1,-2.2864926E-1,-3.9013688E-2,1.6905868E-1,4.5581266E-1,-3.1187844E-1,-1.9121861E-1,-5.1800575E-2,4.1460714E-1,1.4931579E-1,7E-1,3.937164E-1,7E-1,-2.3842892E-2,3.8430594E-2,-1.4713928E-2,3.4753885E-2,-7.074103E-3,6.6883344E-4,3.8048152E-2,-6.7758285E-3,8.777199E-3,1.9434785E-2,5.281715E-2,1.6327903E-2,2.4725989E-2,4.82255E-2,3.6774512E-2,5.281715E-2],"categories":[0,2,6],"categories_nodes":[12],"categories_segments":[0],"categories_sizes":[3],"default_left":[0,0,0,0,0,0,0,1,1,0,0,0,1,0,0,0,0,0,0,0,0,0,0,0,0,0,0,0,0,0,0],"id":4,"left_children":[1,3,5,7,9,11,13,15,17,19,21,23,25,27,29,-1,-1,-1,-1,-1,-1,-1,-1,-1,-1,-1,-1,-1,-1,-1,-1],"loss_changes":[1.4489313E3,3.2604376E2,2.637879E2,4.3021362E1,1.5109412E2,1.5770352E2,6.1384705E1,1.5468872E1,2.424649E1,6.444705E1,3.255146E1,4.9959717E1,2.9989136E1,5.236554E1,1.1401001E1,0E0,0E0,0E0,0E0,0E0,0E0,0E0,0E0,0E0,0E0,0E0,0E0,0E0,0E0,0E0,0E0],"parents":[2147483647,0,0,1,1,2,2,3,3,4,4,5,5,6,6,7,7,8,8,9,9,10,10,11,11,12,12,13,13,14,14],"right_children":[2,4,6,8,10,12,14,16,18,20,22,24,26,28,30,-1,-1,-1,-1,-1,-1,-1,-1,-1,-1,-1,-1,-1,-1,-1,-1],"split_conditions":[1.4305678E2,4.0879864E-1,3.8677075E2,1.9282016E-1,2.0839853E0,2.0839853E0,6.185421E2,2.9079647E0,3.0063915E0,6.4556766E-1,1.6142306E3,1.1621834E0,1E-45,1.1510556E0,7.2760403E-1,-2.3842892E-2,3.8430594E-2,-1.4713928E-2,3.4753885E-2,-7.074103E-3,6.6883344E-4,3.8048152E-2,-6.7758285E-3,8.777199E-3,1.9434785E-2,5.281715E-2,1.6327903E-2,2.4725989E-2,4.82255E-2,3.6774512E-2,5.281715E-2],"split_indices":[14,15,14,15,11,11,14,11,9,15,0,11,17,11,9,0,0,0,0,0,0,0,0,0,0,0,0,0,0,0,0],"split_type":[0,0,0,0,0,0,0,0,0,0,0,0,1,0,0,0,0,0,0,0,0,0,0,0,0,0,0,0,0,0,0],"sum_hessian":[5.8575523E4,3.9933707E4,1.8641814E4,1.3911075E4,2.6022633E4,1.4524363E4,4.117451E3,4.3027275E3,9.608348E3,2.531402E4,7.086125E2,1.4030268E4,4.9409543E2,3.2986562E3,8.187949E2,4.284681E3,1.8046097E1,9.556712E3,5.163589E1,1.4962937E4,1.0351084E4,6.0167114E2,1.069414E2,1.07623125E4,3.2679548E3,3.59744E2,1.3435144E2,2.6097366E3,6.8891956E2,3.0720065E2,5.1159427E2],"tree_param":{"num_deleted":"0","num_feature":"21","num_nodes":"31","size_leaf_vector":"1"}},{"base_weights":[6.4810214E-4,-1.0317259E-1,2.1825226E-1,-2.2820942E-1,-3.750778E-2,1.5650792E-1,4.2334944E-1,-3.8322583E-1,-2.0722377E-1,-4.626317E-2,5.6894124E-1,1.360925E-1,7E-1,3.6240223E-1,6.740372E-1,-2.9036898E-2,1.03841545E-2,-1.589649E-2,3.2697167E-2,-6.8052565E-3,3.3928904E-5,2.7632363E-2,5.281715E-2,7.946541E-3,1.913902E-2,5.281715E-2,9.6979E-3,2.3512749E-2,4.8679046E-2,5.281715E-2,2.7309377E-2],"categories":[],"categories_nodes":[],"categories_segments":[],"categories_sizes":[],"default_left":[0,0,0,0,1,0,1,1,1,0,0,0,0,0,0,0,0,0,0,0,0,0,0,0,0,0,0,0,0,0,0],"id":5,"left_children":[1,3,5,7,9,11,13,15,17,19,21,23,25,27,29,-1,-1,-1,-1,-1,-1,-1,-1,-1,-1,-1,-1,-1,-1,-1,-1],"loss_changes":[1.3231384E3,3.2549854E2,2.3919006E2,4.3966614E1,1.382196E2,1.7138873E2,6.546326E1,1.6538391E0,2.7161377E1,5.2612232E1,1.5014519E1,5.0726746E1,2.5877563E1,4.9571503E1,2.7542389E1,0E0,0E0,0E0,0E0,0E0,0E0,0E0,0E0,0E0,0E0,0E0,0E0,0E0,0E0,0E0,0E0],"parents":[2147483647,0,0,1,1,2,2,3,3,4,4,5,5,6,6,7,7,8,8,9,9,10,10,11,11,12,12,13,13,14,14],"right_children":[2,4,6,8,10,12,14,16,18,20,22,24,26,28,30,-1,-1,-1,-1,-1,-1,-1,-1,-1,-1,-1,-1,-1,-1,-1,-1],"split_conditions":[1.4305678E2,4.0879864E-1,3.8677075E2,9.519485E-2,2.2358897E0,2.0839853E0,1.1510556E0,2.9079647E0,2.9079647E0,1.6048355E1,2.9079647E0,1.1993718E0,1.7098613E3,9.892851E-1,1.3289368E3,-2.9036898E-2,1.03841545E-2,-1.589649E-2,3.2697167E-2,-6.8052565E-3,3.3928904E-5,2.7632363E-2,5.281715E-2,7.946541E-3,1.913902E-2,5.281715E-2,9.6979E-3,2.3512749E-2,4.8679046E-2,5.281715E-2,2.7309377E-2],"split_indices":[14,15,14,15,11,11,11,11,11,14,11,11,0,15,7,0,0,0,0,0,0,0,0,0,0,0,0,0,0,0,0],"split_type":[0,0,0,0,0,0,0,0,0,0,0,0,0,0,0,0,0,0,0,0,0,0,0,0,0,0,0,0,0,0,0],"sum_hessian":[5.8555992E4,3.9644312E4,1.8911682E4,1.3646068E4,2.5998244E4,1.4543291E4,4.3683896E3,1.615588E3,1.203048E4,2.5633336E4,3.6490845E2,1.4056506E4,4.8678555E2,3.5250503E3,8.433395E2,1.6120708E3,3.5172753E0,1.196964E4,6.0840755E1,1.3207656E4,1.242568E4,2.1088538E2,1.5402309E2,1.1148659E4,2.907846E3,4.0475012E2,8.203545E1,2.998317E3,5.2673346E2,5.7895917E2,2.6438028E2],"tree_param":{"num_deleted":"0","num_feature":"21","num_nodes":"31","size_leaf_vector":"1"}},{"base_weights":[-1.1933922E-3,-1.220054E-1,1.7110619E-1,-2.255251E-1,-5.8262013E-2,1.0143266E-1,3.5192874E-1,-3.8235545E-1,-2.047239E-1,-6.818577E-2,4.184885E-1,8.78586E-2,5.426902E-1,5.2252924E-1,2.6767147E-1,8.291398E-3,-2.901536E-2,-1.5722008E-2,2.7220739E-2,-6.5647606E-3,4.0595016E-5,3.6621924E-2,-1.1010251E-2,4.864215E-3,1.3749589E-2,1.2651851E-2,4.9817987E-2,2.500314E-2,4.8783783E-2,1.646688E-2,2.8589817E-2],"categories":[],"categories_nodes":[],"categories_segments":[],"categories_sizes":[],"default_left":[0,0,0,0,1,0,0,1,1,0,0,0,1,0,0,0,0,0,0,0,0,0,0,0,0,0,0,0,0,0,0],"id":6,"left_children":[1,3,5,7,9,11,13,15,17,19,21,23,25,27,29,-1,-1,-1,-1,-1,-1,-1,-1,-1,-1,-1,-1,-1,-1,-1,-1],"loss_changes":[1.2263048E3,2.2844086E2,3.057163E2,4.2609375E1,1.0159683E2,1.0476744E2,9.626697E1,1.8973236E0,2.4453033E1,2.7169739E1,1.6926315E1,3.7503403E1,2.2406067E1,5.157776E1,2.4451477E1,0E0,0E0,0E0,0E0,0E0,0E0,0E0,0E0,0E0,0E0,0E0,0E0,0E0,0E0,0E0,0E0],"parents":[2147483647,0,0,1,1,2,2,3,3,4,4,5,5,6,6,7,7,8,8,9,9,10,10,11,11,12,12,13,13,14,14],"right_children":[2,4,6,8,10,12,14,16,18,20,22,24,26,28,30,-1,-1,-1,-1,-1,-1,-1,-1,-1,-1,-1,-1,-1,-1,-1,-1],"split_conditions":[7.160827E-1,4.0549806E-1,3.2177258E2,9.519485E-2,2.0839853E0,2.0839853E0,1.1899888E3,1.9189471E-1,2.9079647E0,1.1733824E0,1.6029645E3,1.1993718E0,6.5918183E-1,8.10791E-1,9.6009386E-1,8.291398E-3,-2.901536E-2,-1.5722008E-2,2.7220739E-2,-6.5647606E-3,4.0595016E-5,3.6621924E-2,-1.1010251E-2,4.864215E-3,1.3749589E-2,1.2651851E-2,4.9817987E-2,2.500314E-2,4.8783783E-2,1.646688E-2,2.8589817E-2],"split_indices":[15,15,14,15,11,11,7,2,11,11,0,11,3,9,15,0,0,0,0,0,0,0,0,0,0,0,0,0,0,0,0],"split_type":[0,0,0,0,0,0,0,0,0,0,0,0,0,0,0,0,0,0,0,0,0,0,0,0,0,0,0,0,0,0,0],"sum_hessian":[5.8900855E4,3.4624605E4,2.4276246E4,1.3189912E4,2.1434693E4,1.7530297E4,6.745949E3,1.5332009E3,1.1656712E4,2.1002312E4,4.3238116E2,1.7013623E4,5.1667377E2,2.2206328E3,4.5253164E3,5.582653E0,1.5276183E3,1.1585581E4,7.113012E1,1.6486338E4,4.515976E3,3.8727893E2,4.5102203E1,1.3641585E4,3.3720386E3,1.2655016E2,3.9012357E2,8.818648E2,1.338768E3,3.1445166E3,1.3807999E3],"tree_param":{"num_deleted":"0","num_feature":"21","num_nodes":"31","size_leaf_vector":"1"}},{"base_weights":[3.1942647E-4,-1.483205E-1,1.2863393E-1,-2.3653227E-1,-9.061238E-2,5.916908E-2,2.7162504E-1,-2.852368E-2,-2.1598619E-1,-9.466706E-2,4.7393072E-1,3.9637644E-2,6.0816276E-1,4.4044444E-1,2.0976572E-1,-1.6513444E-2,1.536195E-2,-8.379182E-3,-1.9667854E-3,8.480913E-3,5.281715E-2,8.76151E-3,1.0979329E-3,5.281715E-2,1.7185902E-2,2.9034564E-2,5.281715E-2,1.4260962E-2,3.4906555E-2],"categories":[0,2,6],"categories_nodes":[12],"categories_segments":[0],"categories_sizes":[3],"default_left":[0,0,0,0,1,0,0,0,1,1,0,0,1,0,1,0,0,0,0,0,0,0,0,0,0,0,0,0,0],"id":7,"left_children":[1,3,5,7,9,11,13,-1,15,17,19,21,23,25,27,-1,-1,-1,-1,-1,-1,-1,-1,-1,-1,-1,-1,-1,-1],"loss_changes":[1.1198431E3,1.3835706E2,3.1291223E2,3.081018E1,3.7914154E1,2.2735455E2,1.0706354E2,0E0,1.157724E1,1.8351013E1,9.799656E0,3.930905E1,4.6463226E1,4.3559692E1,3.9145294E1,0E0,0E0,0E0,0E0,0E0,0E0,0E0,0E0,0E0,0E0,0E0,0E0,0E0,0E0],"parents":[2147483647,0,0,1,1,2,2,3,3,4,4,5,5,6,6,8,8,9,9,10,10,11,11,12,12,13,13,14,14],"right_children":[2,4,6,8,10,12,14,-1,16,18,20,22,24,26,28,-1,-1,-1,-1,-1,-1,-1,-1,-1,-1,-1,-1,-1,-1],"split_conditions":[2.4293589E1,-1.664166E2,2.6064062E2,-4.8987622E2,3.0063915E0,2.3413367E0,1.1899888E3,-2.852368E-2,2.6783476E0,1.3248652E0,-8.326822E1,1.4005222E3,1E-45,1.4568316E0,1.5790101E0,-1.6513444E-2,1.536195E-2,-8.379182E-3,-1.9667854E-3,8.480913E-3,5.281715E-2,8.76151E-3,1.0979329E-3,5.281715E-2,1.7185902E-2,2.9034564E-2,5.281715E-2,1.4260962E-2,3.4906555E-2],"split_indices":[14,14,14,14,9,9,7,0,9,1,14,7,17,9,9,0,0,0,0,0,0,0,0,0,0,0,0,0,0],"split_type":[0,0,0,0,0,0,0,0,0,0,0,0,1,0,0,0,0,0,0,0,0,0,0,0,0,0,0,0,0],"sum_hessian":[5.8703402E4,2.7197205E4,3.1506197E4,1.0749047E4,1.6448158E4,2.1210213E4,1.0295984E4,1.3505593E3,9.398487E3,1.6335484E4,1.1267279E2,2.0487334E4,7.228801E2,2.7518208E3,7.544163E3,9.337272E3,6.1215435E1,1.3183336E4,3.1521487E3,4.8230556E1,6.444224E1,5.055216E3,1.5432118E4,4.802824E2,2.4259769E2,2.3302432E3,4.2157767E2,6.980769E3,5.6339404E2],"tree_param":{"num_deleted":"0","num_feature":"21","num_nodes":"29","size_leaf_vector":"1"}},{"base_weights":[2.0792976E-3,-1.2010237E-1,1.4488608E-1,-2.4723288E-1,-7.363223E-2,8.740152E-2,3.0681825E-1,-3.7810087E-1,-2.199158E-1,-7.9995506E-2,6.693543E-1,7.48212E-2,5.9562874E-1,2.499931E-1,4.8883268E-1,-2.8698107E-2,5.6238472E-3,-1.6990095E-2,2.5326649E-2,-8.972056E-3,-2.5482571E-3,5.281715E-2,9.120928E-3,2.4588674E-3,9.76445E-3,4.863433E-2,-1.4734818E-2,1.550033E-2,3.3640616E-2,3.064977E-2,5.281715E-2],"categories":[],"categories_nodes":[],"categories_segments":[],"categories_sizes":[],"default_left":[0,0,0,0,1,1,1,0,1,0,0,0,0,0,0,0,0,0,0,0,0,0,0,0,0,0,0,0,0,0,0],"id":8,"left_children":[1,3,5,7,9,11,13,15,17,19,21,23,25,27,29,-1,-1,-1,-1,-1,-1,-1,-1,-1,-1,-1,-1,-1,-1,-1,-1],"loss_changes":[1.0270515E3,1.8730441E2,2.5248901E2,2.9883118E1,1.1016663E2,1.2786534E2,7.283728E1,1.638855E0,2.0979706E1,4.1430435E1,1.3790985E1,4.507218E1,1.9405792E1,4.6867096E1,4.0256104E1,0E0,0E0,0E0,0E0,0E0,0E0,0E0,0E0,0E0,0E0,0E0,0E0,0E0,0E0,0E0,0E0],"parents":[2147483647,0,0,1,1,2,2,3,3,4,4,5,5,6,6,7,7,8,8,9,9,10,10,11,11,12,12,13,13,14,14],"right_children":[2,4,6,8,10,12,14,16,18,20,22,24,26,28,30,-1,-1,-1,-1,-1,-1,-1,-1,-1,-1,-1,-1,-1,-1,-1,-1],"split_conditions":[6.8986195E-1,3.1644556E-1,3.2177258E2,9.519485E-2,2.9079647E0,2.0839853E0,1.1510556E0,2.9079647E0,2.4763823E0,5.486395E-1,1.425365E0,8.2049954E-1,1.707489E3,9.7895724E-1,9.708355E-1,-2.8698107E-2,5.6238472E-3,-1.6990095E-2,2.5326649E-2,-8.972056E-3,-2.5482571E-3,5.281715E-2,9.120928E-3,2.4588674E-3,9.76445E-3,4.863433E-2,-1.4734818E-2,1.550033E-2,3.3640616E-2,3.064977E-2,5.281715E-2],"split_indices":[15,15,14,15,11,11,11,11,11,15,1,15,0,15,15,0,0,0,0,0,0,0,0,0,0,0,0,0,0,0,0],"split_type":[0,0,0,0,0,0,0,0,0,0,0,0,0,0,0,0,0,0,0,0,0,0,0,0,0,0,0,0,0,0,0],"sum_hessian":[5.8851156E4,3.1716367E4,2.713479E4,8.483503E3,2.3232865E4,2.003215E4,7.102638E3,1.4526257E3,7.0308774E3,2.3040523E4,1.9234131E2,1.9554523E4,4.776266E2,5.4228765E3,1.6797617E3,1.4463516E3,6.274266E0,6.968247E3,6.2630108E1,1.2504532E4,1.053599E4,1.4808914E2,4.425217E1,1.1030068E4,8.524455E3,4.5077094E2,2.6855658E1,4.427042E3,9.958345E2,1.3632434E3,3.1651837E2],"tree_param":{"num_deleted":"0","num_feature":"21","num_nodes":"31","size_leaf_vector":"1"}},{"base_weights":[1.1394751E-3,-1.2165511E-1,1.3995542E-1,-2.2597449E-1,-6.966785E-2,8.522242E-2,2.9221967E-1,-2.7478999E-2,-2.0321026E-1,-8.264734E-2,2.1416736E-1,7.0195824E-2,3.9535022E-1,4.3463305E-1,2.1959415E-1,-1.5548617E-2,3.2290597E-2,-8.663794E-3,-3.583768E-3,4.1425945E-3,3.0519158E-2,1.6436606E-3,9.5639145E-3,4.3648586E-2,1.0450442E-2,2.8943893E-2,5.281715E-2,8.060307E-3,1.9539196E-2],"categories":[0,1,2,6],"categories_nodes":[12],"categories_segments":[0],"categories_sizes":[4],"default_left":[0,0,0,0,0,0,0,0,1,0,0,0,1,0,0,0,0,0,0,0,0,0,0,0,0,0,0,0,0],"id":9,"left_children":[1,3,5,7,9,11,13,-1,15,17,19,21,23,25,27,-1,-1,-1,-1,-1,-1,-1,-1,-1,-1,-1,-1,-1,-1],"loss_changes":[9.995332E2,1.6865466E2,2.292378E2,3.2138367E1,7.6631035E1,9.4230606E1,7.47135E1,0E0,1.654953E1,2.2442337E1,2.7457413E1,5.2896103E1,4.352307E1,4.218509E1,2.128363E1,0E0,0E0,0E0,0E0,0E0,0E0,0E0,0E0,0E0,0E0,0E0,0E0,0E0,0E0],"parents":[2147483647,0,0,1,1,2,2,3,3,4,4,5,5,6,6,8,8,9,9,10,10,11,11,12,12,13,13,14,14],"right_children":[2,4,6,8,10,12,14,-1,16,18,20,22,24,26,28,-1,-1,-1,-1,-1,-1,-1,-1,-1,-1,-1,-1,-1,-1],"split_conditions":[6.868053E-1,-1.664166E2,3.2177258E2,9.519485E-2,2.087688E0,2.0316064E0,1.1899888E3,-2.7478999E-2,3.0063915E0,5.518467E-1,-4.6790013E0,8.152461E-1,1E-45,1.5487854E0,1.227E1,-1.5548617E-2,3.2290597E-2,-8.663794E-3,-3.583768E-3,4.1425945E-3,3.0519158E-2,1.6436606E-3,9.5639145E-3,4.3648586E-2,1.0450442E-2,2.8943893E-2,5.281715E-2,8.060307E-3,1.9539196E-2],"split_indices":[15,14,14,15,9,9,7,0,9,15,14,15,17,9,20,0,0,0,0,0,0,0,0,0,0,0,0,0,0],"split_type":[0,0,0,0,0,0,0,0,0,0,0,0,1,0,0,0,0,0,0,0,0,0,0,0,0,0,0,0,0],"sum_hessian":[5.8626766E4,3.1108938E4,2.7517828E4,1.0340544E4,2.0768393E4,2.0248139E4,7.2696885E3,1.4504358E3,8.890108E3,1.9863996E4,9.0439734E2,1.9318936E4,9.292039E2,2.4457964E3,4.823892E3,8.853758E3,3.6350727E1,1.0364167E4,9.499829E3,4.9628094E2,4.081164E2,1.0413192E4,8.905742E3,5.3835126E2,3.9085266E2,2.1675583E3,2.7823804E2,1.2535455E3,3.5703467E3],"tree_param":{"num_deleted":"0","num_feature":"21","num_nodes":"29","size_leaf_vector":"1"}},{"base_weights":[1.7976536E-3,-1.3342682E-1,1.2112749E-1,-2.4615712E-1,-9.4691694E-2,7.851348E-2,2.8989634E-1,-2.5101054E-1,4.062285E-1,-9.927497E-2,5.2151096E-1,5.8925223E-2,4.5289513E-1,2.5830445E-1,6.209447E-1,-2.7890306E-2,-1.7028196E-2,-1.0521366E-2,3.885206E-2,-1.0417416E-2,-5.0882264E-3,1.2824567E-2,5.281715E-2,5.1695947E-4,9.07327E-3,4.181663E-2,5.2289185E-3,1.654485E-2,3.3523936E-2,5.281715E-2,2.2518693E-2],"categories":[],"categories_nodes":[],"categories_segments":[],"categories_sizes":[],"default_left":[0,0,0,1,1,0,1,0,0,0,0,0,0,0,0,0,0,0,0,0,0,0,0,0,0,0,0,0,0,0,0],"id":10,"left_children":[1,3,5,7,9,11,13,15,17,19,21,23,25,27,29,-1,-1,-1,-1,-1,-1,-1,-1,-1,-1,-1,-1,-1,-1,-1,-1],"loss_changes":[9.4631085E2,1.19914825E2,2.2392447E2,2.2819794E1,5.8101456E1,1.823119E2,6.476483E1,2.0504272E1,3.6055737E0,2.5048492E1,1.4661316E1,7.552002E1,4.7828598E1,4.113272E1,2.627269E1,0E0,0E0,0E0,0E0,0E0,0E0,0E0,0E0,0E0,0E0,0E0,0E0,0E0,0E0,0E0,0E0],"parents":[2147483647,0,0,1,1,2,2,3,3,4,4,5,5,6,6,7,7,8,8,9,9,10,10,11,11,12,12,13,13,14,14],"right_children":[2,4,6,8,10,12,14,16,18,20,22,24,26,28,30,-1,-1,-1,-1,-1,-1,-1,-1,-1,-1,-1,-1,-1,-1,-1,-1],"split_conditions":[3.5690636E1,-2.3002846E2,3.4650516E2,2.2358897E0,2.9079647E0,2.0316064E0,1.563566E0,-4.8987622E2,2.152986E0,-8.326822E1,1.3224482E3,1.7308061E2,1.504583E3,6.185421E2,1.7476559E3,-2.7890306E-2,-1.7028196E-2,-1.0521366E-2,3.885206E-2,-1.0417416E-2,-5.0882264E-3,1.2824567E-2,5.281715E-2,5.1695947E-4,9.07327E-3,4.181663E-2,5.2289185E-3,1.654485E-2,3.3523936E-2,5.281715E-2,2.2518693E-2],"split_indices":[14,14,14,11,11,9,9,14,9,14,0,14,7,14,0,0,0,0,0,0,0,0,0,0,0,0,0,0,0,0,0],"split_type":[0,0,0,0,0,0,0,0,0,0,0,0,0,0,0,0,0,0,0,0,0,0,0,0,0,0,0,0,0,0,0],"sum_hessian":[5.8633605E4,2.7485922E4,3.1147684E4,7.021478E3,2.0464443E4,2.4874963E4,6.2727207E3,6.9730415E3,4.843657E1,2.031801E4,1.4643486E2,2.3644324E4,1.2306398E3,5.7353486E3,5.373717E2,1.2136218E3,5.7594194E3,7.7825356E0,4.0654034E1,9.150863E3,1.11671455E4,7.358741E1,7.284745E1,1.2790012E4,1.0854312E4,9.7155444E2,2.5908527E2,4.7506226E3,9.8472644E2,3.4199368E2,1.95378E2],"tree_param":{"num_deleted":"0","num_feature":"21","num_nodes":"31","size_leaf_vector":"1"}},{"base_weights":[-1.9126652E-4,-1.1332984E-1,1.2504427E-1,-2.618421E-1,-8.138368E-2,4.778453E-2,2.0297547E-1,-3.7122458E-1,-2.319427E-1,-9.1293946E-2,2.3276718E-1,2.9159425E-2,3.4566614E-1,1.9141361E-1,6.6731423E-1,-2.879689E-2,-9.817778E-3,-1.7827203E-2,1.829645E-2,-9.304535E-3,-3.68061E-3,5.281715E-2,1.2378317E-2,1.0136296E-3,1.14774825E-2,5.281715E-2,1.8624846E-2,1.2117418E-2,2.8330838E-2,-4.9136616E-3,5.281715E-2],"categories":[],"categories_nodes":[],"categories_segments":[],"categories_sizes":[],"default_left":[0,0,0,0,0,1,1,0,1,0,0,0,0,0,1,0,0,0,0,0,0,0,0,0,0,0,0,0,0,0,0],"id":11,"left_children":[1,3,5,7,9,11,13,15,17,19,21,23,25,27,29,-1,-1,-1,-1,-1,-1,-1,-1,-1,-1,-1,-1,-1,-1,-1,-1],"loss_changes":[8.322386E2,1.4628699E2,1.6779752E2,1.7376495E1,7.920943E1,7.765339E1,7.378607E1,2.6462708E0,9.151886E0,3.3498215E1,3.0701061E1,2.5488869E1,3.1064049E1,7.651166E1,1.8307983E1,0E0,0E0,0E0,0E0,0E0,0E0,0E0,0E0,0E0,0E0,0E0,0E0,0E0,0E0,0E0,0E0],"parents":[2147483647,0,0,1,1,2,2,3,3,4,4,5,5,6,6,7,7,8,8,9,9,10,10,11,11,12,12,13,13,14,14],"right_children":[2,4,6,8,10,12,14,16,18,20,22,24,26,28,30,-1,-1,-1,-1,-1,-1,-1,-1,-1,-1,-1,-1,-1,-1,-1,-1],"split_conditions":[6.868053E-1,2.4388292E-1,8.4403235E-1,8.481944E-2,2.3413367E0,1.6834663E0,2.0839853E0,1.5236215E3,2.4763823E0,5.382896E-1,1.9086818E-1,1E0,5.330736E-1,9.708355E-1,3.5693464E-1,-2.879689E-2,-9.817778E-3,-1.7827203E-2,1.829645E-2,-9.304535E-3,-3.68061E-3,5.281715E-2,1.2378317E-2,1.0136296E-3,1.14774825E-2,5.281715E-2,1.8624846E-2,1.2117418E-2,2.8330838E-2,-4.9136616E-3,5.281715E-2],"split_indices":[15,15,15,15,9,11,11,0,11,15,10,13,10,15,1,0,0,0,0,0,0,0,0,0,0,0,0,0,0,0,0],"split_type":[0,0,0,0,0,0,0,0,0,0,0,0,0,0,0,0,0,0,0,0,0,0,0,0,0,0,0,0,0,0,0],"sum_hessian":[5.8725523E4,3.0853137E4,2.7872389E4,5.4547417E3,2.5398395E4,1.400102E4,1.3871368E4,1.1572614E3,4.2974805E3,2.462552E4,7.7287573E2,1.3182894E4,8.181259E2,1.354207E4,3.2929797E2,1.1061589E3,5.1102333E1,4.261429E3,3.6051243E1,1.403995E4,1.0585569E4,7.039934E1,7.024764E2,1.1693529E4,1.489364E3,1.5549033E2,6.626356E2,1.1608834E4,1.9332363E3,3.0973738E1,2.9832422E2],"tree_param":{"num_deleted":"0","num_feature":"21","num_nodes":"31","size_leaf_vector":"1"}},{"base_weights":[-1.8270822E-3,-1.056553E-1,1.2905376E-1,-1.9485363E-1,-5.178462E-2,9.351337E-2,3.2716474E-1,-3.5893652E-1,-1.7521852E-1,-6.2219467E-2,2.2674212E-1,6.979389E-2,2.6952884E-1,2.7234864E-1,4.7466427E-1,-2.776012E-2,-8.367315E-3,-1.3480608E-2,2.42373E-2,-4.8778197E-3,3.2019295E-2,2.4472347E-2,-1.225643E-2,2.0343694E-3,8.868506E-3,2.7796201E-2,8.728499E-3,1.8457146E-2,3.871108E-2,4.179998E-2,1.9527696E-2],"categories":[0,1,2,6],"categories_nodes":[12],"categories_segments":[0],"categories_sizes":[4],"default_left":[0,0,0,0,0,0,1,0,1,1,0,0,1,0,0,0,0,0,0,0,0,0,0,0,0,0,0,0,0,0,0],"id":12,"left_children":[1,3,5,7,9,11,13,15,17,19,21,23,25,27,29,-1,-1,-1,-1,-1,-1,-1,-1,-1,-1,-1,-1,-1,-1,-1,-1],"loss_changes":[7.9864966E2,1.5742145E2,1.82884E2,3.9398834E1,5.948568E1,9.196123E1,3.1233795E1,2.6958618E0,1.9177856E1,2.3430916E1,2.8376102E1,3.973671E1,3.9562607E1,1.8619675E1,1.740561E1,0E0,0E0,0E0,0E0,0E0,0E0,0E0,0E0,0E0,0E0,0E0,0E0,0E0,0E0,0E0,0E0],"parents":[2147483647,0,0,1,1,2,2,3,3,4,4,5,5,6,6,7,7,8,8,9,9,10,10,11,11,12,12,13,13,14,14],"right_children":[2,4,6,8,10,12,14,16,18,20,22,24,26,28,30,-1,-1,-1,-1,-1,-1,-1,-1,-1,-1,-1,-1,-1,-1,-1,-1],"split_conditions":[7.160827E-1,4.0879864E-1,4.254035E2,9.519485E-2,2.0839853E0,1.4380349E0,1.0782865E0,1.539634E3,2.9079647E0,2.6914032E0,1.5069716E3,8.4403235E-1,1E-45,9.9359447E-1,1.3176755E3,-2.776012E-2,-8.367315E-3,-1.3480608E-2,2.42373E-2,-4.8778197E-3,3.2019295E-2,2.4472347E-2,-1.225643E-2,2.0343694E-3,8.868506E-3,2.7796201E-2,8.728499E-3,1.8457146E-2,3.871108E-2,4.179998E-2,1.9527696E-2],"split_indices":[15,15,14,15,11,11,11,0,11,1,7,15,17,15,7,0,0,0,0,0,0,0,0,0,0,0,0,0,0,0,0],"split_type":[0,0,0,0,0,0,0,0,0,0,0,0,1,0,0,0,0,0,0,0,0,0,0,0,0,0,0,0,0,0,0],"sum_hessian":[5.8760035E4,3.2766967E4,2.5993068E4,1.2332444E4,2.0434521E4,2.2046273E4,3.9467932E3,1.3077227E3,1.1024722E4,1.9700785E4,7.337376E2,1.9435053E4,2.611221E3,2.8890356E3,1.0577576E3,1.259446E3,4.827671E1,1.0952328E4,7.239391E1,1.9607807E4,9.297817E1,5.8737103E2,1.4636655E2,1.0249023E4,9.186029E3,1.5849467E3,1.0262743E3,2.6006814E3,2.8835416E2,7.6710913E2,2.9064847E2],"tree_param":{"num_deleted":"0","num_feature":"21","num_nodes":"31","size_leaf_vector":"1"}},{"base_weights":[4.3932453E-4,-1.1087598E-1,1.0915669E-1,-2.0195146E-1,-5.8999304E-2,7.001627E-2,2.3627542E-1,-3.5880256E-1,-1.8021755E-1,-7.082047E-2,2.7464905E-1,5.8066323E-2,4.6701932E-1,1.8702501E-1,3.4711823E-1,-2.7823273E-2,-1.18530365E-2,-1.39514385E-2,1.2890698E-2,-1.0617905E-2,-4.399159E-3,1.1541247E-2,4.541366E-2,1.760073E-3,8.205308E-3,4.609836E-2,1.7467149E-2,1.2640377E-2,2.9236564E-2,2.0262405E-2,4.507697E-2],"categories":[0,2,3,5,6],"categories_nodes":[12],"categories_segments":[0],"categories_sizes":[5],"default_left":[0,0,0,0,0,1,0,0,1,0,1,0,1,1,0,0,0,0,0,0,0,0,0,0,0,0,0,0,0,0,0],"id":13,"left_children":[1,3,5,7,9,11,13,15,17,19,21,23,25,27,29,-1,-1,-1,-1,-1,-1,-1,-1,-1,-1,-1,-1,-1,-1,-1,-1],"loss_changes":[7.148184E2,1.3782181E2,1.4858475E2,3.5735046E1,7.3475334E1,1.0827717E2,3.8027435E1,2.250412E0,1.5489807E1,1.5676964E1,2.4876892E1,3.9060753E1,2.1822418E1,1.8715485E1,4.1523254E1,0E0,0E0,0E0,0E0,0E0,0E0,0E0,0E0,0E0,0E0,0E0,0E0,0E0,0E0,0E0,0E0],"parents":[2147483647,0,0,1,1,2,2,3,3,4,4,5,5,6,6,7,7,8,8,9,9,10,10,11,11,12,12,13,13,14,14],"right_children":[2,4,6,8,10,12,14,16,18,20,22,24,26,28,30,-1,-1,-1,-1,-1,-1,-1,-1,-1,-1,-1,-1,-1,-1,-1,-1],"split_conditions":[6.7229015E-1,3.7449747E-1,9.191599E-1,9.519485E-2,2.3413367E0,2.0839853E0,9.708355E-1,1.5236215E3,2.2358897E0,-8.7E-1,1E0,9.713907E-1,1E-45,1.5333894E0,1.0876033E0,-2.7823273E-2,-1.18530365E-2,-1.39514385E-2,1.2890698E-2,-1.0617905E-2,-4.399159E-3,1.1541247E-2,4.541366E-2,1.760073E-3,8.205308E-3,4.609836E-2,1.7467149E-2,1.2640377E-2,2.9236564E-2,2.0262405E-2,4.507697E-2],"split_indices":[15,15,15,15,9,11,15,0,11,20,6,11,17,11,11,0,0,0,0,0,0,0,0,0,0,0,0,0,0,0,0],"split_type":[0,0,0,0,0,0,0,0,0,0,0,0,1,0,0,0,0,0,0,0,0,0,0,0,0,0,0,0,0,0,0],"sum_hessian":[5.9055418E4,2.917902E4,2.9876398E4,1.0583063E4,1.8595955E4,2.284958E4,7.0268184E3,1.2774144E3,9.305649E3,1.7963896E4,6.3205786E2,2.2188117E4,6.614636E2,4.875518E3,2.1513003E3,1.2129711E3,6.444339E1,9.185719E3,1.19930305E2,2.7195457E3,1.5244352E4,4.6670386E2,1.6535397E2,1.3169285E4,9.018832E3,4.0502832E2,2.5643527E2,4.45266E3,4.2285785E2,1.6461273E3,5.051729E2],"tree_param":{"num_deleted":"0","num_feature":"21","num_nodes":"31","size_leaf_vector":"1"}},{"base_weights":[-1.1854798E-3,-1.0918025E-1,1.0669833E-1,-2.4350415E-1,-7.449913E-2,7.19471E-2,2.3717305E-1,-3.5236064E-1,-2.1405426E-1,-8.5177995E-2,1.5902923E-1,6.247961E-2,4.0510306E-1,1.9284852E-1,3.5205388E-1,5.858485E-3,-2.6816292E-2,-1.6987901E-2,-5.315272E-3,-1.04400525E-2,-5.071833E-3,2.5428152E-3,4.8805762E-2,1.8598501E-3,7.5894757E-3,3.2563213E-2,-2.1383587E-2,1.2344674E-2,2.7186982E-2,2.1204852E-2,4.1431792E-2],"categories":[],"categories_nodes":[],"categories_segments":[],"categories_sizes":[],"default_left":[0,0,0,0,0,1,0,1,0,0,0,0,0,0,0,0,0,0,0,0,0,0,0,0,0,0,0,0,0,0,0],"id":14,"left_children":[1,3,5,7,9,11,13,15,17,19,21,23,25,27,29,-1,-1,-1,-1,-1,-1,-1,-1,-1,-1,-1,-1,-1,-1,-1,-1],"loss_changes":[6.847673E2,1.3672708E2,1.3321814E2,1.8892853E1,5.8312683E1,7.311698E1,3.1097229E1,1.821579E0,7.4869385E0,2.1282745E1,6.2428074E1,3.25523E1,1.2359871E1,2.1574142E1,2.3127792E1,0E0,0E0,0E0,0E0,0E0,0E0,0E0,0E0,0E0,0E0,0E0,0E0,0E0,0E0,0E0,0E0],"parents":[2147483647,0,0,1,1,2,2,3,3,4,4,5,5,6,6,7,7,8,8,9,9,10,10,11,11,12,12,13,13,14,14],"right_children":[2,4,6,8,10,12,14,16,18,20,22,24,26,28,30,-1,-1,-1,-1,-1,-1,-1,-1,-1,-1,-1,-1,-1,-1,-1,-1],"split_conditions":[6.7772114E-1,2.6660734E-1,3.610438E2,9.519485E-2,2.087688E0,2.0839853E0,1.0826902E0,2.3507603E-1,1.779988E0,4.0549806E-1,4.0302166E1,8.1181604E-1,1.7984825E3,6.898173E2,9.708355E-1,5.858485E-3,-2.6816292E-2,-1.6987901E-2,-5.315272E-3,-1.04400525E-2,-5.071833E-3,2.5428152E-3,4.8805762E-2,1.8598501E-3,7.5894757E-3,3.2563213E-2,-2.1383587E-2,1.2344674E-2,2.7186982E-2,2.1204852E-2,4.1431792E-2],"split_indices":[15,15,14,15,9,11,11,10,9,15,14,15,0,14,15,0,0,0,0,0,0,0,0,0,0,0,0,0,0,0,0],"split_type":[0,0,0,0,0,0,0,0,0,0,0,0,0,0,0,0,0,0,0,0,0,0,0,0,0,0,0,0,0,0,0],"sum_hessian":[5.876265E4,2.936619E4,2.939646E4,6.0192593E3,2.334693E4,2.3220484E4,6.175976E3,1.2686433E3,4.750616E3,2.2329395E4,1.01753546E3,2.2585303E4,6.351812E2,4.467321E3,1.7086555E3,7.95148E0,1.2606918E3,4.407082E3,3.4353403E2,5.6271865E3,1.6702207E4,8.142996E2,2.0323587E2,1.1338204E4,1.1247099E4,6.1367755E2,2.1503632E1,3.812653E3,6.5466766E2,1.265953E3,4.427025E2],"tree_param":{"num_deleted":"0","num_feature":"21","num_nodes":"31","size_leaf_vector":"1"}},{"base_weights":[-6.898478E-4,-1.2516402E-1,8.495425E-2,-2.5590634E-1,-9.703029E-2,1.8358135E-1,3.2970604E-2,-2.621259E-1,3.234166E-1,-1.0024521E-1,3.48971E-1,1.4468808E-1,3.550455E-1,-9.625441E-4,9.5583655E-2,-2.648984E-2,-1.7451989E-2,3.426937E-2,-8.889489E-3,-9.299272E-3,-4.685147E-3,9.339507E-3,4.822205E-2,6.2134317E-3,1.6356166E-2,5.281715E-2,2.4390185E-2,-6.0699426E-4,2.8850775E-2,5.8772257E-3,1.8954026E-2],"categories":[],"categories_nodes":[],"categories_segments":[],"categories_sizes":[],"default_left":[0,0,0,1,1,1,0,0,0,0,0,0,0,1,1,0,0,0,0,0,0,0,0,0,0,0,0,0,0,0,0],"id":15,"left_children":[1,3,5,7,9,11,13,15,17,19,21,23,25,27,29,-1,-1,-1,-1,-1,-1,-1,-1,-1,-1,-1,-1,-1,-1,-1,-1],"loss_changes":[6.232437E2,8.751248E1,1.7753223E2,1.5665741E1,2.8326004E1,7.9422516E1,4.8201584E1,1.0994385E1,3.0274873E0,1.7053482E1,8.812674E0,4.3723724E1,2.6614075E1,3.9974503E1,2.1842918E1,0E0,0E0,0E0,0E0,0E0,0E0,0E0,0E0,0E0,0E0,0E0,0E0,0E0,0E0,0E0,0E0],"parents":[2147483647,0,0,1,1,2,2,3,3,4,4,5,5,6,6,7,7,8,8,9,9,10,10,11,11,12,12,13,13,14,14],"right_children":[2,4,6,8,10,12,14,16,18,20,22,24,26,28,30,-1,-1,-1,-1,-1,-1,-1,-1,-1,-1,-1,-1,-1,-1,-1,-1],"split_conditions":[1.2071773E1,-2.9211743E2,1.3887316E3,2.4763823E0,2.9079647E0,1.4568316E0,2.0500166E2,-4.8987622E2,-3.1805432E2,-6.780841E1,1.3466302E3,3.1711258E2,1.9086818E-1,1.7978522E0,1.25E1,-2.648984E-2,-1.7451989E-2,3.426937E-2,-8.889489E-3,-9.299272E-3,-4.685147E-3,9.339507E-3,4.822205E-2,6.2134317E-3,1.6356166E-2,5.281715E-2,2.4390185E-2,-6.0699426E-4,2.8850775E-2,5.8772257E-3,1.8954026E-2],"split_indices":[14,14,7,11,11,9,14,14,14,14,0,14,10,3,20,0,0,0,0,0,0,0,0,0,0,0,0,0,0,0,0],"split_type":[0,0,0,0,0,0,0,0,0,0,0,0,0,0,0,0,0,0,0,0,0,0,0,0,0,0,0,0,0,0,0],"sum_hessian":[5.8451844E4,2.3823889E4,3.4627953E4,4.2107144E3,1.9613174E4,1.1947033E4,2.268092E4,4.169017E3,4.169761E1,1.9477111E4,1.360634E2,9.746531E3,2.200502E3,1.4712813E4,7.968107E3,1.0581011E3,3.1109158E3,3.2038517E1,9.65909E0,1.2143607E4,7.3335034E3,8.109441E1,5.4968987E1,5.232966E3,4.5135654E3,1.4985402E2,2.050648E3,1.4451295E4,2.615188E2,7.1622695E3,8.058376E2],"tree_param":{"num_deleted":"0","num_feature":"21","num_nodes":"31","size_leaf_vector":"1"}},{"base_weights":[1.6995679E-3,-9.013766E-2,1.165937E-1,-1.9128215E-1,-5.036622E-2,9.287332E-2,2.765083E-1,-3.4231368E-1,-1.7178941E-1,-6.0500585E-2,2.2280586E-1,6.911727E-2,2.3654816E-1,2.5893813E-1,6.111506E-1,-2.723242E-2,-1.515654E-2,-1.3190054E-2,1.9508604E-2,-6.8729175E-3,-1.765208E-3,5.281715E-2,1.3090824E-2,2.1880146E-3,7.868528E-3,3.0107008E-2,1.0878007E-2,1.3303766E-2,2.2363815E-2,1.3208784E-2,5.281715E-2],"categories":[0,1,2,3,5,6],"categories_nodes":[12],"categories_segments":[0],"categories_sizes":[6],"default_left":[0,0,0,0,0,0,0,0,1,0,0,0,1,0,1,0,0,0,0,0,0,0,0,0,0,0,0,0,0,0,0],"id":16,"left_children":[1,3,5,7,9,11,13,15,17,19,21,23,25,27,29,-1,-1,-1,-1,-1,-1,-1,-1,-1,-1,-1,-1,-1,-1,-1,-1],"loss_changes":[6.205461E2,1.3142722E2,9.895764E1,2.6823639E1,6.504416E1,7.759006E1,1.894107E1,2.3542175E0,1.089035E1,2.5676094E1,2.2094002E1,2.7548294E1,4.8110382E1,9.651886E0,5.7202682E0,0E0,0E0,0E0,0E0,0E0,0E0,0E0,0E0,0E0,0E0,0E0,0E0,0E0,0E0,0E0,0E0],"parents":[2147483647,0,0,1,1,2,2,3,3,4,4,5,5,6,6,7,7,8,8,9,9,10,10,11,11,12,12,13,13,14,14],"right_children":[2,4,6,8,10,12,14,16,18,20,22,24,26,28,30,-1,-1,-1,-1,-1,-1,-1,-1,-1,-1,-1,-1,-1,-1,-1,-1],"split_conditions":[9.9359085E1,-1.664166E2,4.6470688E2,-4.8987622E2,2.3413367E0,1.5083946E0,1.6841003E0,1.3843871E3,3.0063915E0,-4.6790013E0,1.9086818E-1,2.1457166E2,1E-45,-2.6738244E-1,5.1685166E-1,-2.723242E-2,-1.515654E-2,-1.3190054E-2,1.9508604E-2,-6.8729175E-3,-1.765208E-3,5.281715E-2,1.3090824E-2,2.1880146E-3,7.868528E-3,3.0107008E-2,1.0878007E-2,1.3303766E-2,2.2363815E-2,1.3208784E-2,5.281715E-2],"split_indices":[14,14,14,14,9,9,9,0,9,14,10,14,17,5,1,0,0,0,0,0,0,0,0,0,0,0,0,0,0,0,0],"split_type":[0,0,0,0,0,0,0,0,0,0,0,0,1,0,0,0,0,0,0,0,0,0,0,0,0,0,0,0,0,0,0],"sum_hessian":[5.879968E4,3.2679496E4,2.6120184E4,9.217295E3,2.3462201E4,2.2753896E4,3.3662861E3,1.0430533E3,8.1742417E3,2.2627113E4,8.3508746E2,1.9532549E4,3.2213477E3,3.2077793E3,1.5850682E2,9.141342E2,1.2891911E2,8.1205366E3,5.3705013E1,1.2398398E4,1.0228715E4,6.0509827E1,7.7457764E2,9.12859E3,1.0403959E4,1.1609733E3,2.0603743E3,1.01056714E3,2.1972122E3,2.9809542E1,1.2869728E2],"tree_param":{"num_deleted":"0","num_feature":"21","num_nodes":"31","size_leaf_vector":"1"}},{"base_weights":[2.5307264E-3,-1.21895656E-1,8.237193E-2,-2.433726E-1,-9.19514E-2,3.5378974E-2,1.6869089E-1,-2.5766097E-2,-2.1037698E-1,-9.48764E-2,3.0494916E-1,1.165485E-2,1.9106843E-1,2.4142703E-1,1.1549033E-1,-1.6638655E-2,7.7486164E-3,-1.0345138E-2,-5.327671E-3,1.2727392E-2,5.281715E-2,-1.8943946E-3,2.971183E-3,1.9284038E-2,-1.2233069E-5,1.1416132E-2,2.392261E-2,7.3342337E-3,1.6975833E-2],"categories":[],"categories_nodes":[],"categories_segments":[],"categories_sizes":[],"default_left":[0,0,0,0,1,0,0,0,1,0,0,0,0,1,0,0,0,0,0,0,0,0,0,0,0,0,0,0,0],"id":17,"left_children":[1,3,5,7,9,11,13,-1,15,17,19,21,23,25,27,-1,-1,-1,-1,-1,-1,-1,-1,-1,-1,-1,-1,-1,-1],"loss_changes":[5.8707715E2,8.389661E1,1.4598468E2,1.4374817E1,2.1685104E1,8.610391E1,4.8940186E1,0E0,1.1015747E1,1.8811111E1,9.739133E0,2.0631071E1,3.8027245E1,3.6228058E1,1.4572678E1,0E0,0E0,0E0,0E0,0E0,0E0,0E0,0E0,0E0,0E0,0E0,0E0,0E0,0E0],"parents":[2147483647,0,0,1,1,2,2,3,3,4,4,5,5,6,6,8,8,9,9,10,10,11,11,12,12,13,13,14,14],"right_children":[2,4,6,8,10,12,14,-1,16,18,20,22,24,26,28,-1,-1,-1,-1,-1,-1,-1,-1,-1,-1,-1,-1,-1,-1],"split_conditions":[7.8407464E0,2.3223826E-1,8.7013525E-1,9.519485E-2,2.9079647E0,1.4380349E0,1.3126147E3,-2.5766097E-2,1.8561867E0,4.0549806E-1,5.241985E-1,7.3095316E-1,1.5332511E3,8.904013E-1,9.6009386E-1,-1.6638655E-2,7.7486164E-3,-1.0345138E-2,-5.327671E-3,1.2727392E-2,5.281715E-2,-1.8943946E-3,2.971183E-3,1.9284038E-2,-1.2233069E-5,1.1416132E-2,2.392261E-2,7.3342337E-3,1.6975833E-2],"split_indices":[14,15,15,15,11,11,7,0,11,15,15,15,7,11,15,0,0,0,0,0,0,0,0,0,0,0,0,0,0],"split_type":[0,0,0,0,0,0,0,0,0,0,0,0,0,0,0,0,0,0,0,0,0,0,0,0,0,0,0,0,0],"sum_hessian":[5.908443E4,2.3092928E4,3.59915E4,4.5588564E3,1.8534072E4,2.3309465E4,1.2682036E4,1.1341626E3,3.424694E3,1.8402705E4,1.3136722E2,2.0232434E4,3.0770312E3,5.3490303E3,7.333006E3,3.3188572E3,1.0583694E2,6.70629E3,1.1696414E4,1.1432603E2,1.7041183E1,8.69847E3,1.1533964E4,2.2994668E3,7.775642E2,2.448198E3,2.9008323E3,6.292578E3,1.0404281E3],"tree_param":{"num_deleted":"0","num_feature":"21","num_nodes":"29","size_leaf_vector":"1"}},{"base_weights":[-2.673275E-3,7.422834E-2,-6.229882E-2,-3.0898105E-3,1.3230297E-1,-1.23092376E-1,-2.8566548E-3,-8.615505E-2,5.359863E-2,1.1826163E-1,5.9374577E-1,-2.63225E-1,-1.0260211E-1,-1.0003229E-1,1.8179888E-2,-1.2730383E-2,-3.0056464E-3,1.0711287E-2,-9.1269193E-4,2.1851256E-2,6.739673E-3,3.1183645E-2,5.281715E-2,-2.7080558E-2,-1.5917562E-2,-5.1313187E-3,-1.1472533E-2,-1.8006992E-3,-8.545344E-3,-1.5074223E-4,6.2004547E-3],"categories":[],"categories_nodes":[],"categories_segments":[],"categories_sizes":[],"default_left":[0,0,0,0,1,0,0,0,0,0,0,0,0,0,1,0,0,0,0,0,0,0,0,0,0,0,0,0,0,0,0],"id":18,"left_children":[1,3,5,7,9,11,13,15,17,19,21,23,25,27,29,-1,-1,-1,-1,-1,-1,-1,-1,-1,-1,-1,-1,-1,-1,-1,-1],"loss_changes":[2.708182E2,1.1582477E2,1.2021808E2,5.2150574E1,9.5049835E1,4.70737E1,3.4407776E1,1.7142803E1,3.822206E1,7.077179E1,1.5835831E1,1.0050949E1,2.4503113E1,3.0012264E0,1.786858E1,0E0,0E0,0E0,0E0,0E0,0E0,0E0,0E0,0E0,0E0,0E0,0E0,0E0,0E0,0E0,0E0],"parents":[2147483647,0,0,1,1,2,2,3,3,4,4,5,5,6,6,7,7,8,8,9,9,10,10,11,11,12,12,13,13,14,14],"right_children":[2,4,6,8,10,12,14,16,18,20,22,24,26,28,30,-1,-1,-1,-1,-1,-1,-1,-1,-1,-1,-1,-1,-1,-1,-1,-1],"split_conditions":[1.5124437E3,1.4728206E3,1.7022533E3,8.652232E-1,2.3413367E0,1.3599127E3,1.47E0,1.3013452E3,1.2477476E3,1.1809111E3,1.5766013E-1,1.2083308E3,1.683358E3,1.706332E3,5.15E0,-1.2730383E-2,-3.0056464E-3,1.0711287E-2,-9.1269193E-4,2.1851256E-2,6.739673E-3,3.1183645E-2,5.281715E-2,-2.7080558E-2,-1.5917562E-2,-5.1313187E-3,-1.1472533E-2,-1.8006992E-3,-8.545344E-3,-1.5074223E-4,6.2004547E-3],"split_indices":[7,0,0,9,9,0,20,0,7,7,5,0,7,7,20,0,0,0,0,0,0,0,0,0,0,0,0,0,0,0,0],"split_type":[0,0,0,0,0,0,0,0,0,0,0,0,0,0,0,0,0,0,0,0,0,0,0,0,0,0,0,0,0,0,0],"sum_hessian":[5.905103E4,2.5788775E4,3.3262254E4,1.1063966E4,1.472481E4,1.6441242E4,1.6821014E4,4.48671E3,6.5772554E3,1.4296792E4,4.2801767E2,2.0889214E3,1.4352321E4,2.9896611E3,1.3831352E4,1.6071901E3,2.87952E3,2.8020056E3,3.7752498E3,2.0585222E3,1.22382705E4,2.7991867E2,1.4809903E2,7.2637085E2,1.3625505E3,8.45208E3,5.9002417E3,4.4451968E2,2.5451416E3,1.05199E4,3.311451E3],"tree_param":{"num_deleted":"0","num_feature":"21","num_nodes":"31","size_leaf_vector":"1"}},{"base_weights":[4.9343896E-3,-1.031457E-1,8.275063E-2,-2.3387948E-1,-7.140179E-2,2.8805954E-2,1.4867309E-1,-3.3485678E-1,-2.021857E-1,-7.802578E-2,2.2424999E-1,1.5731562E-2,2.303017E-1,1.250747E-1,2.9593384E-1,9.942209E-3,-2.557502E-2,-1.603019E-2,-8.935233E-3,-7.903931E-3,-3.559239E-3,3.358325E-3,3.1248163E-2,-2.0359924E-4,5.9890975E-3,5.281715E-2,1.3937717E-2,7.3906006E-3,1.6927443E-2,2.8835516E-2,1.2065548E-2],"categories":[0,1,2,6],"categories_nodes":[14],"categories_segments":[0],"categories_sizes":[4],"default_left":[0,0,0,0,0,0,0,1,1,0,0,0,0,0,1,0,0,0,0,0,0,0,0,0,0,0,0,0,0,0,0],"id":19,"left_children":[1,3,5,7,9,11,13,15,17,19,21,23,25,27,29,-1,-1,-1,-1,-1,-1,-1,-1,-1,-1,-1,-1,-1,-1,-1,-1],"loss_changes":[4.9574255E2,1.0230435E2,1.2184543E2,1.5041534E1,3.8994415E1,4.9649628E1,5.3384216E1,2.433258E0,3.0252686E0,1.5995583E1,1.4801416E1,2.077554E1,3.0250347E1,3.5692917E1,2.4593857E1,0E0,0E0,0E0,0E0,0E0,0E0,0E0,0E0,0E0,0E0,0E0,0E0,0E0,0E0,0E0,0E0],"parents":[2147483647,0,0,1,1,2,2,3,3,4,4,5,5,6,6,7,7,8,8,9,9,10,10,11,11,12,12,13,13,14,14],"right_children":[2,4,6,8,10,12,14,16,18,20,22,24,26,28,30,-1,-1,-1,-1,-1,-1,-1,-1,-1,-1,-1,-1,-1,-1,-1,-1],"split_conditions":[6.3407797E-1,2.4388292E-1,8.4734845E-1,9.519485E-2,3.0063915E0,2.0316064E0,1.4568316E0,2.187844E-1,1.5943298E0,4.9069792E-1,5.315535E-1,8.333333E-1,1.9086818E-1,9.636384E-1,1E-45,9.942209E-3,-2.557502E-2,-1.603019E-2,-8.935233E-3,-7.903931E-3,-3.559239E-3,3.358325E-3,3.1248163E-2,-2.0359924E-4,5.9890975E-3,5.281715E-2,1.3937717E-2,7.3906006E-3,1.6927443E-2,2.8835516E-2,1.2065548E-2],"split_indices":[15,15,15,15,9,9,9,2,9,15,15,13,10,15,17,0,0,0,0,0,0,0,0,0,0,0,0,0,0,0,0],"split_type":[0,0,0,0,0,0,0,0,0,0,0,0,0,0,1,0,0,0,0,0,0,0,0,0,0,0,0,0,0,0,0],"sum_hessian":[5.8932824E4,2.466853E4,3.4264293E4,4.8126353E3,1.9855895E4,1.8848504E4,1.5415791E4,1.1369164E3,3.675719E3,1.9424803E4,4.3109216E2,1.7705668E4,1.1428359E3,1.3295532E4,2.1202588E3,8.376562E0,1.1285398E3,3.266738E3,4.0898093E2,1.040135E4,9.023452E3,2.250093E2,2.0608289E2,1.3733942E4,3.9717246E3,6.9943924E1,1.0728921E3,1.0450946E4,2.8445867E3,1.291452E3,8.288068E2],"tree_param":{"num_deleted":"0","num_feature":"21","num_nodes":"31","size_leaf_vector":"1"}},{"base_weights":[-3.2757497E-3,-1.023638E-1,7.182852E-2,-1.7869188E-1,-6.201575E-2,1.4517929E-1,3.675288E-2,-2.559585E-2,-1.5959306E-1,-6.689236E-2,3.7779003E-1,1.8594001E-1,4.959171E-2,2.8859295E-2,3.179209E-1,-1.2567225E-2,8.620701E-3,-5.748902E-3,2.749241E-4,4.667388E-2,1.9235228E-3,8.219745E-3,1.906124E-2,3.1799222E-3,3.272213E-2,-6.810843E-4,5.17804E-3,5.271997E-3,4.3433644E-2],"categories":[2,3,6],"categories_nodes":[5],"categories_segments":[0],"categories_sizes":[3],"default_left":[0,0,0,0,1,1,0,0,1,1,0,1,0,0,1,0,0,0,0,0,0,0,0,0,0,0,0,0,0],"id":20,"left_children":[1,3,5,7,9,11,13,-1,15,17,19,21,23,25,27,-1,-1,-1,-1,-1,-1,-1,-1,-1,-1,-1,-1,-1,-1],"loss_changes":[4.3738815E2,7.797891E1,8.598746E1,2.6556427E1,3.5714302E1,4.2080536E1,5.0163177E1,0E0,1.5055908E1,1.0764824E1,1.5412983E1,3.876187E1,9.16638E0,3.3168617E1,3.9235588E1,0E0,0E0,0E0,0E0,0E0,0E0,0E0,0E0,0E0,0E0,0E0,0E0,0E0,0E0],"parents":[2147483647,0,0,1,1,2,2,3,3,4,4,5,5,6,6,8,8,9,9,10,10,11,11,12,12,13,13,14,14],"right_children":[2,4,6,8,10,12,14,-1,16,18,20,22,24,26,28,-1,-1,-1,-1,-1,-1,-1,-1,-1,-1,-1,-1,-1,-1],"split_conditions":[3.5690636E1,-1.664166E2,1.360114E3,-4.8987622E2,2.9079647E0,1E-45,2.0839853E0,-2.559585E-2,1.9037505E0,1.492118E0,8.325891E-1,9.3865466E-1,1.9326931E3,1.7923204E2,8.7968963E-1,-1.2567225E-2,8.620701E-3,-5.748902E-3,2.749241E-4,4.667388E-2,1.9235228E-3,8.219745E-3,1.906124E-2,3.1799222E-3,3.272213E-2,-6.810843E-4,5.17804E-3,5.271997E-3,4.3433644E-2],"split_indices":[14,14,7,14,11,17,11,0,11,8,8,9,0,14,2,0,0,0,0,0,0,0,0,0,0,0,0,0,0],"split_type":[0,0,0,0,0,1,0,0,0,0,0,0,0,0,0,0,0,0,0,0,0,0,0,0,0,0,0,0,0],"sum_hessian":[5.876233E4,2.5334924E4,3.3427402E4,8.754503E3,1.6580422E4,1.0807995E4,2.2619408E4,9.208148E2,7.833688E3,1.6403281E4,1.7714151E2,7.5732876E3,3.2347073E3,2.2007723E4,6.11687E2,7.641556E3,1.9213174E2,1.4492196E4,1.9110841E3,1.0271303E2,7.442848E1,3.5215645E3,4.0517231E3,3.179265E3,5.5442295E1,1.1272592E4,1.073513E4,3.1531003E2,2.9637695E2],"tree_param":{"num_deleted":"0","num_feature":"21","num_nodes":"29","size_leaf_vector":"1"}},{"base_weights":[1.8876864E-4,-9.886939E-2,7.138044E-2,-2.2405681E-1,-7.0461236E-2,2.8528173E-2,1.3999017E-1,-3.312712E-1,-1.961671E-1,1.6493216E-1,-7.556414E-2,4.139167E-3,1.0011691E-1,1.0782671E-1,2.2658595E-1,-2.8522125E-2,-1.979857E-2,-9.854082E-3,-1.585058E-2,2.5328442E-2,-6.8437173E-3,-9.227406E-3,-4.0123127E-3,1.7390237E-4,5.281715E-2,4.2069077E-2,6.735517E-3,7.7112424E-3,2.9794322E-2,2.2239778E-2,1.2819404E-2],"categories":[0,1,2,3,6],"categories_nodes":[14],"categories_segments":[0],"categories_sizes":[5],"default_left":[0,0,0,0,1,0,0,0,1,0,0,1,0,1,1,0,0,0,0,0,0,0,0,0,0,0,0,0,0,0,0],"id":21,"left_children":[1,3,5,7,9,11,13,15,17,19,21,23,25,27,29,-1,-1,-1,-1,-1,-1,-1,-1,-1,-1,-1,-1,-1,-1,-1,-1],"loss_changes":[4.120274E2,8.6798386E1,9.992462E1,1.3140762E1,2.3998428E1,3.654483E1,3.6260773E1,2.4206314E0,3.1266174E0,1.8697153E1,2.0366043E1,2.0260395E1,2.6118477E1,1.5184067E1,1.33759E1,0E0,0E0,0E0,0E0,0E0,0E0,0E0,0E0,0E0,0E0,0E0,0E0,0E0,0E0,0E0,0E0],"parents":[2147483647,0,0,1,1,2,2,3,3,4,4,5,5,6,6,7,7,8,8,9,9,10,10,11,11,12,12,13,13,14,14],"right_children":[2,4,6,8,10,12,14,16,18,20,22,24,26,28,30,-1,-1,-1,-1,-1,-1,-1,-1,-1,-1,-1,-1,-1,-1,-1,-1],"split_conditions":[6.3663554E-1,2.3871191E-1,8.7013525E-1,8.481944E-2,1.9086818E-1,8.333333E-1,4.6470688E2,1.1882377E3,6.661538E-1,1.9277582E0,4.0879864E-1,2.3425996E0,1.9086818E-1,1.7107055E0,1E-45,-2.8522125E-2,-1.979857E-2,-9.854082E-3,-1.585058E-2,2.5328442E-2,-6.8437173E-3,-9.227406E-3,-4.0123127E-3,1.7390237E-4,5.281715E-2,4.2069077E-2,6.735517E-3,7.7112424E-3,2.9794322E-2,2.2239778E-2,1.2819404E-2],"split_indices":[15,15,15,15,10,13,14,0,10,4,15,3,10,3,17,0,0,0,0,0,0,0,0,0,0,0,0,0,0,0,0],"split_type":[0,0,0,0,0,0,0,0,0,0,0,0,0,0,1,0,0,0,0,0,0,0,0,0,0,0,0,0,0,0,0],"sum_hessian":[5.8414883E4,2.4425857E4,3.3989023E4,4.5105464E3,1.9915312E4,2.0926602E4,1.3062422E4,9.1856537E2,3.591981E3,4.1885217E2,1.9496459E4,1.5613331E4,5.3132705E3,9.53389E3,3.5285325E3,5.32268E2,3.8629736E2,6.3863025E2,2.9533508E3,2.5006732E2,1.6878485E2,6.3070645E3,1.31893955E4,1.5578556E4,3.4774757E1,1.16572296E2,5.196698E3,9.358006E3,1.7588351E2,1.5914274E3,1.9371052E3],"tree_param":{"num_deleted":"0","num_feature":"21","num_nodes":"31","size_leaf_vector":"1"}},{"base_weights":[-1.4174957E-3,-1.111081E-1,5.894044E-2,-2.339256E-1,-7.967427E-2,4.012198E-2,1.9905093E-1,-3.3266526E-1,-2.0648983E-1,-8.247205E-2,2.5325227E-1,-9.65794E-3,9.4570175E-2,2.5492024E-1,-1.1831495E-2,7.918041E-3,-2.5416732E-2,-5.794355E-3,-1.6712133E-2,-8.582829E-3,-4.6654926E-3,-8.772984E-4,3.8222052E-2,-5.457487E-3,3.9987854E-4,1.6174387E-3,9.156829E-3,2.3481041E-2,1.0335399E-2,-1.4330904E-2,2.4385245E-3],"categories":[0,1,2,3,6],"categories_nodes":[13],"categories_segments":[0],"categories_sizes":[5],"default_left":[0,0,0,0,1,0,0,1,0,0,0,0,0,1,0,0,0,0,0,0,0,0,0,0,0,0,0,0,0,0,0],"id":22,"left_children":[1,3,5,7,9,11,13,15,17,19,21,23,25,27,29,-1,-1,-1,-1,-1,-1,-1,-1,-1,-1,-1,-1,-1,-1,-1,-1],"loss_changes":[3.8874417E2,8.035553E1,9.98201E1,1.111351E1,1.5581276E1,9.0527084E1,5.283896E1,1.8727722E0,6.395279E0,1.0591965E1,9.408611E0,1.6361828E1,3.1235733E1,2.3290115E1,7.4598036E0,0E0,0E0,0E0,0E0,0E0,0E0,0E0,0E0,0E0,0E0,0E0,0E0,0E0,0E0,0E0,0E0],"parents":[2147483647,0,0,1,1,2,2,3,3,4,4,5,5,6,6,7,7,8,8,9,9,10,10,11,11,12,12,13,13,14,14],"right_children":[2,4,6,8,10,12,14,16,18,20,22,24,26,28,30,-1,-1,-1,-1,-1,-1,-1,-1,-1,-1,-1,-1,-1,-1,-1,-1],"split_conditions":[-4.6790013E0,2.3223826E-1,1.4537075E0,8.481944E-2,2.9079647E0,8.2639503E-1,1.5490465E3,2.3507603E-1,4.7421232E-1,4.0879864E-1,-7.762232E1,4.22E0,1.268E1,1E-45,6.614385E-1,7.918041E-3,-2.5416732E-2,-5.794355E-3,-1.6712133E-2,-8.582829E-3,-4.6654926E-3,-8.772984E-4,3.8222052E-2,-5.457487E-3,3.9987854E-4,1.6174387E-3,9.156829E-3,2.3481041E-2,1.0335399E-2,-1.4330904E-2,2.4385245E-3],"split_indices":[14,15,11,15,11,15,7,10,8,15,14,20,20,17,15,0,0,0,0,0,0,0,0,0,0,0,0,0,0,0,0],"split_type":[0,0,0,0,0,0,0,0,0,0,0,0,0,1,0,0,0,0,0,0,0,0,0,0,0,0,0,0,0,0,0],"sum_hessian":[5.8705367E4,2.0835527E4,3.786984E4,4.2385933E3,1.6596936E4,3.3392086E4,4.477753E3,9.081231E2,3.33047E3,1.6462793E4,1.341415E2,1.7446244E4,1.5945841E4,3.5389958E3,9.387572E2,7.3370004E0,9.0078613E2,3.4881458E2,2.9816553E3,6.5345054E3,9.928288E3,6.818112E1,6.596037E1,3.357419E3,1.4088825E4,4.277582E3,1.1668259E4,2.3895693E3,1.1494265E3,1.8281749E2,7.559397E2],"tree_param":{"num_deleted":"0","num_feature":"21","num_nodes":"31","size_leaf_vector":"1"}},{"base_weights":[-2.03916E-3,-9.535474E-2,6.2153947E-2,-2.223536E-1,-6.806149E-2,1.3379547E-1,3.2165736E-2,-3.240817E-1,-1.875389E-1,-7.321559E-2,3.007139E-1,-2.288034E-3,1.6229796E-1,2.6917344E-2,3.4974664E-1,-2.5307447E-2,-7.471864E-3,-1.498698E-2,3.624968E-3,-6.443271E-3,-4.5831993E-4,1.7123815E-2,5.281715E-2,-8.7785826E-4,3.0263068E-2,1.4820036E-2,5.6804144E-3,-5.40657E-4,4.683785E-3,3.291536E-2,-1.0053053E-2],"categories":[2,3,6],"categories_nodes":[12],"categories_segments":[0],"categories_sizes":[3],"default_left":[0,0,0,0,1,0,1,0,1,0,0,0,1,0,0,0,0,0,0,0,0,0,0,0,0,0,0,0,0,0,0],"id":23,"left_children":[1,3,5,7,9,11,13,15,17,19,21,23,25,27,29,-1,-1,-1,-1,-1,-1,-1,-1,-1,-1,-1,-1,-1,-1,-1,-1],"loss_changes":[3.55546E2,8.376314E1,7.5523346E1,1.4806351E1,3.7983253E1,4.0241135E1,4.1276665E1,2.5739288E0,8.4103775E0,1.606411E1,1.20095005E1,6.8202143E0,2.538115E1,2.9239143E1,1.7144787E1,0E0,0E0,0E0,0E0,0E0,0E0,0E0,0E0,0E0,0E0,0E0,0E0,0E0,0E0,0E0,0E0],"parents":[2147483647,0,0,1,1,2,2,3,3,4,4,5,5,6,6,7,7,8,8,9,9,10,10,11,11,12,12,13,13,14,14],"right_children":[2,4,6,8,10,12,14,16,18,20,22,24,26,28,30,-1,-1,-1,-1,-1,-1,-1,-1,-1,-1,-1,-1,-1,-1,-1,-1],"split_conditions":[6.3407797E-1,2.3223826E-1,1.3375037E3,9.519485E-2,2.9079647E0,1.945E1,2.0839853E0,1.5236215E3,1.7209069E0,1.3077526E0,-2.2352657E-1,1.6824086E0,1E-45,8.05905E-1,1.4910981E3,-2.5307447E-2,-7.471864E-3,-1.498698E-2,3.624968E-3,-6.443271E-3,-4.5831993E-4,1.7123815E-2,5.281715E-2,-8.7785826E-4,3.0263068E-2,1.4820036E-2,5.6804144E-3,-5.40657E-4,4.683785E-3,3.291536E-2,-1.0053053E-2],"split_indices":[15,15,7,15,11,20,11,0,11,11,12,3,17,15,7,0,0,0,0,0,0,0,0,0,0,0,0,0,0,0,0],"split_type":[0,0,0,0,0,0,0,0,0,0,0,0,1,0,0,0,0,0,0,0,0,0,0,0,0,0,0,0,0,0,0],"sum_hessian":[5.934332E4,2.4184432E4,3.515889E4,4.2709976E3,1.9913434E4,1.0368736E4,2.4790154E4,1.0771462E3,3.1938516E3,1.9643373E4,2.7006052E2,1.7965156E3,8.572221E3,2.4393094E4,3.9706042E2,1.0229314E3,5.4214775E1,3.0511277E3,1.4272392E2,1.6626043E4,3.0173303E3,2.5670105E2,1.3359467E1,1.7611375E3,3.5378212E1,6.152823E3,2.4193972E3,1.2388219E4,1.2004875E4,3.3721506E2,5.984536E1],"tree_param":{"num_deleted":"0","num_feature":"21","num_nodes":"31","size_leaf_vector":"1"}},{"base_weights":[1.5690838E-3,-9.226435E-2,6.0700744E-2,-1.8444788E-1,-6.5401986E-2,3.341082E-2,1.3411167E-1,-3.0059883E-1,-1.611304E-1,-9.464976E-2,-4.110303E-2,3.131778E-3,1.01808324E-1,1.8772155E-1,3.158846E-2,-2.7079515E-2,-1.897536E-2,-1.25200255E-2,2.0401478E-2,-8.115279E-3,-3.939441E-3,-3.8045952E-3,7.5637056E-3,-6.946088E-3,9.823091E-4,1.2789764E-3,8.947501E-3,1.1091652E-2,1.8534206E-2,3.4593658E-3,-5.8949403E-3],"categories":[],"categories_nodes":[],"categories_segments":[],"categories_sizes":[],"default_left":[0,0,0,0,0,0,0,0,1,1,0,0,0,0,0,0,0,0,0,0,0,0,0,0,0,0,0,0,0,0,0],"id":24,"left_children":[1,3,5,7,9,11,13,15,17,19,21,23,25,27,29,-1,-1,-1,-1,-1,-1,-1,-1,-1,-1,-1,-1,-1,-1,-1,-1],"loss_changes":[3.2641052E2,5.6246033E1,7.227086E1,1.3618866E1,1.2499504E1,5.4496574E1,5.3707672E1,1.9317322E0,9.123886E0,4.344719E0,1.2719057E1,1.7178768E1,1.1483055E1,1.4937744E1,5.2829504E0,0E0,0E0,0E0,0E0,0E0,0E0,0E0,0E0,0E0,0E0,0E0,0E0,0E0,0E0,0E0,0E0],"parents":[2147483647,0,0,1,1,2,2,3,3,4,4,5,5,6,6,7,7,8,8,9,9,10,10,11,11,12,12,13,13,14,14],"right_children":[2,4,6,8,10,12,14,16,18,20,22,24,26,28,30,-1,-1,-1,-1,-1,-1,-1,-1,-1,-1,-1,-1,-1,-1,-1,-1],"split_conditions":[1.6048355E1,-2.4395251E2,1.1463332E0,-4.8987622E2,-9.282454E1,2.9179605E2,1.5095887E3,-6.10853E2,2.4763823E0,1.2623216E0,1.9012579E0,1.33E0,1.008E1,1.207383E-1,1.6834663E0,-2.7079515E-2,-1.897536E-2,-1.25200255E-2,2.0401478E-2,-8.115279E-3,-3.939441E-3,-3.8045952E-3,7.5637056E-3,-6.946088E-3,9.823091E-4,1.2789764E-3,8.947501E-3,1.1091652E-2,1.8534206E-2,3.4593658E-3,-5.8949403E-3],"split_indices":[14,14,11,14,14,14,7,14,11,1,9,20,20,5,11,0,0,0,0,0,0,0,0,0,0,0,0,0,0,0,0],"split_type":[0,0,0,0,0,0,0,0,0,0,0,0,0,0,0,0,0,0,0,0,0,0,0,0,0,0,0,0,0,0,0],"sum_hessian":[5.881709E4,2.273569E4,3.60814E4,5.1228433E3,1.7612846E4,2.6309273E4,9.772126E3,8.45366E2,4.277477E3,7.9851836E3,9.627663E3,1.8240285E4,8.068988E3,6.4137173E3,3.3584087E3,3.7043372E2,4.7493234E2,4.2338135E3,4.3663357E1,6.116734E3,1.8684493E3,9.035467E3,5.921957E2,1.7119122E3,1.6528373E4,1.3337046E3,6.735283E3,3.77755E3,2.636167E3,2.975009E3,3.8339978E2],"tree_param":{"num_deleted":"0","num_feature":"21","num_nodes":"31","size_leaf_vector":"1"}},{"base_weights":[-4.740247E-4,-8.401765E-2,5.938388E-2,-2.0488217E-1,-5.9939664E-2,1.141882E-1,2.186215E-2,-3.078525E-1,-1.7171928E-1,-6.591446E-2,2.2111046E-1,4.2506147E-2,1.6294228E-1,-7.2547137E-3,6.1798666E-2,1.12660825E-2,-2.357736E-2,-1.3548655E-2,1.8664936E-2,-7.920754E-3,-3.6266309E-3,2.760723E-2,-3.4051584E-3,2.2079637E-3,2.4353586E-2,1.6506141E-2,7.0346035E-3,-8.2405325E-4,1.8633606E-2,3.8809348E-3,1.6484758E-2],"categories":[0,1,2,3,6],"categories_nodes":[12],"categories_segments":[0],"categories_sizes":[5],"default_left":[0,0,0,0,0,1,0,1,1,0,0,0,1,1,1,0,0,0,0,0,0,0,0,0,0,0,0,0,0,0,0],"id":25,"left_children":[1,3,5,7,9,11,13,15,17,19,21,23,25,27,29,-1,-1,-1,-1,-1,-1,-1,-1,-1,-1,-1,-1,-1,-1,-1,-1],"loss_changes":[2.920904E2,7.088405E1,6.996058E1,1.352713E1,3.423446E1,4.8287247E1,2.3498623E1,2.3306885E0,1.0355911E1,1.3860451E1,1.6460806E1,2.0751745E1,3.190326E1,1.0912421E1,1.3772526E1,0E0,0E0,0E0,0E0,0E0,0E0,0E0,0E0,0E0,0E0,0E0,0E0,0E0,0E0,0E0,0E0],"parents":[2147483647,0,0,1,1,2,2,3,3,4,4,5,5,6,6,7,7,8,8,9,9,10,10,11,11,12,12,13,13,14,14],"right_children":[2,4,6,8,10,12,14,16,18,20,22,24,26,28,30,-1,-1,-1,-1,-1,-1,-1,-1,-1,-1,-1,-1,-1,-1,-1,-1],"split_conditions":[6.4556766E-1,2.3223826E-1,1.4033367E3,9.519485E-2,3.0063915E0,8.718572E-1,8.2895225E-1,1.9189471E-1,2.2358897E0,4.0879864E-1,1.6143273E0,9.9359447E-1,1E-45,1.9503087E0,1.428E1,1.12660825E-2,-2.357736E-2,-1.3548655E-2,1.8664936E-2,-7.920754E-3,-3.6266309E-3,2.760723E-2,-3.4051584E-3,2.2079637E-3,2.4353586E-2,1.6506141E-2,7.0346035E-3,-8.2405325E-4,1.8633606E-2,3.8809348E-3,1.6484758E-2],"split_indices":[15,15,7,15,9,11,15,2,11,15,1,15,17,3,20,0,0,0,0,0,0,0,0,0,0,0,0,0,0,0,0],"split_type":[0,0,0,0,0,0,0,0,0,0,0,0,1,0,0,0,0,0,0,0,0,0,0,0,0,0,0,0,0,0,0],"sum_hessian":[5.839819E4,2.4375322E4,3.402287E4,4.0422783E3,2.0333045E4,1.382241E4,2.020046E4,9.734444E2,3.068834E3,1.9913975E4,4.1906894E2,5.599722E3,8.2226875E3,1.1685435E4,8.515027E3,7.997165E0,9.6544727E2,3.0155818E3,5.325203E1,6.2373037E3,1.3676671E4,2.7010138E2,1.4896756E2,5.3529463E3,2.4677582E2,4.5597217E3,3.6629658E3,1.1524557E4,1.6087807E2,7.9937036E3,5.213234E2],"tree_param":{"num_deleted":"0","num_feature":"21","num_nodes":"31","size_leaf_vector":"1"}},{"base_weights":[1.3989798E-3,-8.738565E-2,5.554793E-2,-1.5222463E-1,-4.9240913E-2,1.1640675E-1,2.2407113E-2,-3.0154198E-1,-1.350596E-1,-5.4748412E-2,1.3310003E-1,4.6538945E-2,1.6160654E-1,1.6140414E-2,2.0683086E-1,-2.339953E-2,2.9502162E-3,-1.0551899E-2,1.7634237E-2,-4.8388755E-3,3.108074E-3,5.281715E-2,7.932516E-3,1.0727805E-3,1.0744022E-2,1.3884797E-2,2.5281329E-3,6.132137E-4,1.27247935E-2,2.021776E-2,-6.73705E-3],"categories":[],"categories_nodes":[],"categories_segments":[],"categories_sizes":[],"default_left":[0,0,0,0,0,1,0,0,1,0,0,0,1,1,0,0,0,0,0,0,0,0,0,0,0,0,0,0,0,0,0],"id":26,"left_children":[1,3,5,7,9,11,13,15,17,19,21,23,25,27,29,-1,-1,-1,-1,-1,-1,-1,-1,-1,-1,-1,-1,-1,-1,-1,-1],"loss_changes":[2.8233038E2,5.4982697E1,7.3558525E1,2.0886124E1,1.4115746E1,4.056842E1,2.728447E1,2.5364532E0,1.3245056E1,1.2264721E1,8.041792E0,1.566271E1,2.2376617E1,2.7921394E1,1.4176605E1,0E0,0E0,0E0,0E0,0E0,0E0,0E0,0E0,0E0,0E0,0E0,0E0,0E0,0E0,0E0,0E0],"parents":[2147483647,0,0,1,1,2,2,3,3,4,4,5,5,6,6,7,7,8,8,9,9,10,10,11,11,12,12,13,13,14,14],"right_children":[2,4,6,8,10,12,14,16,18,20,22,24,26,28,30,-1,-1,-1,-1,-1,-1,-1,-1,-1,-1,-1,-1,-1,-1,-1,-1],"split_conditions":[1.6048355E1,-1.664166E2,1.381881E3,-4.8987622E2,2.2358897E0,8.7470967E-1,1.9037505E0,1.5581334E3,2.2358897E0,1.4522439E0,1.0632514E-1,1.7268558E3,5.95E1,1.227E1,1.5984462E3,-2.339953E-2,2.9502162E-3,-1.0551899E-2,1.7634237E-2,-4.8388755E-3,3.108074E-3,5.281715E-2,7.932516E-3,1.0727805E-3,1.0744022E-2,1.3884797E-2,2.5281329E-3,6.132137E-4,1.27247935E-2,2.021776E-2,-6.73705E-3],"split_indices":[14,14,7,14,11,11,11,0,11,3,2,0,19,20,7,0,0,0,0,0,0,0,0,0,0,0,0,0,0,0,0],"split_type":[0,0,0,0,0,0,0,0,0,0,0,0,0,0,0,0,0,0,0,0,0,0,0,0,0,0,0,0,0,0,0],"sum_hessian":[5.8714688E4,2.224217E4,3.647252E4,8.232214E3,1.4009956E4,1.2853917E4,2.3618602E4,8.3922687E2,7.3929873E3,1.3602997E4,4.0695877E2,5.0536133E3,7.800304E3,2.2848297E4,7.7030334E2,8.1910046E2,2.0126429E1,7.301663E3,9.1323944E1,1.2392888E4,1.2101097E3,7.4149933E0,3.995438E2,3.784081E3,1.2695321E3,6.636707E3,1.163597E3,2.1713266E4,1.1350311E3,6.3895184E2,1.3135149E2],"tree_param":{"num_deleted":"0","num_feature":"21","num_nodes":"31","size_leaf_vector":"1"}},{"base_weights":[5.5145818E-5,-8.2582675E-2,5.3673238E-2,-1.7558545E-1,-5.8733415E-2,4.481639E-2,2.5290787E-1,-3.0653223E-1,-1.4791423E-1,1.3016129E-1,-6.291655E-2,1.1188146E-2,1.002607E-1,3.4209204E-1,7.4812084E-2,-2.6501907E-2,-1.669466E-2,-1.1540242E-2,2.345583E-2,-9.040789E-3,2.0081008E-2,-6.8979543E-3,-2.957817E-3,-3.3261607E-5,7.155472E-3,6.408802E-3,1.6917879E-2,4.3964043E-2,2.152151E-2,4.304852E-2,3.979666E-3],"categories":[0,2,5,6],"categories_nodes":[6],"categories_segments":[0],"categories_sizes":[4],"default_left":[0,0,0,0,0,0,1,0,1,0,0,0,0,0,0,0,0,0,0,0,0,0,0,0,0,0,0,0,0,0,0],"id":27,"left_children":[1,3,5,7,9,11,13,15,17,19,21,23,25,27,29,-1,-1,-1,-1,-1,-1,-1,-1,-1,-1,-1,-1,-1,-1,-1,-1],"loss_changes":[2.6100952E2,5.1357742E1,6.2979156E1,1.6879242E1,1.4630585E1,6.3783005E1,2.3989975E1,2.6901703E0,9.30159E0,1.3833443E1,1.2189529E1,2.072122E1,2.4425919E1,1.2898895E1,5.4563446E0,0E0,0E0,0E0,0E0,0E0,0E0,0E0,0E0,0E0,0E0,0E0,0E0,0E0,0E0,0E0,0E0],"parents":[2147483647,0,0,1,1,2,2,3,3,4,4,5,5,6,6,7,7,8,8,9,9,10,10,11,11,12,12,13,13,14,14],"right_children":[2,4,6,8,10,12,14,16,18,20,22,24,26,28,30,-1,-1,-1,-1,-1,-1,-1,-1,-1,-1,-1,-1,-1,-1,-1,-1],"split_conditions":[2.4293589E1,-2.5383403E2,2.0839853E0,-4.8987622E2,1E-1,2.56266E2,1E-45,1.2303187E3,2.4763823E0,7.9387504E-1,6.25E-1,1E0,6.185421E2,5.555556E-1,2.6304565E1,-2.6501907E-2,-1.669466E-2,-1.1540242E-2,2.345583E-2,-9.040789E-3,2.0081008E-2,-6.8979543E-3,-2.957817E-3,-3.3261607E-5,7.155472E-3,6.408802E-3,1.6917879E-2,4.3964043E-2,2.152151E-2,4.304852E-2,3.979666E-3],"split_indices":[14,14,11,14,13,14,17,0,11,11,13,13,14,6,14,0,0,0,0,0,0,0,0,0,0,0,0,0,0,0,0],"split_type":[0,0,0,0,0,0,1,0,0,0,0,0,0,0,0,0,0,0,0,0,0,0,0,0,0,0,0,0,0,0,0],"sum_hessian":[5.8895727E4,2.317488E4,3.5720844E4,4.722686E3,1.8452195E4,3.420704E4,1.5138047E3,8.1405414E2,3.9086318E3,3.9612885E2,1.8056066E4,2.1296775E4,1.2910264E4,1.0052587E3,5.085459E2,5.226298E2,2.9142432E2,3.8699146E3,3.87172E1,1.397947E2,2.5633414E2,8.192988E3,9.863077E3,1.8702219E4,2.5945576E3,1.1498301E4,1.4119633E3,1.8229552E2,8.229632E2,1.5753395E1,4.927925E2],"tree_param":{"num_deleted":"0","num_feature":"21","num_nodes":"31","size_leaf_vector":"1"}},{"base_weights":[1.1830654E-3,-1.0616333E-1,4.341247E-2,-2.1594955E-1,-8.35999E-2,4.4087577E-3,9.3384795E-2,-3.0290058E-1,-1.7501263E-1,-8.74633E-2,7.522756E-2,-7.870468E-3,1.8428823E-1,2.9841105E-2,1.1483589E-1,-2.4067448E-2,-3.7944852E-3,-1.4173773E-2,8.021152E-3,-8.182334E-3,-4.615211E-3,2.0207835E-3,2.1458292E-2,-7.970853E-3,-5.755249E-5,5.2086163E-2,1.2376267E-2,1.4463526E-3,9.568024E-3,5.041467E-3,1.1297575E-2],"categories":[],"categories_nodes":[],"categories_segments":[],"categories_sizes":[],"default_left":[0,0,0,0,1,0,0,0,1,0,0,0,0,0,0,0,0,0,0,0,0,0,0,0,0,0,0,0,0,0,0],"id":28,"left_children":[1,3,5,7,9,11,13,15,17,19,21,23,25,27,29,-1,-1,-1,-1,-1,-1,-1,-1,-1,-1,-1,-1,-1,-1,-1,-1],"loss_changes":[2.6504642E2,4.0789948E1,8.178389E1,9.708267E0,8.44458E0,5.2075005E1,2.5053085E1,3.5319824E0,7.0601273E0,7.344139E0,3.285007E0,1.533755E1,1.4814045E1,4.798238E0,2.2982864E1,0E0,0E0,0E0,0E0,0E0,0E0,0E0,0E0,0E0,0E0,0E0,0E0,0E0,0E0,0E0,0E0],"parents":[2147483647,0,0,1,1,2,2,3,3,4,4,5,5,6,6,7,7,8,8,9,9,10,10,11,11,12,12,13,13,14,14],"right_children":[2,4,6,8,10,12,14,16,18,20,22,24,26,28,30,-1,-1,-1,-1,-1,-1,-1,-1,-1,-1,-1,-1,-1,-1,-1,-1],"split_conditions":[5.315535E-1,1.9282016E-1,8.2639503E-1,9.519485E-2,1.7978522E0,2.0316064E0,1.25E1,1.5156526E3,2.0316064E0,9.5237416E-1,-2.4027346E1,-1.53E0,5.382896E-1,1.4544978E0,8.35769E-1,-2.4067448E-2,-3.7944852E-3,-1.4173773E-2,8.021152E-3,-8.182334E-3,-4.615211E-3,2.0207835E-3,2.1458292E-2,-7.970853E-3,-5.755249E-5,5.2086163E-2,1.2376267E-2,1.4463526E-3,9.568024E-3,5.041467E-3,1.1297575E-2],"split_indices":[15,15,15,15,3,9,20,0,9,9,14,20,15,1,9,0,0,0,0,0,0,0,0,0,0,0,0,0,0,0,0],"split_type":[0,0,0,0,0,0,0,0,0,0,0,0,0,0,0,0,0,0,0,0,0,0,0,0,0,0,0,0,0,0,0],"sum_hessian":[5.8456895E4,1.6501615E4,4.1955277E4,2.805085E3,1.3696531E4,2.3567096E4,1.8388182E4,8.8645703E2,1.9186279E3,1.3373733E4,3.22797E2,2.2066127E4,1.5009686E3,4.644207E3,1.3743976E4,8.320512E2,5.4405857E1,1.8366799E3,8.194796E1,7.4292437E3,5.9444897E3,2.6721252E2,5.5584496E1,1.4902092E3,2.0575918E4,5.067093E1,1.4502977E3,4.1897725E3,4.5443433E2,5.790947E3,7.9530293E3],"tree_param":{"num_deleted":"0","num_feature":"21","num_nodes":"31","size_leaf_vector":"1"}},{"base_weights":[1.5570805E-4,-8.9489974E-2,4.9008146E-2,-1.929905E-1,-6.363408E-2,1.7321454E-2,9.9831805E-2,-2.9895952E-1,-1.6818146E-1,-6.870456E-2,1.2033538E-1,1.3384687E-2,3.362057E-1,1.4591901E-1,6.2379967E-2,9.317904E-3,-2.2912238E-2,-1.3195774E-2,7.8109764E-3,-5.5131195E-3,9.690967E-3,5.281715E-2,6.234543E-3,-4.399216E-3,1.9733051E-3,5.281715E-2,1.6909843E-2,6.1503295E-3,1.4743135E-2,4.370077E-3,3.0053306E-2],"categories":[],"categories_nodes":[],"categories_segments":[],"categories_sizes":[],"default_left":[0,0,0,0,1,1,0,1,1,1,0,0,0,1,0,0,0,0,0,0,0,0,0,0,0,0,0,0,0,0,0],"id":29,"left_children":[1,3,5,7,9,11,13,15,17,19,21,23,25,27,29,-1,-1,-1,-1,-1,-1,-1,-1,-1,-1,-1,-1,-1,-1,-1,-1],"loss_changes":[2.5730817E2,5.5391678E1,6.1234703E1,1.0602051E1,1.5521812E1,2.9390541E1,2.5155502E1,1.7554245E0,6.235939E0,1.3940338E1,1.0762808E1,2.1200052E1,1.6594841E1,2.0760147E1,1.1961992E1,0E0,0E0,0E0,0E0,0E0,0E0,0E0,0E0,0E0,0E0,0E0,0E0,0E0,0E0,0E0,0E0],"parents":[2147483647,0,0,1,1,2,2,3,3,4,4,5,5,6,6,7,7,8,8,9,9,10,10,11,11,12,12,13,13,14,14],"right_children":[2,4,6,8,10,12,14,16,18,20,22,24,26,28,30,-1,-1,-1,-1,-1,-1,-1,-1,-1,-1,-1,-1,-1,-1,-1,-1],"split_conditions":[5.9891236E-1,2.4388292E-1,8.650814E-1,8.481944E-2,1.7978522E0,2.2489545E0,1.3238419E3,2.3507603E-1,2.0839853E0,2.2358897E0,1.5404373E-1,3.21E0,1.9189471E-1,8.876148E-1,2.2358897E0,9.317904E-3,-2.2912238E-2,-1.3195774E-2,7.8109764E-3,-5.5131195E-3,9.690967E-3,5.281715E-2,6.234543E-3,-4.399216E-3,1.9733051E-3,5.281715E-2,1.6909843E-2,6.1503295E-3,1.4743135E-2,4.370077E-3,3.0053306E-2],"split_indices":[15,15,15,15,3,1,7,10,11,11,2,20,2,11,11,0,0,0,0,0,0,0,0,0,0,0,0,0,0,0,0],"split_type":[0,0,0,0,0,0,0,0,0,0,0,0,0,0,0,0,0,0,0,0,0,0,0,0,0,0,0,0,0,0,0],"sum_hessian":[5.8742883E4,2.0718734E4,3.802415E4,4.134059E3,1.6584676E4,2.342624E4,1.4597907E4,7.7252655E2,3.3615322E3,1.6143246E4,4.4143005E2,2.3146312E4,2.7992694E2,6.537208E3,8.0606997E3,6.950226E0,7.655763E2,3.2825107E3,7.902154E1,1.5797207E4,3.460389E2,1.7513557E1,4.239165E2,3.4962156E3,1.9650098E4,3.32942E1,2.4663274E2,2.8464834E3,3.6907244E3,7.9614995E3,9.920047E1],"tree_param":{"num_deleted":"0","num_feature":"21","num_nodes":"31","size_leaf_vector":"1"}},{"base_weights":[9.02435E-4,5.044558E-2,-4.2032108E-2,1.2010041E-2,1.1785275E-1,-1.05066985E-1,-1.6380837E-2,-4.8087977E-2,4.7442745E-2,2.212316E-2,1.5395992E-1,-2.7060008E-1,-9.2681766E-2,-3.968032E-2,1.790867E-2,4.7658295E-3,-5.3091426E-3,2.2923292E-3,9.471585E-3,-3.0851187E-3,5.3448323E-3,8.107883E-3,1.8325724E-2,6.3345134E-3,-2.0959642E-2,-4.6444368E-3,-1.0146872E-2,-9.942563E-4,-5.168627E-3,3.747103E-3,-1.4951464E-3],"categories":[],"categories_nodes":[],"categories_segments":[],"categories_sizes":[],"default_left":[0,0,0,0,0,0,0,0,0,1,1,1,0,0,0,0,0,0,0,0,0,0,0,0,0,0,0,0,0,0,0],"id":30,"left_children":[1,3,5,7,9,11,13,15,17,19,21,23,25,27,29,-1,-1,-1,-1,-1,-1,-1,-1,-1,-1,-1,-1,-1,-1,-1,-1],"loss_changes":[1.2517795E2,7.077785E1,5.0967438E1,3.7078392E1,3.427278E1,1.855275E1,1.7911928E1,1.6030968E1,1.4571535E1,8.376356E0,2.963739E1,1.7395515E0,1.1001785E1,1.0190767E1,1.0873035E1,0E0,0E0,0E0,0E0,0E0,0E0,0E0,0E0,0E0,0E0,0E0,0E0,0E0,0E0,0E0,0E0],"parents":[2147483647,0,0,1,1,2,2,3,3,4,4,5,5,6,6,7,7,8,8,9,9,10,10,11,11,12,12,13,13,14,14],"right_children":[2,4,6,8,10,12,14,16,18,20,22,24,26,28,30,-1,-1,-1,-1,-1,-1,-1,-1,-1,-1,-1,-1,-1,-1,-1,-1],"split_conditions":[1.5124437E3,1.0782865E0,1.595955E3,1.475187E3,1.3599127E3,1.2303187E3,1.8296338E3,1.1194773E3,1.8190767E3,8.654216E-1,1.5333894E0,3.7094656E-1,1.6597755E3,1.6889498E3,1.7736349E3,4.7658295E-3,-5.3091426E-3,2.2923292E-3,9.471585E-3,-3.0851187E-3,5.3448323E-3,8.107883E-3,1.8325724E-2,6.3345134E-3,-2.0959642E-2,-4.6444368E-3,-1.0146872E-2,-9.942563E-4,-5.168627E-3,3.747103E-3,-1.4951464E-3],"split_indices":[7,11,0,0,0,0,0,7,0,3,11,10,7,7,7,0,0,0,0,0,0,0,0,0,0,0,0,0,0,0,0],"split_type":[0,0,0,0,0,0,0,0,0,0,0,0,0,0,0,0,0,0,0,0,0,0,0,0,0,0,0,0,0,0,0],"sum_hessian":[5.883762E4,2.7316041E4,3.152158E4,1.7400734E4,9.915306E3,9.112185E3,2.2409395E4,6.4532573E3,1.0947478E4,2.7180515E3,7.1972544E3,6.262031E2,8.485981E3,1.3342428E4,9.066967E3,1.0748529E3,5.378405E3,8.990768E3,1.9567101E3,1.1854984E3,1.532553E3,4.7337812E3,2.463473E3,1.1249398E1,6.1495374E2,4.8717046E3,3.6142773E3,6.9549375E3,6.38749E3,4.9221763E3,4.1447905E3],"tree_param":{"num_deleted":"0","num_feature":"21","num_nodes":"31","size_leaf_vector":"1"}},{"base_weights":[-2.0149383E-3,-7.7801734E-2,4.8749015E-2,-1.9238743E-1,-5.6257643E-2,9.090095E-2,1.39143355E-2,-2.1886302E-2,-1.6186391E-1,-6.0535107E-2,2.5843877E-1,6.775314E-2,1.955692E-1,3.7546153E-3,1.0905703E-1,-1.3336897E-2,-2.8013713E-3,-7.146471E-3,-3.401082E-3,7.146734E-3,3.874607E-2,7.3088566E-3,6.119421E-4,2.3097157E-2,1.2022414E-2,-2.070483E-3,1.7852872E-3,6.585728E-3,2.9417267E-2],"categories":[0,2,3,6],"categories_nodes":[11],"categories_segments":[0],"categories_sizes":[4],"default_left":[0,0,0,0,1,1,0,0,1,0,0,1,1,0,1,0,0,0,0,0,0,0,0,0,0,0,0,0,0],"id":31,"left_children":[1,3,5,7,9,11,13,-1,15,17,19,21,23,25,27,-1,-1,-1,-1,-1,-1,-1,-1,-1,-1,-1,-1,-1,-1],"loss_changes":[2.2720364E2,5.842047E1,5.192388E1,1.0908539E1,2.6939869E1,3.8695465E1,1.8721954E1,0E0,5.290291E0,1.0377769E1,1.0943792E1,2.276369E1,1.132267E1,1.0875566E1,1.1236429E1,0E0,0E0,0E0,0E0,0E0,0E0,0E0,0E0,0E0,0E0,0E0,0E0,0E0,0E0],"parents":[2147483647,0,0,1,1,2,2,3,3,4,4,5,5,6,6,8,8,9,9,10,10,11,11,12,12,13,13,14,14],"right_children":[2,4,6,8,10,12,14,-1,16,18,20,22,24,26,28,-1,-1,-1,-1,-1,-1,-1,-1,-1,-1,-1,-1,-1,-1],"split_conditions":[6.4556766E-1,2.3223826E-1,1.426884E3,9.519485E-2,3.0063915E0,1.4444718E0,1E0,-2.1886302E-2,1E0,4.0879864E-1,5.315535E-1,1E-45,6E-1,7.650808E-1,1.7107055E0,-1.3336897E-2,-2.8013713E-3,-7.146471E-3,-3.401082E-3,7.146734E-3,3.874607E-2,7.3088566E-3,6.119421E-4,2.3097157E-2,1.2022414E-2,-2.070483E-3,1.7852872E-3,6.585728E-3,2.9417267E-2],"split_indices":[15,15,7,15,9,9,13,0,13,15,15,17,6,15,3,0,0,0,0,0,0,0,0,0,0,0,0,0,0],"split_type":[0,0,0,0,0,0,0,0,0,0,0,1,0,0,0,0,0,0,0,0,0,0,0,0,0,0,0,0,0],"sum_hessian":[5.904521E4,2.3683916E4,3.5361293E4,3.741234E3,1.9942682E4,1.59961045E4,1.936519E4,8.7943665E2,2.8617974E3,1.9679703E4,2.6297882E2,1.3106711E4,2.8893936E3,1.7502059E4,1.8631299E3,2.5544622E3,3.0733505E2,6.1201934E3,1.3559509E4,1.6484027E2,9.813855E1,8.805198E3,4.3015137E3,7.0299005E2,2.1864036E3,6.8169883E3,1.0685071E4,1.735859E3,1.2727092E2],"tree_param":{"num_deleted":"0","num_feature":"21","num_nodes":"29","size_leaf_vector":"1"}},{"base_weights":[1.6159023E-4,-7.0726104E-2,4.8025172E-2,-1.8134683E-1,-5.0372817E-2,3.3560038E-2,1.394448E-1,-2.5591046E-2,-1.6161807E-1,-5.674395E-2,1.7982164E-1,4.60504E-3,7.411088E-2,5.940172E-2,1.7449793E-1,-1.2958234E-2,4.0174015E-3,-5.079859E-3,-1.3218992E-5,2.3733797E-2,-4.427936E-3,1.4372202E-4,2.9739944E-2,9.857067E-3,4.0983036E-3,1.4991022E-2,2.4843111E-3,-5.580986E-3,1.4459165E-2],"categories":[],"categories_nodes":[],"categories_segments":[],"categories_sizes":[],"default_left":[0,0,1,0,0,0,0,0,1,0,0,1,0,1,1,0,0,0,0,0,0,0,0,0,0,0,0,0,0],"id":32,"left_children":[1,3,5,7,9,11,13,-1,15,17,19,21,23,25,27,-1,-1,-1,-1,-1,-1,-1,-1,-1,-1,-1,-1,-1,-1],"loss_changes":[2.0009795E2,5.346752E1,4.652825E1,1.1188011E1,2.9512379E1,3.5695244E1,1.343103E1,0E0,7.2102966E0,1.1699909E1,1.7527384E1,1.865953E1,1.4131775E1,5.393986E0,1.429995E1,0E0,0E0,0E0,0E0,0E0,0E0,0E0,0E0,0E0,0E0,0E0,0E0,0E0,0E0],"parents":[2147483647,0,0,1,1,2,2,3,3,4,4,5,5,6,6,8,8,9,9,10,10,11,11,12,12,13,13,14,14],"right_children":[2,4,6,8,10,12,14,-1,16,18,20,22,24,26,28,-1,-1,-1,-1,-1,-1,-1,-1,-1,-1,-1,-1,-1,-1],"split_conditions":[6.4556766E-1,2.3223826E-1,1E0,-5.703329E2,2.9079647E0,8.650814E-1,8.52496E-1,-2.5591046E-2,1.7209069E0,1.2643694E0,1.4749327E0,2.9079647E0,1.1899888E3,6E-1,3.483628E-1,-1.2958234E-2,4.0174015E-3,-5.079859E-3,-1.3218992E-5,2.3733797E-2,-4.427936E-3,1.4372202E-4,2.9739944E-2,9.857067E-3,4.0983036E-3,1.4991022E-2,2.4843111E-3,-5.580986E-3,1.4459165E-2],"split_indices":[15,15,13,14,11,15,11,0,11,10,1,11,7,6,1,0,0,0,0,0,0,0,0,0,0,0,0,0,0],"split_type":[0,0,0,0,0,0,0,0,0,0,0,0,0,0,0,0,0,0,0,0,0,0,0,0,0,0,0,0,0],"sum_hessian":[5.896363E4,2.376465E4,3.5198977E4,3.6861418E3,2.007851E4,3.039697E4,4.8020063E3,3.9954144E2,3.2866003E3,1.9541857E4,5.366515E2,1.773772E4,1.265925E4,1.4670629E3,3.3349434E3,3.1398232E3,1.467772E2,1.646174E4,3.0801165E3,3.4179443E2,1.9485707E2,1.7621191E4,1.16529045E2,3.275179E3,9.384071E3,2.2853056E2,1.2385323E3,2.1393613E2,3.121007E3],"tree_param":{"num_deleted":"0","num_feature":"21","num_nodes":"29","size_leaf_vector":"1"}},{"base_weights":[-1.2818724E-3,-9.754452E-2,2.8962461E-2,-1.7524393E-1,-7.43075E-2,4.2243362E-3,8.39362E-2,-2.6712673E-2,-1.5667118E-1,-8.40381E-2,1.582869E-2,-2.8104794E-3,1.6558225E-1,1.2623039E-1,4.7430344E-2,-1.24981655E-2,3.5608055E-3,-6.5476503E-3,1.724668E-2,1.4609986E-2,-3.9710643E-4,-1.4988334E-3,3.7377297E-3,5.281715E-2,1.0280558E-2,3.9443676E-3,1.19592715E-2,2.6600633E-3,1.1109625E-2],"categories":[0,1,2,6],"categories_nodes":[6],"categories_segments":[0],"categories_sizes":[4],"default_left":[0,0,0,0,1,1,1,0,0,1,0,0,0,0,0,0,0,0,0,0,0,0,0,0,0,0,0,0,0],"id":33,"left_children":[1,3,5,7,9,11,13,-1,15,17,19,21,23,25,27,-1,-1,-1,-1,-1,-1,-1,-1,-1,-1,-1,-1,-1,-1],"loss_changes":[1.7138206E2,2.5336365E1,6.0913902E1,1.0434395E1,9.517643E0,3.50751E1,2.1429337E1,0E0,5.4224854E0,8.493431E0,3.9853454E0,2.6441366E1,2.5212479E1,1.5314148E1,9.048851E0,0E0,0E0,0E0,0E0,0E0,0E0,0E0,0E0,0E0,0E0,0E0,0E0,0E0,0E0],"parents":[2147483647,0,0,1,1,2,2,3,3,4,4,5,5,6,6,8,8,9,9,10,10,11,11,12,12,13,13,14,14],"right_children":[2,4,6,8,10,12,14,-1,16,18,20,22,24,26,28,-1,-1,-1,-1,-1,-1,-1,-1,-1,-1,-1,-1,-1,-1],"split_conditions":[-6.780841E1,-2.9211743E2,2.56266E2,-6.10853E2,1.417338E0,1.6512977E0,1E-45,-2.6712673E-2,1.7623979E0,2.9079647E0,2.2222222E-1,8.5714287E-1,1.0632514E-1,8.104E1,6.185421E2,-1.24981655E-2,3.5608055E-3,-6.5476503E-3,1.724668E-2,1.4609986E-2,-3.9710643E-4,-1.4988334E-3,3.7377297E-3,5.281715E-2,1.0280558E-2,3.9443676E-3,1.19592715E-2,2.6600633E-3,1.1109625E-2],"split_indices":[14,14,14,14,3,3,17,0,11,11,6,13,2,19,14,0,0,0,0,0,0,0,0,0,0,0,0,0,0],"split_type":[0,0,0,0,0,0,1,0,0,0,0,0,0,0,0,0,0,0,0,0,0,0,0,0,0,0,0,0,0],"sum_hessian":[5.8854844E4,1.4067598E4,4.4787246E4,3.230146E3,1.0837452E4,3.089193E4,1.3895317E4,2.9447583E2,2.9356702E3,9.781838E3,1.0556143E3,2.9606645E4,1.2852855E3,6.4309463E3,7.4643716E3,2.8129434E3,1.22727E2,9.700859E3,8.097835E1,1.07093544E2,9.485207E2,2.2334057E4,7.272587E3,4.2881573E1,1.2424039E3,1.9580688E3,4.4728774E3,6.659529E3,8.048423E2],"tree_param":{"num_deleted":"0","num_feature":"21","num_nodes":"29","size_leaf_vector":"1"}},{"base_weights":[-3.716001E-4,-4.270123E-2,5.884771E-2,-1.4775035E-1,-2.4862887E-2,8.974011E-2,1.4537299E-2,-2.75877E-1,-1.2703305E-1,-3.78281E-2,4.1291628E-2,5.2964017E-2,1.3934892E-1,8.598544E-3,1.2131955E-1,-2.4937771E-2,-1.3920575E-2,-1.0058434E-2,2.4770765E-2,-7.7193943E-3,-2.133803E-3,1.07621355E-2,-8.249663E-4,2.069893E-2,3.5197104E-3,1.2653858E-2,3.941752E-3,-7.4533713E-3,1.1470565E-3,3.791924E-3,2.1417111E-2],"categories":[0,2,3,6,0,1,2,3,5,6],"categories_nodes":[2,10],"categories_segments":[0,4],"categories_sizes":[4,6],"default_left":[0,0,1,0,0,0,0,0,1,0,1,0,0,0,1,0,0,0,0,0,0,0,0,0,0,0,0,0,0,0,0],"id":34,"left_children":[1,3,5,7,9,11,13,15,17,19,21,23,25,27,29,-1,-1,-1,-1,-1,-1,-1,-1,-1,-1,-1,-1,-1,-1,-1,-1],"loss_changes":[1.483162E2,6.463643E1,3.3753098E1,1.3096077E1,2.5312853E1,2.646901E1,6.423236E0,3.1148605E0,1.2588234E1,1.5172508E1,2.5609623E1,1.1608738E1,1.52224655E1,6.8228507E0,6.0844216E0,0E0,0E0,0E0,0E0,0E0,0E0,0E0,0E0,0E0,0E0,0E0,0E0,0E0,0E0,0E0,0E0],"parents":[2147483647,0,0,1,1,2,2,3,3,4,4,5,5,6,6,7,7,8,8,9,9,10,10,11,11,12,12,13,13,14,14],"right_children":[2,4,6,8,10,12,14,16,18,20,22,24,26,28,30,-1,-1,-1,-1,-1,-1,-1,-1,-1,-1,-1,-1,-1,-1,-1,-1],"split_conditions":[1.4305678E2,-2.3002846E2,1E-45,-4.8987622E2,1.4444718E0,9.9962723E-1,1.881629E0,1.2303187E3,2.2358897E0,-1E0,1E-45,9.444099E2,1.4711295E3,1.5E0,1.1430196E0,-2.4937771E-2,-1.3920575E-2,-1.0058434E-2,2.4770765E-2,-7.7193943E-3,-2.133803E-3,1.07621355E-2,-8.249663E-4,2.069893E-2,3.5197104E-3,1.2653858E-2,3.941752E-3,-7.4533713E-3,1.1470565E-3,3.791924E-3,2.1417111E-2],"split_indices":[14,14,17,14,9,11,8,0,11,20,17,7,7,20,4,0,0,0,0,0,0,0,0,0,0,0,0,0,0,0,0],"split_type":[0,0,1,0,0,0,0,0,0,0,1,0,0,0,0,0,0,0,0,0,0,0,0,0,0,0,0,0,0,0,0],"sum_hessian":[5.915597E4,3.449832E4,2.4657646E4,5.0018667E3,2.9496455E4,1.4525207E4,1.0132439E4,6.8661725E2,4.315249E3,2.4664924E4,4.8315312E3,8.34812E3,6.177087E3,9.604329E3,5.2811017E2,4.2056985E2,2.660474E2,4.260496E3,5.475331E1,3.174338E3,2.1490586E4,1.6398182E3,3.191713E3,2.2501416E2,8.1231064E3,4.656191E3,1.5208961E3,5.5191077E2,9.052418E3,3.7253824E2,1.5557191E2],"tree_param":{"num_deleted":"0","num_feature":"21","num_nodes":"31","size_leaf_vector":"1"}},{"base_weights":[-7.755735E-4,-5.1376976E-2,5.327812E-2,-1.6580164E-1,-3.6050472E-2,3.81276E-2,1.14569835E-1,-2.741847E-1,-1.3392605E-1,-4.680737E-2,9.438571E-2,5.8056763E-3,6.651885E-2,-1.0494539E-2,1.3027392E-1,-2.2141825E-2,-7.2662695E-3,-1.1025665E-2,5.7964195E-3,-4.2874524E-3,5.9729913E-4,1.1965493E-2,-5.09558E-3,-2.1915021E-4,6.650535E-3,6.9289217E-3,9.3649176E-4,7.1434455E-4,-2.1800062E-2,7.699791E-3,1.692267E-2],"categories":[],"categories_nodes":[],"categories_segments":[],"categories_sizes":[],"default_left":[0,0,0,0,0,1,1,0,1,1,0,1,0,0,0,0,0,0,0,0,0,0,0,0,0,0,0,0,0,0,0],"id":35,"left_children":[1,3,5,7,9,11,13,15,17,19,21,23,25,27,29,-1,-1,-1,-1,-1,-1,-1,-1,-1,-1,-1,-1,-1,-1,-1,-1],"loss_changes":[1.596981E2,5.2852333E1,2.61902E1,1.20956955E1,3.734854E1,2.0776878E1,1.0991104E1,2.5970078E0,7.1650085E0,1.3473347E1,2.1145103E1,7.5996027E0,1.6502647E1,3.5115273E0,1.3056847E1,0E0,0E0,0E0,0E0,0E0,0E0,0E0,0E0,0E0,0E0,0E0,0E0,0E0,0E0,0E0,0E0],"parents":[2147483647,0,0,1,1,2,2,3,3,4,4,5,5,6,6,7,7,8,8,9,9,10,10,11,11,12,12,13,13,14,14],"right_children":[2,4,6,8,10,12,14,16,18,20,22,24,26,28,30,-1,-1,-1,-1,-1,-1,-1,-1,-1,-1,-1,-1,-1,-1,-1,-1],"split_conditions":[7.3095316E-1,2.3223826E-1,4.1396173E2,9.519485E-2,1.6834663E0,8.7437993E-1,5.1685166E-1,1.7036736E0,1.6834663E0,1.289701E0,1.5069716E3,1.3998686E0,1.5509481E3,1.1841162E0,1.1510556E0,-2.2141825E-2,-7.2662695E-3,-1.1025665E-2,5.7964195E-3,-4.2874524E-3,5.9729913E-4,1.1965493E-2,-5.09558E-3,-2.1915021E-4,6.650535E-3,6.9289217E-3,9.3649176E-4,7.1434455E-4,-2.1800062E-2,7.699791E-3,1.692267E-2],"split_indices":[15,15,14,15,11,9,1,9,11,3,7,10,7,3,11,0,0,0,0,0,0,0,0,0,0,0,0,0,0,0,0],"split_type":[0,0,0,0,0,0,0,0,0,0,0,0,0,0,0,0,0,0,0,0,0,0,0,0,0,0,0,0,0,0,0],"sum_hessian":[5.8375223E4,3.0150574E4,2.8224648E4,3.5549724E3,2.6595604E4,2.2637918E4,5.5867314E3,7.982562E2,2.756716E3,2.4572707E4,2.0228951E3,1.0589297E4,1.204862E4,6.2346106E2,4.96327E3,7.16968E2,8.12882E1,2.6074844E3,1.4923187E2,2.0771021E4,3.801685E3,1.4486584E3,5.742367E2,9.581121E3,1.00817584E3,8.205904E3,3.8427163E3,5.867908E2,3.6670246E1,3.8261016E3,1.1371687E3],"tree_param":{"num_deleted":"0","num_feature":"21","num_nodes":"31","size_leaf_vector":"1"}},{"base_weights":[8.5755985E-4,3.7888784E-2,-4.1199762E-2,4.173685E-3,8.895521E-2,-1.3599718E-1,-3.6441512E-2,3.635594E-2,-2.3779573E-2,8.081581E-2,3.942455E-1,-3.377759E-2,-1.6854261E-1,-2.4927123E-2,-7.4116655E-2,4.690571E-3,-8.0421806E-4,-4.8762662E-3,-3.2123286E-4,4.2215614E-3,9.421803E-3,5.281715E-2,2.1873368E-2,-6.5747434E-3,2.226474E-2,-8.563239E-3,-1.6622411E-2,-3.0802896E-3,1.4048765E-3,-1.8130166E-3,-6.8400884E-3],"categories":[2,3,4,1,4,5],"categories_nodes":[3,12],"categories_segments":[0,3],"categories_sizes":[3,3],"default_left":[0,0,0,1,1,0,1,1,0,1,0,0,1,1,0,0,0,0,0,0,0,0,0,0,0,0,0,0,0,0,0],"id":36,"left_children":[1,3,5,7,9,11,13,15,17,19,21,23,25,27,29,-1,-1,-1,-1,-1,-1,-1,-1,-1,-1,-1,-1,-1,-1,-1,-1],"loss_changes":[9.138902E1,5.372231E1,1.236549E1,1.6918201E1,3.0655937E1,4.33E0,1.1342201E1,1.0610961E1,8.024481E0,1.3208817E1,1.6408138E1,5.822574E0,2.6899548E0,1.3885309E1,5.059532E0,0E0,0E0,0E0,0E0,0E0,0E0,0E0,0E0,0E0,0E0,0E0,0E0,0E0,0E0,0E0,0E0],"parents":[2147483647,0,0,1,1,2,2,3,3,4,4,5,5,6,6,7,7,8,8,9,9,10,10,11,11,12,12,13,13,14,14],"right_children":[2,4,6,8,10,12,14,16,18,20,22,24,26,28,30,-1,-1,-1,-1,-1,-1,-1,-1,-1,-1,-1,-1,-1,-1,-1,-1],"split_conditions":[1.556175E3,1.0365741E0,4.7078744E-1,1E-45,2.2489545E0,7.322E1,7.265E1,5.4E1,1E0,1.4537075E0,3.3333334E-1,1.0649189E0,1E-45,7.1428573E-1,-3.7264636E-1,4.690571E-3,-8.0421806E-4,-4.8762662E-3,-3.2123286E-4,4.2215614E-3,9.421803E-3,5.281715E-2,2.1873368E-2,-6.5747434E-3,2.226474E-2,-8.563239E-3,-1.6622411E-2,-3.0802896E-3,1.4048765E-3,-1.8130166E-3,-6.8400884E-3],"split_indices":[7,11,3,17,1,19,19,19,16,11,13,4,17,13,5,0,0,0,0,0,0,0,0,0,0,0,0,0,0,0,0],"split_type":[0,0,0,1,0,0,0,0,0,0,0,0,1,0,0,0,0,0,0,0,0,0,0,0,0,0,0,0,0,0,0],"sum_hessian":[5.8668035E4,3.1198496E4,2.7469537E4,1.8795422E4,1.2403074E4,1.3055344E3,2.6164002E4,8.736041E3,1.0059381E4,1.2087867E4,3.152071E2,3.180345E2,9.8749994E2,2.0046592E4,6.1174106E3,5.638744E3,3.0972969E3,3.248831E3,6.81055E3,7.7346934E3,4.3531743E3,2.8639336E1,2.8656775E2,2.7717065E2,4.0863846E1,4.8717606E2,5.0032385E2,1.4685816E4,5.360776E3,1.5217941E3,4.5956167E3],"tree_param":{"num_deleted":"0","num_feature":"21","num_nodes":"31","size_leaf_vector":"1"}},{"base_weights":[1.4352537E-3,-7.49859E-2,3.6013346E-2,-1.6441037E-1,-5.6865238E-2,1.662054E-2,9.184366E-2,-1.7279589E-1,1.6345508E-1,-6.89431E-2,-1.2365791E-3,-3.4900585E-3,6.795418E-2,7.0326865E-2,1.4574474E-1,-1.9311978E-2,-1.05789825E-2,1.8710246E-2,-1.4158042E-2,-5.3945724E-3,1.0057898E-2,1.1165902E-2,-1.3946439E-3,-5.0487375E-4,1.0201986E-2,7.797614E-3,7.134159E-4,4.261445E-3,1.2780392E-2,-1.3914221E-3,1.28269885E-2],"categories":[0,2,6],"categories_nodes":[12],"categories_segments":[0],"categories_sizes":[3],"default_left":[0,0,0,0,1,0,1,0,0,1,0,1,1,0,0,0,0,0,0,0,0,0,0,0,0,0,0,0,0,0,0],"id":37,"left_children":[1,3,5,7,9,11,13,15,17,19,21,23,25,27,29,-1,-1,-1,-1,-1,-1,-1,-1,-1,-1,-1,-1,-1,-1,-1,-1],"loss_changes":[1.5576625E2,2.9703506E1,4.3931595E1,8.656242E0,1.0264023E1,3.1103794E1,1.20756E1,7.9742813E0,2.6327477E0,6.533283E0,7.0437403E0,9.618827E0,1.7552158E1,1.0217865E1,1.1882473E1,0E0,0E0,0E0,0E0,0E0,0E0,0E0,0E0,0E0,0E0,0E0,0E0,0E0,0E0,0E0,0E0],"parents":[2147483647,0,0,1,1,2,2,3,3,4,4,5,5,6,6,7,7,8,8,9,9,10,10,11,11,12,12,13,13,14,14],"right_children":[2,4,6,8,10,12,14,16,18,20,22,24,26,28,30,-1,-1,-1,-1,-1,-1,-1,-1,-1,-1,-1,-1,-1,-1,-1,-1],"split_conditions":[-1.4589583E1,-2.9211743E2,3.1264194E2,2.2358897E0,1.3649131E0,1.1568531E0,1.1124467E0,1.2083308E3,-3.1805432E2,2.4763823E0,1.4054211E0,1.9550983E0,1E-45,6.898173E2,5.555556E-1,-1.9311978E-2,-1.05789825E-2,1.8710246E-2,-1.4158042E-2,-5.3945724E-3,1.0057898E-2,1.1165902E-2,-1.3946439E-3,-5.0487375E-4,1.0201986E-2,7.797614E-3,7.134159E-4,4.261445E-3,1.2780392E-2,-1.3914221E-3,1.28269885E-2],"split_indices":[14,14,14,11,1,11,11,0,14,11,1,1,17,14,13,0,0,0,0,0,0,0,0,0,0,0,0,0,0,0,0],"split_type":[0,0,0,0,0,0,0,0,0,0,0,0,1,0,0,0,0,0,0,0,0,0,0,0,0,0,0,0,0,0,0],"sum_hessian":[5.89353E4,1.8357281E4,4.057802E4,3.0854797E3,1.5271802E4,3.0122234E4,1.0455785E4,3.011111E3,7.436862E1,1.2546436E4,2.7253667E3,2.1646973E4,8.475262E3,7.4819473E3,2.9738376E3,8.3706805E2,2.1740432E3,6.126305E1,1.3105573E1,1.2393622E4,1.528133E2,2.7797253E2,2.447394E3,2.1163834E4,4.8313803E2,5.277993E3,3.1972688E3,6.5719126E3,9.100344E2,3.8294516E2,2.5908926E3],"tree_param":{"num_deleted":"0","num_feature":"21","num_nodes":"31","size_leaf_vector":"1"}},{"base_weights":[2.5344123E-3,-6.787378E-2,3.4031164E-2,-1.488387E-1,-5.1109605E-2,5.8600184E-2,-1.0301631E-2,-1.6143423E-1,7.107827E-2,-5.4602623E-2,1.9650838E-1,2.2195516E-2,1.0096513E-1,-2.9011296E-2,6.1590027E-2,-1.9448623E-2,-9.712007E-3,1.5047875E-2,-1.2054992E-2,-4.7138208E-3,8.535228E-4,-1.9417675E-2,2.0443806E-2,4.6450337E-3,-1.3644771E-3,1.0025137E-2,4.5533283E-3,-2.7270576E-3,4.6063284E-3,-1.1827126E-2,5.2560424E-3],"categories":[0,1,3,5,2,3,4,6,0,1,2,3,6],"categories_nodes":[8,11,12],"categories_segments":[0,4,8],"categories_sizes":[4,4,5],"default_left":[0,0,0,0,1,0,1,0,1,1,0,1,1,1,0,0,0,0,0,0,0,0,0,0,0,0,0,0,0,0,0],"id":38,"left_children":[1,3,5,7,9,11,13,15,17,19,21,23,25,27,29,-1,-1,-1,-1,-1,-1,-1,-1,-1,-1,-1,-1,-1,-1,-1,-1],"loss_changes":[1.3011867E2,2.4572578E1,4.4159225E1,8.673065E0,1.3062401E1,4.0217216E1,1.9460001E1,9.084137E0,5.281723E0,7.6969147E0,7.4955616E0,2.2262922E1,1.557412E1,7.383814E0,5.3255157E0,0E0,0E0,0E0,0E0,0E0,0E0,0E0,0E0,0E0,0E0,0E0,0E0,0E0,0E0,0E0,0E0],"parents":[2147483647,0,0,1,1,2,2,3,3,4,4,5,5,6,6,7,7,8,8,9,9,10,10,11,11,12,12,13,13,14,14],"right_children":[2,4,6,8,10,12,14,16,18,20,22,24,26,28,30,-1,-1,-1,-1,-1,-1,-1,-1,-1,-1,-1,-1,-1,-1,-1,-1],"split_conditions":[-1.4589583E1,-2.9211743E2,1.5535549E3,1.7209069E0,2.4763823E0,9.747369E-1,5.15E0,1.1882377E3,1E-45,-9.5E-1,4.628765E-1,1E-45,1E-45,1E0,7.048E1,-1.9448623E-2,-9.712007E-3,1.5047875E-2,-1.2054992E-2,-4.7138208E-3,8.535228E-4,-1.9417675E-2,2.0443806E-2,4.6450337E-3,-1.3644771E-3,1.0025137E-2,4.5533283E-3,-2.7270576E-3,4.6063284E-3,-1.1827126E-2,5.2560424E-3],"split_indices":[14,14,7,11,11,11,20,0,17,20,1,17,17,13,18,0,0,0,0,0,0,0,0,0,0,0,0,0,0,0,0],"split_type":[0,0,0,0,0,0,0,0,1,0,0,1,1,0,0,0,0,0,0,0,0,0,0,0,0,0,0,0,0,0,0],"sum_hessian":[5.866325E4,1.8129625E4,4.0533625E4,3.1023508E3,1.5027274E4,2.6078982E4,1.4454645E4,2.9356982E3,1.6665271E2,1.4822538E4,2.0473643E2,1.4030734E4,1.2048248E4,1.1472327E4,2.982317E3,7.345926E2,2.2011055E3,1.0759073E2,5.906199E1,1.3241634E4,1.5809038E3,2.6912827E1,1.7782361E2,7.094286E3,6.936448E3,6.7412017E3,5.307046E3,1.063368E4,8.386478E2,1.02626236E2,2.8796907E3],"tree_param":{"num_deleted":"0","num_feature":"21","num_nodes":"31","size_leaf_vector":"1"}},{"base_weights":[1.4453859E-3,-6.0759015E-2,3.724443E-2,-1.355345E-1,-4.0901113E-2,9.635702E-2,2.2914466E-2,-2.507005E-1,-1.1577373E-1,1.0690344E-1,-4.4721704E-2,2.109193E-2,1.2553954E-1,1.0964664E-2,7.197966E-2,-2.0348027E-2,3.816676E-3,-9.48134E-3,1.0593376E-2,7.622034E-4,2.2981435E-2,-4.205535E-3,2.4415267E-4,-3.1028553E-3,7.343433E-3,6.400303E-3,1.3416787E-2,-1.3162118E-3,2.4857132E-3,8.973401E-3,2.1270898E-3],"categories":[],"categories_nodes":[],"categories_segments":[],"categories_sizes":[],"default_left":[0,0,0,0,0,1,0,0,1,0,0,0,0,0,0,0,0,0,0,0,0,0,0,0,0,0,0,0,0,0,0],"id":39,"left_children":[1,3,5,7,9,11,13,15,17,19,21,23,25,27,29,-1,-1,-1,-1,-1,-1,-1,-1,-1,-1,-1,-1,-1,-1,-1,-1],"loss_changes":[1.3072644E2,3.1810562E1,3.155035E1,1.0072723E1,9.59956E0,1.5949814E1,1.7583794E1,3.8147888E0,9.845486E0,8.188038E0,8.732708E0,9.68591E0,1.1061272E1,1.5069513E1,1.2056894E1,0E0,0E0,0E0,0E0,0E0,0E0,0E0,0E0,0E0,0E0,0E0,0E0,0E0,0E0,0E0,0E0],"parents":[2147483647,0,0,1,1,2,2,3,3,4,4,5,5,6,6,7,7,8,8,9,9,10,10,11,11,12,12,13,13,14,14],"right_children":[2,4,6,8,10,12,14,16,18,20,22,24,26,28,30,-1,-1,-1,-1,-1,-1,-1,-1,-1,-1,-1,-1,-1,-1,-1,-1],"split_conditions":[6.240154E-1,2.7117074E-1,1.2283602E3,8.481944E-2,1E-1,7.522199E-1,1.2234304E0,1.5236215E3,1.9037505E0,1.3871304E0,1.22515E0,1.5633458E3,1.4728206E3,7.9047763E-1,1.4711295E3,-2.0348027E-2,3.816676E-3,-9.48134E-3,1.0593376E-2,7.622034E-4,2.2981435E-2,-4.205535E-3,2.4415267E-4,-3.1028553E-3,7.343433E-3,6.400303E-3,1.3416787E-2,-1.3162118E-3,2.4857132E-3,8.973401E-3,2.1270898E-3],"split_indices":[15,15,7,15,6,9,11,0,11,3,10,0,0,15,7,0,0,0,0,0,0,0,0,0,0,0,0,0,0,0,0],"split_type":[0,0,0,0,0,0,0,0,0,0,0,0,0,0,0,0,0,0,0,0,0,0,0,0,0,0,0,0,0,0,0],"sum_hessian":[5.8693152E4,2.1438219E4,3.7254934E4,4.491771E3,1.6946447E4,7.262867E3,2.9992066E4,6.4827673E2,3.8434944E3,4.232099E2,1.6523238E4,2.0319265E3,5.230941E3,2.4123611E4,5.8684546E3,6.104141E2,3.7862617E1,3.7034353E3,1.4005916E2,2.8803488E2,1.3517502E2,1.343617E4,3.087068E3,1.1202461E3,9.116804E2,2.9489087E3,2.282032E3,1.0523197E4,1.3600415E4,2.8274585E3,3.040996E3],"tree_param":{"num_deleted":"0","num_feature":"21","num_nodes":"31","size_leaf_vector":"1"}},{"base_weights":[-2.3018974E-3,-4.143931E-2,4.5773618E-2,-1.0946398E-1,-2.1769091E-2,2.9806279E-2,1.098261E-1,-2.672473E-1,-9.425083E-2,-9.3318604E-2,-1.2122652E-2,1.6442578E-2,8.7477915E-2,2.5248656E-2,1.4164059E-1,-2.4206232E-2,-1.3001847E-2,-7.5896494E-3,8.857974E-3,-2.821199E-3,-9.083816E-3,-2.6476828E-3,8.601234E-4,-3.810505E-3,1.8294348E-3,9.691564E-3,9.6849113E-4,3.7829077E-4,1.9113475E-2,1.025977E-2,3.7573718E-2],"categories":[],"categories_nodes":[],"categories_segments":[],"categories_sizes":[],"default_left":[0,0,0,0,0,1,1,0,1,0,0,0,0,0,0,0,0,0,0,0,0,0,0,0,0,0,0,0,0,0,0],"id":40,"left_children":[1,3,5,7,9,11,13,15,17,19,21,23,25,27,29,-1,-1,-1,-1,-1,-1,-1,-1,-1,-1,-1,-1,-1,-1,-1,-1],"loss_changes":[1.1129642E2,4.3616306E1,2.7130276E1,1.7411697E1,1.7455584E1,1.6373804E1,1.4226959E1,2.945301E0,9.022373E0,4.5244827E0,1.2050121E1,9.0253105E0,1.2214529E1,6.70331E0,7.385765E0,0E0,0E0,0E0,0E0,0E0,0E0,0E0,0E0,0E0,0E0,0E0,0E0,0E0,0E0,0E0,0E0],"parents":[2147483647,0,0,1,1,2,2,3,3,4,4,5,5,6,6,7,7,8,8,9,9,10,10,11,11,12,12,13,13,14,14],"right_children":[2,4,6,8,10,12,14,16,18,20,22,24,26,28,30,-1,-1,-1,-1,-1,-1,-1,-1,-1,-1,-1,-1,-1,-1,-1,-1],"split_conditions":[1.2816243E2,-1.664166E2,4.254035E2,-4.8987622E2,-1E0,1.3819174E0,7.0931274E-1,1.2303187E3,1.9037505E0,7.039E1,9.0948373E-1,4.05E0,1.4711295E3,1.0699537E0,2.6783476E0,-2.4206232E-2,-1.3001847E-2,-7.5896494E-3,8.857974E-3,-2.821199E-3,-9.083816E-3,-2.6476828E-3,8.601234E-4,-3.810505E-3,1.8294348E-3,9.691564E-3,9.6849113E-4,3.7829077E-4,1.9113475E-2,1.025977E-2,3.7573718E-2],"split_indices":[14,14,14,14,20,9,11,0,11,19,11,20,7,12,9,0,0,0,0,0,0,0,0,0,0,0,0,0,0,0,0],"split_type":[0,0,0,0,0,0,0,0,0,0,0,0,0,0,0,0,0,0,0,0,0,0,0,0,0,0,0,0,0,0,0],"sum_hessian":[5.9140188E4,3.2601037E4,2.6539148E4,7.3067837E3,2.5294254E4,2.1250023E4,5.2891255E3,6.3440814E2,6.672376E3,2.9993093E3,2.2294943E4,1.7258143E4,3.991881E3,1.4484662E3,3.8406594E3,3.970638E2,2.3734431E2,6.481257E3,1.9111908E2,9.826083E2,2.0167012E3,1.1278991E4,1.1015953E4,1.7985018E3,1.545964E4,2.5747266E3,1.4171545E3,1.3356727E3,1.12793465E2,3.7881575E3,5.250196E1],"tree_param":{"num_deleted":"0","num_feature":"21","num_nodes":"31","size_leaf_vector":"1"}},{"base_weights":[-3.285132E-4,-6.565949E-2,2.9899577E-2,-1.2484251E-1,-4.549027E-2,1.686891E-2,9.486327E-2,-2.52734E-1,-1.0892978E-1,-7.14545E-2,-2.3397088E-2,-1.4122995E-4,6.4187124E-2,1.7076264E-1,4.1095745E-2,-2.0670429E-2,-3.393841E-3,-8.5510155E-3,1.6060924E-2,-5.5220798E-3,3.39296E-2,-5.925289E-3,-5.795812E-4,2.5011322E-3,-1.3287589E-3,4.5708604E-3,3.0658856E-2,-8.674862E-4,1.5513789E-2,2.8382367E-4,7.658954E-3],"categories":[0,1,2,5,6,0,2,3,4],"categories_nodes":[6,11],"categories_segments":[0,5],"categories_sizes":[5,4],"default_left":[0,0,0,0,0,0,1,1,1,0,0,1,0,1,0,0,0,0,0,0,0,0,0,0,0,0,0,0,0,0,0],"id":41,"left_children":[1,3,5,7,9,11,13,15,17,19,21,23,25,27,29,-1,-1,-1,-1,-1,-1,-1,-1,-1,-1,-1,-1,-1,-1,-1,-1],"loss_changes":[1.1641703E2,2.2227562E1,3.410813E1,9.485443E0,7.973755E0,2.7025074E1,2.7434532E1,2.2227402E0,6.1118393E0,5.953289E0,6.5185266E0,1.4369145E1,1.0823235E1,1.773127E1,8.9021225E0,0E0,0E0,0E0,0E0,0E0,0E0,0E0,0E0,0E0,0E0,0E0,0E0,0E0,0E0,0E0,0E0],"parents":[2147483647,0,0,1,1,2,2,3,3,4,4,5,5,6,6,7,7,8,8,9,9,10,10,11,11,12,12,13,13,14,14],"right_children":[2,4,6,8,10,12,14,16,18,20,22,24,26,28,30,-1,-1,-1,-1,-1,-1,-1,-1,-1,-1,-1,-1,-1,-1,-1,-1],"split_conditions":[-6.8063097E0,-2.3002846E2,1.4444718E0,-5.148224E2,6.25E-1,3.1711258E2,1E-45,6.52E1,2.4763823E0,2.9079647E0,-5.2E-1,1E-45,1.9674064E0,6.2563306E-1,2.3404036E2,-2.0670429E-2,-3.393841E-3,-8.5510155E-3,1.6060924E-2,-5.5220798E-3,3.39296E-2,-5.925289E-3,-5.795812E-4,2.5011322E-3,-1.3287589E-3,4.5708604E-3,3.0658856E-2,-8.674862E-4,1.5513789E-2,2.8382367E-4,7.658954E-3],"split_indices":[14,14,9,14,13,14,17,18,11,11,20,17,10,3,14,0,0,0,0,0,0,0,0,0,0,0,0,0,0,0,0],"split_type":[0,0,0,0,0,0,1,0,0,0,0,1,0,0,0,0,0,0,0,0,0,0,0,0,0,0,0,0,0,0,0],"sum_hessian":[5.8939246E4,1.8642111E4,4.0297137E4,4.7309536E3,1.3911158E4,3.357048E4,6.726654E3,5.143002E2,4.2166533E3,6.3895615E3,7.521596E3,2.4697646E4,8.872835E3,2.784223E3,3.9424307E3,4.6502838E2,4.9271805E1,4.163358E3,5.329535E1,6.373196E3,1.636576E1,1.6635073E3,5.858089E3,8.498264E3,1.6199384E4,8.786748E3,8.608629E1,4.4747375E2,2.3367493E3,2.440265E3,1.5021658E3],"tree_param":{"num_deleted":"0","num_feature":"21","num_nodes":"31","size_leaf_vector":"1"}},{"base_weights":[1.5193775E-4,-3.5118755E-2,5.1468074E-2,-9.421201E-2,-1.8976387E-2,3.1955972E-2,9.975061E-2,-2.1477042E-1,-7.9296954E-2,-9.702239E-2,-9.206581E-3,7.89611E-2,1.5219107E-2,1.3170883E-1,2.3861427E-2,-1.7876681E-2,-2.6999314E-3,-6.2876004E-3,1.5447168E-2,1.7760727E-3,-8.543933E-3,-1.4555065E-3,4.4138073E-3,-1.7651701E-3,7.935731E-3,-3.684248E-3,1.8363125E-3,3.728257E-3,1.1898787E-2,-6.615449E-3,4.7261743E-3],"categories":[0,1,2,3,4,6],"categories_nodes":[5],"categories_segments":[0],"categories_sizes":[6],"default_left":[0,0,0,0,0,1,1,1,1,0,1,0,1,1,0,0,0,0,0,0,0,0,0,0,0,0,0,0,0,0,0],"id":42,"left_children":[1,3,5,7,9,11,13,15,17,19,21,23,25,27,29,-1,-1,-1,-1,-1,-1,-1,-1,-1,-1,-1,-1,-1,-1,-1,-1],"loss_changes":[1.06773E2,3.33404E1,2.2620773E1,1.3390701E1,2.0938904E1,1.3463612E1,1.674968E1,3.2138329E0,7.753113E0,5.9867992E0,1.6676483E1,1.2072737E1,7.3843236E0,1.0358841E1,8.920658E0,0E0,0E0,0E0,0E0,0E0,0E0,0E0,0E0,0E0,0E0,0E0,0E0,0E0,0E0,0E0,0E0],"parents":[2147483647,0,0,1,1,2,2,3,3,4,4,5,5,6,6,7,7,8,8,9,9,10,10,11,11,12,12,13,13,14,14],"right_children":[2,4,6,8,10,12,14,16,18,20,22,24,26,28,30,-1,-1,-1,-1,-1,-1,-1,-1,-1,-1,-1,-1,-1,-1,-1,-1],"split_conditions":[1.5657841E2,-1.6056316E2,8.5714287E-1,-4.4762103E2,-9.5E-1,1E-45,5.4E1,-1.161E1,2.2358897E0,6.2E1,1.563566E0,1.127E1,5.112045E-1,6.622301E-1,1.3126147E3,-1.7876681E-2,-2.6999314E-3,-6.2876004E-3,1.5447168E-2,1.7760727E-3,-8.543933E-3,-1.4555065E-3,4.4138073E-3,-1.7651701E-3,7.935731E-3,-3.684248E-3,1.8363125E-3,3.728257E-3,1.1898787E-2,-6.615449E-3,4.7261743E-3],"split_indices":[14,14,13,14,20,17,19,20,11,18,9,20,4,4,7,0,0,0,0,0,0,0,0,0,0,0,0,0,0,0,0],"split_type":[0,0,0,0,0,1,0,0,0,0,0,0,0,0,0,0,0,0,0,0,0,0,0,0,0,0,0,0,0,0,0],"sum_hessian":[5.898088E4,3.495637E4,2.4024508E4,7.4943506E3,2.7462021E4,1.7116584E4,6.907923E3,8.168502E2,6.6775005E3,3.0496882E3,2.4412332E4,4.48888E3,1.2627704E4,4.858017E3,2.0499055E3,7.252708E2,9.157944E1,6.5878745E3,8.962588E1,3.6119922E2,2.688489E3,2.125123E4,3.161102E3,9.153402E2,3.5735396E3,1.5706577E3,1.1057047E4,1.1698304E3,3.6881868E3,5.26988E2,1.5229175E3],"tree_param":{"num_deleted":"0","num_feature":"21","num_nodes":"31","size_leaf_vector":"1"}},{"base_weights":[1.6711962E-4,-8.365858E-2,2.0505555E-2,-1.9630413E-1,-7.176595E-2,-2.532075E-3,5.405714E-2,-2.2076665E-1,-1.50590725E-2,-1.0734257E-1,-5.295131E-2,-1.1277381E-2,1.15341686E-1,2.4164844E-2,8.5390255E-2,-1.8443393E-2,-5.0719646E-3,-2.1919582E-2,7.813317E-3,-1.1368023E-2,-6.156609E-3,1.361796E-2,-4.226033E-3,-1.3788497E-3,4.633762E-3,2.6204713E-2,6.8745366E-3,1.0837609E-3,1.0662543E-2,5.863362E-3,2.8905947E-2],"categories":[],"categories_nodes":[],"categories_segments":[],"categories_sizes":[],"default_left":[0,0,0,0,1,0,0,1,0,0,0,1,0,0,0,0,0,0,0,0,0,0,0,0,0,0,0,0,0,0,0],"id":43,"left_children":[1,3,5,7,9,11,13,15,17,19,21,23,25,27,29,-1,-1,-1,-1,-1,-1,-1,-1,-1,-1,-1,-1,-1,-1,-1,-1],"loss_changes":[1.00712296E2,1.53730545E1,3.6745686E1,4.850628E0,6.9573975E0,2.9067577E1,1.811517E1,3.4232445E0,4.630988E0,3.9538918E0,4.9388103E0,1.3356513E1,1.0769829E1,1.1370123E1,2.1436943E1,0E0,0E0,0E0,0E0,0E0,0E0,0E0,0E0,0E0,0E0,0E0,0E0,0E0,0E0,0E0,0E0],"parents":[2147483647,0,0,1,1,2,2,3,3,4,4,5,5,6,6,7,7,8,8,9,9,10,10,11,11,12,12,13,13,14,14],"right_children":[2,4,6,8,10,12,14,16,18,20,22,24,26,28,30,-1,-1,-1,-1,-1,-1,-1,-1,-1,-1,-1,-1,-1,-1,-1,-1],"split_conditions":[-9.282454E1,-4.1543494E2,2.0500166E2,1.6097561E0,7.7364266E-1,2.0316064E0,9.306604E-1,6.59E1,-6.10853E2,-2.3002846E2,7.804694E-1,4.87E0,1.8876146E-1,6.898173E2,8.5613793E-1,-1.8443393E-2,-5.0719646E-3,-2.1919582E-2,7.813317E-3,-1.1368023E-2,-6.156609E-3,1.361796E-2,-4.226033E-3,-1.3788497E-3,4.633762E-3,2.6204713E-2,6.8745366E-3,1.0837609E-3,1.0662543E-2,5.863362E-3,2.8905947E-2],"split_indices":[14,14,14,9,3,9,9,18,14,14,3,20,8,14,12,0,0,0,0,0,0,0,0,0,0,0,0,0,0,0,0],"split_type":[0,0,0,0,0,0,0,0,0,0,0,0,0,0,0,0,0,0,0,0,0,0,0,0,0,0,0,0,0,0,0],"sum_hessian":[5.9061613E4,1.1528602E4,4.753301E4,1.0926337E3,1.0435968E4,2.818525E4,1.934776E4,9.616248E2,1.310088E2,3.600838E3,6.83513E3,2.6243262E4,1.9419886E3,9.906603E3,9.441157E3,8.303246E2,1.3130025E2,3.6995075E1,9.401373E1,1.332215E3,2.268623E3,8.4173416E1,6.7509565E3,2.3942793E4,2.300469E3,1.7663412E2,1.7653545E3,9.147532E3,7.5907025E2,9.210553E3,2.3060393E2],"tree_param":{"num_deleted":"0","num_feature":"21","num_nodes":"31","size_leaf_vector":"1"}},{"base_weights":[-1.3347861E-3,-9.660551E-2,1.579586E-2,-2.3663943E-1,-8.634609E-2,-4.321059E-3,5.842425E-2,-2.6901003E-2,-1.9076149E-1,-9.799833E-2,3.6533296E-3,-9.379355E-3,1.6711152E-1,8.80148E-3,7.415995E-2,-1.6661707E-2,1.6518341E-3,-6.3438974E-3,-1.0692839E-2,-1.90648E-2,1.466197E-3,-5.507354E-3,-2.2015956E-4,3.1160139E-2,8.345757E-3,1.072794E-4,1.2122778E-2,4.8946943E-3,1.5300336E-2],"categories":[],"categories_nodes":[],"categories_segments":[],"categories_sizes":[],"default_left":[0,0,0,0,0,0,0,0,0,0,0,0,0,0,1,0,0,0,0,0,0,0,0,0,0,0,0,0,0],"id":44,"left_children":[1,3,5,7,9,11,13,-1,15,17,19,21,23,25,27,-1,-1,-1,-1,-1,-1,-1,-1,-1,-1,-1,-1,-1,-1],"loss_changes":[9.632249E1,1.2808441E1,4.2900295E1,2.9793358E0,8.800205E0,2.9484669E1,1.2520355E1,0E0,2.9277973E0,4.4540405E0,3.9387772E0,1.35718775E1,1.3282431E1,4.3335133E0,1.4474884E1,0E0,0E0,0E0,0E0,0E0,0E0,0E0,0E0,0E0,0E0,0E0,0E0,0E0,0E0],"parents":[2147483647,0,0,1,1,2,2,3,3,4,4,5,5,6,6,8,8,9,9,10,10,11,11,12,12,13,13,14,14],"right_children":[2,4,6,8,10,12,14,-1,16,18,20,22,24,26,28,-1,-1,-1,-1,-1,-1,-1,-1,-1,-1,-1,-1,-1,-1],"split_conditions":[4.0549806E-1,8.481944E-2,8.6255944E-1,3.2107837E-2,1.4143617E0,2.9079647E0,1.306E1,-2.6901003E-2,1.5943298E0,8.333333E-1,1.2563539E-1,-9.5E-1,1.195096E-1,1.6601778E0,8.074E1,-1.6661707E-2,1.6518341E-3,-6.3438974E-3,-1.0692839E-2,-1.90648E-2,1.466197E-3,-5.507354E-3,-2.2015956E-4,3.1160139E-2,8.345757E-3,1.072794E-4,1.2122778E-2,4.8946943E-3,1.5300336E-2],"split_indices":[15,15,15,15,11,11,20,0,9,6,1,20,8,1,18,0,0,0,0,0,0,0,0,0,0,0,0,0,0],"split_type":[0,0,0,0,0,0,0,0,0,0,0,0,0,0,0,0,0,0,0,0,0,0,0,0,0,0,0,0,0],"sum_hessian":[5.9008535E4,8.989304E3,5.001923E4,6.052137E2,8.384091E3,3.398586E4,1.6033369E4,1.570264E2,