{"learner":{"attributes":{"scikit_learn":"{\"_estimator_type\": \"regressor\"}"},"feature_names":["home_elo","home_gf_adj5","home_ga_adj5","home_gf_adj10","home_ga_adj10","home_form5_perf","home_comp_share10","away_elo","away_gf_adj5","away_ga_adj5","away_gf_adj10","away_ga_adj10","away_form5_perf","away_comp_share10","elo_diff","elo_expected_home","true_home_advantage","match_type"],"feature_types":["float","float","float","float","float","float","float","float","float","float","float","float","float","float","float","float","int","c"],"gradient_booster":{"model":{"cats":{"enc":[{"offsets":[],"values":[]},{"offsets":[],"values":[]},{"offsets":[],"values":[]},{"offsets":[],"values":[]},{"offsets":[],"values":[]},{"offsets":[],"values":[]},{"offsets":[],"values":[]},{"offsets":[],"values":[]},{"offsets":[],"values":[]},{"offsets":[],"values":[]},{"offsets":[],"values":[]},{"offsets":[],"values":[]},{"offsets":[],"values":[]},{"offsets":[],"values":[]},{"offsets":[],"values":[]},{"offsets":[],"values":[]},{"offsets":[],"values":[]},{"offsets":[0,11,32,40,54,59,71,80],"values":[99,111,110,116,105,110,101,110,116,97,108,99,111,110,116,105,110,101,110,116,97,108,95,113,117,97,108,105,102,105,101,114,102,114,105,101,110,100,108,121,110,97,116,105,111,110,115,95,108,101,97,103,117,101,111,116,104,101,114,119,99,95,113,117,97,108,105,102,105,101,114,119,111,114,108,100,95,99,117,112]}],"feature_segments":[0,0,0,0,0,0,0,0,0,0,0,0,0,0,0,0,0,0,7],"sorted_idx":[0,1,2,3,4,5,6]},"gbtree_model_param":{"num_parallel_tree":"1","num_trees":"124"},"iteration_indptr":[0,1,2,3,4,5,6,7,8,9,10,11,12,13,14,15,16,17,18,19,20,21,22,23,24,25,26,27,28,29,30,31,32,33,34,35,36,37,38,39,40,41,42,43,44,45,46,47,48,49,50,51,52,53,54,55,56,57,58,59,60,61,62,63,64,65,66,67,68,69,70,71,72,73,74,75,76,77,78,79,80,81,82,83,84,85,86,87,88,89,90,91,92,93,94,95,96,97,98,99,100,101,102,103,104,105,106,107,108,109,110,111,112,113,114,115,116,117,118,119,120,121,122,123,124],"tree_info":[0,0,0,0,0,0,0,0,0,0,0,0,0,0,0,0,0,0,0,0,0,0,0,0,0,0,0,0,0,0,0,0,0,0,0,0,0,0,0,0,0,0,0,0,0,0,0,0,0,0,0,0,0,0,0,0,0,0,0,0,0,0,0,0,0,0,0,0,0,0,0,0,0,0,0,0,0,0,0,0,0,0,0,0,0,0,0,0,0,0,0,0,0,0,0,0,0,0,0,0,0,0,0,0,0,0,0,0,0,0,0,0,0,0,0,0,0,0,0,0,0,0,0,0],"trees":[{"base_weights":[-4.638704E-4,-1.2855281E-1,2.809243E-1,-2.5607374E-1,-5.322746E-2,2.1423253E-1,7E-1,-3.151751E-1,-1.9672534E-1,-6.1304774E-2,7E-1,1.9346657E-1,7E-1,5.689697E-1,7E-1,-3.0175153E-2,-2.1580083E-2,-1.5471681E-2,-1.3481169E-3,-8.152821E-3,1.3675658E-3,5.281715E-2,-2.0122696E-2,1.0752363E-2,2.5114944E-2,5.281715E-2,-1.1392016E-2,3.1522203E-2,5.281715E-2,5.281715E-2,1.1171904E-2],"categories":[],"categories_nodes":[],"categories_segments":[],"categories_sizes":[],"default_left":[0,0,0,0,1,1,1,0,0,0,0,0,0,0,0,0,0,0,0,0,0,0,0,0,0,0,0,0,0,0,0],"id":0,"left_children":[1,3,5,7,9,11,13,15,17,19,21,23,25,27,29,-1,-1,-1,-1,-1,-1,-1,-1,-1,-1,-1,-1,-1,-1,-1,-1],"loss_changes":[1.4165499E3,2.593495E2,3.8491516E2,3.4826233E1,1.0545538E2,1.2898193E2,1.177478E1,1.175705E1,7.451721E0,6.2442272E1,8.544609E0,7.38927E1,1.7745056E1,2.2189667E1,1.1804321E1,0E0,0E0,0E0,0E0,0E0,0E0,0E0,0E0,0E0,0E0,0E0,0E0,0E0,0E0,0E0,0E0],"parents":[2147483647,0,0,1,1,2,2,3,3,4,4,5,5,6,6,7,7,8,8,9,9,10,10,11,11,12,12,13,13,14,14],"right_children":[2,4,6,8,10,12,14,16,18,20,22,24,26,28,30,-1,-1,-1,-1,-1,-1,-1,-1,-1,-1,-1,-1,-1,-1,-1,-1],"split_conditions":[1.3970012E2,4.0708232E-1,4.6478897E2,2.4768426E-1,2.5E0,1.863331E0,9.236E-1,8.863412E-2,1.6739866E0,6.512003E-1,1.5297286E3,3.1581607E2,1.5858617E3,9.797715E-1,1.5907053E3,-3.0175153E-2,-2.1580083E-2,-1.5471681E-2,-1.3481169E-3,-8.152821E-3,1.3675658E-3,5.281715E-2,-2.0122696E-2,1.0752363E-2,2.5114944E-2,5.281715E-2,-1.1392016E-2,3.1522203E-2,5.281715E-2,5.281715E-2,1.1171904E-2],"split_indices":[14,15,14,15,11,11,11,15,11,15,7,14,7,15,7,0,0,0,0,0,0,0,0,0,0,0,0,0,0,0,0],"split_type":[0,0,0,0,0,0,0,0,0,0,0,0,0,0,0,0,0,0,0,0,0,0,0,0,0,0,0,0,0,0,0],"sum_hessian":[3.9290785E4,2.7002283E4,1.2288503E4,1.0022102E4,1.6980182E4,1.0787296E4,1.5012076E3,5.009429E3,5.012672E3,1.6808338E4,1.718445E2,1.043388E4,3.5341605E2,8.3976843E2,6.614392E2,1.2645161E3,3.7449133E3,4.7889497E3,2.2372209E2,1.0579785E4,6.2285527E3,1.653598E2,6.4846983E0,7.6487017E3,2.785178E3,3.307196E2,2.2696444E1,4.8959473E2,3.501737E2,6.192887E2,4.215054E1],"tree_param":{"num_deleted":"0","num_feature":"18","num_nodes":"31","size_leaf_vector":"1"}},{"base_weights":[1.2561373E-3,2.3157792E-1,-6.2525086E-2,8.305138E-2,4.5129418E-1,-1.3925366E-1,4.657131E-2,2.289719E-1,-2.0652976E-2,7E-1,3.1170213E-1,-4.209965E-2,-2.1329029E-1,1.68867E-1,-5.7075806E-2,6.7853923E-3,2.964535E-2,-4.8124776E-3,2.6648736E-2,2.711355E-2,5.281715E-2,1.78023E-2,5.281715E-2,-1.8245457E-2,7.5806276E-4,-2.0255858E-2,-1.1275958E-2,8.18325E-3,2.3022924E-2,-9.2050675E-3,2.9154553E-3],"categories":[],"categories_nodes":[],"categories_segments":[],"categories_sizes":[],"default_left":[0,0,0,0,0,0,0,0,1,0,0,0,0,0,0,0,0,0,0,0,0,0,0,0,0,0,0,0,0,0,0],"id":1,"left_children":[1,3,5,7,9,11,13,15,17,19,21,23,25,27,29,-1,-1,-1,-1,-1,-1,-1,-1,-1,-1,-1,-1,-1,-1,-1,-1],"loss_changes":[5.81673E2,2.800178E2,2.596067E2,7.76629E1,1.5110126E2,1.3090869E2,1.6240352E2,4.8393196E1,4.856145E1,1.8652283E1,9.134831E1,8.208802E1,3.6164124E1,4.819275E1,4.313118E1,0E0,0E0,0E0,0E0,0E0,0E0,0E0,0E0,0E0,0E0,0E0,0E0,0E0,0E0,0E0,0E0],"parents":[2147483647,0,0,1,1,2,2,3,3,4,4,5,5,6,6,7,7,8,8,9,9,10,10,11,11,12,12,13,13,14,14],"right_children":[2,4,6,8,10,12,14,16,18,20,22,24,26,28,30,-1,-1,-1,-1,-1,-1,-1,-1,-1,-1,-1,-1,-1,-1,-1,-1],"split_conditions":[1.3852378E3,1.4748568E3,1.7030552E3,1.1757993E3,1.1943428E3,1.5580656E3,1.7179507E3,1.2758333E3,1.6739866E0,6.28331E-1,1.5661856E0,1.3611471E3,1.553148E3,1.8669067E3,1.9059147E3,6.7853923E-3,2.964535E-2,-4.8124776E-3,2.6648736E-2,2.711355E-2,5.281715E-2,1.78023E-2,5.281715E-2,-1.8245457E-2,7.5806276E-4,-2.0255858E-2,-1.1275958E-2,8.18325E-3,2.3022924E-2,-9.2050675E-3,2.9154553E-3],"split_indices":[7,0,0,7,7,7,7,0,11,11,9,0,0,0,0,0,0,0,0,0,0,0,0,0,0,0,0,0,0,0,0],"split_type":[0,0,0,0,0,0,0,0,0,0,0,0,0,0,0,0,0,0,0,0,0,0,0,0,0,0,0,0,0,0,0],"sum_hessian":[3.9584875E4,8.581463E3,3.1003414E4,5.124823E3,3.4566392E3,1.8200957E4,1.2802457E4,2.1262556E3,2.9985679E3,1.0215429E3,2.4350962E3,7.8753535E3,1.0325604E4,5.871279E3,6.9311787E3,1.1551256E3,9.7112994E2,2.6925718E3,3.0599603E2,1.7874306E2,8.4279987E2,2.140109E3,2.949873E2,1.6263541E3,6.248999E3,5.5297695E3,4.795834E3,4.0747605E3,1.7965181E3,4.129021E3,2.802158E3],"tree_param":{"num_deleted":"0","num_feature":"18","num_nodes":"31","size_leaf_vector":"1"}},{"base_weights":[1.3619496E-3,-1.5411659E-1,2.0131625E-1,-2.7561697E-1,-9.971683E-2,1.5306516E-1,6.443301E-1,-3.667798E-1,-2.4460202E-1,-1.10146284E-1,2.3569255E-1,1.3338467E-1,7E-1,5.106485E-1,7E-1,-2.9566579E-2,-2.36304E-2,-2.0445572E-2,-1.5575943E-2,-1.1007202E-2,-5.2103125E-3,2.708823E-2,-1.1233709E-2,4.8180935E-3,1.9229196E-2,5.281715E-2,2.223764E-2,3.2399975E-2,5.0611537E-2,4.1198857E-2,5.281715E-2],"categories":[],"categories_nodes":[],"categories_segments":[],"categories_sizes":[],"default_left":[0,0,0,0,0,1,0,0,0,0,0,0,0,1,0,0,0,0,0,0,0,0,0,0,0,0,0,0,0,0,0],"id":2,"left_children":[1,3,5,7,9,11,13,15,17,19,21,23,25,27,29,-1,-1,-1,-1,-1,-1,-1,-1,-1,-1,-1,-1,-1,-1,-1,-1],"loss_changes":[1.2327847E3,1.4729291E2,3.7023438E2,1.899591E1,5.4078094E1,1.796871E2,2.84292E1,1.6516418E0,4.8829956E0,2.190657E1,2.2432991E1,1.2785272E2,1.8801575E1,1.1612122E1,2.577301E0,0E0,0E0,0E0,0E0,0E0,0E0,0E0,0E0,0E0,0E0,0E0,0E0,0E0,0E0,0E0,0E0],"parents":[2147483647,0,0,1,1,2,2,3,3,4,4,5,5,6,6,7,7,8,8,9,9,10,10,11,11,12,12,13,13,14,14],"right_children":[2,4,6,8,10,12,14,16,18,20,22,24,26,28,30,-1,-1,-1,-1,-1,-1,-1,-1,-1,-1,-1,-1,-1,-1,-1,-1],"split_conditions":[6.861875E-1,3.205525E-1,4.6478897E2,1.2254339E-1,2.3260074E0,1.9999683E0,9.797715E-1,8.863412E-2,2.4768426E-1,5.3980494E-1,1.524767E3,8.636553E-1,1.4911119E3,1.059239E0,7.0041037E-1,-2.9566579E-2,-2.36304E-2,-2.0445572E-2,-1.5575943E-2,-1.1007202E-2,-5.2103125E-3,2.708823E-2,-1.1233709E-2,4.8180935E-3,1.9229196E-2,5.281715E-2,2.223764E-2,3.2399975E-2,5.0611537E-2,4.1198857E-2,5.281715E-2],"split_indices":[15,15,14,15,9,9,15,15,15,15,7,15,7,9,9,0,0,0,0,0,0,0,0,0,0,0,0,0,0,0,0],"split_type":[0,0,0,0,0,0,0,0,0,0,0,0,0,0,0,0,0,0,0,0,0,0,0,0,0,0,0,0,0,0,0],"sum_hessian":[3.964274E4,2.2302363E4,1.7340375E4,6.890311E3,1.5412052E4,1.5644019E4,1.6963556E3,1.7337496E3,5.1565615E3,1.4950912E4,4.6113983E2,1.5143982E4,5.0003665E2,1.0108334E3,6.855223E2,1.1571539E3,5.7659564E2,3.0295676E3,2.126994E3,7.98912E3,6.9617915E3,3.4945724E2,1.1168259E2,9.63642E3,5.5075625E3,3.7448166E2,1.25555E2,6.8423956E2,3.2659378E2,2.1863293E2,4.6688934E2],"tree_param":{"num_deleted":"0","num_feature":"18","num_nodes":"31","size_leaf_vector":"1"}},{"base_weights":[2.118036E-3,-1.4773178E-1,1.9130994E-1,-2.4430963E-1,-7.377754E-2,1.325544E-1,5.177552E-1,-3.1074893E-1,-1.9757585E-1,-8.068591E-2,7E-1,1.1771107E-1,7E-1,4.1472444E-1,7E-1,-2.9578589E-2,-2.082043E-2,-1.6227715E-2,-1.2431649E-2,-6.5535004E-3,1.2072865E-2,5.281715E-2,-8.7594595E-3,3.7682818E-3,1.5680082E-2,5.281715E-2,2.0827125E-3,2.8681478E-2,5.281715E-2,8.462481E-3,5.281715E-2],"categories":[],"categories_nodes":[],"categories_segments":[],"categories_sizes":[],"default_left":[0,0,0,0,1,1,0,0,1,0,0,0,0,1,0,0,0,0,0,0,0,0,0,0,0,0,0,0,0,0,0],"id":3,"left_children":[1,3,5,7,9,11,13,15,17,19,21,23,25,27,29,-1,-1,-1,-1,-1,-1,-1,-1,-1,-1,-1,-1,-1,-1,-1,-1],"loss_changes":[1.1263075E3,1.5823865E2,3.3640674E2,2.950055E1,7.0318634E1,1.3266791E2,6.5521545E1,1.0595367E1,3.0500946E0,1.8582153E1,1.4372356E1,8.871352E1,1.9492859E1,2.6352417E1,5.6486816E0,0E0,0E0,0E0,0E0,0E0,0E0,0E0,0E0,0E0,0E0,0E0,0E0,0E0,0E0,0E0,0E0],"parents":[2147483647,0,0,1,1,2,2,3,3,4,4,5,5,6,6,7,7,8,8,9,9,10,10,11,11,12,12,13,13,14,14],"right_children":[2,4,6,8,10,12,14,16,18,20,22,24,26,28,30,-1,-1,-1,-1,-1,-1,-1,-1,-1,-1,-1,-1,-1,-1,-1,-1],"split_conditions":[6.861875E-1,4.0708232E-1,4.0827835E2,-2.8460223E2,3.117391E0,2.2109118E0,5.8762646E2,8.863412E-2,1.0387267E0,2.3260074E0,1.4554937E3,8.412408E-1,1.5670562E3,1.6466757E0,1.5024963E3,-2.9578589E-2,-2.082043E-2,-1.6227715E-2,-1.2431649E-2,-6.5535004E-3,1.2072865E-2,5.281715E-2,-8.7594595E-3,3.7682818E-3,1.5680082E-2,5.281715E-2,2.0827125E-3,2.8681478E-2,5.281715E-2,8.462481E-3,5.281715E-2],"split_indices":[15,15,14,14,9,9,14,15,3,9,0,15,7,9,0,0,0,0,0,0,0,0,0,0,0,0,0,0,0,0,0],"split_type":[0,0,0,0,0,0,0,0,0,0,0,0,0,0,0,0,0,0,0,0,0,0,0,0,0,0,0,0,0,0,0],"sum_hessian":[3.9716973E4,2.2163531E4,1.7553443E4,9.606021E3,1.2557509E4,1.4882639E4,2.6708052E3,3.9536775E3,5.652344E3,1.245602E4,1.0148967E2,1.453263E4,3.5000858E2,1.9254503E3,7.4535474E2,1.1684874E3,2.78519E3,3.6665977E3,1.9857467E3,1.2148209E4,3.0781082E2,8.138699E1,2.010268E1,8.299165E3,6.2334653E3,3.0642557E2,4.3583027E1,1.8145995E3,1.1085087E2,1.8682919E1,7.266718E2],"tree_param":{"num_deleted":"0","num_feature":"18","num_nodes":"31","size_leaf_vector":"1"}},{"base_weights":[-1.5376109E-3,1.9307868E-1,-6.41065E-2,6.63389E-2,3.520007E-1,-1.3266185E-1,2.7400674E-2,2.3561749E-1,-1.1908542E-3,2.6839578E-1,6.377792E-1,-5.582318E-2,-2.1801734E-1,1.2074977E-1,-5.7510287E-2,6.35952E-3,2.7243026E-2,-3.3057472E-3,2.5722679E-2,3.9868284E-2,1.4352359E-2,5.281715E-2,2.8402643E-2,-6.6400203E-3,2.2104139E-2,-2.076103E-2,-1.1212815E-2,1.6599078E-2,5.430359E-3,-7.746195E-3,2.411531E-3],"categories":[0,1,2,6],"categories_nodes":[10],"categories_segments":[0],"categories_sizes":[4],"default_left":[0,0,0,0,0,0,0,0,1,0,1,0,0,0,0,0,0,0,0,0,0,0,0,0,0,0,0,0,0,0,0],"id":4,"left_children":[1,3,5,7,9,11,13,15,17,19,21,23,25,27,29,-1,-1,-1,-1,-1,-1,-1,-1,-1,-1,-1,-1,-1,-1,-1,-1],"loss_changes":[4.8057544E2,1.9325952E2,1.8736966E2,6.114161E1,1.0079114E2,1.1191623E2,1.01462296E2,2.8783997E1,5.591037E1,6.6602646E1,2.9736511E1,1.0107416E2,3.1842224E1,2.9426254E1,2.71032E1,0E0,0E0,0E0,0E0,0E0,0E0,0E0,0E0,0E0,0E0,0E0,0E0,0E0,0E0,0E0,0E0],"parents":[2147483647,0,0,1,1,2,2,3,3,4,4,5,5,6,6,7,7,8,8,9,9,10,10,11,11,12,12,13,13,14,14],"right_children":[2,4,6,8,10,12,14,16,18,20,22,24,26,28,30,-1,-1,-1,-1,-1,-1,-1,-1,-1,-1,-1,-1,-1,-1,-1,-1],"split_conditions":[1.4017601E3,1.4748568E3,1.7030552E3,1.1183479E3,1.1979473E0,1.6053041E3,1.7202172E3,1.2082181E3,1.6739866E0,1.1757993E3,1E-45,1.5114851E0,1.566364E3,1.5484441E3,1.9405392E3,6.35952E-3,2.7243026E-2,-3.3057472E-3,2.5722679E-2,3.9868284E-2,1.4352359E-2,5.281715E-2,2.8402643E-2,-6.6400203E-3,2.2104139E-2,-2.076103E-2,-1.1212815E-2,1.6599078E-2,5.430359E-3,-7.746195E-3,2.411531E-3],"split_indices":[7,0,0,7,11,7,7,0,11,7,17,11,0,7,0,0,0,0,0,0,0,0,0,0,0,0,0,0,0,0,0],"split_type":[0,0,0,0,0,0,0,0,0,0,1,0,0,0,0,0,0,0,0,0,0,0,0,0,0,0,0,0,0,0,0],"sum_hessian":[3.94548E4,9.595862E3,2.985894E4,5.342867E3,4.252995E3,1.7068812E4,1.2790126E4,1.5196376E3,3.8232295E3,3.298774E3,9.542214E2,8.987415E3,8.081398E3,6.091222E3,6.6989043E3,6.9297614E2,8.266615E2,3.4040098E3,4.1921964E2,7.551889E2,2.543585E3,6.141397E2,3.4008167E2,8.232083E3,7.553314E2,4.423616E3,3.6577817E3,2.000859E3,4.090363E3,4.4515664E3,2.247338E3],"tree_param":{"num_deleted":"0","num_feature":"18","num_nodes":"31","size_leaf_vector":"1"}},{"base_weights":[4.6175974E-3,-1.1067147E-1,2.2821398E-1,-2.4300918E-1,-4.667754E-2,1.649126E-1,5.105855E-1,-3.1287345E-1,-1.9576478E-1,-6.442694E-2,1.5134129E-1,1.4690964E-1,6.09734E-1,4.230509E-1,6.875302E-1,-2.9916167E-2,-2.1105813E-2,-1.5149678E-2,-1.0524077E-3,-7.6758913E-3,-3.5802292E-4,2.195631E-2,-5.2815294E-3,9.905116E-3,2.2443911E-2,5.281715E-2,6.043523E-3,2.8286496E-2,5.281715E-2,4.0693305E-2,5.281715E-2],"categories":[],"categories_nodes":[],"categories_segments":[],"categories_sizes":[],"default_left":[0,0,0,0,0,1,0,0,0,0,0,0,0,1,0,0,0,0,0,0,0,0,0,0,0,0,0,0,0,0,0],"id":5,"left_children":[1,3,5,7,9,11,13,15,17,19,21,23,25,27,29,-1,-1,-1,-1,-1,-1,-1,-1,-1,-1,-1,-1,-1,-1,-1,-1],"loss_changes":[1.0182399E3,2.2065256E2,2.3972504E2,2.7692535E1,6.1822876E1,8.747095E1,3.6447815E1,8.852386E0,4.620987E0,3.5913948E1,4.4851894E1,2.464943E1,3.495897E1,2.6801453E1,7.4485474E0,0E0,0E0,0E0,0E0,0E0,0E0,0E0,0E0,0E0,0E0,0E0,0E0,0E0,0E0,0E0,0E0],"parents":[2147483647,0,0,1,1,2,2,3,3,4,4,5,5,6,6,7,7,8,8,9,9,10,10,11,11,12,12,13,13,14,14],"right_children":[2,4,6,8,10,12,14,16,18,20,22,24,26,28,30,-1,-1,-1,-1,-1,-1,-1,-1,-1,-1,-1,-1,-1,-1,-1,-1],"split_conditions":[1.424701E2,-1.4644049E2,4.2895093E2,-2.9817313E2,1.690459E0,1.9999683E0,5.8762646E2,-5.032226E2,2.2109118E0,3.569138E1,1.5528191E3,1.5066715E0,1.483459E3,1.4600991E0,8.4513956E-1,-2.9916167E-2,-2.1105813E-2,-1.5149678E-2,-1.0524077E-3,-7.6758913E-3,-3.5802292E-4,2.195631E-2,-5.2815294E-3,9.905116E-3,2.2443911E-2,5.281715E-2,6.043523E-3,2.8286496E-2,5.281715E-2,4.0693305E-2,5.281715E-2],"split_indices":[14,14,14,14,9,9,14,14,9,14,7,9,7,9,9,0,0,0,0,0,0,0,0,0,0,0,0,0,0,0,0],"split_type":[0,0,0,0,0,0,0,0,0,0,0,0,0,0,0,0,0,0,0,0,0,0,0,0,0,0,0,0,0,0,0],"sum_hessian":[3.9488945E4,2.605664E4,1.3432304E4,8.488017E3,1.7568625E4,1.0979745E4,2.452559E3,3.4115864E3,5.0764297E3,1.6126866E4,1.441759E3,1.0559801E4,4.199435E2,1.6535182E3,7.990409E2,9.512288E2,2.4603577E3,4.9395195E3,1.3691016E2,9.921547E3,6.20532E3,8.829261E2,5.588329E2,9.5758E3,9.840017E2,3.1841043E2,1.01533066E2,1.4778462E3,1.7567195E2,3.9384436E2,4.0519653E2],"tree_param":{"num_deleted":"0","num_feature":"18","num_nodes":"31","size_leaf_vector":"1"}},{"base_weights":[2.7505718E-3,-1.3803487E-1,1.6650441E-1,-2.2751531E-1,-7.139755E-2,1.1550826E-1,4.3857098E-1,-2.8982058E-1,-1.759599E-1,-7.7513665E-2,7E-1,1.0095864E-1,6.628258E-1,3.7776366E-1,6.424069E-1,-2.8308922E-2,-1.9627314E-2,-1.3632796E-2,2.7198127E-2,-7.1367016E-3,1.266542E-3,2.7949905E-3,5.281715E-2,3.0079305E-3,1.2376327E-2,2.088596E-2,5.281715E-2,2.1469787E-2,3.9413355E-2,2.9631212E-2,5.281715E-2],"categories":[],"categories_nodes":[],"categories_segments":[],"categories_sizes":[],"default_left":[0,0,0,0,1,1,0,0,1,0,1,0,1,1,0,0,0,0,0,0,0,0,0,0,0,0,0,0,0,0,0],"id":6,"left_children":[1,3,5,7,9,11,13,15,17,19,21,23,25,27,29,-1,-1,-1,-1,-1,-1,-1,-1,-1,-1,-1,-1,-1,-1,-1,-1],"loss_changes":[9.1067566E2,1.2656052E2,2.5307846E2,2.8829224E1,6.435523E1,1.2215004E2,3.4347107E1,9.835602E0,1.2955658E1,1.9491135E1,9.430794E0,5.7737717E1,1.5879883E1,2.925711E1,1.5667419E1,0E0,0E0,0E0,0E0,0E0,0E0,0E0,0E0,0E0,0E0,0E0,0E0,0E0,0E0,0E0,0E0],"parents":[2147483647,0,0,1,1,2,2,3,3,4,4,5,5,6,6,7,7,8,8,9,9,10,10,11,11,12,12,13,13,14,14],"right_children":[2,4,6,8,10,12,14,16,18,20,22,24,26,28,30,-1,-1,-1,-1,-1,-1,-1,-1,-1,-1,-1,-1,-1,-1,-1,-1],"split_conditions":[6.861875E-1,4.0708232E-1,4.0827835E2,2.3617946E-1,3.117391E0,1.9638063E0,9.846279E-1,8.863412E-2,3.0225487E0,1.4359014E0,8.1336516E-1,8.27817E-1,5.859892E-1,9.911714E-1,-2.6743895E-1,-2.8308922E-2,-1.9627314E-2,-1.3632796E-2,2.7198127E-2,-7.1367016E-3,1.266542E-3,2.7949905E-3,5.281715E-2,3.0079305E-3,1.2376327E-2,2.088596E-2,5.281715E-2,2.1469787E-2,3.9413355E-2,2.9631212E-2,5.281715E-2],"split_indices":[15,15,14,15,9,11,15,15,11,9,1,15,1,11,5,0,0,0,0,0,0,0,0,0,0,0,0,0,0,0,0],"split_type":[0,0,0,0,0,0,0,0,0,0,0,0,0,0,0,0,0,0,0,0,0,0,0,0,0,0,0,0,0,0,0],"sum_hessian":[3.949042E4,2.123487E4,1.8255553E4,9.058134E3,1.2176736E4,1.538058E4,2.8749722E3,4.0897698E3,4.968364E3,1.2096817E4,7.991827E1,1.4988748E4,3.918324E2,2.2266719E3,6.483003E2,1.038697E3,3.0510728E3,4.9287104E3,3.9653515E1,1.0242592E4,1.8542261E3,2.2099535E1,5.781873E1,7.618185E3,7.3705625E3,1.0143964E2,2.9039276E2,1.3639332E3,8.627388E2,2.1230818E2,4.3599213E2],"tree_param":{"num_deleted":"0","num_feature":"18","num_nodes":"31","size_leaf_vector":"1"}},{"base_weights":[-1.4186416E-4,-1.3663122E-1,1.5401454E-1,-2.8536674E-1,-9.8657414E-2,1.2128782E-1,4.831754E-1,-2.969974E-2,-2.4999864E-1,-1.08268626E-1,2.275108E-1,1.067495E-1,4.8928624E-1,4.0905824E-1,7E-1,-1.9650258E-2,-2.1830944E-3,-1.0530648E-2,-4.559527E-3,9.244004E-3,5.281715E-2,3.2578039E-3,1.387352E-2,4.7478396E-2,2.1487074E-2,2.6710376E-2,5.281715E-2,-1.408297E-3,5.281715E-2],"categories":[0,1,2,5,6],"categories_nodes":[12],"categories_segments":[0],"categories_sizes":[5],"default_left":[0,0,0,0,0,1,1,0,0,0,0,0,1,0,1,0,0,0,0,0,0,0,0,0,0,0,0,0,0],"id":7,"left_children":[1,3,5,7,9,11,13,-1,15,17,19,21,23,25,27,-1,-1,-1,-1,-1,-1,-1,-1,-1,-1,-1,-1,-1,-1],"loss_changes":[8.2962604E2,1.1796127E2,1.9913782E2,1.5723541E1,5.2390656E1,8.9853546E1,3.0857788E1,0E0,7.381195E0,2.4200638E1,2.381632E1,7.945935E1,1.7282791E1,2.0676117E1,1.1067566E1,0E0,0E0,0E0,0E0,0E0,0E0,0E0,0E0,0E0,0E0,0E0,0E0,0E0,0E0],"parents":[2147483647,0,0,1,1,2,2,3,3,4,4,5,5,6,6,8,8,9,9,10,10,11,11,12,12,13,13,14,14],"right_children":[2,4,6,8,10,12,14,-1,16,18,20,22,24,26,28,-1,-1,-1,-1,-1,-1,-1,-1,-1,-1,-1,-1,-1,-1],"split_conditions":[6.861875E-1,2.4768426E-1,9.6608126E-1,8.863412E-2,2.060705E0,1.863331E0,1.1106383E0,-2.969974E-2,1.6739866E0,5.4728705E-1,6.463255E-1,8.4615505E-1,1E-45,7.890914E2,4.4495764E-1,-1.9650258E-2,-2.1830944E-3,-1.0530648E-2,-4.559527E-3,9.244004E-3,5.281715E-2,3.2578039E-3,1.387352E-2,4.7478396E-2,2.1487074E-2,2.6710376E-2,5.281715E-2,-1.408297E-3,5.281715E-2],"split_indices":[15,15,15,15,11,11,11,0,11,15,15,15,17,14,1,0,0,0,0,0,0,0,0,0,0,0,0,0,0],"split_type":[0,0,0,0,0,0,0,0,0,0,0,0,1,0,0,0,0,0,0,0,0,0,0,0,0,0,0,0,0],"sum_hessian":[3.941839E4,2.0907566E4,1.8510824E4,4.2448696E3,1.6662695E4,1.6843785E4,1.6670387E3,1.031405E3,3.2134646E3,1.6189377E4,4.733187E2,1.6210573E4,6.332112E2,1.3202914E3,3.4674738E2,3.0677114E3,1.4575307E2,9.7803545E3,6.4090225E3,3.9463043E2,7.868825E1,8.890511E3,7.320063E3,3.6904578E2,2.6416544E2,1.127484E3,1.9280739E2,2.1142279E1,3.256051E2],"tree_param":{"num_deleted":"0","num_feature":"18","num_nodes":"29","size_leaf_vector":"1"}},{"base_weights":[7.129368E-4,-1.3481519E-1,1.5346397E-1,-2.5488338E-1,-8.533107E-2,1.20899595E-1,4.7181317E-1,-2.873365E-2,-2.288079E-1,-9.535531E-2,2.2101909E-1,6.7007795E-2,2.0390566E-1,3.6221755E-1,5.6405395E-1,-1.82093E-2,-7.4536414E-3,-9.65606E-3,-4.5041367E-3,2.5058784E-2,-8.577191E-3,4.3044607E-3,4.380937E-2,1.3806052E-2,3.4404058E-2,2.5347523E-2,5.281715E-2,2.9466592E-2,5.118385E-2],"categories":[],"categories_nodes":[],"categories_segments":[],"categories_sizes":[],"default_left":[0,0,0,0,0,0,0,0,0,0,0,1,1,1,0,0,0,0,0,0,0,0,0,0,0,0,0,0,0],"id":8,"left_children":[1,3,5,7,9,11,13,-1,15,17,19,21,23,25,27,-1,-1,-1,-1,-1,-1,-1,-1,-1,-1,-1,-1,-1,-1],"loss_changes":[8.210731E2,1.247413E2,1.9298071E2,1.9644135E1,4.584546E1,7.562662E1,1.6330536E1,0E0,8.160645E0,1.6733963E1,1.7816141E1,5.234657E1,3.4666138E1,9.597778E0,1.6934387E1,0E0,0E0,0E0,0E0,0E0,0E0,0E0,0E0,0E0,0E0,0E0,0E0,0E0,0E0],"parents":[2147483647,0,0,1,1,2,2,3,3,4,4,5,5,6,6,8,8,9,9,10,10,11,11,12,12,13,13,14,14],"right_children":[2,4,6,8,10,12,14,-1,16,18,20,22,24,26,28,-1,-1,-1,-1,-1,-1,-1,-1,-1,-1,-1,-1,-1,-1],"split_conditions":[6.861875E-1,3.1591192E-1,9.6608126E-1,8.863412E-2,2.3260074E0,8.636553E-1,9.797715E-1,-2.873365E-2,1.690459E0,5.3678143E-1,1.524767E3,2.4906192E0,1.6685559E0,1.7383318E0,7.758713E-1,-1.82093E-2,-7.4536414E-3,-9.65606E-3,-4.5041367E-3,2.5058784E-2,-8.577191E-3,4.3044607E-3,4.380937E-2,1.3806052E-2,3.4404058E-2,2.5347523E-2,5.281715E-2,2.9466592E-2,5.118385E-2],"split_indices":[15,15,15,15,9,15,15,0,9,15,7,9,9,9,9,0,0,0,0,0,0,0,0,0,0,0,0,0,0],"split_type":[0,0,0,0,0,0,0,0,0,0,0,0,0,0,0,0,0,0,0,0,0,0,0,0,0,0,0,0,0],"sum_hessian":[3.9650242E4,2.1009898E4,1.8640344E4,6.125002E3,1.4884897E4,1.6917537E4,1.7228059E3,1.037646E3,5.087356E3,1.4417001E4,4.678964E2,1.0263833E4,6.653705E3,7.9992194E2,9.22884E2,4.635993E3,4.5136282E2,7.522065E3,6.8949355E3,3.513272E2,1.16569176E2,1.0074682E4,1.8915137E2,6.1524707E3,5.0123392E2,7.80906E2,1.9015894E1,3.7629544E2,5.465885E2],"tree_param":{"num_deleted":"0","num_feature":"18","num_nodes":"29","size_leaf_vector":"1"}},{"base_weights":[6.4670027E-4,-1.4414404E-1,1.2757395E-1,-2.7448234E-1,-1.0489523E-1,7.958646E-2,3.2151446E-1,-3.7127098E-1,-2.400875E-1,-1.08703725E-1,3.4991714E-1,5.9542816E-2,3.6436954E-1,2.9843485E-1,6.351947E-1,3.2592912E-3,-2.8334344E-2,-1.8682797E-2,-5.7772384E-3,-1.0774213E-2,-5.080916E-3,5.281715E-2,1.002575E-2,-2.367642E-4,8.144926E-3,4.0006146E-2,1.0576554E-2,1.9158287E-2,3.378323E-2,5.281715E-2,2.223853E-2],"categories":[0,1,2,5,6,0,1,2,3,6],"categories_nodes":[12,14],"categories_segments":[0,5],"categories_sizes":[5,5],"default_left":[0,0,0,0,1,0,1,1,1,0,0,0,1,0,1,0,0,0,0,0,0,0,0,0,0,0,0,0,0,0,0],"id":9,"left_children":[1,3,5,7,9,11,13,15,17,19,21,23,25,27,29,-1,-1,-1,-1,-1,-1,-1,-1,-1,-1,-1,-1,-1,-1,-1,-1],"loss_changes":[7.252206E2,9.413861E1,1.9555789E2,1.3692627E1,2.4768448E1,9.61421E1,2.9123322E1,2.0422058E0,3.781311E0,1.9776794E1,9.63708E0,4.782431E1,4.0774323E1,2.5250458E1,1.1601746E1,0E0,0E0,0E0,0E0,0E0,0E0,0E0,0E0,0E0,0E0,0E0,0E0,0E0,0E0,0E0,0E0],"parents":[2147483647,0,0,1,1,2,2,3,3,4,4,5,5,6,6,7,7,8,8,9,9,10,10,11,11,12,12,13,13,14,14],"right_children":[2,4,6,8,10,12,14,16,18,20,22,24,26,28,30,-1,-1,-1,-1,-1,-1,-1,-1,-1,-1,-1,-1,-1,-1,-1,-1],"split_conditions":[3.569138E1,-2.5253003E2,3.6124384E2,-4.552251E2,3.0225487E0,1.7060376E0,1.5114851E0,1.8796486E-1,1.6375028E0,-6.587664E1,8.831261E-1,1.4752762E2,1E-45,5.8762646E2,1E-45,3.2592912E-3,-2.8334344E-2,-1.8682797E-2,-5.7772384E-3,-1.0774213E-2,-5.080916E-3,5.281715E-2,1.002575E-2,-2.367642E-4,8.144926E-3,4.0006146E-2,1.0576554E-2,1.9158287E-2,3.378323E-2,5.281715E-2,2.223853E-2],"split_indices":[14,14,14,14,11,11,11,10,11,14,2,14,17,14,17,0,0,0,0,0,0,0,0,0,0,0,0,0,0,0,0],"split_type":[0,0,0,0,0,0,0,0,0,0,0,0,1,0,1,0,0,0,0,0,0,0,0,0,0,0,0,0,0,0,0],"sum_hessian":[3.945039E4,1.842805E4,2.1022338E4,4.257189E3,1.4170862E4,1.6858783E4,4.163554E3,1.1018325E3,3.1553567E3,1.4057402E4,1.1345978E2,1.5756562E4,1.1022218E3,3.888369E3,2.7518536E2,1.0668269E1,1.0911642E3,3.0138674E3,1.414892E2,7.698874E3,6.3585283E3,3.520652E1,7.825326E1,6.868042E3,8.88852E3,6.291757E2,4.7304605E2,3.0067886E3,8.815804E2,1.8628001E2,8.890536E1],"tree_param":{"num_deleted":"0","num_feature":"18","num_nodes":"31","size_leaf_vector":"1"}},{"base_weights":[5.893712E-4,-1.3938452E-1,1.2015726E-1,-2.6761293E-1,-1.0060062E-1,7.46085E-2,2.979934E-1,-3.59124E-1,-2.3121281E-1,-1.0465514E-1,4.1119382E-1,4.6737824E-2,2.4241698E-1,2.4734154E-1,4.8389423E-1,-2.7429892E-2,1.9857357E-3,-1.832321E-2,-9.448231E-3,-1.0364407E-2,-4.9325805E-3,-1.5728755E-2,4.3170575E-2,6.551516E-4,8.605999E-3,3.6138214E-2,9.8940665E-3,2.6146805E-2,1.2885955E-2,4.301839E-2,2.7088208E-2],"categories":[0,1,2,3,5,6,0,1,2,6],"categories_nodes":[12,13],"categories_segments":[0,6],"categories_sizes":[6,4],"default_left":[0,0,0,0,1,0,0,0,0,0,1,0,1,1,0,0,0,0,0,0,0,0,0,0,0,0,0,0,0,0,0],"id":10,"left_children":[1,3,5,7,9,11,13,15,17,19,21,23,25,27,29,-1,-1,-1,-1,-1,-1,-1,-1,-1,-1,-1,-1,-1,-1,-1,-1],"loss_changes":[6.610588E2,9.03439E1,1.7242538E2,1.3600189E1,2.924974E1,7.928473E1,4.021292E1,2.0794983E0,3.5728455E0,1.7775711E1,1.1738934E1,3.7285534E1,6.3222717E1,2.566655E1,8.805466E0,0E0,0E0,0E0,0E0,0E0,0E0,0E0,0E0,0E0,0E0,0E0,0E0,0E0,0E0,0E0,0E0],"parents":[2147483647,0,0,1,1,2,2,3,3,4,4,5,5,6,6,7,7,8,8,9,9,10,10,11,11,12,12,13,13,14,14],"right_children":[2,4,6,8,10,12,14,16,18,20,22,24,26,28,30,-1,-1,-1,-1,-1,-1,-1,-1,-1,-1,-1,-1,-1,-1,-1,-1],"split_conditions":[3.569138E1,-2.4675673E2,3.6124384E2,-4.398176E2,3.117391E0,1.4836274E0,5.8762646E2,1.32388E0,1.5661856E0,-6.3829903E1,4E-1,2.0851382E2,1E-45,1E-45,1.1501019E3,-2.7429892E-2,1.9857357E-3,-1.832321E-2,-9.448231E-3,-1.0364407E-2,-4.9325805E-3,-1.5728755E-2,4.3170575E-2,6.551516E-4,8.605999E-3,3.6138214E-2,9.8940665E-3,2.6146805E-2,1.2885955E-2,4.301839E-2,2.7088208E-2],"split_indices":[14,14,14,14,9,9,14,5,9,14,6,14,17,17,7,0,0,0,0,0,0,0,0,0,0,0,0,0,0,0,0],"split_type":[0,0,0,0,0,0,0,0,0,0,0,0,1,1,0,0,0,0,0,0,0,0,0,0,0,0,0,0,0,0,0],"sum_hessian":[3.948712E4,1.8190832E4,2.129629E4,4.2166484E3,1.3974183E4,1.6960238E4,4.336052E3,1.1858429E3,3.0308057E3,1.3868759E4,1.0542371E2,1.4550713E4,2.4095256E3,3.4178325E3,9.182191E2,1.1727374E3,1.310547E1,2.7246382E3,3.0616745E2,7.560116E3,6.3086426E3,2.1397675E1,8.402604E1,9.299915E3,5.2507974E3,7.6503955E2,1.6444861E3,1.480298E3,1.9375345E3,5.313608E2,3.8685834E2],"tree_param":{"num_deleted":"0","num_feature":"18","num_nodes":"31","size_leaf_vector":"1"}},{"base_weights":[-3.0477456E-4,-1.207168E-1,1.2875763E-1,-2.2852741E-1,-6.569299E-2,7.424411E-2,2.571012E-1,-3.747379E-1,-2.0536649E-1,-7.174512E-2,5.5568665E-1,5.472595E-2,2.8235257E-1,2.18411E-1,4.424892E-1,-2.8490566E-2,1.5687816E-2,-1.856909E-2,-1.2817969E-2,-6.2685492E-3,3.914171E-3,-1.5166848E-2,5.1308602E-2,1.2236859E-3,7.512986E-3,4.9543377E-2,1.9110296E-2,1.3907414E-2,2.5844904E-2,2.586839E-2,5.281715E-2],"categories":[],"categories_nodes":[],"categories_segments":[],"categories_sizes":[],"default_left":[0,0,0,0,1,1,0,1,0,0,1,0,0,1,0,0,0,0,0,0,0,0,0,0,0,0,0,0,0,0,0],"id":11,"left_children":[1,3,5,7,9,11,13,15,17,19,21,23,25,27,29,-1,-1,-1,-1,-1,-1,-1,-1,-1,-1,-1,-1,-1,-1,-1,-1],"loss_changes":[6.1697107E2,1.2175354E2,1.3395905E2,2.30643E1,5.139099E1,5.457543E1,4.041803E1,2.0059814E0,8.441772E0,1.8910347E1,1.3170586E1,2.1249817E1,1.1613663E1,1.9684692E1,3.311142E1,0E0,0E0,0E0,0E0,0E0,0E0,0E0,0E0,0E0,0E0,0E0,0E0,0E0,0E0,0E0,0E0],"parents":[2147483647,0,0,1,1,2,2,3,3,4,4,5,5,6,6,7,7,8,8,9,9,10,10,11,11,12,12,13,13,14,14],"right_children":[2,4,6,8,10,12,14,16,18,20,22,24,26,28,30,-1,-1,-1,-1,-1,-1,-1,-1,-1,-1,-1,-1,-1,-1,-1,-1],"split_conditions":[6.861875E-1,3.586637E-1,3.1581607E2,8.863412E-2,3.0225487E0,1.5273921E0,9.797715E-1,3.0225487E0,2.3617946E-1,1.4988168E0,4E-1,8.139027E-1,3.0382568E-1,1.204284E0,1.1063792E0,-2.8490566E-2,1.5687816E-2,-1.856909E-2,-1.2817969E-2,-6.2685492E-3,3.914171E-3,-1.5166848E-2,5.1308602E-2,1.2236859E-3,7.512986E-3,4.9543377E-2,1.9110296E-2,1.3907414E-2,2.5844904E-2,2.586839E-2,5.281715E-2],"split_indices":[15,15,14,15,11,11,15,11,15,11,6,15,10,11,11,0,0,0,0,0,0,0,0,0,0,0,0,0,0,0,0],"split_type":[0,0,0,0,0,0,0,0,0,0,0,0,0,0,0,0,0,0,0,0,0,0,0,0,0,0,0,0,0,0,0],"sum_hessian":[3.968925E4,2.0532912E4,1.9156338E4,6.9323735E3,1.3600538E4,1.3451628E4,5.7047095E3,9.363739E2,5.9959995E3,1.3474246E4,1.262922E2,1.2304653E4,1.1469742E3,4.729785E3,9.7492426E2,9.337653E2,2.6086106E0,2.7761267E3,3.219873E3,1.2344338E4,1.1299075E3,1.7334476E1,1.0895772E2,6.6241978E3,5.680456E3,7.399392E1,1.0729803E3,3.7214785E3,1.00830695E3,7.851597E2,1.8976453E2],"tree_param":{"num_deleted":"0","num_feature":"18","num_nodes":"31","size_leaf_vector":"1"}},{"base_weights":[-3.23757E-4,-1.1876392E-1,1.2088384E-1,-2.5465843E-1,-8.018297E-2,5.2632995E-2,2.12145E-1,-2.7283754E-2,-2.2574672E-1,-8.523589E-2,4.816993E-1,4.2726804E-2,5.2737534E-1,1.7528997E-1,3.78788E-1,-1.7800903E-2,-9.4527425E-3,-8.881336E-3,-3.0904447E-3,4.665629E-2,-4.177405E-3,2.0327633E-3,1.1490224E-2,2.4403334E-2,5.281715E-2,1.2260611E-2,4.1273315E-2,2.2627408E-2,3.806302E-2],"categories":[],"categories_nodes":[],"categories_segments":[],"categories_sizes":[],"default_left":[0,0,0,0,1,1,0,0,0,0,0,1,1,1,1,0,0,0,0,0,0,0,0,0,0,0,0,0,0],"id":12,"left_children":[1,3,5,7,9,11,13,-1,15,17,19,21,23,25,27,-1,-1,-1,-1,-1,-1,-1,-1,-1,-1,-1,-1,-1,-1],"loss_changes":[5.679302E2,1.0479114E2,1.2172031E2,1.3215424E1,4.4499E1,5.25167E1,5.099701E1,0E0,3.40773E0,2.2197884E1,1.0452068E1,1.8950909E1,1.0306519E1,3.2132538E1,1.4126495E1,0E0,0E0,0E0,0E0,0E0,0E0,0E0,0E0,0E0,0E0,0E0,0E0,0E0,0E0],"parents":[2147483647,0,0,1,1,2,2,3,3,4,4,5,5,6,6,8,8,9,9,10,10,11,11,12,12,13,13,14,14],"right_children":[2,4,6,8,10,12,14,-1,16,18,20,22,24,26,28,-1,-1,-1,-1,-1,-1,-1,-1,-1,-1,-1,-1,-1,-1],"split_conditions":[6.861875E-1,2.7013406E-1,8.708113E-1,8.863412E-2,3.117391E0,2.4906192E0,9.7243476E-1,-2.7283754E-2,1.690459E0,5.4728705E-1,1.4554937E3,1.4600991E0,1.1124874E0,1.9999683E0,1.0028992E0,-1.7800903E-2,-9.4527425E-3,-8.881336E-3,-3.0904447E-3,4.665629E-2,-4.177405E-3,2.0327633E-3,1.1490224E-2,2.4403334E-2,5.281715E-2,1.2260611E-2,4.1273315E-2,2.2627408E-2,3.806302E-2],"split_indices":[15,15,15,15,9,9,15,0,9,15,0,9,3,9,9,0,0,0,0,0,0,0,0,0,0,0,0,0,0],"split_type":[0,0,0,0,0,0,0,0,0,0,0,0,0,0,0,0,0,0,0,0,0,0,0,0,0,0,0,0,0],"sum_hessian":[3.954971E4,2.0003271E4,1.9546441E4,4.4163076E3,1.5586964E4,1.1188094E4,8.358348E3,9.261777E2,3.4901301E3,1.5452742E4,1.34222E2,1.0965378E4,2.2271559E2,6.8539805E3,1.5043668E3,3.162367E3,3.2776324E2,8.9096045E3,6.5431377E3,1.06323326E2,2.789868E1,9.590447E3,1.3749303E3,1.3437906E2,8.833653E1,6.633643E3,2.2033737E2,9.357808E2,5.6858606E2],"tree_param":{"num_deleted":"0","num_feature":"18","num_nodes":"29","size_leaf_vector":"1"}},{"base_weights":[1.3686072E-3,-1.11704685E-1,1.1999389E-1,-2.54512E-1,-7.5365E-2,8.158625E-2,2.6926646E-1,-3.4101966E-1,-2.2076827E-1,-8.7946154E-2,5.2289486E-2,5.249017E-2,2.2595508E-1,2.2052109E-1,3.9906248E-1,-2.60893E-2,9.766516E-3,-1.6944831E-2,1.9828515E-2,-9.811988E-3,-4.5235646E-3,1.0165883E-2,-9.213658E-3,1.7093342E-3,8.490533E-3,2.5733491E-2,1.087212E-2,1.4634815E-2,2.8390154E-2,3.979181E-2,1.8477429E-2],"categories":[0,1,2,5,6,0,1,2,3,6],"categories_nodes":[12,14],"categories_segments":[0,5],"categories_sizes":[5,5],"default_left":[0,0,0,0,0,0,1,0,1,0,0,0,1,0,1,0,0,0,0,0,0,0,0,0,0,0,0,0,0,0,0],"id":13,"left_children":[1,3,5,7,9,11,13,15,17,19,21,23,25,27,29,-1,-1,-1,-1,-1,-1,-1,-1,-1,-1,-1,-1,-1,-1,-1,-1],"loss_changes":[5.36922E2,1.0624835E2,1.1187451E2,1.17074585E1,2.6276176E1,6.523224E1,2.4785858E1,2.8320312E0,5.8602753E0,1.7491776E1,2.1225618E1,2.3173618E1,2.4277832E1,1.1658905E1,2.071965E1,0E0,0E0,0E0,0E0,0E0,0E0,0E0,0E0,0E0,0E0,0E0,0E0,0E0,0E0,0E0,0E0],"parents":[2147483647,0,0,1,1,2,2,3,3,4,4,5,5,6,6,7,7,8,8,9,9,10,10,11,11,12,12,13,13,14,14],"right_children":[2,4,6,8,10,12,14,16,18,20,22,24,26,28,30,-1,-1,-1,-1,-1,-1,-1,-1,-1,-1,-1,-1,-1,-1,-1,-1],"split_conditions":[7.500535E1,-2.4675673E2,3.850379E2,-4.398176E2,1.5114851E0,1.3284247E0,1.1063792E0,1.32388E0,2.231978E0,-8.57588E1,1.6134846E3,2.4035956E2,1E-45,6.99192E2,1E-45,-2.60893E-2,9.766516E-3,-1.6944831E-2,1.9828515E-2,-9.811988E-3,-4.5235646E-3,1.0165883E-2,-9.213658E-3,1.7093342E-3,8.490533E-3,2.5733491E-2,1.087212E-2,1.4634815E-2,2.8390154E-2,3.979181E-2,1.8477429E-2],"split_indices":[14,14,14,14,11,11,11,5,11,14,7,14,17,14,17,0,0,0,0,0,0,0,0,0,0,0,0,0,0,0,0],"split_type":[0,0,0,0,0,0,0,0,0,0,0,0,1,0,1,0,0,0,0,0,0,0,0,0,0,0,0,0,0,0,0],"sum_hessian":[4.0017742E4,2.0488494E4,1.952925E4,4.1492505E3,1.6339244E4,1.5539581E4,3.9896687E3,1.1500372E3,2.9992131E3,1.4874961E4,1.4642825E3,1.2939398E4,2.6001826E3,2.9113772E3,1.0782914E3,1.1400114E3,1.0025895E1,2.9787607E3,2.0452269E1,5.9330522E3,8.941909E3,9.951377E2,4.691447E2,8.648942E3,4.290456E3,1.0733673E3,1.5268152E3,2.497907E3,4.1347043E2,5.8112994E2,4.971614E2],"tree_param":{"num_deleted":"0","num_feature":"18","num_nodes":"31","size_leaf_vector":"1"}},{"base_weights":[-4.320762E-4,-1.21310964E-1,9.703773E-2,-2.4680977E-1,-8.624323E-2,6.0505655E-2,2.3641056E-1,-2.7943997E-2,-2.1720237E-1,-9.013689E-2,4.138003E-1,3.4251127E-2,1.912879E-1,1.9657576E-1,3.4498024E-1,-1.722875E-2,-2.3320995E-3,-9.02617E-3,-4.030955E-3,-1.8780374E-4,5.281715E-2,2.85423E-4,6.565892E-3,1.1119393E-2,2.9728752E-2,1.3124911E-2,3.8138285E-2,3.314101E-2,1.5315133E-2],"categories":[],"categories_nodes":[],"categories_segments":[],"categories_sizes":[],"default_left":[0,0,0,0,1,0,1,0,0,0,0,0,1,0,0,0,0,0,0,0,0,0,0,0,0,0,0,0,0],"id":14,"left_children":[1,3,5,7,9,11,13,-1,15,17,19,21,23,25,27,-1,-1,-1,-1,-1,-1,-1,-1,-1,-1,-1,-1,-1,-1],"loss_changes":[4.6473752E2,7.737244E1,1.1110341E2,1.3605209E1,2.7020454E1,5.9396545E1,1.9226105E1,0E0,6.4184723E0,1.4763252E1,1.4208021E1,2.3185526E1,2.5429184E1,2.277832E1,1.5687332E1,0E0,0E0,0E0,0E0,0E0,0E0,0E0,0E0,0E0,0E0,0E0,0E0,0E0,0E0],"parents":[2147483647,0,0,1,1,2,2,3,3,4,4,5,5,6,6,8,8,9,9,10,10,11,11,12,12,13,13,14,14],"right_children":[2,4,6,8,10,12,14,-1,16,18,20,22,24,26,28,-1,-1,-1,-1,-1,-1,-1,-1,-1,-1,-1,-1,-1,-1],"split_conditions":[3.569138E1,-2.5253003E2,3.6124384E2,-5.032226E2,3.0225487E0,1.318784E0,1.1063792E0,-2.7943997E-2,1.6375028E0,-6.115446E1,-7.579785E1,2.0851382E2,2.060705E0,7.890914E2,1.3057931E3,-1.722875E-2,-2.3320995E-3,-9.02617E-3,-4.030955E-3,-1.8780374E-4,5.281715E-2,2.85423E-4,6.565892E-3,1.1119393E-2,2.9728752E-2,1.3124911E-2,3.8138285E-2,3.314101E-2,1.5315133E-2],"split_indices":[14,14,14,14,11,11,11,0,11,14,14,14,11,14,7,0,0,0,0,0,0,0,0,0,0,0,0,0,0],"split_type":[0,0,0,0,0,0,0,0,0,0,0,0,0,0,0,0,0,0,0,0,0,0,0,0,0,0,0,0,0],"sum_hessian":[3.9433387E4,1.7602264E4,2.1831123E4,3.8369636E3,1.3765301E4,1.7303568E4,4.527554E3,7.293503E2,3.1076133E3,1.366349E4,1.0181057E2,1.441651E4,2.8870593E3,3.3237603E3,1.203794E3,2.9311548E3,1.7645859E2,7.5702354E3,6.0932544E3,4.657779E1,5.523278E1,9.143227E3,5.273283E3,2.38088E3,5.0617938E2,3.1050322E3,2.187278E2,7.1653784E2,4.872562E2],"tree_param":{"num_deleted":"0","num_feature":"18","num_nodes":"29","size_leaf_vector":"1"}},{"base_weights":[2.6216297E-3,1.3072866E-1,-4.119873E-2,1.984451E-1,8.861694E-2,1.0812064E-2,-7.182067E-2,2.4198501E-1,1.0042984E-1,3.6699478E-2,1.718536E-1,-8.422048E-2,3.5394374E-2,-1.3976476E-1,-6.0642183E-2,1.5019698E-3,2.0042157E-2,2.0690717E-2,2.5334414E-3,1.9966287E-3,2.0948976E-2,8.40733E-3,2.5458338E-2,-3.266017E-3,-1.1240915E-2,2.0259196E-2,1.876119E-3,-6.653764E-3,-1.4759779E-2,-2.4882893E-3,-6.1247284E-3],"categories":[0,2,3,6,1,4,5,6,0,1,4,5,6],"categories_nodes":[3,13,14],"categories_segments":[0,4,8],"categories_sizes":[4,4,5],"default_left":[0,0,0,1,0,0,1,1,0,1,0,0,1,1,1,0,0,0,0,0,0,0,0,0,0,0,0,0,0,0,0],"id":15,"left_children":[1,3,5,7,9,11,13,15,17,19,21,23,25,27,29,-1,-1,-1,-1,-1,-1,-1,-1,-1,-1,-1,-1,-1,-1,-1,-1],"loss_changes":[2.2206462E2,2.8653E1,4.6949203E1,1.6342896E1,2.6872276E1,2.5545488E1,1.404406E1,1.398584E1,1.3858709E1,9.435436E0,2.3702927E1,5.9217386E0,2.1282726E1,7.442463E0,9.039417E0,0E0,0E0,0E0,0E0,0E0,0E0,0E0,0E0,0E0,0E0,0E0,0E0,0E0,0E0,0E0,0E0],"parents":[2147483647,0,0,1,1,2,2,3,3,4,4,5,5,6,6,7,7,8,8,9,9,10,10,11,11,12,12,13,13,14,14],"right_children":[2,4,6,8,10,12,14,16,18,20,22,24,26,28,30,-1,-1,-1,-1,-1,-1,-1,-1,-1,-1,-1,-1,-1,-1,-1,-1],"split_conditions":[1.3852378E3,1.1757993E3,1.5670562E3,1E-45,1.0470951E0,6.444757E-1,6.007519E-1,5.0675625E-1,-4.3919793E-1,1.8235855E0,1E0,7.1428573E-1,1E-1,1E-45,1E-45,1.5019698E-3,2.0042157E-2,2.0690717E-2,2.5334414E-3,1.9966287E-3,2.0948976E-2,8.40733E-3,2.5458338E-2,-3.266017E-3,-1.1240915E-2,2.0259196E-2,1.876119E-3,-6.653764E-3,-1.4759779E-2,-2.4882893E-3,-6.1247284E-3],"split_indices":[7,7,7,17,1,3,3,3,12,8,13,6,13,17,17,0,0,0,0,0,0,0,0,0,0,0,0,0,0,0,0],"split_type":[0,0,0,1,0,0,0,0,0,0,0,0,0,1,1,0,0,0,0,0,0,0,0,0,0,0,0,0,0,0,0],"sum_hessian":[3.9546695E4,1.0076724E4,2.9469973E4,3.855789E3,6.220934E3,1.0922286E4,1.8547688E4,2.66413E3,1.1916592E3,3.8362146E3,2.3847195E3,2.241876E3,8.68041E3,2.6113442E3,1.5936343E4,2.5729132E2,2.4068386E3,3.2623962E2,8.6541956E2,3.6858093E3,1.5040535E2,1.7538811E3,6.3083844E2,1.3793119E3,8.6256396E2,3.692384E2,8.311172E3,1.365062E3,1.2462821E3,6.7949404E3,9.141401E3],"tree_param":{"num_deleted":"0","num_feature":"18","num_nodes":"31","size_leaf_vector":"1"}},{"base_weights":[-8.3154236E-4,7.675806E-2,-6.271034E-2,2.7141E-2,1.6992351E-1,-1.3962816E-1,6.1477064E-3,-1.4850735E-2,1.8679158E-1,4.6258733E-2,2.4031132E-1,-2.613684E-1,-1.1355474E-1,6.533654E-2,-3.7660655E-2,-9.654382E-3,9.480431E-4,2.9798694E-2,1.2023216E-2,1.0002767E-2,-4.5631435E-3,1.6840898E-2,4.8949894E-2,-2.816753E-2,-1.6540552E-2,-5.0881533E-3,-1.1970721E-2,1.5779891E-3,9.54352E-3,-5.514699E-3,2.2113759E-3],"categories":[],"categories_nodes":[],"categories_segments":[],"categories_sizes":[],"default_left":[0,0,0,0,0,0,0,0,0,0,1,0,0,0,0,0,0,0,0,0,0,0,0,0,0,0,0,0,0,0,0],"id":16,"left_children":[1,3,5,7,9,11,13,15,17,19,21,23,25,27,29,-1,-1,-1,-1,-1,-1,-1,-1,-1,-1,-1,-1,-1,-1,-1,-1],"loss_changes":[1.9013237E2,8.119434E1,1.1669097E2,7.691858E1,5.307538E1,3.286714E1,3.0169897E1,2.8186874E1,1.3296463E1,2.0507566E1,2.6374939E1,8.1842575E0,1.7787354E1,1.3427361E1,1.5876655E1,0E0,0E0,0E0,0E0,0E0,0E0,0E0,0E0,0E0,0E0,0E0,0E0,0E0,0E0,0E0,0E0],"parents":[2147483647,0,0,1,1,2,2,3,3,4,4,5,5,6,6,7,7,8,8,9,9,10,10,11,11,12,12,13,13,14,14],"right_children":[2,4,6,8,10,12,14,16,18,20,22,24,26,28,30,-1,-1,-1,-1,-1,-1,-1,-1,-1,-1,-1,-1,-1,-1,-1,-1],"split_conditions":[1.5125577E3,1.095766E0,1.7030552E3,1.7203494E3,1.3875183E3,1.3875183E3,1.7179507E3,1.303891E3,1.1501019E3,1.2301962E3,3.117391E0,1.1976599E3,1.6579803E3,1.8470863E3,1.9405392E3,-9.654382E-3,9.480431E-4,2.9798694E-2,1.2023216E-2,1.0002767E-2,-4.5631435E-3,1.6840898E-2,4.8949894E-2,-2.816753E-2,-1.6540552E-2,-5.0881533E-3,-1.1970721E-2,1.5779891E-3,9.54352E-3,-5.514699E-3,2.2113759E-3],"split_indices":[7,11,0,0,0,0,7,0,7,7,9,0,7,0,0,0,0,0,0,0,0,0,0,0,0,0,0,0,0,0,0],"split_type":[0,0,0,0,0,0,0,0,0,0,0,0,0,0,0,0,0,0,0,0,0,0,0,0,0,0,0,0,0,0,0],"sum_hessian":[3.9590227E4,1.7564643E4,2.2025586E4,1.1465623E4,6.099019E3,1.0401194E4,1.1624392E4,9.081937E3,2.3836858E3,2.2156296E3,3.8833894E3,1.8258086E3,8.575386E3,4.943098E3,6.681294E3,1.7679236E3,7.314013E3,2.6897162E2,2.1147144E3,1.2242759E3,9.913538E2,3.7355078E3,1.4788167E2,4.8742712E2,1.3383815E3,4.2464736E3,4.3289116E3,2.8674136E3,2.0756846E3,4.369349E3,2.3119448E3],"tree_param":{"num_deleted":"0","num_feature":"18","num_nodes":"31","size_leaf_vector":"1"}},{"base_weights":[2.6922456E-3,1.03057794E-1,-4.4771492E-2,3.5119943E-2,1.6100806E-1,6.911201E-3,-6.778132E-2,-2.7411787E-2,8.7972224E-2,2.6309586E-1,1.07495464E-1,2.4135765E-1,-5.1872716E-3,-6.0764946E-2,-1.5272243E-1,2.2054566E-3,-5.6487643E-3,1.3050087E-2,4.5007574E-3,2.2825332E-2,1.0261142E-2,5.6396E-3,1.6916355E-2,1.3711921E-2,5.281715E-2,-8.578531E-3,1.0113952E-3,-8.153327E-3,-3.5984751E-3,-9.201226E-3,-1.671153E-2],"categories":[1,2,3,4,6],"categories_nodes":[8],"categories_segments":[0],"categories_sizes":[5],"default_left":[0,1,0,0,0,1,0,0,1,0,0,1,1,1,0,0,0,0,0,0,0,0,0,0,0,0,0,0,0,0,0],"id":17,"left_children":[1,3,5,7,9,11,13,15,17,19,21,23,25,27,29,-1,-1,-1,-1,-1,-1,-1,-1,-1,-1,-1,-1,-1,-1,-1,-1],"loss_changes":[1.890069E2,5.012152E1,3.2037086E1,1.9417648E1,3.7390106E1,2.3559374E1,1.1056961E1,7.2521186E0,7.60421E0,1.1592346E1,1.717865E1,1.4392862E1,1.5948213E1,1.0622223E1,2.8508453E0,0E0,0E0,0E0,0E0,0E0,0E0,0E0,0E0,0E0,0E0,0E0,0E0,0E0,0E0,0E0,0E0],"parents":[2147483647,0,0,1,1,2,2,3,3,4,4,5,5,6,6,7,7,8,8,9,9,10,10,11,11,12,12,13,13,14,14],"right_children":[2,4,6,8,10,12,14,16,18,20,22,24,26,28,30,-1,-1,-1,-1,-1,-1,-1,-1,-1,-1,-1,-1,-1,-1,-1,-1],"split_conditions":[1.4333988E3,9.1047275E-1,1.5670562E3,8.7044364E-1,1.1757993E3,1.395486E-1,1.987477E3,8.2943773E-1,1E-45,1.3387575E0,1.6466757E0,1.8546851E0,5.8085054E-1,6.886238E-1,1.184806E0,2.2054566E-3,-5.6487643E-3,1.3050087E-2,4.5007574E-3,2.2825332E-2,1.0261142E-2,5.6396E-3,1.6916355E-2,1.3711921E-2,5.281715E-2,-8.578531E-3,1.0113952E-3,-8.153327E-3,-3.5984751E-3,-9.201226E-3,-1.671153E-2],"split_indices":[7,9,7,3,7,8,7,4,17,2,9,3,3,3,1,0,0,0,0,0,0,0,0,0,0,0,0,0,0,0,0],"split_type":[0,0,0,0,0,0,0,0,1,0,0,0,0,0,0,0,0,0,0,0,0,0,0,0,0,0,0,0,0,0,0],"sum_hessian":[3.966528E4,1.273328E4,2.6932002E4,5.8656626E3,6.867618E3,8.2978955E3,1.8634105E4,2.6880315E3,3.177631E3,2.3543157E3,4.5133022E3,4.0199695E2,7.8958984E3,1.7221178E4,1.4129287E3,1.2263568E3,1.4616747E3,7.871552E2,2.3904758E3,1.7911611E3,5.6315466E2,3.5313875E3,9.819147E2,3.7738345E2,2.4613487E1,1.1508098E3,6.7450884E3,3.7207295E3,1.3500448E4,9.867678E2,4.2616083E2],"tree_param":{"num_deleted":"0","num_feature":"18","num_nodes":"31","size_leaf_vector":"1"}},{"base_weights":[-1.191575E-3,-1.16684474E-1,9.3062066E-2,-2.5141963E-1,-8.402786E-2,3.822116E-2,1.663427E-1,-2.6427522E-2,-2.2227283E-1,-9.019492E-2,1.9030099E-1,3.007186E-2,3.7965587E-1,2.6406246E-1,1.2804478E-1,2.1783238E-2,-1.6932413E-2,-1.0154774E-2,-5.2582165E-3,3.73594E-2,4.677382E-3,1.7245873E-3,1.6807156E-2,1.714833E-2,4.9671542E-2,1.1646958E-2,2.5267493E-2,8.25077E-3,1.6803762E-2],"categories":[],"categories_nodes":[],"categories_segments":[],"categories_sizes":[],"default_left":[0,0,0,0,0,1,0,0,0,0,0,0,0,1,0,0,0,0,0,0,0,0,0,0,0,0,0,0,0],"id":18,"left_children":[1,3,5,7,9,11,13,-1,15,17,19,21,23,25,27,-1,-1,-1,-1,-1,-1,-1,-1,-1,-1,-1,-1,-1,-1],"loss_changes":[4.33267E2,7.8578735E1,8.8040436E1,9.60817E0,2.4465904E1,3.483493E1,3.4912537E1,0E0,3.3189087E0,1.2774742E1,1.228615E1,1.7010693E1,1.1558559E1,2.0185852E1,1.1807823E1,0E0,0E0,0E0,0E0,0E0,0E0,0E0,0E0,0E0,0E0,0E0,0E0,0E0,0E0],"parents":[2147483647,0,0,1,1,2,2,3,3,4,4,5,5,6,6,8,8,9,9,10,10,11,11,12,12,13,13,14,14],"right_children":[2,4,6,8,10,12,14,-1,16,18,20,22,24,26,28,-1,-1,-1,-1,-1,-1,-1,-1,-1,-1,-1,-1,-1,-1],"split_conditions":[6.512003E-1,2.41775E-1,8.636553E-1,8.863412E-2,3.117391E0,2.4906192E0,1.1943428E3,-2.6427522E-2,1.1394174E3,4.1076365E-1,1E0,1.926233E0,3.35508E-2,8.737769E-1,9.627412E-1,2.1783238E-2,-1.6932413E-2,-1.0154774E-2,-5.2582165E-3,3.73594E-2,4.677382E-3,1.7245873E-3,1.6807156E-2,1.714833E-2,4.9671542E-2,1.1646958E-2,2.5267493E-2,8.25077E-3,1.6803762E-2],"split_indices":[15,15,15,15,9,9,7,0,7,15,1,1,5,9,15,0,0,0,0,0,0,0,0,0,0,0,0,0,0],"split_type":[0,0,0,0,0,0,0,0,0,0,0,0,0,0,0,0,0,0,0,0,0,0,0,0,0,0,0,0,0],"sum_hessian":[3.9790586E4,1.7880066E4,2.1910518E4,3.4809338E3,1.4399133E4,1.2536846E4,9.373673E3,7.787509E2,2.7021829E3,1.4086219E4,3.1291385E2,1.2250534E4,2.863113E2,2.6300266E3,6.743646E3,8.132322E0,2.6940505E3,4.4412886E3,9.644931E3,8.796058E1,2.2495326E2,1.1814361E4,4.361734E2,1.9165334E2,9.465796E1,1.0387E3,1.5913267E3,5.6415107E3,1.1021354E3],"tree_param":{"num_deleted":"0","num_feature":"18","num_nodes":"29","size_leaf_vector":"1"}},{"base_weights":[2.1169593E-3,-1.1552782E-1,8.487322E-2,-2.3251319E-1,-8.07402E-2,3.4293346E-2,1.6444011E-1,-2.6202671E-2,-2.0483328E-1,-8.446684E-2,2.8455797E-1,2.4095306E-2,2.3929995E-1,2.5755736E-1,1.2275E-1,-1.6498495E-2,-4.9504708E-3,-8.6251935E-3,-4.3158974E-3,3.495823E-2,-5.9388224E-3,1.3949248E-3,1.3289347E-2,2.9286202E-2,1.1690508E-2,1.732109E-2,3.8870983E-2,5.352083E-3,1.2477419E-2],"categories":[],"categories_nodes":[],"categories_segments":[],"categories_sizes":[],"default_left":[0,0,0,0,1,1,0,0,1,0,0,0,0,1,1,0,0,0,0,0,0,0,0,0,0,0,0,0,0],"id":19,"left_children":[1,3,5,7,9,11,13,-1,15,17,19,21,23,25,27,-1,-1,-1,-1,-1,-1,-1,-1,-1,-1,-1,-1,-1,-1],"loss_changes":[3.866126E2,6.663112E1,9.3785934E1,1.1532318E1,1.735305E1,2.977848E1,3.498825E1,0E0,5.7703934E0,1.0156174E1,8.581158E0,1.1568104E1,8.1402855E0,1.950595E1,1.3775185E1,0E0,0E0,0E0,0E0,0E0,0E0,0E0,0E0,0E0,0E0,0E0,0E0,0E0,0E0],"parents":[2147483647,0,0,1,1,2,2,3,3,4,4,5,5,6,6,8,8,9,9,10,10,11,11,12,12,13,13,14,14],"right_children":[2,4,6,8,10,12,14,-1,16,18,20,22,24,26,28,-1,-1,-1,-1,-1,-1,-1,-1,-1,-1,-1,-1,-1,-1],"split_conditions":[2.616811E1,-2.4675673E2,2.5555904E2,-5.032226E2,3.117391E0,2.0549378E0,1.1943428E3,-2.6202671E-2,1.6152861E0,-8.754544E1,8.1949043E-1,1.6674383E0,-1.0307561E0,1.6685559E0,9.115602E-1,-1.6498495E-2,-4.9504708E-3,-8.6251935E-3,-4.3158974E-3,3.495823E-2,-5.9388224E-3,1.3949248E-3,1.3289347E-2,2.9286202E-2,1.1690508E-2,1.732109E-2,3.8870983E-2,5.352083E-3,1.2477419E-2],"split_indices":[14,14,14,14,9,9,7,0,9,14,10,3,12,9,3,0,0,0,0,0,0,0,0,0,0,0,0,0,0],"split_type":[0,0,0,0,0,0,0,0,0,0,0,0,0,0,0,0,0,0,0,0,0,0,0,0,0,0,0,0,0],"sum_hessian":[3.969901E4,1.6392922E4,2.3306092E4,3.7501108E3,1.2642812E4,1.4253367E4,9.052725E3,7.162159E2,3.033895E3,1.2519391E4,1.2342081E2,1.3583885E4,6.6948254E2,2.790666E3,6.262058E3,2.7569263E3,2.7696887E2,5.968607E3,6.5507837E3,8.168604E1,4.1734768E1,1.3106688E4,4.7719553E2,2.3490999E2,4.3457254E2,2.5266487E3,2.6401727E2,2.8326921E3,3.4293662E3],"tree_param":{"num_deleted":"0","num_feature":"18","num_nodes":"29","size_leaf_vector":"1"}},{"base_weights":[-2.560166E-4,-1.1058372E-1,8.199999E-2,-2.4030536E-1,-7.585417E-2,4.4015996E-2,1.7251821E-1,-3.3746156E-1,-2.0780994E-1,-1.0798209E-1,-4.4771504E-2,8.4268704E-2,1.1780739E-2,2.4008572E-1,1.3420887E-1,-2.9296849E-2,-2.1213828E-2,-1.9633517E-2,-1.42200105E-2,5.204501E-3,-8.509491E-3,-3.9072866E-3,1.5963752E-2,2.8982647E-2,5.525931E-3,-1.4060166E-3,3.8844731E-3,2.9314691E-2,1.5559003E-2,8.762303E-3,1.9091958E-2],"categories":[0,1,2,6],"categories_nodes":[5],"categories_segments":[0],"categories_sizes":[4],"default_left":[0,0,0,0,0,1,0,0,0,0,1,1,0,0,1,0,0,0,0,0,0,0,0,0,0,0,0,0,0,0,0],"id":20,"left_children":[1,3,5,7,9,11,13,15,17,19,21,23,25,27,29,-1,-1,-1,-1,-1,-1,-1,-1,-1,-1,-1,-1,-1,-1,-1,-1],"loss_changes":[3.5898892E2,7.601633E1,7.787431E1,1.0864883E1,1.3290375E1,2.0717318E1,1.7154022E1,1.9213028E0,2.449417E0,5.6061172E0,1.226343E1,2.3333012E1,1.0722128E1,1.1700912E1,9.043854E0,0E0,0E0,0E0,0E0,0E0,0E0,0E0,0E0,0E0,0E0,0E0,0E0,0E0,0E0,0E0,0E0],"parents":[2147483647,0,0,1,1,2,2,3,3,4,4,5,5,6,6,7,7,8,8,9,9,10,10,11,11,12,12,13,13,14,14],"right_children":[2,4,6,8,10,12,14,16,18,20,22,24,26,28,30,-1,-1,-1,-1,-1,-1,-1,-1,-1,-1,-1,-1,-1,-1,-1,-1],"split_conditions":[3.569138E1,-2.5253003E2,3.1581607E2,-4.552251E2,-7.579785E1,1E-45,1.1943428E3,1.1890319E3,1.2681206E3,1E-1,2.0956728E0,1.8796486E-1,1.7282114E2,-5.1056117E-1,1E0,-2.9296849E-2,-2.1213828E-2,-1.9633517E-2,-1.42200105E-2,5.204501E-3,-8.509491E-3,-3.9072866E-3,1.5963752E-2,2.8982647E-2,5.525931E-3,-1.4060166E-3,3.8844731E-3,2.9314691E-2,1.5559003E-2,8.762303E-3,1.9091958E-2],"split_indices":[14,14,14,14,14,17,7,0,0,13,2,10,14,12,13,0,0,0,0,0,0,0,0,0,0,0,0,0,0,0,0],"split_type":[0,0,0,0,0,1,0,0,0,0,0,0,0,0,0,0,0,0,0,0,0,0,0,0,0,0,0,0,0,0,0],"sum_hessian":[3.954633E4,1.6890133E4,2.2656195E4,3.559948E3,1.3330186E4,1.59651E4,6.6910957E3,8.791044E2,2.6808438E3,6.5480767E3,6.7821084E3,7.0956367E3,8.869464E3,2.410381E3,4.2807144E3,4.4476163E2,4.343427E2,7.04191E2,1.9766527E3,1.7082907E2,6.3772476E3,6.605852E3,1.7625652E2,2.4509229E2,6.8505444E3,5.0237456E3,3.845718E3,4.3704422E2,1.9733369E3,3.7249827E3,5.557318E2],"tree_param":{"num_deleted":"0","num_feature":"18","num_nodes":"31","size_leaf_vector":"1"}},{"base_weights":[2.0643369E-4,-1.090152E-1,7.48531E-2,-2.2257099E-1,-7.580678E-2,2.345257E-2,1.4239593E-1,-2.64498E-2,-1.9414113E-1,-8.918083E-2,-1.1310496E-3,1.4258646E-2,2.254478E-1,2.1841107E-1,1.12653635E-1,1.2778334E-2,-1.50539605E-2,-8.6138295E-3,-4.321617E-3,-2.0086437E-3,1.3419986E-2,3.2986822E-3,-5.946353E-4,5.281715E-2,1.4024006E-2,1.4572565E-2,3.58699E-2,6.64645E-3,1.228743E-2],"categories":[0,1,2,6],"categories_nodes":[11],"categories_segments":[0],"categories_sizes":[4],"default_left":[0,0,0,0,0,0,0,0,1,0,1,1,0,0,0,0,0,0,0,0,0,0,0,0,0,0,0,0,0],"id":21,"left_children":[1,3,5,7,9,11,13,-1,15,17,19,21,23,25,27,-1,-1,-1,-1,-1,-1,-1,-1,-1,-1,-1,-1,-1,-1],"loss_changes":[3.205231E2,6.0092484E1,8.105669E1,1.2748383E1,1.2341103E1,2.4622108E1,2.2676178E1,0E0,5.9799957E0,8.31649E0,8.616062E0,8.282676E0,1.0884031E1,1.788179E1,8.87767E0,0E0,0E0,0E0,0E0,0E0,0E0,0E0,0E0,0E0,0E0,0E0,0E0,0E0,0E0],"parents":[2147483647,0,0,1,1,2,2,3,3,4,4,5,5,6,6,8,8,9,9,10,10,11,11,12,12,13,13,14,14],"right_children":[2,4,6,8,10,12,14,-1,16,18,20,22,24,26,28,-1,-1,-1,-1,-1,-1,-1,-1,-1,-1,-1,-1,-1,-1],"split_conditions":[2.3907835E1,-2.4675673E2,2.3684874E2,-5.032226E2,1.3150963E0,1.7075689E0,1.1863326E3,-2.64498E-2,2.8174588E-1,-6.587664E1,1.5621244E0,1E-45,1.8796486E-1,1.844288E3,3.9221436E2,1.2778334E-2,-1.50539605E-2,-8.6138295E-3,-4.321617E-3,-2.0086437E-3,1.3419986E-2,3.2986822E-3,-5.946353E-4,5.281715E-2,1.4024006E-2,1.4572565E-2,3.58699E-2,6.64645E-3,1.228743E-2],"split_indices":[14,14,14,14,10,3,7,0,10,14,3,17,10,0,14,0,0,0,0,0,0,0,0,0,0,0,0,0,0],"split_type":[0,0,0,0,0,0,0,0,0,0,0,1,0,0,0,0,0,0,0,0,0,0,0,0,0,0,0,0,0],"sum_hessian":[3.930218E4,1.5954814E4,2.3347365E4,3.6028926E3,1.2351923E4,1.3262243E4,1.0085122E4,6.4338684E2,2.9595056E3,1.0474845E4,1.877078E3,1.2690607E4,5.716355E2,2.8262788E3,7.2588438E3,4.0624252E1,2.9188813E3,5.866888E3,4.6079565E3,1.6472506E3,2.298275E2,5.442783E3,7.2478247E3,3.3923683E1,5.377118E2,2.5820938E3,2.4418494E2,4.883944E3,2.3749E3],"tree_param":{"num_deleted":"0","num_feature":"18","num_nodes":"29","size_leaf_vector":"1"}},{"base_weights":[6.1547486E-3,-9.7459264E-2,8.079116E-2,-2.3512171E-1,-6.742577E-2,5.4089587E-2,1.9506578E-1,-3.162819E-1,-1.9611791E-1,-8.033928E-2,-3.4886724E-3,4.4439405E-2,2.375991E-1,1.8109967E-1,3.6858806E-1,-2.839235E-2,-1.833627E-2,-1.548035E-2,6.506845E-3,-6.8618166E-3,-1.4417794E-3,-1.0034527E-3,2.713615E-2,7.222011E-4,5.7560736E-3,3.6603168E-3,2.2554452E-2,1.1160165E-2,1.9621886E-2,5.281715E-2,1.9842414E-2],"categories":[],"categories_nodes":[],"categories_segments":[],"categories_sizes":[],"default_left":[0,0,0,0,1,0,0,0,1,0,0,0,0,0,0,0,0,0,0,0,0,0,0,0,0,0,0,0,0,0,0],"id":22,"left_children":[1,3,5,7,9,11,13,15,17,19,21,23,25,27,29,-1,-1,-1,-1,-1,-1,-1,-1,-1,-1,-1,-1,-1,-1,-1,-1],"loss_changes":[3.0581308E2,6.837067E1,7.0079575E1,9.033524E0,1.1227692E1,3.295118E1,1.0172607E1,3.6775818E0,5.2491837E0,7.335739E0,8.18897E0,1.9668629E1,1.0702122E1,1.036795E1,1.3489864E1,0E0,0E0,0E0,0E0,0E0,0E0,0E0,0E0,0E0,0E0,0E0,0E0,0E0,0E0,0E0,0E0],"parents":[2147483647,0,0,1,1,2,2,3,3,4,4,5,5,6,6,7,7,8,8,9,9,10,10,11,11,12,12,13,13,14,14],"right_children":[2,4,6,8,10,12,14,16,18,20,22,24,26,28,30,-1,-1,-1,-1,-1,-1,-1,-1,-1,-1,-1,-1,-1,-1,-1,-1],"split_conditions":[3.569138E1,-2.7330695E2,3.9221436E2,1.2290583E3,1.2613263E0,2.1259718E0,1.6307995E0,-4.398176E2,1.9999683E0,1.4274772E0,3.117391E0,1.7282114E2,7.89538E-1,5.8762646E2,6.9580585E-1,-2.839235E-2,-1.833627E-2,-1.548035E-2,6.506845E-3,-6.8618166E-3,-1.4417794E-3,-1.0034527E-3,2.713615E-2,7.222011E-4,5.7560736E-3,3.6603168E-3,2.2554452E-2,1.1160165E-2,1.9621886E-2,5.281715E-2,1.9842414E-2],"split_indices":[14,14,14,0,3,9,9,14,9,9,9,14,4,14,3,0,0,0,0,0,0,0,0,0,0,0,0,0,0,0,0],"split_type":[0,0,0,0,0,0,0,0,0,0,0,0,0,0,0,0,0,0,0,0,0,0,0,0,0,0,0,0,0,0,0],"sum_hessian":[3.9533285E4,1.6552527E4,2.2980758E4,2.9576367E3,1.3594891E4,1.8634766E4,4.345991E3,9.471148E2,2.0105219E3,1.1309295E4,2.2855957E3,1.7710377E4,9.243888E2,4.032829E3,3.131622E2,5.0795184E2,4.3916296E2,1.9495806E3,6.0941284E1,9.637786E3,1.6715083E3,2.2307158E3,5.487979E1,8.457747E3,9.25263E3,2.2881972E2,6.9556903E2,2.850567E3,1.1822622E3,5.0471455E1,2.6269077E2],"tree_param":{"num_deleted":"0","num_feature":"18","num_nodes":"31","size_leaf_vector":"1"}},{"base_weights":[-9.291939E-4,-9.472082E-2,7.7597134E-2,-2.1048105E-1,-6.438532E-2,4.6652034E-2,1.4822589E-1,-2.522439E-2,-1.803927E-1,1.1917433E-1,-7.08534E-2,4.0391434E-2,2.3530124E-1,1.2021205E-1,2.4009433E-1,-1.7864194E-2,-1.174737E-2,2.377605E-2,-1.3195408E-3,-9.382568E-3,-3.9621876E-3,5.1851193E-3,1.2975462E-3,1.2534173E-2,4.1561835E-2,7.3455065E-3,1.5421958E-2,2.8916873E-2,1.4687091E-2],"categories":[1,2,3,5,6,0,1,2],"categories_nodes":[9,11],"categories_segments":[0,5],"categories_sizes":[5,3],"default_left":[0,0,0,0,1,1,0,0,0,1,0,1,0,1,0,0,0,0,0,0,0,0,0,0,0,0,0,0,0],"id":23,"left_children":[1,3,5,7,9,11,13,-1,15,17,19,21,23,25,27,-1,-1,-1,-1,-1,-1,-1,-1,-1,-1,-1,-1,-1,-1],"loss_changes":[2.942226E2,6.3852264E1,4.748439E1,1.3736877E1,1.7182732E1,1.7813217E1,1.688031E1,0E0,4.0422897E0,1.3240906E1,1.3646225E1,9.618294E0,1.0069958E1,9.675186E0,9.612083E0,0E0,0E0,0E0,0E0,0E0,0E0,0E0,0E0,0E0,0E0,0E0,0E0,0E0,0E0],"parents":[2147483647,0,0,1,1,2,2,3,3,4,4,5,5,6,6,8,8,9,9,10,10,11,11,12,12,13,13,14,14],"right_children":[2,4,6,8,10,12,14,-1,16,18,20,22,24,26,28,-1,-1,-1,-1,-1,-1,-1,-1,-1,-1,-1,-1,-1,-1],"split_conditions":[6.713562E-1,2.7013406E-1,3.2038373E2,8.863412E-2,1.395486E-1,1.926233E0,9.7600424E-1,-2.522439E-2,6.0120153E-1,1E-45,4.0708232E-1,1E-45,2.0649488E0,1.2950389E0,5.555556E-1,-1.7864194E-2,-1.174737E-2,2.377605E-2,-1.3195408E-3,-9.382568E-3,-3.9621876E-3,5.1851193E-3,1.2975462E-3,1.2534173E-2,4.1561835E-2,7.3455065E-3,1.5421958E-2,2.8916873E-2,1.4687091E-2],"split_indices":[15,15,14,15,8,1,15,0,1,17,15,17,3,1,6,0,0,0,0,0,0,0,0,0,0,0,0,0,0],"split_type":[0,0,0,0,0,0,0,0,0,1,0,1,0,0,0,0,0,0,0,0,0,0,0,0,0,0,0,0,0],"sum_hessian":[3.9936973E4,1.8198994E4,2.1737979E4,3.7719697E3,1.4427024E4,1.5121823E4,6.616156E3,7.263311E2,3.0456384E3,4.877452E2,1.3939279E4,1.4642672E4,4.791517E2,5.0799956E3,1.5361602E3,9.133927E2,2.1322458E3,1.9741208E2,2.9033313E2,3.5506953E3,1.0388584E4,6.5869136E3,8.0557583E3,3.9998456E2,7.916713E1,4.0045571E3,1.0754387E3,3.6013577E2,1.1760244E3],"tree_param":{"num_deleted":"0","num_feature":"18","num_nodes":"29","size_leaf_vector":"1"}},{"base_weights":[-3.6558933E-3,-1.0216062E-1,6.375549E-2,-2.2186527E-1,-7.4407816E-2,4.2787958E-2,1.74673E-1,-3.302772E-1,-1.8820685E-1,-8.514622E-2,6.986364E-2,2.3296466E-2,1.5244502E-1,1.3427532E-1,2.6024824E-1,-6.552592E-3,-2.597198E-2,-1.5750255E-2,-4.7190366E-3,-9.818815E-3,-4.7700563E-3,1.3542467E-2,-3.8705687E-3,-8.946017E-4,4.390647E-3,1.6113918E-2,2.0648255E-3,9.562201E-3,5.281715E-2,1.8414503E-2,5.281715E-2],"categories":[],"categories_nodes":[],"categories_segments":[],"categories_sizes":[],"default_left":[0,0,0,0,0,0,0,0,0,0,0,0,0,1,0,0,0,0,0,0,0,0,0,0,0,0,0,0,0,0,0],"id":24,"left_children":[1,3,5,7,9,11,13,15,17,19,21,23,25,27,29,-1,-1,-1,-1,-1,-1,-1,-1,-1,-1,-1,-1,-1,-1,-1,-1],"loss_changes":[2.6253275E2,5.327234E1,5.4548164E1,1.06740265E1,2.024855E1,4.2190044E1,1.2699341E1,2.2354736E0,5.908432E0,1.1935951E1,1.2097948E1,2.057989E1,2.2743965E1,1.1861176E1,9.5516815E0,0E0,0E0,0E0,0E0,0E0,0E0,0E0,0E0,0E0,0E0,0E0,0E0,0E0,0E0,0E0,0E0],"parents":[2147483647,0,0,1,1,2,2,3,3,4,4,5,5,6,6,7,7,8,8,9,9,10,10,11,11,12,12,13,13,14,14],"right_children":[2,4,6,8,10,12,14,16,18,20,22,24,26,28,30,-1,-1,-1,-1,-1,-1,-1,-1,-1,-1,-1,-1,-1,-1,-1,-1],"split_conditions":[6.3482636E-1,2.3617946E-1,4.0827835E2,8.863412E-2,1.6739866E0,1.4836274E0,9.797715E-1,1.4530872E3,1E0,4.0708232E-1,1.1972374E0,8.075637E-1,1.5184888E3,2.231978E0,1.5863649E0,-6.552592E-3,-2.597198E-2,-1.5750255E-2,-4.7190366E-3,-9.818815E-3,-4.7700563E-3,1.3542467E-2,-3.8705687E-3,-8.946017E-4,4.390647E-3,1.6113918E-2,2.0648255E-3,9.562201E-3,5.281715E-2,1.8414503E-2,5.281715E-2],"split_indices":[15,15,14,15,11,9,15,7,13,15,1,15,7,11,11,0,0,0,0,0,0,0,0,0,0,0,0,0,0,0,0],"split_type":[0,0,0,0,0,0,0,0,0,0,0,0,0,0,0,0,0,0,0,0,0,0,0,0,0,0,0,0,0,0,0],"sum_hessian":[3.952497E4,1.6057745E4,2.3467225E4,3.0148518E3,1.3042894E4,1.9742842E4,3.7243838E3,7.025889E2,2.312263E3,1.2141472E4,9.014219E2,1.6768947E4,2.9738948E3,2.5397834E3,1.1846002E3,4.0233727E1,6.6235516E2,1.9843007E3,3.2796228E2,3.969742E3,8.1717295E3,4.7184164E2,4.2958023E2,8.355322E3,8.413624E3,1.9950874E3,9.7880725E2,2.5176511E3,2.213244E1,1.1606698E3,2.3930511E1],"tree_param":{"num_deleted":"0","num_feature":"18","num_nodes":"31","size_leaf_vector":"1"}},{"base_weights":[-3.3372387E-4,-9.7747386E-2,7.007568E-2,-1.6352578E-1,-4.9609073E-2,2.9555744E-2,1.2153881E-1,-2.8349465E-1,-1.421137E-1,-5.690587E-2,1.2729092E-1,2.2447843E-2,2.993507E-1,9.7750075E-2,2.0173764E-1,9.4517125E-3,-2.1645607E-2,-1.1698823E-2,-4.6462156E-3,-4.686274E-3,1.0485363E-2,1.3775179E-2,-8.426991E-3,1.9755379E-4,5.9854826E-3,4.1652128E-2,1.05782375E-2,6.132361E-3,1.6403303E-2,2.4141176E-2,1.2232131E-2],"categories":[0,1,2,3,5,6],"categories_nodes":[12],"categories_segments":[0],"categories_sizes":[6],"default_left":[0,0,0,0,1,0,0,1,0,1,0,1,1,1,0,0,0,0,0,0,0,0,0,0,0,0,0,0,0,0,0],"id":25,"left_children":[1,3,5,7,9,11,13,15,17,19,21,23,25,27,29,-1,-1,-1,-1,-1,-1,-1,-1,-1,-1,-1,-1,-1,-1,-1,-1],"loss_changes":[2.6978534E2,5.2208817E1,4.7590263E1,1.7681915E1,1.23507805E1,2.4472862E1,1.9074677E1,1.651947E0,6.1199646E0,9.385681E0,5.127285E0,1.4051604E1,1.274304E1,1.5211189E1,1.0460159E1,0E0,0E0,0E0,0E0,0E0,0E0,0E0,0E0,0E0,0E0,0E0,0E0,0E0,0E0,0E0,0E0],"parents":[2147483647,0,0,1,1,2,2,3,3,4,4,5,5,6,6,7,7,8,8,9,9,10,10,11,11,12,12,13,13,14,14],"right_children":[2,4,6,8,10,12,14,16,18,20,22,24,26,28,30,-1,-1,-1,-1,-1,-1,-1,-1,-1,-1,-1,-1,-1,-1,-1,-1],"split_conditions":[6.512003E-1,4.0708232E-1,8.636553E-1,1.2254339E-1,1.639912E0,1.9288338E0,9.6608126E-1,1.8796486E-1,1E0,2.1728394E0,1.240038E0,8.333333E-1,1E-45,1.4605864E0,5.555556E-1,9.4517125E-3,-2.1645607E-2,-1.1698823E-2,-4.6462156E-3,-4.686274E-3,1.0485363E-2,1.3775179E-2,-8.426991E-3,1.9755379E-4,5.9854826E-3,4.1652128E-2,1.05782375E-2,6.132361E-3,1.6403303E-2,2.4141176E-2,1.2232131E-2],"split_indices":[15,15,15,15,3,3,15,10,13,2,4,13,17,1,6,0,0,0,0,0,0,0,0,0,0,0,0,0,0,0,0],"split_type":[0,0,0,0,0,0,0,0,0,0,0,0,1,0,0,0,0,0,0,0,0,0,0,0,0,0,0,0,0,0,0],"sum_hessian":[3.93228E4,1.6496793E4,2.2826008E4,6.965464E3,9.531328E3,1.2775728E4,1.005028E4,1.0445541E3,5.9209097E3,9.157395E3,3.7393387E2,1.2453684E4,3.2204428E2,7.7606914E3,2.2895886E3,6.914463E0,1.0376396E3,5.0971445E3,8.2376514E2,8.924175E3,2.3322011E2,3.0476184E2,6.917201E1,9.2386875E3,3.214996E3,1.19123344E2,2.0292093E2,6.829598E3,9.310936E2,5.6483997E2,1.7247487E3],"tree_param":{"num_deleted":"0","num_feature":"18","num_nodes":"31","size_leaf_vector":"1"}},{"base_weights":[-4.185144E-4,-8.7667115E-2,7.0106E-2,-2.1988375E-1,-6.087172E-2,3.7887957E-2,1.3732536E-1,-3.1705025E-1,-1.9082773E-1,-6.756871E-2,1.6603887E-1,1.6393319E-2,1.1375013E-1,1.13069795E-1,2.1995452E-1,-2.429201E-2,1.5644358E-2,-1.5157917E-2,-7.9915323E-4,-8.391642E-3,-3.612906E-3,6.2039797E-3,3.7887365E-2,-1.8477605E-3,2.5631397E-3,1.1620349E-2,2.8760242E-3,7.891924E-3,2.4442665E-2,1.3445962E-2,2.779651E-2],"categories":[],"categories_nodes":[],"categories_segments":[],"categories_sizes":[],"default_left":[0,0,0,0,0,1,0,1,0,0,0,0,0,0,0,0,0,0,0,0,0,0,0,0,0,0,0,0,0,0,0],"id":26,"left_children":[1,3,5,7,9,11,13,15,17,19,21,23,25,27,29,-1,-1,-1,-1,-1,-1,-1,-1,-1,-1,-1,-1,-1,-1,-1,-1],"loss_changes":[2.418962E2,6.218152E1,4.705239E1,8.015991E0,2.2278275E1,2.3965998E1,1.39739685E1,2.101097E0,4.1455383E0,1.2175064E1,1.1620704E1,8.2423525E0,9.848785E0,9.561035E0,9.500008E0,0E0,0E0,0E0,0E0,0E0,0E0,0E0,0E0,0E0,0E0,0E0,0E0,0E0,0E0,0E0,0E0],"parents":[2147483647,0,0,1,1,2,2,3,3,4,4,5,5,6,6,7,7,8,8,9,9,10,10,11,11,12,12,13,13,14,14],"right_children":[2,4,6,8,10,12,14,16,18,20,22,24,26,28,30,-1,-1,-1,-1,-1,-1,-1,-1,-1,-1,-1,-1,-1,-1,-1,-1],"split_conditions":[6.686831E-1,2.3617946E-1,3.1171112E2,8.863412E-2,2.7208927E0,1.2099938E0,1.1979473E0,2.231978E0,1.6375028E0,4.1941532E-1,4.9453285E1,7.5810766E-1,1.6775525E3,1.860103E0,5.12843E2,-2.429201E-2,1.5644358E-2,-1.5157917E-2,-7.9915323E-4,-8.391642E-3,-3.612906E-3,6.2039797E-3,3.7887365E-2,-1.8477605E-3,2.5631397E-3,1.1620349E-2,2.8760242E-3,7.891924E-3,2.4442665E-2,1.3445962E-2,2.779651E-2],"split_indices":[15,15,14,15,9,11,11,11,11,15,14,3,0,8,14,0,0,0,0,0,0,0,0,0,0,0,0,0,0,0,0],"split_type":[0,0,0,0,0,0,0,0,0,0,0,0,0,0,0,0,0,0,0,0,0,0,0,0,0,0,0,0,0,0,0],"sum_hessian":[3.9301305E4,1.7567059E4,2.1734246E4,2.9534678E3,1.4613591E4,1.46981875E4,7.036058E3,6.671248E2,2.286343E3,1.4198466E4,4.15125E2,1.1458389E4,3.239799E3,5.449586E3,1.5864722E3,6.630889E2,4.0359263E0,2.1648206E3,1.2152252E2,4.4051895E3,9.793276E3,3.378327E2,7.729229E1,3.4445015E3,8.0138867E3,2.1105964E3,1.1292026E3,5.2470474E3,2.0253867E2,1.2478046E3,3.386676E2],"tree_param":{"num_deleted":"0","num_feature":"18","num_nodes":"31","size_leaf_vector":"1"}},{"base_weights":[-4.6016357E-4,-9.9718496E-2,5.6906536E-2,-2.000975E-1,-7.125732E-2,1.5079455E-2,1.0042303E-1,-2.7938694E-1,-1.6288567E-1,-7.505307E-2,3.4717348E-1,-1.3363215E-3,1.4406003E-1,7.220579E-2,1.5931441E-1,4.006164E-3,-2.1876387E-2,-1.3389621E-2,-2.4768375E-3,-6.546548E-3,-1.8744903E-3,-1.2930232E-2,3.933301E-2,-2.1503969E-4,3.2685775E-2,1.4559233E-2,3.4161364E-3,3.8844068E-3,1.0790845E-2,8.018474E-3,1.808421E-2],"categories":[],"categories_nodes":[],"categories_segments":[],"categories_sizes":[],"default_left":[0,0,0,0,1,0,1,0,1,0,0,0,0,0,0,0,0,0,0,0,0,0,0,0,0,0,0,0,0,0,0],"id":27,"left_children":[1,3,5,7,9,11,13,15,17,19,21,23,25,27,29,-1,-1,-1,-1,-1,-1,-1,-1,-1,-1,-1,-1,-1,-1,-1,-1],"loss_changes":[2.2590027E2,4.1433304E1,4.57538E1,9.207275E0,1.8139889E1,2.715845E1,2.0410255E1,3.6504135E0,4.128788E0,6.5921288E0,9.784892E0,7.494308E0,6.9464016E0,1.2197758E1,1.6850685E1,0E0,0E0,0E0,0E0,0E0,0E0,0E0,0E0,0E0,0E0,0E0,0E0,0E0,0E0,0E0,0E0],"parents":[2147483647,0,0,1,1,2,2,3,3,4,4,5,5,6,6,7,7,8,8,9,9,10,10,11,11,12,12,13,13,14,14],"right_children":[2,4,6,8,10,12,14,16,18,20,22,24,26,28,30,-1,-1,-1,-1,-1,-1,-1,-1,-1,-1,-1,-1,-1,-1,-1,-1],"split_conditions":[1.3117527E1,-2.5253003E2,2.0851382E2,1.2453466E3,3.0225487E0,1.5273921E0,1.0772669E0,3.7174556E-1,1.6152861E0,1.2334228E0,-6.4361364E-1,1.000001E1,1.5714812E3,4.7992194E2,8.75E-1,4.006164E-3,-2.1876387E-2,-1.3389621E-2,-2.4768375E-3,-6.546548E-3,-1.8744903E-3,-1.2930232E-2,3.933301E-2,-2.1503969E-4,3.2685775E-2,1.4559233E-2,3.4161364E-3,3.8844068E-3,1.0790845E-2,8.018474E-3,1.808421E-2],"split_indices":[14,14,14,0,11,11,11,10,9,10,5,2,0,14,13,0,0,0,0,0,0,0,0,0,0,0,0,0,0,0,0],"split_type":[0,0,0,0,0,0,0,0,0,0,0,0,0,0,0,0,0,0,0,0,0,0,0,0,0,0,0,0,0,0,0],"sum_hessian":[3.9661367E4,1.4525169E4,2.5136201E4,3.2012058E3,1.1323963E4,1.28207295E4,1.2315471E4,1.0108813E3,2.1903245E3,1.1226708E4,9.725447E1,1.137813E4,1.4425996E3,8.334513E3,3.9809583E3,3.0387135E1,9.8049414E2,1.9678308E3,2.2249373E2,9.100253E3,2.1264558E3,2.4469593E1,7.278488E1,1.1344167E4,3.3963425E1,9.613927E2,4.812069E2,6.454897E3,1.8796151E3,2.40589E3,1.5750684E3],"tree_param":{"num_deleted":"0","num_feature":"18","num_nodes":"31","size_leaf_vector":"1"}},{"base_weights":[4.1209176E-4,-9.286637E-2,6.055214E-2,-2.1035397E-1,-6.6592455E-2,3.798871E-2,1.4110123E-1,-3.0560827E-1,-1.829629E-1,-7.476748E-2,5.097105E-2,-1.1441834E-2,7.1966276E-2,1.9630328E-1,5.0452545E-2,-2.3370652E-2,1.7689066E-2,-1.5316522E-2,-4.6883E-3,5.52524E-3,-5.960551E-3,-4.0235757E-3,9.967104E-3,-2.7873775E-3,6.604756E-4,4.241837E-3,1.0723306E-2,4.4458367E-2,1.4023626E-2,-9.93826E-3,4.6099857E-3],"categories":[],"categories_nodes":[],"categories_segments":[],"categories_sizes":[],"default_left":[0,0,1,0,0,0,0,1,0,0,1,0,0,0,1,0,0,0,0,0,0,0,0,0,0,0,0,0,0,0,0],"id":28,"left_children":[1,3,5,7,9,11,13,15,17,19,21,23,25,27,29,-1,-1,-1,-1,-1,-1,-1,-1,-1,-1,-1,-1,-1,-1,-1,-1],"loss_changes":[2.2118144E2,4.7631393E1,4.353853E1,7.050644E0,1.2168655E1,3.1469112E1,2.6183601E1,1.7928429E0,5.268112E0,7.4305267E0,7.0204573E0,3.934435E0,1.2221859E1,1.2753983E1,3.9080215E0,0E0,0E0,0E0,0E0,0E0,0E0,0E0,0E0,0E0,0E0,0E0,0E0,0E0,0E0,0E0,0E0],"parents":[2147483647,0,0,1,1,2,2,3,3,4,4,5,5,6,6,7,7,8,8,9,9,10,10,11,11,12,12,13,13,14,14],"right_children":[2,4,6,8,10,12,14,16,18,20,22,24,26,28,30,-1,-1,-1,-1,-1,-1,-1,-1,-1,-1,-1,-1,-1,-1,-1,-1],"split_conditions":[6.3482636E-1,2.3617946E-1,1.2099938E0,8.863412E-2,1.6739866E0,8.075637E-1,1.4629895E3,3.0225487E0,1E0,1E-1,6.25E-1,7.1540076E-1,9.6608126E-1,2.857143E-1,3.8891515E-1,-2.3370652E-2,1.7689066E-2,-1.5316522E-2,-4.6883E-3,5.52524E-3,-5.960551E-3,-4.0235757E-3,9.967104E-3,-2.7873775E-3,6.604756E-4,4.241837E-3,1.0723306E-2,4.4458367E-2,1.4023626E-2,-9.93826E-3,4.6099857E-3],"split_indices":[15,15,11,15,11,15,7,11,13,6,6,15,15,13,1,0,0,0,0,0,0,0,0,0,0,0,0,0,0,0,0],"split_type":[0,0,0,0,0,0,0,0,0,0,0,0,0,0,0,0,0,0,0,0,0,0,0,0,0,0,0,0,0,0,0],"sum_hessian":[3.94167E4,1.5450152E4,2.3966549E4,2.8165186E3,1.2633634E4,1.8728533E4,5.238014E3,6.163481E2,2.2001704E3,1.1814147E4,8.194866E2,7.6308643E3,1.109767E4,3.2514646E3,1.9865498E3,6.140369E2,2.311149E0,1.8840297E3,3.1614072E2,3.2570462E2,1.1488442E4,3.5937863E2,4.6010794E2,3.3704526E3,4.2604116E3,9.071371E3,2.0262988E3,7.617055E1,3.175294E3,1.06164345E2,1.8803855E3],"tree_param":{"num_deleted":"0","num_feature":"18","num_nodes":"31","size_leaf_vector":"1"}},{"base_weights":[-2.3144565E-5,4.2888958E-2,-4.8821256E-2,-8.307809E-2,5.622361E-2,-1.1363352E-1,-1.1532855E-3,2.1199089E-2,-1.797225E-1,1.377619E-1,3.631427E-2,-3.2967165E-1,-1.0339821E-1,1.2621958E-2,-5.5880997E-2,-2.6289113E-3,1.4434251E-2,-1.4268488E-2,1.4107871E-2,2.3622022E-3,1.1508936E-2,-1.1632147E-3,4.4561173E-3,5.067371E-3,-2.5671272E-2,-9.959792E-3,-5.5064457E-3,-1.1246492E-3,3.2203328E-3,-3.6453055E-3,-1.9653633E-2],"categories":[1,2,4,5],"categories_nodes":[11],"categories_segments":[0],"categories_sizes":[4],"default_left":[0,0,0,0,0,0,0,1,1,1,0,1,0,0,0,0,0,0,0,0,0,0,0,0,0,0,0,0,0,0,0],"id":29,"left_children":[1,3,5,7,9,11,13,15,17,19,21,23,25,27,29,-1,-1,-1,-1,-1,-1,-1,-1,-1,-1,-1,-1,-1,-1,-1,-1],"loss_changes":[8.280419E1,3.53683E1,5.7162334E1,2.0341698E1,3.0864304E1,1.714788E1,8.045665E0,9.330406E0,3.7997818E0,5.841896E0,1.8009502E1,1.6028862E0,6.466873E0,7.058527E0,3.2528791E0,0E0,0E0,0E0,0E0,0E0,0E0,0E0,0E0,0E0,0E0,0E0,0E0,0E0,0E0,0E0,0E0],"parents":[2147483647,0,0,1,1,2,2,3,3,4,4,5,5,6,6,7,7,8,8,9,9,10,10,11,11,12,12,13,13,14,14],"right_children":[2,4,6,8,10,12,14,16,18,20,22,24,26,28,30,-1,-1,-1,-1,-1,-1,-1,-1,-1,-1,-1,-1,-1,-1,-1,-1],"split_conditions":[1.5557355E3,1.2187153E3,1.7030552E3,1.1665558E3,1.1943428E3,1.2082181E3,1.9060181E3,1.208534E0,1.7564565E0,5.714286E-1,1.4748568E3,1E-45,1.5714812E3,1.8565458E3,1.8235855E0,-2.6289113E-3,1.4434251E-2,-1.4268488E-2,1.4107871E-2,2.3622022E-3,1.1508936E-2,-1.1632147E-3,4.4561173E-3,5.067371E-3,-2.5671272E-2,-9.959792E-3,-5.5064457E-3,-1.1246492E-3,3.2203328E-3,-3.6453055E-3,-1.9653633E-2],"split_indices":[7,0,0,7,7,0,7,3,3,13,0,17,0,0,8,0,0,0,0,0,0,0,0,0,0,0,0,0,0,0,0],"split_type":[0,0,0,0,0,0,0,0,0,0,0,1,0,0,0,0,0,0,0,0,0,0,0,0,0,0,0,0,0,0,0],"sum_hessian":[3.953181E4,2.103485E4,1.8496959E4,2.0107615E3,1.9024088E4,7.835543E3,1.0661415E4,9.692866E2,1.0414749E3,3.727028E3,1.5297061E4,3.4654352E2,7.4889995E3,8.520949E3,2.1404656E3,7.3242975E2,2.3685692E2,1.0181341E3,2.3340744E1,4.5620108E2,3.2708271E3,4.6721353E3,1.0624925E4,8.203331E0,3.383402E2,3.8502297E3,3.6387698E3,4.4491846E3,4.0717651E3,2.070769E3,6.969638E1],"tree_param":{"num_deleted":"0","num_feature":"18","num_nodes":"31","size_leaf_vector":"1"}},{"base_weights":[1.1002808E-3,6.394575E-2,-3.1738337E-2,1.0199956E-2,1.0930613E-1,-7.870043E-2,1.5239374E-2,-1.8957693E-2,1.1907797E-1,1.686203E-2,1.3769424E-1,-2.696721E-1,-6.766179E-2,9.3358524E-2,-6.648844E-3,-1.3704567E-2,-3.4413076E-4,-1.5215993E-4,1.2589858E-2,-8.328912E-3,4.256395E-3,1.40348645E-2,6.560871E-3,8.917302E-3,-2.0990532E-2,-2.2778593E-3,-8.108271E-3,5.7264585E-3,2.3536554E-2,-3.7163498E-3,1.0478867E-3],"categories":[0,1,2,3,6],"categories_nodes":[10],"categories_segments":[0],"categories_sizes":[5],"default_left":[0,1,0,0,0,0,0,0,0,1,1,0,0,0,0,0,0,0,0,0,0,0,0,0,0,0,0,0,0,0,0],"id":30,"left_children":[1,3,5,7,9,11,13,15,17,19,21,23,25,27,29,-1,-1,-1,-1,-1,-1,-1,-1,-1,-1,-1,-1,-1,-1,-1,-1],"loss_changes":[8.1679886E1,3.310853E1,5.73565E1,1.9768644E1,1.931678E1,2.7304268E1,2.2232216E1,1.1502414E1,7.6118298E0,8.775493E0,1.3722244E1,2.525463E0,1.8322521E1,1.0730352E1,8.893537E0,0E0,0E0,0E0,0E0,0E0,0E0,0E0,0E0,0E0,0E0,0E0,0E0,0E0,0E0,0E0,0E0],"parents":[2147483647,0,0,1,1,2,2,3,3,4,4,5,5,6,6,7,7,8,8,9,9,10,10,11,11,12,12,13,13,14,14],"right_children":[2,4,6,8,10,12,14,16,18,20,22,24,26,28,30,-1,-1,-1,-1,-1,-1,-1,-1,-1,-1,-1,-1,-1,-1,-1,-1],"split_conditions":[1.4333988E3,9.272598E-1,1.7030552E3,1.7259452E3,1.2971902E3,1.2374712E3,1.5801324E3,1.1314384E3,7.6853144E-1,6.3049346E-1,1E-45,1.6068454E-1,1.5957974E3,1.9883151E3,1E0,-1.3704567E-2,-3.4413076E-4,-1.5215993E-4,1.2589858E-2,-8.328912E-3,4.256395E-3,1.40348645E-2,6.560871E-3,8.917302E-3,-2.0990532E-2,-2.2778593E-3,-8.108271E-3,5.7264585E-3,2.3536554E-2,-3.7163498E-3,1.0478867E-3],"split_indices":[7,11,0,0,0,0,7,0,3,3,17,8,7,0,16,0,0,0,0,0,0,0,0,0,0,0,0,0,0,0,0],"split_type":[0,0,0,0,0,0,0,0,0,0,1,0,0,0,0,0,0,0,0,0,0,0,0,0,0,0,0,0,0,0,0],"sum_hessian":[3.9567137E4,1.3577558E4,2.598958E4,6.217511E3,7.3600464E3,1.29950625E4,1.2994518E4,4.9078105E3,1.3097002E3,1.7312501E3,5.628796E3,7.0294476E2,1.2292117E4,2.8400637E3,1.0154454E4,3.9375568E2,4.514055E3,3.7206415E2,9.376361E2,4.0812286E2,1.3231272E3,2.8757395E3,2.7530564E3,1.3565038E1,6.893797E2,6.3361763E3,5.955941E3,2.6369075E3,2.0315634E2,3.300182E3,6.854272E3],"tree_param":{"num_deleted":"0","num_feature":"18","num_nodes":"31","size_leaf_vector":"1"}},{"base_weights":[1.430701E-3,-1.0541732E-1,4.37348E-2,-1.8794969E-1,-7.31543E-2,2.1545652E-2,1.1932133E-1,-3.109245E-1,-1.5888663E-1,-7.65905E-2,2.3036702E-1,1.1970015E-2,1.3329726E-1,1.9555688E-2,1.3892671E-1,1.7489497E-2,-2.378593E-2,-1.31450165E-2,-2.3396374E-3,-7.073219E-3,-1.6611364E-3,3.4722924E-2,-2.0782012E-3,-1.7874409E-3,2.6840183E-3,1.8002234E-2,2.1292223E-3,3.460894E-3,-8.210364E-3,-1.6767229E-3,1.1519696E-2],"categories":[0,1,2,5,6],"categories_nodes":[12],"categories_segments":[0],"categories_sizes":[5],"default_left":[0,0,0,0,1,0,0,0,0,1,0,0,1,0,1,0,0,0,0,0,0,0,0,0,0,0,0,0,0,0,0],"id":31,"left_children":[1,3,5,7,9,11,13,15,17,19,21,23,25,27,29,-1,-1,-1,-1,-1,-1,-1,-1,-1,-1,-1,-1,-1,-1,-1,-1],"loss_changes":[1.7892537E2,2.981868E1,4.7545753E1,1.098864E1,8.526852E0,2.345649E1,1.2569458E1,1.8063393E0,4.9892197E0,7.4725075E0,5.5156245E0,1.7008972E1,1.9104132E1,3.6191978E0,1.1929352E1,0E0,0E0,0E0,0E0,0E0,0E0,0E0,0E0,0E0,0E0,0E0,0E0,0E0,0E0,0E0,0E0],"parents":[2147483647,0,0,1,1,2,2,3,3,4,4,5,5,6,6,7,7,8,8,9,9,10,10,11,11,12,12,13,13,14,14],"right_children":[2,4,6,8,10,12,14,16,18,20,22,24,26,28,30,-1,-1,-1,-1,-1,-1,-1,-1,-1,-1,-1,-1,-1,-1,-1,-1],"split_conditions":[5.3678143E-1,-2.4675673E2,3.3546872E2,8.863412E-2,3.117391E0,1.8472171E0,-5.7751006E-1,1.8796486E-1,1.5661856E0,1.1652781E0,5.169345E-1,7.248313E-1,1E-45,5.213621E-1,3.7854812E-1,1.7489497E-2,-2.378593E-2,-1.31450165E-2,-2.3396374E-3,-7.073219E-3,-1.6611364E-3,3.4722924E-2,-2.0782012E-3,-1.7874409E-3,2.6840183E-3,1.8002234E-2,2.1292223E-3,3.460894E-3,-8.210364E-3,-1.6767229E-3,1.1519696E-2],"split_indices":[15,14,14,15,9,9,5,10,9,3,10,15,17,12,4,0,0,0,0,0,0,0,0,0,0,0,0,0,0,0,0],"split_type":[0,0,0,0,0,0,0,0,0,0,0,0,1,0,0,0,0,0,0,0,0,0,0,0,0,0,0,0,0,0,0],"sum_hessian":[3.9573008E4,1.122175E4,2.835126E4,3.1462688E3,8.0754805E3,2.1922797E4,6.428463E3,5.9106744E2,2.5552014E3,7.9892134E3,8.6267365E1,2.0198262E4,1.7245355E3,1.0576387E3,5.370824E3,2.3398402E0,5.887276E2,2.2799019E3,2.7529968E2,6.075642E3,1.913571E3,4.3299038E1,4.2968327E1,8.044334E3,1.2153927E4,8.5784656E2,8.6668896E2,8.807089E2,1.769298E2,4.218797E2,4.9489443E3],"tree_param":{"num_deleted":"0","num_feature":"18","num_nodes":"31","size_leaf_vector":"1"}},{"base_weights":[-2.0614508E-4,-7.556465E-2,5.58934E-2,-1.8319905E-1,-5.186352E-2,1.1687539E-2,8.751508E-2,-2.8726193E-1,-1.5840736E-1,-5.721331E-2,1.3592835E-1,3.2821155E-4,1.4629869E-1,4.5799322E-2,1.1962226E-1,-2.3018623E-2,-5.0601596E-3,8.000283E-5,-1.2897584E-2,-7.4908067E-3,-3.2213195E-3,-3.0698928E-3,2.1198703E-2,-2.2318624E-3,2.3764577E-3,1.7146442E-2,2.9257305E-3,-4.1394887E-4,6.117472E-3,8.404057E-3,2.8240716E-2],"categories":[0,1,2,5,6],"categories_nodes":[12],"categories_segments":[0],"categories_sizes":[5],"default_left":[0,0,0,0,0,1,1,0,0,0,1,0,1,0,1,0,0,0,0,0,0,0,0,0,0,0,0,0,0,0,0],"id":32,"left_children":[1,3,5,7,9,11,13,15,17,19,21,23,25,27,29,-1,-1,-1,-1,-1,-1,-1,-1,-1,-1,-1,-1,-1,-1,-1,-1],"loss_changes":[1.680673E2,4.322654E1,3.1851036E1,7.6385727E0,1.4019676E1,1.45417E1,1.7762985E1,2.1671562E0,4.961979E0,8.240364E0,9.975967E0,8.185514E0,6.392089E0,1.0472362E1,1.5514442E1,0E0,0E0,0E0,0E0,0E0,0E0,0E0,0E0,0E0,0E0,0E0,0E0,0E0,0E0,0E0,0E0],"parents":[2147483647,0,0,1,1,2,2,3,3,4,4,5,5,6,6,7,7,8,8,9,9,10,10,11,11,12,12,13,13,14,14],"right_children":[2,4,6,8,10,12,14,16,18,20,22,24,26,28,30,-1,-1,-1,-1,-1,-1,-1,-1,-1,-1,-1,-1,-1,-1,-1,-1],"split_conditions":[6.686831E-1,-2.4675673E2,8.27817E-1,8.863412E-2,3.117391E0,1.8472171E0,8.496612E-1,1.6466757E0,-9.52353E-1,4.0708232E-1,4E-1,9.325349E-1,1E-45,1.7237395E3,1.6674383E0,-2.3018623E-2,-5.0601596E-3,8.000283E-5,-1.2897584E-2,-7.4908067E-3,-3.2213195E-3,-3.0698928E-3,2.1198703E-2,-2.2318624E-3,2.3764577E-3,1.7146442E-2,2.9257305E-3,-4.1394887E-4,6.117472E-3,8.404057E-3,2.8240716E-2],"split_indices":[15,14,15,15,9,9,9,9,12,15,6,3,17,0,3,0,0,0,0,0,0,0,0,0,0,0,0,0,0,0,0],"split_type":[0,0,0,0,0,0,0,0,0,0,0,0,1,0,0,0,0,0,0,0,0,0,0,0,0,0,0,0,0,0,0],"sum_hessian":[3.9743812E4,1.6959791E4,2.2784023E4,3.0538164E3,1.3905975E4,9.504609E3,1.3279414E4,5.761696E2,2.4776467E3,1.3524575E4,3.8139914E2,8.770134E3,7.34475E2,5.781403E3,7.498011E3,5.310616E2,4.5108047E1,1.8083968E2,2.2968071E3,3.4621912E3,1.0062385E4,1.7378279E2,2.0761635E2,4.475673E3,4.294461E3,4.154691E2,3.190059E2,2.3580386E3,3.4233643E3,7.2707573E3,2.272537E2],"tree_param":{"num_deleted":"0","num_feature":"18","num_nodes":"31","size_leaf_vector":"1"}},{"base_weights":[1.3639071E-3,-6.860696E-2,5.784013E-2,-1.9338866E-1,-4.698836E-2,4.544105E-2,1.4880727E-1,-2.1548042E-2,-1.6622062E-1,-5.4754477E-2,1.4395113E-1,1.134854E-2,7.6201156E-2,2.5644132E-1,1.166373E-1,2.7520114E-3,-1.3087948E-2,-4.8171426E-3,4.1070487E-4,1.6319012E-2,-8.646179E-3,-8.5250183E-4,3.4023253E-3,8.078448E-3,1.8500825E-3,-6.4590154E-3,2.2004353E-2,4.9036145E-3,1.4158102E-2],"categories":[],"categories_nodes":[],"categories_segments":[],"categories_sizes":[],"default_left":[0,0,0,0,0,0,0,0,0,0,0,0,0,0,0,0,0,0,0,0,0,0,0,0,0,0,0,0,0],"id":33,"left_children":[1,3,5,7,9,11,13,-1,15,17,19,21,23,25,27,-1,-1,-1,-1,-1,-1,-1,-1,-1,-1,-1,-1,-1,-1],"loss_changes":[1.5657248E2,4.7687744E1,2.469162E1,6.275505E0,2.2421558E1,2.0238098E1,8.930767E0,0E0,3.0139694E0,7.9376793E0,1.1196678E1,7.004449E0,1.6170338E1,7.3604927E0,7.3878803E0,0E0,0E0,0E0,0E0,0E0,0E0,0E0,0E0,0E0,0E0,0E0,0E0,0E0,0E0],"parents":[2147483647,0,0,1,1,2,2,3,3,4,4,5,5,6,6,8,8,9,9,10,10,11,11,12,12,13,13,14,14],"right_children":[2,4,6,8,10,12,14,-1,16,18,20,22,24,26,28,-1,-1,-1,-1,-1,-1,-1,-1,-1,-1,-1,-1,-1,-1],"split_conditions":[6.861875E-1,2.3617946E-1,9.6608126E-1,8.863412E-2,2.3260074E0,8.9172125E-1,5.555556E-1,-2.1548042E-2,-1.1345522E0,1.4359014E0,1.524767E3,1.7805272E3,1.5096334E3,4.32057E-1,1.8861602E3,2.7520114E-3,-1.3087948E-2,-4.8171426E-3,4.1070487E-4,1.6319012E-2,-8.646179E-3,-8.5250183E-4,3.4023253E-3,8.078448E-3,1.8500825E-3,-6.4590154E-3,2.2004353E-2,4.9036145E-3,1.4158102E-2],"split_indices":[15,15,15,15,9,9,6,0,12,9,7,0,7,4,0,0,0,0,0,0,0,0,0,0,0,0,0,0,0],"split_type":[0,0,0,0,0,0,0,0,0,0,0,0,0,0,0,0,0,0,0,0,0,0,0,0,0,0,0,0,0],"sum_hessian":[3.961045E4,1.7691043E4,2.1919406E4,2.605837E3,1.5085206E4,1.9297486E4,2.6219207E3,5.810165E2,2.0248204E3,1.4499454E4,5.857517E2,9.156579E3,1.0140906E4,5.943568E2,2.0275638E3,6.90283E1,1.9557921E3,1.2597232E4,1.9022218E3,4.584188E2,1.2733291E2,5.4814243E3,3.6751553E3,6.345389E3,3.7955173E3,5.4694622E1,5.396622E2,1.1799628E3,8.476011E2],"tree_param":{"num_deleted":"0","num_feature":"18","num_nodes":"29","size_leaf_vector":"1"}},{"base_weights":[2.169888E-3,-9.186076E-2,3.7630983E-2,-1.9643442E-1,-7.1671255E-2,4.7823987E-3,7.530238E-2,-2.821472E-1,-1.5851201E-1,-7.583236E-2,1.8585193E-1,-9.725067E-3,1.17319874E-1,6.926489E-2,3.3268845E-1,-2.1561577E-3,-2.2497376E-2,-2.0953545E-3,-1.3326944E-2,-7.3409127E-3,-3.914855E-3,-2.166583E-2,2.1230295E-2,-1.6729133E-3,7.424537E-4,1.2268495E-2,-1.9956934E-3,4.3951836E-3,1.19733745E-2,3.22505E-2,-1.4539808E-3],"categories":[],"categories_nodes":[],"categories_segments":[],"categories_sizes":[],"default_left":[0,0,0,0,1,0,1,0,1,0,1,0,0,0,0,0,0,0,0,0,0,0,0,0,0,0,0,0,0,0,0],"id":34,"left_children":[1,3,5,7,9,11,13,15,17,19,21,23,25,27,29,-1,-1,-1,-1,-1,-1,-1,-1,-1,-1,-1,-1,-1,-1,-1,-1],"loss_changes":[1.3330002E2,2.303492E1,3.592001E1,5.4979553E0,9.921108E0,2.5333614E1,2.0883133E1,2.126175E0,2.9061012E0,4.6187515E0,7.123384E0,3.3487883E0,1.1558302E1,1.2967609E1,1.0330196E1,0E0,0E0,0E0,0E0,0E0,0E0,0E0,0E0,0E0,0E0,0E0,0E0,0E0,0E0,0E0,0E0],"parents":[2147483647,0,0,1,1,2,2,3,3,4,4,5,5,6,6,7,7,8,8,9,9,10,10,11,11,12,12,13,13,14,14],"right_children":[2,4,6,8,10,12,14,16,18,20,22,24,26,28,30,-1,-1,-1,-1,-1,-1,-1,-1,-1,-1,-1,-1,-1,-1,-1,-1],"split_conditions":[5.3678143E-1,1.8548821E-1,8.27817E-1,8.863412E-2,2.231978E0,1.5273921E0,2.060705E0,1.4530872E3,5.2470624E-1,4.0708232E-1,5E-1,7.3043114E-1,1.5484441E3,9.797715E-1,-3.004072E-1,-2.1561577E-3,-2.2497376E-2,-2.0953545E-3,-1.3326944E-2,-7.3409127E-3,-3.914855E-3,-2.166583E-2,2.1230295E-2,-1.6729133E-3,7.424537E-4,1.2268495E-2,-1.9956934E-3,4.3951836E-3,1.19733745E-2,3.22505E-2,-1.4539808E-3],"split_indices":[15,15,15,15,11,11,11,7,8,15,6,15,7,15,12,0,0,0,0,0,0,0,0,0,0,0,0,0,0,0,0],"split_type":[0,0,0,0,0,0,0,0,0,0,0,0,0,0,0,0,0,0,0,0,0,0,0,0,0,0,0,0,0,0,0],"sum_hessian":[3.9965473E4,1.0942043E4,2.9023432E4,1.7627736E3,9.17927E3,1.5507527E4,1.3515904E4,5.296502E2,1.2331233E3,9.037188E3,1.4208061E2,1.3741222E4,1.7663057E3,1.3213061E4,3.0284363E2,3.239197E1,4.9725827E2,1.5177678E2,1.0813466E3,4.757254E3,4.279935E3,2.1987524E1,1.2009308E2,8.397994E3,5.343227E3,1.3427092E3,4.235964E2,1.1772264E4,1.4407963E3,2.3767139E2,6.517226E1],"tree_param":{"num_deleted":"0","num_feature":"18","num_nodes":"31","size_leaf_vector":"1"}},{"base_weights":[6.665767E-4,-9.1968074E-2,3.543989E-2,-1.8475819E-1,-6.2375914E-2,1.7632874E-2,9.342828E-2,-2.797527E-1,-1.5876786E-1,-6.9237776E-2,3.795762E-2,-8.937249E-3,6.0827505E-2,1.320088E-1,-7.2917165E-3,-2.145379E-2,1.7671913E-2,1.8032105E-3,-1.2939806E-2,-5.572151E-3,3.6031846E-3,1.1709947E-2,-1.5380051E-3,-6.1310544E-3,-3.2795733E-4,4.056951E-3,1.6455198E-2,5.281715E-2,9.762544E-3,-3.6952244E-3,4.539204E-3],"categories":[],"categories_nodes":[],"categories_segments":[],"categories_sizes":[],"default_left":[0,0,0,0,1,0,0,0,0,1,0,0,0,0,0,0,0,0,0,0,0,0,0,0,0,0,0,0,0,0,0],"id":35,"left_children":[1,3,5,7,9,11,13,15,17,19,21,23,25,27,29,-1,-1,-1,-1,-1,-1,-1,-1,-1,-1,-1,-1,-1,-1,-1,-1],"loss_changes":[1.2626715E2,2.9312012E1,2.9420013E1,6.1315613E0,5.6050987E0,2.50356E1,2.6018616E1,1.6617584E0,4.76976E0,4.1211014E0,3.5975726E0,4.483097E0,9.157425E0,9.480789E0,5.2440763E0,0E0,0E0,0E0,0E0,0E0,0E0,0E0,0E0,0E0,0E0,0E0,0E0,0E0,0E0,0E0,0E0],"parents":[2147483647,0,0,1,1,2,2,3,3,4,4,5,5,6,6,7,7,8,8,9,9,10,10,11,11,12,12,13,13,14,14],"right_children":[2,4,6,8,10,12,14,16,18,20,22,24,26,28,30,-1,-1,-1,-1,-1,-1,-1,-1,-1,-1,-1,-1,-1,-1,-1,-1],"split_conditions":[5.3678143E-1,2.3617946E-1,1.204284E0,8.863412E-2,1.6128737E0,8.636553E-1,1.5484441E3,2.5E0,4.279811E-1,1.8953137E0,9.538818E-1,2.867727E-1,1.8235855E0,-7.320884E1,8.01813E-1,-2.145379E-2,1.7671913E-2,1.8032105E-3,-1.2939806E-2,-5.572151E-3,3.6031846E-3,1.1709947E-2,-1.5380051E-3,-6.1310544E-3,-3.2795733E-4,4.056951E-3,1.6455198E-2,5.281715E-2,9.762544E-3,-3.6952244E-3,4.539204E-3],"split_indices":[15,15,11,15,11,15,7,11,11,1,4,8,8,14,15,0,0,0,0,0,0,0,0,0,0,0,0,0,0,0,0],"split_type":[0,0,0,0,0,0,0,0,0,0,0,0,0,0,0,0,0,0,0,0,0,0,0,0,0,0,0,0,0,0,0],"sum_hessian":[3.9187375E4,1.0692856E4,2.8494518E4,2.5784568E3,8.1144E3,2.1805727E4,6.6887915E3,5.4218695E2,2.0362699E3,7.596597E3,5.178028E2,1.3503693E4,8.302033E3,4.835015E3,1.8537761E3,5.398733E2,2.3136067E0,1.3231232E2,1.9039576E3,7.3105015E3,2.8609555E2,1.6897174E2,3.4883105E2,8.004603E2,1.2703233E4,7.952529E3,3.49505E2,6.872952E0,4.828142E3,1.1466947E3,7.070813E2],"tree_param":{"num_deleted":"0","num_feature":"18","num_nodes":"31","size_leaf_vector":"1"}},{"base_weights":[-6.2383903E-4,-6.503372E-2,4.6695266E-2,-1.6399807E-1,-4.7385387E-2,3.1332314E-2,9.8070495E-2,-2.8519574E-1,-1.2989616E-1,-6.4109124E-2,-5.143745E-3,2.02154E-2,9.830491E-2,1.3322638E-1,3.0507382E-2,-2.2525452E-2,-2.4798487E-3,-1.1518558E-2,-2.8510942E-4,-7.705298E-3,-3.675222E-3,2.3505436E-3,-5.706E-3,8.8483474E-4,6.473612E-3,1.8435664E-3,1.0447873E-2,4.3078613E-2,9.156556E-3,-7.809382E-3,3.884186E-3],"categories":[],"categories_nodes":[],"categories_segments":[],"categories_sizes":[],"default_left":[0,0,1,0,0,0,0,0,0,0,0,1,0,0,1,0,0,0,0,0,0,0,0,0,0,0,0,0,0,0,0],"id":36,"left_children":[1,3,5,7,9,11,13,15,17,19,21,23,25,27,29,-1,-1,-1,-1,-1,-1,-1,-1,-1,-1,-1,-1,-1,-1,-1,-1],"loss_changes":[1.20745605E2,2.9261093E1,1.8008766E1,1.0278542E1,1.0062826E1,1.3084736E1,1.2458611E1,1.8046646E0,5.710045E0,5.9465675E0,1.0365463E1,8.396053E0,7.406187E0,1.7564674E1,5.1042533E0,0E0,0E0,0E0,0E0,0E0,0E0,0E0,0E0,0E0,0E0,0E0,0E0,0E0,0E0,0E0,0E0],"parents":[2147483647,0,0,1,1,2,2,3,3,4,4,5,5,6,6,7,7,8,8,9,9,10,10,11,11,12,12,13,13,14,14],"right_children":[2,4,6,8,10,12,14,16,18,20,22,24,26,28,30,-1,-1,-1,-1,-1,-1,-1,-1,-1,-1,-1,-1,-1,-1,-1,-1],"split_conditions":[6.713562E-1,2.3617946E-1,1.204284E0,8.863412E-2,1.1063792E0,9.598717E-1,1.4629895E3,1.547728E3,1E0,4.0708232E-1,1.6307324E3,1E0,1.7773904E3,2.857143E-1,6.7146194E-1,-2.2525452E-2,-2.4798487E-3,-1.1518558E-2,-2.8510942E-4,-7.705298E-3,-3.675222E-3,2.3505436E-3,-5.706E-3,8.8483474E-4,6.473612E-3,1.8435664E-3,1.0447873E-2,4.3078613E-2,9.156556E-3,-7.809382E-3,3.884186E-3],"split_indices":[15,15,11,15,11,15,7,0,13,15,0,13,0,13,3,0,0,0,0,0,0,0,0,0,0,0,0,0,0,0,0],"split_type":[0,0,0,0,0,0,0,0,0,0,0,0,0,0,0,0,0,0,0,0,0,0,0,0,0,0,0,0,0,0,0],"sum_hessian":[3.9605906E4,1.677288E4,2.2833025E4,2.5314163E3,1.4241465E4,1.7583852E4,5.249174E3,5.468304E2,1.9845859E3,1.0200234E4,4.0412307E3,1.5086835E4,2.497016E3,3.4490552E3,1.8001188E3,5.1839996E2,2.8430395E1,1.6801641E3,3.0442184E2,2.9319993E3,7.268235E3,2.669557E3,1.3716737E3,1.3363703E4,1.7231313E3,8.8262384E2,1.6143923E3,8.412836E1,3.3649268E3,2.4060559E2,1.5595132E3],"tree_param":{"num_deleted":"0","num_feature":"18","num_nodes":"31","size_leaf_vector":"1"}},{"base_weights":[2.6248005E-4,5.4336347E-2,-2.1325791E-2,5.7095154E-3,9.096943E-2,-2.9039357E-2,4.5286182E-2,-1.2359063E-2,7.592667E-2,8.356682E-2,2.9674986E-1,-1.0229703E-1,-2.2514543E-2,1.3485296E-1,-2.9069262E-2,1.9050225E-3,-3.488791E-3,3.2646004E-2,4.422248E-3,2.308751E-3,7.884469E-3,3.405786E-2,-1.1345122E-3,1.1940892E-2,-8.154673E-3,-4.179593E-3,-6.802633E-4,-9.144953E-3,1.2699465E-2,1.2478036E-3,-1.0313885E-2],"categories":[],"categories_nodes":[],"categories_segments":[],"categories_sizes":[],"default_left":[0,1,0,0,0,1,0,0,0,0,0,0,0,0,0,0,0,0,0,0,0,0,0,0,0,0,0,0,0,0,0],"id":37,"left_children":[1,3,5,7,9,11,13,15,17,19,21,23,25,27,29,-1,-1,-1,-1,-1,-1,-1,-1,-1,-1,-1,-1,-1,-1,-1,-1],"loss_changes":[4.5967556E1,2.0011124E1,1.446718E1,6.1374564E0,9.622055E0,1.2044426E1,1.9487036E1,4.910414E0,5.9741616E0,6.847065E0,1.0659042E1,3.1995144E0,1.0280208E1,1.1480049E1,7.873879E0,0E0,0E0,0E0,0E0,0E0,0E0,0E0,0E0,0E0,0E0,0E0,0E0,0E0,0E0,0E0,0E0],"parents":[2147483647,0,0,1,1,2,2,3,3,4,4,5,5,6,6,7,7,8,8,9,9,10,10,11,11,12,12,13,13,14,14],"right_children":[2,4,6,8,10,12,14,16,18,20,22,24,26,28,30,-1,-1,-1,-1,-1,-1,-1,-1,-1,-1,-1,-1,-1,-1,-1,-1],"split_conditions":[1.3852378E3,9.272598E-1,1.3856612E0,1.2037792E0,3.0225487E0,5.208632E-1,1.5724152E3,1.2207991E3,1.8796486E-1,6.1432546E-1,5.2079415E-1,2.8174588E-1,1E0,5.9619755E-1,1.2278178E0,1.9050225E-3,-3.488791E-3,3.2646004E-2,4.422248E-3,2.308751E-3,7.884469E-3,3.405786E-2,-1.1345122E-3,1.1940892E-2,-8.154673E-3,-4.179593E-3,-6.802633E-4,-9.144953E-3,1.2699465E-2,1.2478036E-3,-1.0313885E-2],"split_indices":[7,11,11,3,11,3,7,7,10,10,8,10,16,3,1,0,0,0,0,0,0,0,0,0,0,0,0,0,0,0,0],"split_type":[0,0,0,0,0,0,0,0,0,0,0,0,0,0,0,0,0,0,0,0,0,0,0,0,0,0,0,0,0,0,0],"sum_hessian":[3.936618E4,1.1229721E4,2.8136457E4,4.8277783E3,6.4019424E3,2.5219258E4,2.9171987E3,3.8433875E3,9.8439087E2,6.187227E3,2.1471527E2,2.0557847E3,2.3163475E4,1.3211841E3,1.5960148E3,1.8221514E3,2.0212361E3,3.9366535E1,9.4502435E2,1.7561786E3,4.4310483E3,1.4185867E2,7.2856606E1,4.140753E1,2.0143772E3,6.7369976E3,1.6426477E4,1.5098509E2,1.170199E3,1.124307E3,4.717077E2],"tree_param":{"num_deleted":"0","num_feature":"18","num_nodes":"31","size_leaf_vector":"1"}},{"base_weights":[-9.8933E-4,-4.226657E-2,6.743966E-2,-1.6405828E-1,-2.4846746E-2,5.4681122E-2,1.3392024E-1,-2.2184364E-2,-1.363038E-1,-3.4069337E-2,7.8502834E-2,5.2230246E-2,4.1708088E-1,6.80265E-2,1.6667739E-1,-6.359872E-4,-1.1313976E-2,-3.9192205E-3,-6.009051E-4,1.1093998E-2,2.677153E-4,1.9008024E-3,5.558302E-3,7.970323E-3,5.281715E-2,1.865573E-2,3.5988544E-3,5.281715E-2,1.16805425E-2],"categories":[0,1,2,5,6],"categories_nodes":[10],"categories_segments":[0],"categories_sizes":[5],"default_left":[0,0,0,0,0,1,0,0,0,0,1,1,0,0,0,0,0,0,0,0,0,0,0,0,0,0,0,0,0],"id":38,"left_children":[1,3,5,7,9,11,13,-1,15,17,19,21,23,25,27,-1,-1,-1,-1,-1,-1,-1,-1,-1,-1,-1,-1,-1,-1],"loss_changes":[1.1145345E2,5.219418E1,1.2551758E1,1.0880791E1,2.054486E1,1.09499855E1,5.0881042E0,0E0,4.4372215E0,9.22595E0,9.069785E0,7.1695175E0,9.262776E0,2.8559587E0,1.0723663E1,0E0,0E0,0E0,0E0,0E0,0E0,0E0,0E0,0E0,0E0,0E0,0E0,0E0,0E0],"parents":[2147483647,0,0,1,1,2,2,3,3,4,4,5,5,6,6,8,8,9,9,10,10,11,11,12,12,13,13,14,14],"right_children":[2,4,6,8,10,12,14,-1,16,18,20,22,24,26,28,-1,-1,-1,-1,-1,-1,-1,-1,-1,-1,-1,-1,-1,-1],"split_conditions":[8.075637E-1,2.7013406E-1,9.6869063E-1,8.863412E-2,1.8472171E0,3.117391E0,-2.6743895E-1,-2.2184364E-2,-8.067093E-1,9.502902E-1,1E-45,8.657537E-1,3.35508E-2,4.2857143E-1,-2.346497E-1,-6.359872E-4,-1.1313976E-2,-3.9192205E-3,-6.009051E-4,1.1093998E-2,2.677153E-4,1.9008024E-3,5.558302E-3,7.970323E-3,5.281715E-2,1.865573E-2,3.5988544E-3,5.281715E-2,1.16805425E-2],"split_indices":[15,15,15,15,9,9,5,0,12,9,17,9,5,6,5,0,0,0,0,0,0,0,0,0,0,0,0,0,0],"split_type":[0,0,0,0,0,0,0,0,0,0,1,0,0,0,0,0,0,0,0,0,0,0,0,0,0,0,0,0,0],"sum_hessian":[3.9447465E4,2.4606594E4,1.4840873E4,3.073185E3,2.1533408E4,1.2459845E4,2.381028E3,5.3138947E2,2.5417954E3,1.9772701E4,1.760706E3,1.2382499E4,7.734613E1,7.963343E2,1.5846938E3,2.4591937E2,2.2958762E3,1.1733666E4,8.0390356E3,9.169708E2,8.4373517E2,5.480997E3,6.9015015E3,4.7174793E1,3.0171333E1,7.4771835E1,7.2156244E2,2.3212116E1,1.5614817E3],"tree_param":{"num_deleted":"0","num_feature":"18","num_nodes":"29","size_leaf_vector":"1"}},{"base_weights":[-1.1145611E-3,-5.4734033E-3,1.8939197E-1,-9.45379E-2,1.4955518E-3,-1.4226714E-1,2.3718229E-1,-1.6046019E-1,-4.4516493E-2,-1.53658725E-2,2.7599012E-2,-1.3836691E-2,1.3267316E-2,3.7589762E-1,1.4197756E-1,-1.3634967E-2,-4.904577E-4,4.4280186E-4,-1.1103904E-2,-2.9746438E-3,1.2367712E-3,5.032173E-3,6.121079E-5,1.0623485E-2,3.7720043E-2,-8.160504E-3,1.52529655E-2],"categories":[1,5,0,1,2,3,6],"categories_nodes":[8,10],"categories_segments":[0,2],"categories_sizes":[2,5],"default_left":[1,0,1,1,0,0,0,1,1,0,1,0,0,0,0,0,0,0,0,0,0,0,0,0,0,0,0],"id":39,"left_children":[1,3,5,7,9,11,13,15,17,19,21,-1,-1,23,25,-1,-1,-1,-1,-1,-1,-1,-1,-1,-1,-1,-1],"loss_changes":[3.289106E1,2.4034933E1,1.4231808E1,9.226305E0,1.5811115E1,1.6853623E0,9.956497E0,3.7660065E0,8.3080015E0,1.667838E1,1.4763253E1,0E0,0E0,8.722111E0,7.188159E0,0E0,0E0,0E0,0E0,0E0,0E0,0E0,0E0,0E0,0E0,0E0,0E0],"parents":[2147483647,0,0,1,1,2,2,3,3,4,4,5,5,6,6,7,7,8,8,9,9,10,10,13,13,14,14],"right_children":[2,4,6,8,10,12,14,16,18,20,22,-1,-1,24,26,-1,-1,-1,-1,-1,-1,-1,-1,-1,-1,-1,-1],"split_conditions":[2.231978E0,1.2681206E3,3E-1,8.793895E-1,9.87717E-1,1.4225287E0,8E-1,1.340954E0,1E-45,1.7142427E3,1E-45,-1.3836691E-2,1.3267316E-2,1.3476863E3,8.888889E-1,-1.3634967E-2,-4.904577E-4,4.4280186E-4,-1.1103904E-2,-2.9746438E-3,1.2367712E-3,5.032173E-3,6.121079E-5,1.0623485E-2,3.7720043E-2,-8.160504E-3,1.52529655E-2],"split_indices":[11,0,6,9,11,8,6,10,17,0,17,0,0,0,6,0,0,0,0,0,0,0,0,0,0,0,0],"split_type":[0,0,0,0,0,0,0,0,1,0,1,0,0,0,0,0,0,0,0,0,0,0,0,0,0,0,0],"sum_hessian":[3.95967E4,3.871629E4,8.8041003E2,2.8044663E3,3.5911824E4,1.0949274E2,7.709173E2,1.2046019E3,1.5998645E3,2.1819746E4,1.4092077E4,9.9057175E1,1.0435566E1,3.0705328E2,4.6386404E2,1.063736E3,1.40866E2,1.0766504E3,5.2321405E2,1.2414037E4,9.405709E3,5.7265273E3,8.36555E3,1.1015849E2,1.9689479E2,8.908787E1,3.7477618E2],"tree_param":{"num_deleted":"0","num_feature":"18","num_nodes":"27","size_leaf_vector":"1"}},{"base_weights":[2.5627608E-4,-7.92116E-2,3.2336336E-2,-1.7967798E-1,-6.0427338E-2,4.9277954E-3,6.1610322E-2,-2.7682245E-1,-1.4083971E-1,-6.399268E-2,1.7876595E-1,-1.6750601E-3,8.703395E-2,3.315011E-2,1.0053393E-1,-2.6545057E-2,-1.5215424E-2,9.32702E-3,-1.1236806E-2,-5.5624642E-3,-4.5245158E-4,1.8512342E-2,-2.0427153E-2,-7.577983E-4,2.803996E-3,1.0775696E-2,-5.0947787E-3,4.6712594E-4,5.011035E-3,6.493133E-3,2.4421154E-2],"categories":[],"categories_nodes":[],"categories_segments":[],"categories_sizes":[],"default_left":[0,0,0,0,1,1,1,0,0,1,0,0,0,1,1,0,0,0,0,0,0,0,0,0,0,0,0,0,0,0,0],"id":40,"left_children":[1,3,5,7,9,11,13,15,17,19,21,23,25,27,29,-1,-1,-1,-1,-1,-1,-1,-1,-1,-1,-1,-1,-1,-1,-1,-1],"loss_changes":[1.01516205E2,2.1551422E1,2.2760061E1,6.577404E0,8.29911E0,7.946996E0,1.5176731E1,2.470314E0,2.8781757E0,5.368023E0,4.6599836E0,4.412878E0,9.460157E0,7.1104116E0,1.8551796E1,0E0,0E0,0E0,0E0,0E0,0E0,0E0,0E0,0E0,0E0,0E0,0E0,0E0,0E0,0E0,0E0],"parents":[2147483647,0,0,1,1,2,2,3,3,4,4,5,5,6,6,7,7,8,8,9,9,10,10,11,11,12,12,13,13,14,14],"right_children":[2,4,6,8,10,12,14,16,18,20,22,24,26,28,30,-1,-1,-1,-1,-1,-1,-1,-1,-1,-1,-1,-1,-1,-1,-1,-1],"split_conditions":[5.572788E-1,1.9723706E-1,8.27817E-1,8.863412E-2,3.0225487E0,1.6739866E0,9.87717E-1,1.177744E3,-1.2273545E0,1.3156712E0,2.8313687E0,1.2613263E0,1.4481792E3,9.502224E-1,1.5621244E0,-2.6545057E-2,-1.5215424E-2,9.32702E-3,-1.1236806E-2,-5.5624642E-3,-4.5245158E-4,1.8512342E-2,-2.0427153E-2,-7.577983E-4,2.803996E-3,1.0775696E-2,-5.0947787E-3,4.6712594E-4,5.011035E-3,6.493133E-3,2.4421154E-2],"split_indices":[15,15,15,15,11,11,11,0,12,3,4,3,7,3,3,0,0,0,0,0,0,0,0,0,0,0,0,0,0,0,0],"split_type":[0,0,0,0,0,0,0,0,0,0,0,0,0,0,0,0,0,0,0,0,0,0,0,0,0,0,0,0,0,0,0],"sum_hessian":[3.9809465E4,1.1446439E4,2.8363027E4,1.7954915E3,9.650947E3,1.4651606E4,1.3711422E4,5.0303052E2,1.2924609E3,9.51324E3,1.3770717E2,1.3566115E4,1.0854911E3,7.9262485E3,5.785173E3,2.4152122E2,2.6150928E2,3.5970734E1,1.2564902E3,8.145428E3,1.3678124E3,1.2215165E2,1.5555513E1,1.1164619E4,2.4014958E3,7.9794006E2,2.87551E2,4.381602E3,3.5446467E3,5.4399214E3,3.4525122E2],"tree_param":{"num_deleted":"0","num_feature":"18","num_nodes":"31","size_leaf_vector":"1"}},{"base_weights":[1.6354392E-3,-6.0602628E-2,3.8097523E-2,-1.0361936E-1,-2.778752E-2,2.8568191E-2,1.3126016E-1,-2.4137941E-1,-9.199669E-2,-3.852072E-2,6.90849E-2,2.3203755E-2,1.8085617E-1,9.598968E-2,2.4639747E-1,-1.9700173E-2,-2.815904E-3,8.809858E-3,-7.2882045E-3,-3.5837677E-3,6.2896986E-3,9.133927E-3,-6.3881176E-3,-9.45053E-5,3.1850953E-3,1.1497766E-2,4.4060614E-2,-1.1195602E-3,9.0621635E-3,2.4992967E-2,5.6034806E-3],"categories":[],"categories_nodes":[],"categories_segments":[],"categories_sizes":[],"default_left":[0,0,0,0,0,1,1,0,1,0,0,0,1,0,0,0,0,0,0,0,0,0,0,0,0,0,0,0,0,0,0],"id":41,"left_children":[1,3,5,7,9,11,13,15,17,19,21,23,25,27,29,-1,-1,-1,-1,-1,-1,-1,-1,-1,-1,-1,-1,-1,-1,-1,-1],"loss_changes":[8.9861206E1,2.063348E1,2.2146423E1,1.000824E1,8.650919E0,1.8488068E1,9.270905E0,1.9122219E0,5.6707077E0,8.206213E0,6.6929855E0,1.0179128E1,8.342566E0,4.771406E0,7.740082E0,0E0,0E0,0E0,0E0,0E0,0E0,0E0,0E0,0E0,0E0,0E0,0E0,0E0,0E0,0E0,0E0],"parents":[2147483647,0,0,1,1,2,2,3,3,4,4,5,5,6,6,7,7,8,8,9,9,10,10,11,11,12,12,13,13,14,14],"right_children":[2,4,6,8,10,12,14,16,18,20,22,24,26,28,30,-1,-1,-1,-1,-1,-1,-1,-1,-1,-1,-1,-1,-1,-1,-1,-1],"split_conditions":[6.3482636E-1,4.0708232E-1,9.6869063E-1,8.863412E-2,1.7383318E0,2.060705E0,1.1209886E0,1.6466757E0,1.6068454E-1,1.7552031E0,1.6251936E3,8.075637E-1,2.4115098E0,7.098647E-1,7.1428573E-1,-1.9700173E-2,-2.815904E-3,8.809858E-3,-7.2882045E-3,-3.5837677E-3,6.2896986E-3,9.133927E-3,-6.3881176E-3,-9.45053E-5,3.1850953E-3,1.1497766E-2,4.4060614E-2,-1.1195602E-3,9.0621635E-3,2.4992967E-2,5.6034806E-3],"split_indices":[15,15,15,15,9,11,11,9,8,1,7,15,1,3,6,0,0,0,0,0,0,0,0,0,0,0,0,0,0,0,0],"split_type":[0,0,0,0,0,0,0,0,0,0,0,0,0,0,0,0,0,0,0,0,0,0,0,0,0,0,0,0,0,0,0],"sum_hessian":[3.958685E4,1.4622917E4,2.4963934E4,6.3226323E3,8.300285E3,2.2654025E4,2.3099097E3,4.8333246E2,5.8393E3,7.4753984E3,8.2488666E2,2.1889398E4,7.646255E2,1.7760848E3,5.338248E2,4.393304E2,4.400205E1,1.2284661E2,5.716453E3,6.965808E3,5.0959027E2,6.1738794E2,2.0749873E2,9.575395E3,1.2314005E4,7.21373E2,4.325253E1,3.1776596E2,1.4583188E3,3.5411926E2,1.7970554E2],"tree_param":{"num_deleted":"0","num_feature":"18","num_nodes":"31","size_leaf_vector":"1"}},{"base_weights":[4.985147E-4,-6.9385394E-2,3.363517E-2,-1.7190336E-1,-5.1160585E-2,-1.0322833E-3,5.210798E-2,-2.7111363E-1,-1.4270706E-1,-8.22666E-2,-2.951374E-2,-1.05614485E-2,1.5184109E-1,4.898515E-2,2.1687384E-1,-2.4141809E-2,-1.33207375E-2,-1.1531042E-2,7.4089915E-3,-1.03257485E-2,-4.3151327E-3,-2.5179198E-3,1.4453115E-2,-5.915082E-3,2.2665087E-4,5.5941576E-3,2.4741871E-2,3.3300533E-3,1.0462032E-2,3.1025324E-2,4.292225E-3],"categories":[],"categories_nodes":[],"categories_segments":[],"categories_sizes":[],"default_left":[0,0,0,0,1,0,1,0,1,0,0,0,0,0,0,0,0,0,0,0,0,0,0,0,0,0,0,0,0,0,0],"id":42,"left_children":[1,3,5,7,9,11,13,15,17,19,21,23,25,27,29,-1,-1,-1,-1,-1,-1,-1,-1,-1,-1,-1,-1,-1,-1,-1,-1],"loss_changes":[9.1455826E1,2.3684982E1,1.7156961E1,5.3307533E0,7.2543316E0,1.3583639E1,8.933407E0,1.6668835E0,3.7186985E0,6.014494E0,5.4697876E0,8.077563E0,7.349242E0,7.430195E0,9.924904E0,0E0,0E0,0E0,0E0,0E0,0E0,0E0,0E0,0E0,0E0,0E0,0E0,0E0,0E0,0E0,0E0],"parents":[2147483647,0,0,1,1,2,2,3,3,4,4,5,5,6,6,7,7,8,8,9,9,10,10,11,11,12,12,13,13,14,14],"right_children":[2,4,6,8,10,12,14,16,18,20,22,24,26,28,30,-1,-1,-1,-1,-1,-1,-1,-1,-1,-1,-1,-1,-1,-1,-1,-1],"split_conditions":[0E0,-2.9817313E2,1.3970012E2,-5.032226E2,7.593796E-1,1.6674383E0,2.4906192E0,1.2374712E3,1.9999683E0,-1.555097E2,3.117391E0,6.259774E-1,8.6674164E1,1.6286664E0,8E-1,-2.4141809E-2,-1.33207375E-2,-1.1531042E-2,7.4089915E-3,-1.03257485E-2,-4.3151327E-3,-2.5179198E-3,1.4453115E-2,-5.915082E-3,2.2665087E-4,5.5941576E-3,2.4741871E-2,3.3300533E-3,1.0462032E-2,3.1025324E-2,4.292225E-3],"split_indices":[14,14,14,14,9,3,9,0,9,14,9,3,14,10,6,0,0,0,0,0,0,0,0,0,0,0,0,0,0,0,0],"split_type":[0,0,0,0,0,0,0,0,0,0,0,0,0,0,0,0,0,0,0,0,0,0,0,0,0,0,0,0,0,0,0],"sum_hessian":[3.948227E4,1.269754E4,2.6784729E4,1.9094407E3,1.0788099E4,9.31284E3,1.747189E4,4.236253E2,1.4858153E3,4.420413E3,6.3676855E3,8.771296E3,5.415437E2,1.715402E4,3.178706E2,2.7056143E2,1.5306389E2,1.4278928E3,5.792256E1,1.3836976E3,3.0367156E3,6.263158E3,1.04527596E2,1.4573198E3,7.313976E3,3.8124335E2,1.6030034E2,1.6281556E4,8.724634E2,1.3957408E2,1.7829652E2],"tree_param":{"num_deleted":"0","num_feature":"18","num_nodes":"31","size_leaf_vector":"1"}},{"base_weights":[6.7095424E-4,-5.76242E-2,3.561705E-2,-1.4595132E-1,-3.7036944E-2,7.391792E-2,1.081683E-2,-2.1000415E-2,-1.2257152E-1,-3.9648037E-2,2.1776575E-1,1.7329486E-2,1.13729365E-1,-8.983181E-2,1.7427213E-2,-1.0574212E-2,3.2853785E-3,-3.8602143E-3,1.2409053E-3,8.934597E-3,5.281715E-2,-5.1026125E-3,2.9045925E-3,7.3265964E-3,2.398951E-2,-1.0633141E-2,-4.3915954E-4,9.903123E-4,9.840006E-3],"categories":[0,1,2,3,6],"categories_nodes":[2],"categories_segments":[0],"categories_sizes":[5],"default_left":[0,0,1,0,1,0,1,0,0,0,0,0,0,0,0,0,0,0,0,0,0,0,0,0,0,0,0,0,0],"id":43,"left_children":[1,3,5,7,9,11,13,-1,15,17,19,21,23,25,27,-1,-1,-1,-1,-1,-1,-1,-1,-1,-1,-1,-1,-1,-1],"loss_changes":[8.057116E1,2.6924343E1,2.348298E1,8.474903E0,8.051128E0,2.1880882E1,9.998796E0,0E0,7.0092316E0,7.6968575E0,7.6125236E0,7.2426004E0,1.9193382E1,3.971396E0,6.8417916E0,0E0,0E0,0E0,0E0,0E0,0E0,0E0,0E0,0E0,0E0,0E0,0E0,0E0,0E0],"parents":[2147483647,0,0,1,1,2,2,3,3,4,4,5,5,6,6,8,8,9,9,10,10,11,11,12,12,13,13,14,14],"right_children":[2,4,6,8,10,12,14,-1,16,18,20,22,24,26,28,-1,-1,-1,-1,-1,-1,-1,-1,-1,-1,-1,-1,-1,-1],"split_conditions":[3.569138E1,-2.4675673E2,1E-45,-5.032226E2,3.117391E0,9.1047275E-1,3.0001336E-1,-2.1000415E-2,1.6307995E0,1.2820671E0,-2.2455654E-1,1.519222E3,1.6674383E0,1.6232924E3,1.6286664E0,-1.0574212E-2,3.2853785E-3,-3.8602143E-3,1.2409053E-3,8.934597E-3,5.281715E-2,-5.1026125E-3,2.9045925E-3,7.3265964E-3,2.398951E-2,-1.0633141E-2,-4.3915954E-4,9.903123E-4,9.840006E-3],"split_indices":[14,14,17,14,9,9,9,0,9,10,12,0,3,7,10,0,0,0,0,0,0,0,0,0,0,0,0,0,0],"split_type":[0,0,1,0,0,0,0,0,0,0,0,0,0,0,0,0,0,0,0,0,0,0,0,0,0,0,0,0,0],"sum_hessian":[3.953896E4,1.4817536E4,2.4721426E4,2.794412E3,1.2023124E4,9.711754E3,1.5009672E4,4.1031503E2,2.3840972E3,1.1905839E4,1.1728505E2,4.0140957E3,5.697658E3,9.207103E2,1.4088961E4,2.1568235E3,2.2727345E2,9.878852E3,2.0269873E3,1.0949318E2,7.791871E0,7.981603E2,3.2159353E3,5.2762803E3,4.213779E2,5.701708E2,3.5053952E2,1.357816E4,5.1080103E2],"tree_param":{"num_deleted":"0","num_feature":"18","num_nodes":"29","size_leaf_vector":"1"}},{"base_weights":[-2.6834814E-3,-7.933116E-2,2.2340074E-2,-1.4780526E-1,-5.7576075E-2,7.1825525E-3,6.950785E-2,-2.0517007E-2,-1.3421178E-1,-7.362175E-2,2.6662676E-3,-2.353158E-2,3.669688E-2,9.733653E-2,3.6683127E-2,-1.1521788E-2,-1.9377324E-3,-6.117598E-3,4.603693E-3,-3.2411453E-3,4.01448E-3,-9.54738E-4,-4.9348585E-3,2.086915E-3,8.424765E-3,3.461205E-2,6.4500505E-3,-2.8732703E-3,5.126164E-3],"categories":[],"categories_nodes":[],"categories_segments":[],"categories_sizes":[],"default_left":[0,0,0,0,0,0,0,0,0,0,0,0,1,0,1,0,0,0,0,0,0,0,0,0,0,0,0,0,0],"id":44,"left_children":[1,3,5,7,9,11,13,-1,15,17,19,21,23,25,27,-1,-1,-1,-1,-1,-1,-1,-1,-1,-1,-1,-1,-1,-1],"loss_changes":[7.589762E1,1.446072E1,2.1325764E1,3.7517433E0,7.1543903E0,2.0476807E1,6.6068764E0,0E0,4.2407875E0,5.8944054E0,3.613993E0,5.037664E0,7.7868433E0,1.6582687E1,7.813339E0,0E0,0E0,0E0,0E0,0E0,0E0,0E0,0E0,0E0,0E0,0E0,0E0,0E0,0E0],"parents":[2147483647,0,0,1,1,2,2,3,3,4,4,5,5,6,6,8,8,9,9,10,10,11,11,12,12,13,13,14,14],"right_children":[2,4,6,8,10,12,14,-1,16,18,20,22,24,26,28,-1,-1,-1,-1,-1,-1,-1,-1,-1,-1,-1,-1,-1,-1],"split_conditions":[5.213019E-1,2.3617946E-1,1.204284E0,5.0756373E-2,1.3132865E0,8.075637E-1,1.6118846E3,-2.0517007E-2,1E0,1.6739866E0,4.1076365E-1,8.333333E-1,1.4605864E0,2.2222222E-1,6E-1,-1.1521788E-2,-1.9377324E-3,-6.117598E-3,4.603693E-3,-3.2411453E-3,4.01448E-3,-9.54738E-4,-4.9348585E-3,2.086915E-3,8.424765E-3,3.461205E-2,6.4500505E-3,-2.8732703E-3,5.126164E-3],"split_indices":[15,15,11,15,1,15,0,0,13,11,15,6,1,13,13,0,0,0,0,0,0,0,0,0,0,0,0,0,0],"split_type":[0,0,0,0,0,0,0,0,0,0,0,0,0,0,0,0,0,0,0,0,0,0,0,0,0,0,0,0,0],"sum_hessian":[3.9560523E4,9.73374E3,2.9826783E4,2.3390852E3,7.3946553E3,2.257778E4,7.249004E3,2.2041428E2,2.118671E3,5.8383555E3,1.5562997E3,1.1064561E4,1.151322E4,3.917108E3,3.331896E3,1.8083241E3,3.103468E2,5.5340884E3,3.0426675E2,8.183773E2,7.379224E2,8.788572E3,2.2759878E3,1.0281182E4,1.2320377E3,1.176958E2,3.799412E3,9.819147E2,2.3499812E3],"tree_param":{"num_deleted":"0","num_feature":"18","num_nodes":"29","size_leaf_vector":"1"}},{"base_weights":[-4.3077087E-3,-6.203891E-2,2.2521093E-2,-1.6751215E-1,-5.003476E-2,5.0655594E-3,5.7756975E-2,-2.4377511E-1,-1.176545E-1,-5.375795E-2,1.3290355E-1,-1.1600176E-2,4.592602E-2,1.1875455E-1,4.651222E-2,-2.4364121E-2,-1.15086725E-2,-1.1904645E-2,-4.0411213E-3,6.3308734E-3,-4.3460815E-3,3.6912775E-3,3.5888426E-2,-1.5323284E-3,2.585875E-3,-2.6947653E-4,5.8852797E-3,2.7345292E-2,7.3441E-3,1.9492772E-3,