{"learner":{"attributes":{"scikit_learn":"{\"_estimator_type\": \"regressor\"}"},"feature_names":["home_elo","home_gf_adj5","home_ga_adj5","home_gf_adj10","home_ga_adj10","home_form5_perf","home_comp_share10","away_elo","away_gf_adj5","away_ga_adj5","away_gf_adj10","away_ga_adj10","away_form5_perf","away_comp_share10","elo_diff","elo_expected_home","true_home_advantage","match_type"],"feature_types":["float","float","float","float","float","float","float","float","float","float","float","float","float","float","float","float","int","c"],"gradient_booster":{"model":{"cats":{"enc":[{"offsets":[],"values":[]},{"offsets":[],"values":[]},{"offsets":[],"values":[]},{"offsets":[],"values":[]},{"offsets":[],"values":[]},{"offsets":[],"values":[]},{"offsets":[],"values":[]},{"offsets":[],"values":[]},{"offsets":[],"values":[]},{"offsets":[],"values":[]},{"offsets":[],"values":[]},{"offsets":[],"values":[]},{"offsets":[],"values":[]},{"offsets":[],"values":[]},{"offsets":[],"values":[]},{"offsets":[],"values":[]},{"offsets":[],"values":[]},{"offsets":[0,11,32,40,54,59,71,80],"values":[99,111,110,116,105,110,101,110,116,97,108,99,111,110,116,105,110,101,110,116,97,108,95,113,117,97,108,105,102,105,101,114,102,114,105,101,110,100,108,121,110,97,116,105,111,110,115,95,108,101,97,103,117,101,111,116,104,101,114,119,99,95,113,117,97,108,105,102,105,101,114,119,111,114,108,100,95,99,117,112]}],"feature_segments":[0,0,0,0,0,0,0,0,0,0,0,0,0,0,0,0,0,0,7],"sorted_idx":[0,1,2,3,4,5,6]},"gbtree_model_param":{"num_parallel_tree":"1","num_trees":"124"},"iteration_indptr":[0,1,2,3,4,5,6,7,8,9,10,11,12,13,14,15,16,17,18,19,20,21,22,23,24,25,26,27,28,29,30,31,32,33,34,35,36,37,38,39,40,41,42,43,44,45,46,47,48,49,50,51,52,53,54,55,56,57,58,59,60,61,62,63,64,65,66,67,68,69,70,71,72,73,74,75,76,77,78,79,80,81,82,83,84,85,86,87,88,89,90,91,92,93,94,95,96,97,98,99,100,101,102,103,104,105,106,107,108,109,110,111,112,113,114,115,116,117,118,119,120,121,122,123,124],"tree_info":[0,0,0,0,0,0,0,0,0,0,0,0,0,0,0,0,0,0,0,0,0,0,0,0,0,0,0,0,0,0,0,0,0,0,0,0,0,0,0,0,0,0,0,0,0,0,0,0,0,0,0,0,0,0,0,0,0,0,0,0,0,0,0,0,0,0,0,0,0,0,0,0,0,0,0,0,0,0,0,0,0,0,0,0,0,0,0,0,0,0,0,0,0,0,0,0,0,0,0,0,0,0,0,0,0,0,0,0,0,0,0,0,0,0,0,0,0,0,0,0,0,0,0,0],"trees":[{"base_weights":[-4.4058748E-3,3.717058E-1,-1.2055407E-1,6.8971217E-1,2.585365E-1,-2.5287932E-2,-2.3974562E-1,5.229231E-1,7E-1,2.0437984E-1,7E-1,-3.318557E-2,5.61701E-1,-1.9678168E-1,-3.2746783E-1,5.281715E-2,3.311121E-2,5.281715E-2,-7.033539E-3,1.9725904E-2,9.853472E-3,5.281715E-2,1.5607704E-2,4.855799E-3,-5.814883E-3,5.0927375E-2,-9.355796E-3,-1.513889E-2,1.3840317E-2,-2.1588588E-2,-2.7398627E-2],"categories":[],"categories_nodes":[],"categories_segments":[],"categories_sizes":[],"default_left":[0,0,0,1,0,1,0,0,1,0,0,0,0,1,0,0,0,0,0,0,0,0,0,0,0,0,0,0,0,0,0],"id":0,"left_children":[1,3,5,7,9,11,13,15,17,19,21,23,25,27,29,-1,-1,-1,-1,-1,-1,-1,-1,-1,-1,-1,-1,-1,-1,-1,-1],"loss_changes":[1.75994E3,3.411023E2,3.4948657E2,4.3493652E1,2.1970322E2,7.944164E1,5.1171997E1,3.2489258E1,7.8303833E0,2.706836E1,2.5878418E1,7.2328354E1,1.8136024E1,1.3689423E1,6.0335693E0,0E0,0E0,0E0,0E0,0E0,0E0,0E0,0E0,0E0,0E0,0E0,0E0,0E0,0E0,0E0,0E0],"parents":[2147483647,0,0,1,1,2,2,3,3,4,4,5,5,6,6,7,7,8,8,9,9,10,10,11,11,12,12,13,13,14,14],"right_children":[2,4,6,8,10,12,14,16,18,20,22,24,26,28,30,-1,-1,-1,-1,-1,-1,-1,-1,-1,-1,-1,-1,-1,-1,-1,-1],"split_conditions":[3.9311084E-1,1.5884796E-1,7.47687E-1,9.644421E-1,1.5358161E0,2.159759E0,9.026989E-1,4.3140557E-2,2.4763823E0,3.009077E-1,1.7802048E3,5.207351E-1,1.5627988E3,2.023613E0,9.399974E-1,5.281715E-2,3.311121E-2,5.281715E-2,-7.033539E-3,1.9725904E-2,9.853472E-3,5.281715E-2,1.5607704E-2,4.855799E-3,-5.814883E-3,5.0927375E-2,-9.355796E-3,-1.513889E-2,1.3840317E-2,-2.1588588E-2,-2.7398627E-2],"split_indices":[15,15,15,2,4,4,15,15,11,15,7,15,7,4,15,0,0,0,0,0,0,0,0,0,0,0,0,0,0,0,0],"split_type":[0,0,0,0,0,0,0,0,0,0,0,0,0,0,0,0,0,0,0,0,0,0,0,0,0,0,0,0,0,0,0],"sum_hessian":[4.0276016E4,9.500181E3,3.0775834E4,2.4860076E3,7.0141733E3,1.7108396E4,1.3667438E4,1.4772579E3,1.00874976E3,6.469448E3,5.4472485E2,1.688647E4,2.2192494E2,9.186348E3,4.4810903E3,2.846916E2,1.1925664E3,9.975414E2,1.120833E1,3.6404658E3,2.8289827E3,4.3264154E2,1.12083305E2,5.2387734E3,1.1647697E4,1.9054161E2,3.1383326E1,9.096681E3,8.966664E1,2.0981995E3,2.382891E3],"tree_param":{"num_deleted":"0","num_feature":"18","num_nodes":"31","size_leaf_vector":"1"}},{"base_weights":[-2.3625006E-3,3.37455E-1,-5.3207144E-2,7.185336E-2,6.223294E-1,-1.2313603E-1,6.0851898E-2,-1.2898231E-2,3.094003E-1,7E-1,3.8761508E-1,-1.3541004E-1,7E-1,2.468988E-1,1.0209578E-3,1.7542273E-2,-6.0060066E-3,1.1091124E-2,3.753047E-2,3.574584E-2,5.281715E-2,1.8431008E-2,5.281715E-2,-4.508254E-3,-1.7507922E-2,5.281715E-2,-1.3301598E-2,1.5193938E-2,4.0996544E-2,-5.192167E-3,7.691484E-3],"categories":[0,1,2,6],"categories_nodes":[4],"categories_segments":[0],"categories_sizes":[4],"default_left":[0,0,0,1,1,1,0,0,0,1,0,0,0,0,0,0,0,0,0,0,0,0,0,0,0,0,0,0,0,0,0],"id":1,"left_children":[1,3,5,7,9,11,13,15,17,19,21,23,25,27,29,-1,-1,-1,-1,-1,-1,-1,-1,-1,-1,-1,-1,-1,-1,-1,-1],"loss_changes":[6.9505725E2,3.9589862E2,2.7914047E2,5.4698452E1,8.993713E1,2.5199591E2,1.4808284E2,3.2954174E1,2.140306E1,1.9880737E1,5.1320587E1,1.5657065E2,3.2684967E1,4.3079453E1,7.10191E1,0E0,0E0,0E0,0E0,0E0,0E0,0E0,0E0,0E0,0E0,0E0,0E0,0E0,0E0,0E0,0E0],"parents":[2147483647,0,0,1,1,2,2,3,3,4,4,5,5,6,6,7,7,8,8,9,9,10,10,11,11,12,12,13,13,14,14],"right_children":[2,4,6,8,10,12,14,16,18,20,22,24,26,28,30,-1,-1,-1,-1,-1,-1,-1,-1,-1,-1,-1,-1,-1,-1,-1,-1],"split_conditions":[1.3280242E3,1.4102144E3,1.6734739E3,1.2930392E0,1E-45,2.159759E0,1.595955E3,1.0831045E3,1.2383641E3,8.035219E-1,1.7011869E3,1.6164843E3,1.5048414E3,1.8971086E3,1.833666E3,1.7542273E-2,-6.0060066E-3,1.1091124E-2,3.753047E-2,3.574584E-2,5.281715E-2,1.8431008E-2,5.281715E-2,-4.508254E-3,-1.7507922E-2,5.281715E-2,-1.3301598E-2,1.5193938E-2,4.0996544E-2,-5.192167E-3,7.691484E-3],"split_indices":[0,7,7,4,17,4,0,0,7,4,7,0,0,7,7,0,0,0,0,0,0,0,0,0,0,0,0,0,0,0,0],"split_type":[0,0,0,0,1,0,0,0,0,0,0,0,0,0,0,0,0,0,0,0,0,0,0,0,0,0,0,0,0,0,0],"sum_hessian":[4.0216703E4,5.230099E3,3.4986605E4,2.7102278E3,2.5198713E3,2.1688857E4,1.3297748E4,2.0014429E3,7.087849E2,1.4196307E3,1.1002407E3,2.1421059E4,2.677983E2,3.2315684E3,1.006618E4,4.2478372E2,1.5766592E3,3.8562216E2,3.2316278E2,4.3629462E2,9.8333606E2,7.7428564E2,3.2595505E2,1.2018999E4,9.40206E3,2.2725623E2,4.0542076E1,2.809458E3,4.2211057E2,5.9503286E3,4.115851E3],"tree_param":{"num_deleted":"0","num_feature":"18","num_nodes":"31","size_leaf_vector":"1"}},{"base_weights":[-1.5070405E-3,3.3219442E-1,-1.12765856E-1,6.048295E-1,2.1666366E-1,-1.9839847E-2,-2.3222877E-1,4.418513E-1,7E-1,1.7851831E-1,7E-1,-2.4476683E-2,7E-1,-1.949977E-1,-3.241109E-1,5.281715E-2,2.8082106E-2,5.281715E-2,6.367316E-3,2.0494923E-2,1.0870831E-2,5.281715E-2,2.7850535E-2,4.811691E-3,-4.8614843E-3,5.281715E-2,-8.311958E-3,-1.2550549E-2,-1.7050924E-2,-2.538445E-2,-1.6780358E-2],"categories":[],"categories_nodes":[],"categories_segments":[],"categories_sizes":[],"default_left":[0,0,0,1,0,1,0,0,0,0,0,0,0,0,1,0,0,0,0,0,0,0,0,0,0,0,0,0,0,0,0],"id":2,"left_children":[1,3,5,7,9,11,13,15,17,19,21,23,25,27,29,-1,-1,-1,-1,-1,-1,-1,-1,-1,-1,-1,-1,-1,-1,-1,-1],"loss_changes":[1.4907465E3,3.1549817E2,3.3425983E2,8.8727905E1,1.7737207E2,7.244951E1,4.471521E1,3.421994E1,5.5948486E0,2.1356308E1,1.1777069E1,5.9505875E1,1.2167168E1,8.127991E0,4.330414E0,0E0,0E0,0E0,0E0,0E0,0E0,0E0,0E0,0E0,0E0,0E0,0E0,0E0,0E0,0E0,0E0],"parents":[2147483647,0,0,1,1,2,2,3,3,4,4,5,5,6,6,7,7,8,8,9,9,10,10,11,11,12,12,13,13,14,14],"right_children":[2,4,6,8,10,12,14,16,18,20,22,24,26,28,30,-1,-1,-1,-1,-1,-1,-1,-1,-1,-1,-1,-1,-1,-1,-1,-1],"split_conditions":[3.9725846E-1,1.7466262E-1,7.47687E-1,9.593464E-1,1.9604626E0,2.9566824E0,9.110444E-1,-6.10853E2,2.6783476E0,2.4388292E-1,1.6082942E3,5.207351E-1,1.0187913E0,8.343191E-1,1.3810562E0,5.281715E-2,2.8082106E-2,5.281715E-2,6.367316E-3,2.0494923E-2,1.0870831E-2,5.281715E-2,2.7850535E-2,4.811691E-3,-4.8614843E-3,5.281715E-2,-8.311958E-3,-1.2550549E-2,-1.7050924E-2,-2.538445E-2,-1.6780358E-2],"split_indices":[15,15,15,2,2,2,15,14,9,15,7,15,1,15,10,0,0,0,0,0,0,0,0,0,0,0,0,0,0,0,0],"split_type":[0,0,0,0,0,0,0,0,0,0,0,0,0,0,0,0,0,0,0,0,0,0,0,0,0,0,0,0,0,0,0],"sum_hessian":[4.0141145E4,1.0034202E4,3.0106943E4,2.9794578E3,7.054744E3,1.6937992E4,1.316895E4,1.7726611E3,1.2067968E3,6.721934E3,3.328098E2,1.6865053E4,7.29396E1,9.383973E3,3.7849775E3,3.3162762E2,1.4410334E3,1.1903962E3,1.6400547E1,1.8048209E3,4.9171133E3,2.0581755E2,1.26992256E2,5.2549517E3,1.1610101E4,5.5819077E1,1.7120522E1,4.8930576E3,4.4909155E3,3.3646746E3,4.20303E2],"tree_param":{"num_deleted":"0","num_feature":"18","num_nodes":"31","size_leaf_vector":"1"}},{"base_weights":[2.0457832E-3,2.4128765E-1,-1.3921152E-1,4.9311572E-1,1.5874662E-1,-5.824987E-2,-2.3534669E-1,3.5796666E-1,7E-1,1.3121411E-1,7E-1,-6.2130746E-2,7E-1,-1.9880368E-1,-3.1215855E-1,4.730109E-2,2.1991218E-2,5.281715E-2,3.1490855E-2,1.3553185E-2,5.273268E-3,5.281715E-2,1.7008154E-2,-5.4079928E-3,7.4691353E-3,1.3759987E-2,5.281715E-2,-1.5621825E-2,-6.972281E-3,-2.3816789E-2,9.44028E-3],"categories":[],"categories_nodes":[],"categories_segments":[],"categories_sizes":[],"default_left":[0,0,0,1,0,1,0,0,0,0,0,1,1,0,0,0,0,0,0,0,0,0,0,0,0,0,0,0,0,0,0],"id":3,"left_children":[1,3,5,7,9,11,13,15,17,19,21,23,25,27,29,-1,-1,-1,-1,-1,-1,-1,-1,-1,-1,-1,-1,-1,-1,-1,-1],"loss_changes":[1.3579069E3,3.0962726E2,1.9656155E2,1.3187738E2,1.8036551E2,5.0487633E1,3.2067566E1,4.364081E1,3.937268E1,3.1834564E1,2.3083466E1,2.1064346E1,4.670788E0,6.76416E0,5.8898926E0,0E0,0E0,0E0,0E0,0E0,0E0,0E0,0E0,0E0,0E0,0E0,0E0,0E0,0E0,0E0,0E0],"parents":[2147483647,0,0,1,1,2,2,3,3,4,4,5,5,6,6,7,7,8,8,9,9,10,10,11,11,12,12,13,13,14,14],"right_children":[2,4,6,8,10,12,14,16,18,20,22,24,26,28,30,-1,-1,-1,-1,-1,-1,-1,-1,-1,-1,-1,-1,-1,-1,-1,-1],"split_conditions":[5.0432134E-1,1.9282016E-1,7.710144E-1,1.0625067E0,2.0030286E0,2.9566824E0,9.110444E-1,5.302018E-2,1.3173447E3,3.8319147E-1,1.5048414E3,1.760228E0,1.1778083E0,1.9854337E3,2.9566824E0,4.730109E-2,2.1991218E-2,5.281715E-2,3.1490855E-2,1.3553185E-2,5.273268E-3,5.281715E-2,1.7008154E-2,-5.4079928E-3,7.4691353E-3,1.3759987E-2,5.281715E-2,-1.5621825E-2,-6.972281E-3,-2.3816789E-2,9.44028E-3],"split_indices":[15,15,15,2,2,2,15,15,0,15,0,2,9,0,2,0,0,0,0,0,0,0,0,0,0,0,0,0,0,0,0],"split_type":[0,0,0,0,0,0,0,0,0,0,0,0,0,0,0,0,0,0,0,0,0,0,0,0,0,0,0,0,0,0,0],"sum_hessian":[4.0169957E4,1.4911309E4,2.5258646E4,3.6740828E3,1.1237226E4,1.3716267E4,1.1542381E4,2.4913628E3,1.18272E3,1.0741116E4,4.9610944E2,1.3668512E4,4.7754494E1,7.8349736E3,3.7074067E3,4.846512E2,2.0067117E3,6.6116943E2,5.215505E2,5.9966577E3,4.7444585E3,3.8705118E2,1.0905826E2,1.2907153E4,7.6135846E2,2.2064344E1,2.5690147E1,7.267116E3,5.6785754E2,3.6795789E3,2.782792E1],"tree_param":{"num_deleted":"0","num_feature":"18","num_nodes":"31","size_leaf_vector":"1"}},{"base_weights":[-1.1885146E-4,2.9380822E-1,-5.0459843E-2,7.03142E-2,5.0647205E-1,-1.8442526E-1,1.867036E-3,4.351454E-3,3.8420463E-1,4.0572482E-1,7E-1,-1.9435433E-1,7E-1,1.2385392E-1,-6.0068235E-2,-1.0049907E-2,9.696308E-3,5.281715E-2,1.9623885E-2,2.306226E-2,4.946996E-2,5.281715E-2,2.5583375E-2,-9.798639E-3,-2.1880662E-2,5.281715E-2,1.0643819E-2,8.007645E-3,5.281715E-2,-9.351748E-3,4.221731E-3],"categories":[0,1,2,6],"categories_nodes":[10],"categories_segments":[0],"categories_sizes":[4],"default_left":[0,0,0,1,0,1,0,0,0,0,1,0,0,1,0,0,0,0,0,0,0,0,0,0,0,0,0,0,0,0,0],"id":4,"left_children":[1,3,5,7,9,11,13,15,17,19,21,23,25,27,29,-1,-1,-1,-1,-1,-1,-1,-1,-1,-1,-1,-1,-1,-1,-1,-1],"loss_changes":[5.9272455E2,2.782053E2,2.3974815E2,5.925988E1,9.657526E1,9.3839935E1,1.8589944E2,4.0587486E1,2.3087585E1,6.001889E1,1.3751068E1,5.8475098E1,1.0379387E1,1.1637151E2,1.2097577E2,0E0,0E0,0E0,0E0,0E0,0E0,0E0,0E0,0E0,0E0,0E0,0E0,0E0,0E0,0E0,0E0],"parents":[2147483647,0,0,1,1,2,2,3,3,4,4,5,5,6,6,7,7,8,8,9,9,10,10,11,11,12,12,13,13,14,14],"right_children":[2,4,6,8,10,12,14,16,18,20,22,24,26,28,30,-1,-1,-1,-1,-1,-1,-1,-1,-1,-1,-1,-1,-1,-1,-1,-1],"split_conditions":[1.3377968E3,1.4102144E3,1.4834315E3,1.4967887E0,1.3008085E0,2.3816178E0,1.595955E3,1.2098417E3,1.0644075E3,1.6967134E3,1E-45,1.5855079E3,2.2358897E0,2.023613E0,1.7898766E3,-1.0049907E-2,9.696308E-3,5.281715E-2,1.9623885E-2,2.306226E-2,4.946996E-2,5.281715E-2,2.5583375E-2,-9.798639E-3,-2.1880662E-2,5.281715E-2,1.0643819E-2,8.007645E-3,5.281715E-2,-9.351748E-3,4.221731E-3],"split_indices":[0,7,7,4,4,4,0,7,0,7,17,0,11,4,7,0,0,0,0,0,0,0,0,0,0,0,0,0,0,0,0],"split_type":[0,0,0,0,0,0,0,0,0,0,1,0,0,0,0,0,0,0,0,0,0,0,0,0,0,0,0,0,0,0,0],"sum_hessian":[4.0047016E4,5.851968E3,3.419505E4,2.8569558E3,2.995012E3,9.600943E3,2.4594105E4,2.3655195E3,4.914365E2,2.4389973E3,5.5601465E2,9.509569E3,9.1374535E1,8.280114E3,1.6313991E4,1.1220541E3,1.2434653E3,1.0745444E2,3.8398206E2,1.7504724E3,6.8852496E2,4.3502524E2,1.2098942E2,5.6874966E3,3.8220725E3,5.4973022E1,3.6401516E1,8.130584E3,1.4953052E2,1.052128E4,5.7927104E3],"tree_param":{"num_deleted":"0","num_feature":"18","num_nodes":"31","size_leaf_vector":"1"}},{"base_weights":[-3.4102972E-4,2.1221596E-1,-1.2212251E-1,5.201005E-1,1.504992E-1,-5.4238427E-2,-2.3644751E-1,4.053835E-1,7E-1,1.20610215E-1,7E-1,-6.2201582E-2,5.6574994E-1,-1.9304831E-1,-2.964797E-1,5.281715E-2,2.7794953E-2,5.281715E-2,2.576433E-2,4.2185877E-3,1.4396015E-2,1.6118484E-2,5.281715E-2,-8.1381986E-5,-7.6487744E-3,5.281715E-2,5.903022E-3,-1.4797979E-2,2.3372501E-2,-2.2635654E-2,3.323507E-2],"categories":[],"categories_nodes":[],"categories_segments":[],"categories_sizes":[],"default_left":[0,0,0,1,1,1,0,0,0,0,0,0,0,1,0,0,0,0,0,0,0,0,0,0,0,0,0,0,0,0,0],"id":5,"left_children":[1,3,5,7,9,11,13,15,17,19,21,23,25,27,29,-1,-1,-1,-1,-1,-1,-1,-1,-1,-1,-1,-1,-1,-1,-1,-1],"loss_changes":[1.0360869E3,2.7659155E2,1.9741486E2,6.027484E1,2.377356E2,7.905828E1,2.437555E1,1.9648285E1,1.4253082E1,5.2830627E1,3.2160614E1,3.7769466E1,1.6316017E1,8.865784E0,1.1019165E1,0E0,0E0,0E0,0E0,0E0,0E0,0E0,0E0,0E0,0E0,0E0,0E0,0E0,0E0,0E0,0E0],"parents":[2147483647,0,0,1,1,2,2,3,3,4,4,5,5,6,6,7,7,8,8,9,9,10,10,11,11,12,12,13,13,14,14],"right_children":[2,4,6,8,10,12,14,16,18,20,22,24,26,28,30,-1,-1,-1,-1,-1,-1,-1,-1,-1,-1,-1,-1,-1,-1,-1,-1],"split_conditions":[-7.2784515E1,-3.8923883E2,1.703242E2,1.0033997E0,1.7606549E0,2.159759E0,3.0721667E2,-7.651213E2,1.4699072E3,8.9311206E-1,6.25E-1,1.8010075E1,1.4728206E3,2.3816178E0,2.8151135E0,5.281715E-2,2.7794953E-2,5.281715E-2,2.576433E-2,4.2185877E-3,1.4396015E-2,1.6118484E-2,5.281715E-2,-8.1381986E-5,-7.6487744E-3,5.281715E-2,5.903022E-3,-1.4797979E-2,2.3372501E-2,-2.2635654E-2,3.323507E-2],"split_indices":[14,14,14,4,4,4,14,14,0,4,6,14,0,4,4,0,0,0,0,0,0,0,0,0,0,0,0,0,0,0,0],"split_type":[0,0,0,0,0,0,0,0,0,0,0,0,0,0,0,0,0,0,0,0,0,0,0,0,0,0,0,0,0,0,0],"sum_hessian":[4.001457E4,1.4573639E4,2.5440932E4,2.426603E3,1.2147036E4,1.5967792E4,9.47314E3,1.6272557E3,7.9934717E2,1.16418955E4,5.0514044E2,1.5770268E4,1.9752473E2,5.511945E3,3.9611948E3,1.4054912E2,1.4867067E3,6.727537E2,1.26593445E2,6.0628335E3,5.5790625E3,1.419385E2,3.6320193E2,6.1613813E3,9.608886E3,1.4435558E2,5.316915E1,5.4818477E3,3.0096762E1,3.9456804E3,1.5514265E1],"tree_param":{"num_deleted":"0","num_feature":"18","num_nodes":"31","size_leaf_vector":"1"}},{"base_weights":[-1.9434879E-3,2.0663445E-1,-1.3205886E-1,4.660368E-1,1.4109975E-1,-5.2480552E-2,-2.228168E-1,3.597591E-1,6.34369E-1,1.17534675E-1,7E-1,-5.8279183E-2,3.9798796E-1,-1.9210748E-1,-3.2761008E-1,3.9019644E-2,2.1206068E-2,5.281715E-2,3.648057E-2,7.522391E-3,2.3088139E-2,1.9897403E-2,5.281715E-2,-2.2108315E-3,-7.6821954E-3,3.3846408E-2,-2.3133805E-2,-1.4872933E-2,1.1907182E-2,-2.5019078E-2,1.8152514E-2],"categories":[],"categories_nodes":[],"categories_segments":[],"categories_sizes":[],"default_left":[0,0,0,1,1,1,0,0,0,0,0,0,0,0,0,0,0,0,0,0,0,0,0,0,0,0,0,0,0,0,0],"id":6,"left_children":[1,3,5,7,9,11,13,15,17,19,21,23,25,27,29,-1,-1,-1,-1,-1,-1,-1,-1,-1,-1,-1,-1,-1,-1,-1,-1],"loss_changes":[1.0916516E3,2.6232935E2,1.7884155E2,5.4436768E1,1.8392717E2,3.4624638E1,3.6885254E1,2.2994019E1,1.8158234E1,3.988823E1,2.5997162E1,1.6437927E1,6.7763195E0,1.5877441E1,6.350067E0,0E0,0E0,0E0,0E0,0E0,0E0,0E0,0E0,0E0,0E0,0E0,0E0,0E0,0E0,0E0,0E0],"parents":[2147483647,0,0,1,1,2,2,3,3,4,4,5,5,6,6,7,7,8,8,9,9,10,10,11,11,12,12,13,13,14,14],"right_children":[2,4,6,8,10,12,14,16,18,20,22,24,26,28,30,-1,-1,-1,-1,-1,-1,-1,-1,-1,-1,-1,-1,-1,-1,-1,-1],"split_conditions":[5.0432134E-1,1.5884796E-1,7.598496E-1,9.84092E-1,1.8512963E0,2.159759E0,9.277856E-1,-5.3944556E2,-4.4762103E2,1.3920131E0,7E-1,6.640408E-1,1.6352738E3,2.023613E0,2.8151135E0,3.9019644E-2,2.1206068E-2,5.281715E-2,3.648057E-2,7.522391E-3,2.3088139E-2,1.9897403E-2,5.281715E-2,-2.2108315E-3,-7.6821954E-3,3.3846408E-2,-2.3133805E-2,-1.4872933E-2,1.1907182E-2,-2.5019078E-2,1.8152514E-2],"split_indices":[15,15,15,4,4,4,15,14,14,4,6,15,7,4,4,0,0,0,0,0,0,0,0,0,0,0,0,0,0,0,0],"split_type":[0,0,0,0,0,0,0,0,0,0,0,0,0,0,0,0,0,0,0,0,0,0,0,0,0,0,0,0,0,0,0],"sum_hessian":[4.0212957E4,1.5447298E4,2.476566E4,3.1085872E3,1.233871E4,1.3200249E4,1.1565411E4,1.9162722E3,1.1923151E3,1.1910283E4,4.28427E2,1.3037294E4,1.629551E2,8.95656E3,2.6088516E3,6.284844E2,1.2877878E3,6.420522E2,5.502629E2,1.0888216E4,1.02206744E3,1.4537315E2,2.8305383E2,7.832837E3,5.204457E3,1.539341E2,9.021001E0,8.832602E3,1.23958664E2,2.5930408E3,1.5810791E1],"tree_param":{"num_deleted":"0","num_feature":"18","num_nodes":"31","size_leaf_vector":"1"}},{"base_weights":[1.795576E-3,2.638724E-1,-9.689322E-2,2.2369243E-1,7E-1,-1.8525241E-2,-2.1716352E-1,5.3329575E-1,1.7368072E-1,7E-1,2.332678E-1,-2.5668805E-2,3.9095956E-1,-1.8893412E-1,-3.21544E-1,2.9703716E-2,5.281715E-2,1.9387197E-2,8.461324E-3,5.281715E-2,8.505243E-3,5.281715E-2,1.3712642E-2,2.3105429E-3,-4.8035383E-3,2.81464E-3,3.729307E-2,-1.4625127E-2,1.0485108E-2,-2.4477955E-2,1.4084678E-2],"categories":[0,1,2,3,6],"categories_nodes":[4],"categories_segments":[0],"categories_sizes":[5],"default_left":[0,1,0,0,1,1,0,1,0,0,0,0,0,0,0,0,0,0,0,0,0,0,0,0,0,0,0,0,0,0,0],"id":7,"left_children":[1,3,5,7,9,11,13,15,17,19,21,23,25,27,29,-1,-1,-1,-1,-1,-1,-1,-1,-1,-1,-1,-1,-1,-1,-1,-1],"loss_changes":[1.0370165E3,2.071402E2,2.7450812E2,1.561903E2,5.9275696E1,5.166117E1,3.3519043E1,3.988617E1,4.4528748E1,1.1285217E1,7.6201153E0,3.7105595E1,1.0959694E1,1.46944275E1,3.8934631E0,0E0,0E0,0E0,0E0,0E0,0E0,0E0,0E0,0E0,0E0,0E0,0E0,0E0,0E0,0E0,0E0],"parents":[2147483647,0,0,1,1,2,2,3,3,4,4,5,5,6,6,7,7,8,8,9,9,10,10,11,11,12,12,13,13,14,14],"right_children":[2,4,6,8,10,12,14,16,18,20,22,24,26,28,30,-1,-1,-1,-1,-1,-1,-1,-1,-1,-1,-1,-1,-1,-1,-1,-1],"split_conditions":[3.9311084E-1,1.5358161E0,7.598496E-1,8.481944E-2,1E-45,2.159759E0,9.309039E-1,9.9472606E-1,2.3871191E-1,2.2358897E0,7.595046E-2,5.582402E-1,6.6258144E-1,2.023613E0,2.8151135E0,2.9703716E-2,5.281715E-2,1.9387197E-2,8.461324E-3,5.281715E-2,8.505243E-3,5.281715E-2,1.3712642E-2,2.3105429E-3,-4.8035383E-3,2.81464E-3,3.729307E-2,-1.4625127E-2,1.0485108E-2,-2.4477955E-2,1.4084678E-2],"split_indices":[15,4,15,15,17,4,15,2,15,11,15,15,10,4,4,0,0,0,0,0,0,0,0,0,0,0,0,0,0,0,0],"split_type":[0,0,0,0,1,0,0,0,0,0,0,0,0,0,0,0,0,0,0,0,0,0,0,0,0,0,0,0,0,0,0],"sum_hessian":[4.008378E4,1.0962509E4,2.9121271E4,1.0115194E4,8.4731445E2,1.7636076E4,1.1485195E4,1.3992091E3,8.715985E3,5.682226E2,2.7909183E2,1.7338834E4,2.972408E2,9.052642E3,2.4325537E3,8.646937E2,5.345153E2,3.6966904E3,5.0192954E3,5.331502E2,3.5072414E1,1.5229063E1,2.6386276E2,6.9874355E3,1.0351399E4,6.8912285E1,2.2832852E2,8.921694E3,1.3094731E2,2.4209084E3,1.1645073E1],"tree_param":{"num_deleted":"0","num_feature":"18","num_nodes":"31","size_leaf_vector":"1"}},{"base_weights":[-2.5550753E-3,1.8909758E-1,-1.2330675E-1,1.6498172E-1,7E-1,-4.600321E-2,-2.0384543E-1,3.3512747E-1,8.768245E-2,7E-1,1.9701406E-1,-5.332926E-2,4.1509685E-1,-1.7085557E-1,-2.857714E-1,3.861954E-2,2.0232473E-2,4.0251813E-3,1.1141763E-2,5.281715E-2,1.29442E-3,3.7963288E-3,3.4692682E-2,-1.8969511E-3,-6.948767E-3,3.0935155E-3,4.6177104E-2,-1.3274794E-2,9.221157E-3,-2.2008121E-2,1.2923755E-2],"categories":[0,2,3,6],"categories_nodes":[4],"categories_segments":[0],"categories_sizes":[4],"default_left":[0,1,0,0,1,1,0,0,0,1,0,0,1,0,0,0,0,0,0,0,0,0,0,0,0,0,0,0,0,0,0],"id":8,"left_children":[1,3,5,7,9,11,13,15,17,19,21,23,25,27,29,-1,-1,-1,-1,-1,-1,-1,-1,-1,-1,-1,-1,-1,-1,-1,-1],"loss_changes":[9.2861584E2,2.2839099E2,1.5320752E2,1.9646725E2,2.4900665E1,4.257792E1,3.230661E1,5.4488525E1,2.114383E1,1.7024994E1,4.082228E0,1.3510605E1,1.4384888E1,1.293222E1,9.60144E0,0E0,0E0,0E0,0E0,0E0,0E0,0E0,0E0,0E0,0E0,0E0,0E0,0E0,0E0,0E0,0E0],"parents":[2147483647,0,0,1,1,2,2,3,3,4,4,5,5,6,6,7,7,8,8,9,9,10,10,11,11,12,12,13,13,14,14],"right_children":[2,4,6,8,10,12,14,16,18,20,22,24,26,28,30,-1,-1,-1,-1,-1,-1,-1,-1,-1,-1,-1,-1,-1,-1,-1,-1],"split_conditions":[5.0114596E-1,1.8512963E0,7.47687E-1,2.1530862E-1,1E-45,2.159759E0,9.082777E-1,7.595046E-2,9.9980175E-1,2.4891245E0,2.3926923E0,6.4846605E-1,1.1594797E0,2.023613E0,2.023613E0,3.861954E-2,2.0232473E-2,4.0251813E-3,1.1141763E-2,5.281715E-2,1.29442E-3,3.7963288E-3,3.4692682E-2,-1.8969511E-3,-6.948767E-3,3.0935155E-3,4.6177104E-2,-1.3274794E-2,9.221157E-3,-2.2008121E-2,1.2923755E-2],"split_indices":[15,4,15,15,17,4,15,15,4,9,2,15,9,4,4,0,0,0,0,0,0,0,0,0,0,0,0,0,0,0,0],"split_type":[0,0,0,0,1,0,0,0,0,0,0,0,0,0,0,0,0,0,0,0,0,0,0,0,0,0,0,0,0,0,0],"sum_hessian":[4.0114984E4,1.5504168E4,2.4610814E4,1.49449375E4,5.59231E2,1.25621E4,1.2048715E4,4.6628193E3,1.0282117E4,4.5557077E2,1.0366027E2,1.2370498E4,1.9160146E2,8.602086E3,3.4466294E3,1.2714327E3,3.3913867E3,6.54572E3,3.7363975E3,4.187738E2,3.6796978E1,7.0796875E1,3.2863396E1,7.167632E3,5.202866E3,6.840007E1,1.2320139E2,8.457746E3,1.4433978E2,3.4046414E3,4.1988194E1],"tree_param":{"num_deleted":"0","num_feature":"18","num_nodes":"31","size_leaf_vector":"1"}},{"base_weights":[1.1671621E-3,1.8613078E-1,-1.0728754E-1,1.6086183E-1,7E-1,-4.884604E-2,-2.235778E-1,3.6704257E-1,1.0657883E-1,7E-1,2.2182807E-1,-5.6844056E-2,4.4058004E-1,-1.907073E-1,-3.1571734E-1,2.1319972E-2,3.7650734E-2,1.5161375E-2,5.2950718E-3,5.281715E-2,1.3687105E-3,-9.250685E-3,2.4320278E-2,6.005345E-4,-6.8112123E-3,2.2623062E-2,5.281715E-2,-1.4721668E-2,1.0019301E-2,-2.425422E-2,2.0059066E-2],"categories":[0,2,3,6],"categories_nodes":[4],"categories_segments":[0],"categories_sizes":[4],"default_left":[0,1,0,0,1,1,0,1,0,0,0,0,0,1,0,0,0,0,0,0,0,0,0,0,0,0,0,0,0,0,0],"id":9,"left_children":[1,3,5,7,9,11,13,15,17,19,21,23,25,27,29,-1,-1,-1,-1,-1,-1,-1,-1,-1,-1,-1,-1,-1,-1,-1,-1],"loss_changes":[8.0302954E2,2.2070667E2,1.714378E2,1.5882892E2,2.7743378E1,6.5909164E1,2.5220978E1,3.2201965E1,3.858692E1,1.1510681E1,4.835432E0,3.5824684E1,1.2771992E1,9.0238495E0,7.843811E0,0E0,0E0,0E0,0E0,0E0,0E0,0E0,0E0,0E0,0E0,0E0,0E0,0E0,0E0,0E0,0E0],"parents":[2147483647,0,0,1,1,2,2,3,3,4,4,5,5,6,6,7,7,8,8,9,9,10,10,11,11,12,12,13,13,14,14],"right_children":[2,4,6,8,10,12,14,16,18,20,22,24,26,28,30,-1,-1,-1,-1,-1,-1,-1,-1,-1,-1,-1,-1,-1,-1,-1,-1],"split_conditions":[-8.326822E1,1.7606549E0,1.8229478E2,-3.776485E2,1E-45,2.159759E0,3.7677255E2,9.644421E-1,1E0,2.3413367E0,6.3065964E-1,1E0,1.6298556E0,2.023613E0,2.8151135E0,2.1319972E-2,3.7650734E-2,1.5161375E-2,5.2950718E-3,5.281715E-2,1.3687105E-3,-9.250685E-3,2.4320278E-2,6.005345E-4,-6.8112123E-3,2.2623062E-2,5.281715E-2,-1.4721668E-2,1.0019301E-2,-2.425422E-2,2.0059066E-2],"split_indices":[14,4,14,14,17,4,14,2,16,9,9,16,10,4,4,0,0,0,0,0,0,0,0,0,0,0,0,0,0,0,0],"split_type":[0,0,0,0,1,0,0,0,0,0,0,0,0,0,0,0,0,0,0,0,0,0,0,0,0,0,0,0,0,0,0],"sum_hessian":[4.001988E4,1.4790862E4,2.5229018E4,1.4205098E4,5.857644E2,1.67961E4,8.432918E3,2.9537585E3,1.1251339E4,4.580385E2,1.2772589E2,1.6530898E4,2.65201E2,6.228189E3,2.204729E3,1.8114999E3,1.1422587E3,3.1251677E3,8.1261714E3,4.329793E2,2.5059195E1,2.8571684E1,9.915421E1,5.626771E3,1.0904127E4,2.0507397E2,6.0127018E1,6.146746E3,8.1442406E1,2.1856926E3,1.9036312E1],"tree_param":{"num_deleted":"0","num_feature":"18","num_nodes":"31","size_leaf_vector":"1"}},{"base_weights":[2.2877145E-3,1.3486752E-1,-1.4502259E-1,1.2128457E-1,7E-1,-9.318919E-2,-2.365208E-1,3.4776145E-1,7.622462E-2,7E-1,-1.3399454E-2,-9.729658E-2,6.084509E-1,-2.0305465E-1,-3.092372E-1,1.958007E-2,3.633324E-2,1.1770684E-2,2.644084E-3,5.281715E-2,-6.3860877E-3,-5.8866115E-3,-1.1285073E-2,5.281715E-2,-2.6198921E-3,-1.564036E-2,9.00022E-3,-2.377069E-2,1.9171935E-2],"categories":[1,5,2,5],"categories_nodes":[11,12],"categories_segments":[0,2],"categories_sizes":[2,2],"default_left":[0,1,0,0,0,1,0,1,0,1,0,1,1,1,0,0,0,0,0,0,0,0,0,0,0,0,0,0,0],"id":10,"left_children":[1,3,5,7,9,11,13,15,17,19,-1,21,23,25,27,-1,-1,-1,-1,-1,-1,-1,-1,-1,-1,-1,-1,-1,-1],"loss_changes":[7.8198395E2,2.1097226E2,8.982669E1,2.1144077E2,1.8448578E1,3.524978E1,1.6331207E1,3.9906616E1,5.6806084E1,1.7848877E1,0E0,1.2078491E1,9.258091E0,6.563278E0,7.474411E0,0E0,0E0,0E0,0E0,0E0,0E0,0E0,0E0,0E0,0E0,0E0,0E0,0E0,0E0],"parents":[2147483647,0,0,1,1,2,2,3,3,4,4,5,5,6,6,7,7,8,8,9,9,11,11,12,12,13,13,14,14],"right_children":[2,4,6,8,10,12,14,16,18,20,-1,22,24,26,28,-1,-1,-1,-1,-1,-1,-1,-1,-1,-1,-1,-1,-1,-1],"split_conditions":[7.8407464E0,2.3816178E0,2.117997E2,-3.570471E2,-2.8731804E1,2.8151135E0,3.7677255E2,9.644421E-1,-1.8164903E2,2.6783476E0,-1.3399454E-2,1E-45,1E-45,2.023613E0,2.8151135E0,1.958007E-2,3.633324E-2,1.1770684E-2,2.644084E-3,5.281715E-2,-6.3860877E-3,-5.8866115E-3,-1.1285073E-2,5.281715E-2,-2.6198921E-3,-1.564036E-2,9.00022E-3,-2.377069E-2,1.9171935E-2],"split_indices":[14,4,14,14,14,4,14,2,14,9,0,17,17,4,4,0,0,0,0,0,0,0,0,0,0,0,0,0,0],"split_type":[0,0,0,0,0,0,0,0,0,0,0,1,1,0,0,0,0,0,0,0,0,0,0,0,0,0,0,0,0],"sum_hessian":[4.0028195E4,2.106768E4,1.8960516E4,2.0728186E4,3.3949368E2,1.2110977E4,6.8495396E3,3.4334897E3,1.7294697E4,3.175729E2,2.1920776E1,1.2045278E4,6.569811E1,4.70525E3,2.1442896E3,2.0785347E3,1.3549552E3,5.882951E3,1.1411745E4,2.8972208E2,2.7850828E1,8.809637E3,3.2356414E3,4.795672E1,1.7741392E1,4.646255E3,5.899517E1,2.1248674E3,1.9422018E1],"tree_param":{"num_deleted":"0","num_feature":"18","num_nodes":"29","size_leaf_vector":"1"}},{"base_weights":[3.6020875E-3,1.6758029E-1,-1.0920763E-1,1.4395106E-1,6.5732545E-1,-4.109876E-2,-2.0109601E-1,2.7034223E-1,7.741163E-2,7E-1,1.4546295E-1,-4.7560174E-2,3.4503967E-1,-1.7505863E-1,-3.131224E-1,3.1805117E-2,1.6470749E-2,2.7228654E-3,9.167325E-3,5.281715E-2,-1.1694139E-3,-1.7501706E-2,1.5101355E-2,-4.6338947E-3,2.20022E-3,4.003671E-3,4.1632768E-2,-1.3491267E-2,4.664864E-3,-2.397072E-2,3.6996394E-2],"categories":[0,1,2,3],"categories_nodes":[4],"categories_segments":[0],"categories_sizes":[4],"default_left":[0,1,0,0,1,1,0,0,0,1,0,1,1,0,0,0,0,0,0,0,0,0,0,0,0,0,0,0,0,0,0],"id":11,"left_children":[1,3,5,7,9,11,13,15,17,19,21,23,25,27,29,-1,-1,-1,-1,-1,-1,-1,-1,-1,-1,-1,-1,-1,-1,-1,-1],"loss_changes":[7.4226495E2,1.8872473E2,1.4872946E2,1.3114996E2,5.182318E1,3.4172497E1,2.9206635E1,4.182831E1,1.861837E1,2.4689758E1,4.012965E0,1.4294956E1,1.3446938E1,7.355896E0,7.847992E0,0E0,0E0,0E0,0E0,0E0,0E0,0E0,0E0,0E0,0E0,0E0,0E0,0E0,0E0,0E0,0E0],"parents":[2147483647,0,0,1,1,2,2,3,3,4,4,5,5,6,6,7,7,8,8,9,9,10,10,11,11,12,12,13,13,14,14],"right_children":[2,4,6,8,10,12,14,16,18,20,22,24,26,28,30,-1,-1,-1,-1,-1,-1,-1,-1,-1,-1,-1,-1,-1,-1,-1,-1],"split_conditions":[5.0114596E-1,1.7606549E0,7.710144E-1,2.2708791E-1,1E-45,2.159759E0,9.36457E-1,7.595046E-2,8.89857E-1,2.2358897E0,6.293466E-1,1.2533393E0,1.1594797E0,2.023613E0,2.8151135E0,3.1805117E-2,1.6470749E-2,2.7228654E-3,9.167325E-3,5.281715E-2,-1.1694139E-3,-1.7501706E-2,1.5101355E-2,-4.6338947E-3,2.20022E-3,4.003671E-3,4.1632768E-2,-1.3491267E-2,4.664864E-3,-2.397072E-2,3.6996394E-2],"split_indices":[15,4,15,15,17,4,15,15,4,11,11,4,9,4,4,0,0,0,0,0,0,0,0,0,0,0,0,0,0,0,0],"split_type":[0,0,0,0,1,0,0,0,0,0,0,0,0,0,0,0,0,0,0,0,0,0,0,0,0,0,0,0,0,0,0],"sum_hessian":[4.0114926E4,1.6348428E4,2.3766498E4,1.5602854E4,7.455737E2,1.3654036E4,1.0112461E4,5.37533E3,1.0227523E4,5.6928345E2,1.7629028E2,1.3434139E4,2.1989752E2,8.21698E3,1.8954802E3,1.3665548E3,4.0087754E3,5.2842974E3,4.943226E3,5.21295E2,4.798851E1,2.0015139E1,1.5627515E2,1.1380223E4,2.053916E3,9.406653E1,1.2583099E2,8.090453E3,1.26527824E2,1.8881249E3,7.355411E0],"tree_param":{"num_deleted":"0","num_feature":"18","num_nodes":"31","size_leaf_vector":"1"}},{"base_weights":[1.1082555E-3,1.674906E-1,-1.0134164E-1,3.3764422E-1,1.1742279E-1,-3.7675515E-2,-1.9481693E-1,2.1589926E-1,4.7530952E-1,1.0928286E-1,6.870739E-1,-4.1738648E-2,7E-1,-1.6557765E-1,-2.9174015E-1,4.2593725E-2,1.3203365E-2,3.0804286E-2,5.281715E-2,1.3759384E-2,4.883153E-3,-1.0146823E-2,5.281715E-2,-3.9194273E-3,6.113393E-3,5.281715E-2,6.974663E-3,-1.2820189E-2,6.790885E-3,-2.243181E-2,2.9553585E-2],"categories":[],"categories_nodes":[],"categories_segments":[],"categories_sizes":[],"default_left":[0,0,0,1,1,1,0,0,0,0,1,0,0,0,0,0,0,0,0,0,0,0,0,0,0,0,0,0,0,0,0],"id":12,"left_children":[1,3,5,7,9,11,13,15,17,19,21,23,25,27,29,-1,-1,-1,-1,-1,-1,-1,-1,-1,-1,-1,-1,-1,-1,-1,-1],"loss_changes":[6.835057E2,1.2996094E2,1.4765039E2,5.760388E1,5.4367523E1,4.4925674E1,2.8220703E1,2.5866173E1,2.7542267E1,3.7891174E1,2.1802132E1,1.8435404E1,1.2787647E1,8.650452E0,9.468109E0,0E0,0E0,0E0,0E0,0E0,0E0,0E0,0E0,0E0,0E0,0E0,0E0,0E0,0E0,0E0,0E0],"parents":[2147483647,0,0,1,1,2,2,3,3,4,4,5,5,6,6,7,7,8,8,9,9,10,10,11,11,12,12,13,13,14,14],"right_children":[2,4,6,8,10,12,14,16,18,20,22,24,26,28,30,-1,-1,-1,-1,-1,-1,-1,-1,-1,-1,-1,-1,-1,-1,-1,-1],"split_conditions":[4.7059748E-1,1.2644993E3,7.710144E-1,9.8043776E-1,2.3816178E0,2.8151135E0,9.277856E-1,1.9605713E-2,1.6860712E0,2.6660734E-1,5.055358E-1,1.4967887E0,1.3910115E0,2.023613E0,2.8151135E0,4.2593725E-2,1.3203365E-2,3.0804286E-2,5.281715E-2,1.3759384E-2,4.883153E-3,-1.0146823E-2,5.281715E-2,-3.9194273E-3,6.113393E-3,5.281715E-2,6.974663E-3,-1.2820189E-2,6.790885E-3,-2.243181E-2,2.9553585E-2],"split_indices":[15,0,15,4,4,4,15,15,4,15,9,4,9,4,4,0,0,0,0,0,0,0,0,0,0,0,0,0,0,0,0],"split_type":[0,0,0,0,0,0,0,0,0,0,0,0,0,0,0,0,0,0,0,0,0,0,0,0,0,0,0,0,0,0,0],"sum_hessian":[4.0086902E4,1.5275458E4,2.4811445E4,3.465608E3,1.180985E4,1.4763709E4,1.0047736E4,1.8467672E3,1.6188408E3,1.1650041E4,1.5980891E2,1.46889795E4,7.472935E1,7.730714E3,2.317022E3,1.864537E2,1.6603135E3,1.3137285E3,3.051123E2,4.406827E3,7.243214E3,2.9692154E1,1.3011676E2,1.3564433E4,1.124547E3,3.8256573E1,3.6472775E1,7.6037134E3,1.2700065E2,2.3014744E3,1.5547713E1],"tree_param":{"num_deleted":"0","num_feature":"18","num_nodes":"31","size_leaf_vector":"1"}},{"base_weights":[1.3022963E-3,1.12746574E-1,-1.295452E-1,3.7437505E-1,8.290038E-2,-7.865785E-2,-2.2239493E-1,7E-1,3.2713622E-1,7.4490696E-2,7E-1,-8.19959E-2,2.7984387E-1,-1.8042956E-1,-2.8878078E-1,3.695486E-3,5.281715E-2,1.8005194E-2,3.406161E-2,4.156169E-3,1.6088003E-2,6.277661E-3,5.281715E-2,-7.205813E-3,-2.118728E-3,1.0784567E-2,5.281715E-2,-1.41663505E-2,-5.1733092E-3,-2.2175197E-2,1.381153E-2],"categories":[0,1,2,3,5,6],"categories_nodes":[3],"categories_segments":[0],"categories_sizes":[6],"default_left":[0,0,0,1,1,1,0,0,1,0,0,0,0,0,0,0,0,0,0,0,0,0,0,0,0,0,0,0,0,0,0],"id":13,"left_children":[1,3,5,7,9,11,13,15,17,19,21,23,25,27,29,-1,-1,-1,-1,-1,-1,-1,-1,-1,-1,-1,-1,-1,-1,-1,-1],"loss_changes":[5.874195E2,1.6969983E2,8.744803E1,3.9680878E1,1.406048E2,1.446183E1,1.7975006E1,4.8554993E0,2.143068E1,5.211013E1,1.4830704E1,8.628822E0,1.0904909E1,3.230194E0,6.404724E0,0E0,0E0,0E0,0E0,0E0,0E0,0E0,0E0,0E0,0E0,0E0,0E0,0E0,0E0,0E0,0E0],"parents":[2147483647,0,0,1,1,2,2,3,3,4,4,5,5,6,6,7,7,8,8,9,9,10,10,11,11,12,12,13,13,14,14],"right_children":[2,4,6,8,10,12,14,16,18,20,22,24,26,28,30,-1,-1,-1,-1,-1,-1,-1,-1,-1,-1,-1,-1,-1,-1,-1,-1],"split_conditions":[7.8407464E0,-4.4762103E2,2.117997E2,1E-45,2.9566824E0,2.5562563E0,3.4650516E2,4.2857143E-1,9.505145E-1,1.5287751E0,6.25E-1,8.5714287E-1,1.881629E0,1.7595652E3,2.9566824E0,3.695486E-3,5.281715E-2,1.8005194E-2,3.406161E-2,4.156169E-3,1.6088003E-2,6.277661E-3,5.281715E-2,-7.205813E-3,-2.118728E-3,1.0784567E-2,5.281715E-2,-1.41663505E-2,-5.1733092E-3,-2.2175197E-2,1.381153E-2],"split_indices":[14,14,14,17,2,2,14,6,2,2,6,6,8,7,2,0,0,0,0,0,0,0,0,0,0,0,0,0,0,0,0],"split_type":[0,0,0,1,0,0,0,0,0,0,0,0,0,0,0,0,0,0,0,0,0,0,0,0,0,0,0,0,0,0,0],"sum_hessian":[4.0272125E4,2.1749018E4,1.852311E4,2.220431E3,1.9528586E4,1.1972029E4,6.55108E3,2.2318878E2,1.9972421E3,1.9373225E4,1.553623E2,1.1865856E4,1.0617284E2,4.0265237E3,2.5245564E3,1.232896E1,2.1085982E2,1.1760756E3,8.211665E2,1.7002418E4,2.370807E3,4.0592503E1,1.147698E2,9.485611E3,2.3802444E3,1.0195368E2,4.2191486E0,3.775641E3,2.5088257E2,2.4995771E3,2.4979313E1],"tree_param":{"num_deleted":"0","num_feature":"18","num_nodes":"31","size_leaf_vector":"1"}},{"base_weights":[1.5027976E-3,1.10085584E-1,-1.2970965E-1,9.7056635E-2,7E-1,-8.313811E-2,-2.1594417E-1,2.5508803E-1,5.7111867E-2,7E-1,1.7519565E-1,-8.877369E-2,3.2204586E-1,-1.776228E-1,-2.7764583E-1,2.4820272E-2,1.2836595E-2,1.0308471E-2,1.5062714E-3,-1.2388875E-2,5.281715E-2,1.8027661E-3,5.281715E-2,-7.360152E-3,2.0305517E-3,1.605898E-2,5.281715E-2,-1.36185475E-2,2.5914604E-2,-2.1219358E-2,2.6635006E-2],"categories":[],"categories_nodes":[],"categories_segments":[],"categories_sizes":[],"default_left":[0,1,0,0,0,1,0,0,0,0,0,0,1,1,0,0,0,0,0,0,0,0,0,0,0,0,0,0,0,0,0],"id":14,"left_children":[1,3,5,7,9,11,13,15,17,19,21,23,25,27,29,-1,-1,-1,-1,-1,-1,-1,-1,-1,-1,-1,-1,-1,-1,-1,-1],"loss_changes":[5.7252936E2,2.0518393E2,7.2977325E1,1.36398E2,1.848825E1,2.716024E1,1.4803772E1,2.7051819E1,5.0980923E1,1.2485168E1,6.5763254E0,1.185437E1,1.0976534E1,6.248001E0,6.049011E0,0E0,0E0,0E0,0E0,0E0,0E0,0E0,0E0,0E0,0E0,0E0,0E0,0E0,0E0,0E0,0E0],"parents":[2147483647,0,0,1,1,2,2,3,3,4,4,5,5,6,6,7,7,8,8,9,9,10,10,11,11,12,12,13,13,14,14],"right_children":[2,4,6,8,10,12,14,16,18,20,22,24,26,28,30,-1,-1,-1,-1,-1,-1,-1,-1,-1,-1,-1,-1,-1,-1,-1,-1],"split_conditions":[7.8407464E0,2.3816178E0,2.117997E2,-3.3202582E2,2.244637E0,2.159759E0,3.4650516E2,1.3013452E3,1E0,3.4638625E-1,1.4300995E3,1.833666E3,1.8886026E0,2.8151135E0,2.8151135E0,2.4820272E-2,1.2836595E-2,1.0308471E-2,1.5062714E-3,-1.2388875E-2,5.281715E-2,1.8027661E-3,5.281715E-2,-7.360152E-3,2.0305517E-3,1.605898E-2,5.281715E-2,-1.36185475E-2,2.5914604E-2,-2.1219358E-2,2.6635006E-2],"split_indices":[14,4,14,14,9,4,14,0,16,9,0,7,10,4,4,0,0,0,0,0,0,0,0,0,0,0,0,0,0,0,0],"split_type":[0,0,0,0,0,0,0,0,0,0,0,0,0,0,0,0,0,0,0,0,0,0,0,0,0,0,0,0,0,0,0],"sum_hessian":[4.0173598E4,2.1982898E4,1.81907E4,2.1614809E4,3.6808884E2,1.1818836E4,6.371864E3,4.355049E3,1.725976E4,2.9660623E2,7.148262E1,1.1661012E4,1.5782417E2,3.9440146E3,2.427849E3,2.321114E3,2.0339347E3,5.4914746E3,1.1768286E4,1.4795266E1,2.8181097E2,6.1225353E1,1.0257268E1,1.0839899E4,8.211122E2,1.5056013E2,7.2640305E0,3.926063E3,1.7951693E1,2.417224E3,1.0624869E1],"tree_param":{"num_deleted":"0","num_feature":"18","num_nodes":"31","size_leaf_vector":"1"}},{"base_weights":[2.9314423E-3,-5.457794E-3,6.1352086E-1,-8.1554E-2,2.881443E-2,7E-1,3.2562768E-1,1.5965566E-2,-1.2228506E-1,5.710414E-3,1.1251969E-1,2.1205665E-1,7E-1,4.6931356E-1,8.621857E-2,-1.8418598E-3,1.3454417E-2,-1.0964196E-2,-2.6574193E-3,3.394352E-3,-3.069339E-3,6.765161E-3,1.8578319E-2,2.769919E-2,-7.3999725E-3,5.281715E-2,-3.2808457E-3,5.1009834E-2,1.6499184E-2,-4.079163E-3,1.7550712E-2],"categories":[0,1,2,3,6,0,2,6],"categories_nodes":[6,9],"categories_segments":[0,5],"categories_sizes":[5,3],"default_left":[1,0,0,0,0,0,1,1,0,1,1,0,0,1,0,0,0,0,0,0,0,0,0,0,0,0,0,0,0,0,0],"id":15,"left_children":[1,3,5,7,9,11,13,15,17,19,21,23,25,27,29,-1,-1,-1,-1,-1,-1,-1,-1,-1,-1,-1,-1,-1,-1,-1,-1],"loss_changes":[2.0419713E2,1.0257319E2,3.9888214E1,4.8521873E1,5.2440613E1,1.1632736E1,1.1228031E1,2.364291E1,1.724376E1,3.8741684E1,1.7804024E1,3.103832E0,3.0872803E0,9.890858E0,2.7754958E0,0E0,0E0,0E0,0E0,0E0,0E0,0E0,0E0,0E0,0E0,0E0,0E0,0E0,0E0,0E0,0E0],"parents":[2147483647,0,0,1,1,2,2,3,3,4,4,5,5,6,6,7,7,8,8,9,9,10,10,11,11,12,12,13,13,14,14],"right_children":[2,4,6,8,10,12,14,16,18,20,22,24,26,28,30,-1,-1,-1,-1,-1,-1,-1,-1,-1,-1,-1,-1,-1,-1,-1,-1],"split_conditions":[2.3816178E0,1.4888315E3,5.3827786E-1,1E0,1.833666E3,2.8151135E0,1E-45,1.4301174E0,8.5714287E-1,1E-45,1.2619268E0,-7.3784655E-1,1.4720207E0,9E-1,6E-1,-1.8418598E-3,1.3454417E-2,-1.0964196E-2,-2.6574193E-3,3.394352E-3,-3.069339E-3,6.765161E-3,1.8578319E-2,2.769919E-2,-7.3999725E-3,5.281715E-2,-3.2808457E-3,5.1009834E-2,1.6499184E-2,-4.079163E-3,1.7550712E-2],"split_indices":[4,7,1,16,7,4,17,2,6,17,3,5,12,13,6,0,0,0,0,0,0,0,0,0,0,0,0,0,0,0,0],"split_type":[0,0,0,0,0,0,1,0,0,1,0,0,0,0,0,0,0,0,0,0,0,0,0,0,0,0,0,0,0,0,0],"sum_hessian":[3.985449E4,3.931979E4,5.34697E2,1.2207406E4,2.7112383E4,2.0731255E2,3.2738446E2,3.5975176E3,8.609889E3,2.1252357E4,5.860026E3,5.4773235E1,1.525393E2,2.0123904E2,1.26145424E2,2.884815E3,7.1270264E2,6.806121E3,1.803768E3,1.1508633E4,9.743724E3,5.0124004E3,8.476254E2,3.583218E1,1.8941055E1,1.4758887E2,4.950442E0,1.05080605E2,9.615843E1,6.621622E1,5.99292E1],"tree_param":{"num_deleted":"0","num_feature":"18","num_nodes":"31","size_leaf_vector":"1"}},{"base_weights":[2.617414E-3,1.8769448E-1,-3.603741E-2,3.604659E-2,2.7609387E-1,-1.6366743E-1,-5.0983066E-3,-4.8123624E-2,1.7539307E-1,2.283248E-1,7E-1,-1.0698649E-1,-2.6086953E-1,-9.596395E-3,7E-1,-1.0395857E-2,2.8385865E-3,1.9706117E-2,3.281511E-3,2.3357637E-2,1.1468596E-2,5.281715E-2,9.537803E-3,-1.5530383E-2,-5.653112E-3,-2.7058497E-2,-1.6678808E-2,4.177079E-3,-3.3035E-3,5.281715E-2,1.0823309E-2],"categories":[],"categories_nodes":[],"categories_segments":[],"categories_sizes":[],"default_left":[0,0,0,1,1,0,1,0,0,0,0,0,0,0,0,0,0,0,0,0,0,0,0,0,0,0,0,0,0,0,0],"id":16,"left_children":[1,3,5,7,9,11,13,15,17,19,21,23,25,27,29,-1,-1,-1,-1,-1,-1,-1,-1,-1,-1,-1,-1,-1,-1,-1,-1],"loss_changes":[2.8675684E2,9.278073E1,1.3092764E2,3.003418E1,1.1317172E2,3.5487137E1,1.01027596E2,1.2315795E1,1.0843235E1,2.4875519E1,4.5361176E0,1.2895042E1,8.816635E0,5.8998413E1,2.1350906E1,0E0,0E0,0E0,0E0,0E0,0E0,0E0,0E0,0E0,0E0,0E0,0E0,0E0,0E0,0E0,0E0],"parents":[2147483647,0,0,1,1,2,2,3,3,4,4,5,5,6,6,7,7,8,8,9,9,10,10,11,11,12,12,13,13,14,14],"right_children":[2,4,6,8,10,12,14,16,18,20,22,24,26,28,30,-1,-1,-1,-1,-1,-1,-1,-1,-1,-1,-1,-1,-1,-1,-1,-1],"split_conditions":[1.3377968E3,1.3641927E3,1.439505E3,1.2034694E0,1.7606549E0,1.5855079E3,2.8151135E0,1.1899888E3,1.1981216E3,1.2083308E3,2.4891245E0,1.2283602E3,1.2765142E3,1.575377E3,5.3827786E-1,-1.0395857E-2,2.8385865E-3,1.9706117E-2,3.281511E-3,2.3357637E-2,1.1468596E-2,5.281715E-2,9.537803E-3,-1.5530383E-2,-5.653112E-3,-2.7058497E-2,-1.6678808E-2,4.177079E-3,-3.3035E-3,5.281715E-2,1.0823309E-2],"split_indices":[0,7,7,4,4,0,4,7,0,0,9,7,7,0,1,0,0,0,0,0,0,0,0,0,0,0,0,0,0,0,0],"split_type":[0,0,0,0,0,0,0,0,0,0,0,0,0,0,0,0,0,0,0,0,0,0,0,0,0,0,0,0,0,0,0],"sum_hessian":[4.0071867E4,6.9196123E3,3.3152254E4,2.5511023E3,4.36851E3,6.463801E3,2.6688455E4,1.5927091E3,9.5839325E2,4.0483967E3,3.2011316E2,4.0903564E3,2.3734443E3,2.6557184E4,1.3127162E2,7.76938E2,8.157711E2,5.7741565E2,3.809776E2,1.9528236E3,2.095573E3,3.0359067E2,1.6522497E1,9.944752E2,3.0958813E3,6.740847E2,1.6993596E3,9.156145E3,1.740104E4,5.9090336E1,7.218128E1],"tree_param":{"num_deleted":"0","num_feature":"18","num_nodes":"31","size_leaf_vector":"1"}},{"base_weights":[1.1351785E-3,-1.5168427E-2,2.1996774E-1,-9.330478E-2,3.0545307E-2,1.6270465E-1,6.5906775E-1,-1.1135839E-2,-1.2725835E-1,4.1338736E-3,1.1300164E-1,2.520483E-1,5.7720434E-2,7E-1,2.2616835E-1,-4.401932E-3,2.9275403E-3,-1.623396E-2,-8.066883E-3,7.3264833E-3,-1.0177221E-3,-1.4661489E-3,9.810608E-3,6.5072686E-3,2.5754066E-2,-5.673888E-3,7.6533845E-3,5.281715E-2,-6.8416726E-3,3.508899E-2,9.032551E-3],"categories":[0,1,2,3,6,0,1,2,5,6],"categories_nodes":[5,9],"categories_segments":[0,5],"categories_sizes":[5,5],"default_left":[0,0,1,0,0,1,0,0,0,1,0,1,0,0,0,0,0,0,0,0,0,0,0,0,0,0,0,0,0,0,0],"id":17,"left_children":[1,3,5,7,9,11,13,15,17,19,21,23,25,27,29,-1,-1,-1,-1,-1,-1,-1,-1,-1,-1,-1,-1,-1,-1,-1,-1],"loss_changes":[1.4353156E2,1.3375195E2,6.953868E1,3.8551926E1,5.1448975E1,2.3133835E1,3.734909E1,9.552845E0,1.735968E1,2.9331646E1,1.2933472E1,1.960395E1,6.6962113E0,1.0777176E1,4.2901545E0,0E0,0E0,0E0,0E0,0E0,0E0,0E0,0E0,0E0,0E0,0E0,0E0,0E0,0E0,0E0,0E0],"parents":[2147483647,0,0,1,1,2,2,3,3,4,4,5,5,6,6,7,7,8,8,9,9,10,10,11,11,12,12,13,13,14,14],"right_children":[2,4,6,8,10,12,14,16,18,20,22,24,26,28,30,-1,-1,-1,-1,-1,-1,-1,-1,-1,-1,-1,-1,-1,-1,-1,-1],"split_conditions":[1.5976484E0,1.5311537E3,2.8151135E0,1E0,1.833666E3,1E-45,5.351564E-1,9.023898E-1,1.2283602E3,1E-45,3.9201617E-1,8.8855326E-1,1.426884E3,-2.019125E-1,1.3022128E3,-4.401932E-3,2.9275403E-3,-1.623396E-2,-8.066883E-3,7.3264833E-3,-1.0177221E-3,-1.4661489E-3,9.810608E-3,6.5072686E-3,2.5754066E-2,-5.673888E-3,7.6533845E-3,5.281715E-2,-6.8416726E-3,3.508899E-2,9.032551E-3],"split_indices":[4,7,4,16,7,17,3,2,7,17,2,10,7,5,7,0,0,0,0,0,0,0,0,0,0,0,0,0,0,0,0],"split_type":[0,0,0,0,0,1,0,0,0,1,0,0,0,0,0,0,0,0,0,0,0,0,0,0,0,0,0,0,0,0,0],"sum_hessian":[4.0219348E4,3.7435508E4,2.7838418E3,1.3815499E4,2.3620008E4,2.4694604E3,3.143814E2,4.0417434E3,9.773755E3,1.7894215E4,5.7257925E3,1.3298776E3,1.1395829E3,1.390302E2,1.7535121E2,2.0772068E3,1.9645367E3,1.8270924E3,7.9466626E3,2.8473967E3,1.5046818E4,6.520088E2,5.0737837E3,4.6929446E2,8.605831E2,2.810247E2,8.585582E2,1.22999916E2,1.6030287E1,4.8251892E1,1.2709932E2],"tree_param":{"num_deleted":"0","num_feature":"18","num_nodes":"31","size_leaf_vector":"1"}},{"base_weights":[3.1173343E-3,1.5276456E-1,-8.2960956E-2,1.3597003E-1,6.031956E-1,-2.752619E-2,-1.7643848E-1,2.1194626E-1,8.387921E-2,7E-1,3.5863584E-1,-3.8633965E-2,1.2361978E-1,-1.5104711E-1,-2.8938732E-1,2.0412609E-2,1.0880654E-2,9.128617E-3,2.886031E-3,2.6619195E-3,5.281715E-2,4.427351E-2,1.2484236E-2,-9.044206E-4,-5.98535E-3,1.9783687E-2,9.114163E-5,-1.15534E-2,1.635481E-2,-2.236114E-2,1.2481241E-2],"categories":[1,2,6,1,2],"categories_nodes":[7,8],"categories_segments":[0,3],"categories_sizes":[3,2],"default_left":[0,1,0,0,0,1,0,1,1,0,0,0,0,0,0,0,0,0,0,0,0,0,0,0,0,0,0,0,0,0,0],"id":18,"left_children":[1,3,5,7,9,11,13,15,17,19,21,23,25,27,29,-1,-1,-1,-1,-1,-1,-1,-1,-1,-1,-1,-1,-1,-1,-1,-1],"loss_changes":[5.189521E2,1.1082919E2,1.3250424E2,5.6058746E1,3.5756058E1,2.6992216E1,2.7058105E1,2.2674011E1,1.4242382E1,4.55159E0,1.5884171E1,1.6222853E1,1.8673334E1,6.1213684E0,5.794464E0,0E0,0E0,0E0,0E0,0E0,0E0,0E0,0E0,0E0,0E0,0E0,0E0,0E0,0E0,0E0,0E0],"parents":[2147483647,0,0,1,1,2,2,3,3,4,4,5,5,6,6,7,7,8,8,9,9,10,10,11,11,12,12,13,13,14,14],"right_children":[2,4,6,8,10,12,14,16,18,20,22,24,26,28,30,-1,-1,-1,-1,-1,-1,-1,-1,-1,-1,-1,-1,-1,-1,-1,-1],"split_conditions":[4.4479206E-1,2.1810884E0,7.710144E-1,2.2256655E-1,3.9071894E-1,1.760228E0,9.36457E-1,1E-45,1E-45,6.25E-1,1.3418044E3,6.4846605E-1,1.4865238E3,1.9389891E3,2.9566824E0,2.0412609E-2,1.0880654E-2,9.128617E-3,2.886031E-3,2.6619195E-3,5.281715E-2,4.427351E-2,1.2484236E-2,-9.044206E-4,-5.98535E-3,1.9783687E-2,9.114163E-5,-1.15534E-2,1.635481E-2,-2.236114E-2,1.2481241E-2],"split_indices":[15,2,15,15,1,2,15,17,17,6,0,15,0,7,2,0,0,0,0,0,0,0,0,0,0,0,0,0,0,0,0],"split_type":[0,0,0,0,0,0,0,1,1,0,0,0,0,0,0,0,0,0,0,0,0,0,0,0,0,0,0,0,0,0,0],"sum_hessian":[4.0275918E4,1.4705703E4,2.5570215E4,1.4184118E4,5.2158405E2,1.6055873E4,9.514342E3,5.762362E3,8.421757E3,1.544331E2,3.6715094E2,1.4960576E4,1.0952974E3,7.7787183E3,1.7356234E3,3.0809917E3,2.68137E3,4.639679E3,3.7820776E3,1.0910282E1,1.4352283E2,1.6312302E2,2.0402792E2,9.044733E3,5.9158423E3,5.1073083E2,5.845665E2,7.7383613E3,4.0357124E1,1.7113405E3,2.4282875E1],"tree_param":{"num_deleted":"0","num_feature":"18","num_nodes":"31","size_leaf_vector":"1"}},{"base_weights":[3.1628495E-3,1.01086E-1,-1.1957874E-1,9.409642E-2,7E-1,-7.410333E-2,-2.0523193E-1,2.2140501E-1,5.960966E-2,7E-1,-5.6709684E-3,-8.69718E-2,5.228903E-2,-1.7252485E-1,-2.813347E-1,2.0004002E-2,3.1154822E-3,3.7441894E-3,1.8171951E-2,5.281715E-2,-4.945791E-4,3.4925383E-2,-9.232005E-3,-4.0891436E-3,-8.65643E-3,5.0758537E-2,2.2917876E-3,-1.4673094E-2,-9.383303E-3,-2.1670511E-2,1.9718204E-3],"categories":[0,2,6],"categories_nodes":[7],"categories_segments":[0],"categories_sizes":[3],"default_left":[0,1,0,0,0,1,0,1,0,0,0,0,0,0,0,0,0,0,0,0,0,0,0,0,0,0,0,0,0,0,0],"id":19,"left_children":[1,3,5,7,9,11,13,15,17,19,21,23,25,27,29,-1,-1,-1,-1,-1,-1,-1,-1,-1,-1,-1,-1,-1,-1,-1,-1],"loss_changes":[4.826856E2,1.0776578E2,6.933125E1,9.707225E1,2.239299E1,1.897334E1,1.5104614E1,3.705603E1,3.1458061E1,9.257629E0,3.0757961E0,9.585648E0,1.4570214E1,4.4460754E0,3.377472E0,0E0,0E0,0E0,0E0,0E0,0E0,0E0,0E0,0E0,0E0,0E0,0E0,0E0,0E0,0E0,0E0],"parents":[2147483647,0,0,1,1,2,2,3,3,4,4,5,5,6,6,7,7,8,8,9,9,10,10,11,11,12,12,13,13,14,14],"right_children":[2,4,6,8,10,12,14,16,18,20,22,24,26,28,30,-1,-1,-1,-1,-1,-1,-1,-1,-1,-1,-1,-1,-1,-1,-1,-1],"split_conditions":[7.8407464E0,2.9566824E0,2.117997E2,1.2868079E3,-5.609148E1,1.6142193E0,3.7677255E2,1E-45,1.5462214E0,2.4891245E0,5.902306E-1,9.0833466E1,2.4590395E-1,1.556175E3,1.7522943E0,2.0004002E-2,3.1154822E-3,3.7441894E-3,1.8171951E-2,5.281715E-2,-4.945791E-4,3.4925383E-2,-9.232005E-3,-4.0891436E-3,-8.65643E-3,5.0758537E-2,2.2917876E-3,-1.4673094E-2,-9.383303E-3,-2.1670511E-2,1.9718204E-3],"split_indices":[14,2,14,0,14,2,14,17,10,9,9,14,3,7,3,0,0,0,0,0,0,0,0,0,0,0,0,0,0,0,0],"split_type":[0,0,0,0,0,0,0,1,0,0,0,0,0,0,0,0,0,0,0,0,0,0,0,0,0,0,0,0,0,0,0],"sum_hessian":[4.0148188E4,2.23324E4,1.7815787E4,2.2121006E4,2.1139459E2,1.1644081E4,6.1717056E3,4.708646E3,1.741236E4,1.6651567E2,4.487891E1,1.0569686E4,1.0743948E3,4.329329E3,1.8423765E3,3.786929E3,9.2171716E2,1.6509684E4,9.026755E2,1.480747E2,1.8440975E1,5.6412406E0,3.923767E1,4.85386E3,5.715826E3,3.0992464E1,1.0434022E3,2.9626987E3,1.3666304E3,1.8082206E3,3.4155903E1],"tree_param":{"num_deleted":"0","num_feature":"18","num_nodes":"31","size_leaf_vector":"1"}},{"base_weights":[1.6862852E-3,8.622603E-2,-1.2227457E-1,7.914564E-2,7E-1,-8.704597E-2,-2.3048653E-1,1.5264568E-1,1.8638592E-2,1.3053192E-1,7E-1,-1.0289408E-1,-2.175117E-2,-1.9343227E-1,-2.8155917E-1,2.4137227E-2,9.639622E-3,1.0790441E-4,1.3489876E-2,-3.4912368E-3,2.5583949E-2,-3.8482342E-3,5.281715E-2,-3.8597952E-3,-9.557138E-3,-4.440273E-3,9.742173E-3,-3.767856E-3,-1.5418227E-2,-2.1760104E-2,1.3437507E-2],"categories":[],"categories_nodes":[],"categories_segments":[],"categories_sizes":[],"default_left":[0,1,0,0,0,1,0,0,0,1,0,0,0,0,0,0,0,0,0,0,0,0,0,0,0,0,0,0,0,0,0],"id":20,"left_children":[1,3,5,7,9,11,13,15,17,19,21,23,25,27,29,-1,-1,-1,-1,-1,-1,-1,-1,-1,-1,-1,-1,-1,-1,-1,-1],"loss_changes":[4.198728E2,1.1152893E2,6.181732E1,1.0483554E2,3.1274872E1,1.2678741E1,7.2396545E0,4.4082214E1,3.565312E1,3.9548695E0,7.103363E0,1.2098923E1,1.3488399E1,3.5876236E0,5.51326E0,0E0,0E0,0E0,0E0,0E0,0E0,0E0,0E0,0E0,0E0,0E0,0E0,0E0,0E0,0E0,0E0],"parents":[2147483647,0,0,1,1,2,2,3,3,4,4,5,5,6,6,7,7,8,8,9,9,10,10,11,11,12,12,13,13,14,14],"right_children":[2,4,6,8,10,12,14,16,18,20,22,24,26,28,30,-1,-1,-1,-1,-1,-1,-1,-1,-1,-1,-1,-1,-1,-1,-1,-1],"split_conditions":[2.6304565E1,2.9566824E0,2.685296E2,-1.7299135E2,1E0,8.5714287E-1,3.8677075E2,-5.3944556E2,1.4967887E0,1.1149576E0,-1.8691603E0,8.87796E1,1.2930392E0,4.280697E-1,2.8151135E0,2.4137227E-2,9.639622E-3,1.0790441E-4,1.3489876E-2,-3.4912368E-3,2.5583949E-2,-3.8482342E-3,5.281715E-2,-3.8597952E-3,-9.557138E-3,-4.440273E-3,9.742173E-3,-3.767856E-3,-1.5418227E-2,-2.1760104E-2,1.3437507E-2],"split_indices":[14,2,14,14,6,6,14,14,4,10,5,14,4,4,4,0,0,0,0,0,0,0,0,0,0,0,0,0,0,0,0],"split_type":[0,0,0,0,0,0,0,0,0,0,0,0,0,0,0,0,0,0,0,0,0,0,0,0,0,0,0,0,0,0,0],"sum_hessian":[4.005444E4,2.381477E4,1.6239672E4,2.3571006E4,2.4376402E2,1.2258862E4,3.980809E3,1.0638967E4,1.2932039E4,9.929616E1,1.4446786E2,9.86198E3,2.3968823E3,2.3225276E3,1.6582815E3,1.3695477E3,9.269419E3,1.1682354E4,1.2496857E3,5.6091064E1,4.3205097E1,1.1861067E1,1.326068E2,3.1099941E3,6.7519863E3,1.9265647E3,4.7031772E2,1.663032E2,2.1562244E3,1.636042E3,2.2239529E1],"tree_param":{"num_deleted":"0","num_feature":"18","num_nodes":"31","size_leaf_vector":"1"}},{"base_weights":[6.243824E-3,9.5101856E-2,-1.1090926E-1,1.8417627E-1,4.5003198E-2,-6.537618E-2,-1.9650157E-1,1.7063963E-1,7E-1,2.7127553E-2,2.641469E-1,-8.3103694E-2,3.9015222E-2,-1.6537046E-1,-2.7085868E-1,2.058119E-2,9.551339E-3,-1.4781666E-3,5.281715E-2,6.776006E-3,-1.744693E-4,3.002248E-2,7.994464E-3,-7.1949167E-3,-7.153565E-4,1.0690976E-2,-2.5083085E-3,-1.0795086E-2,-1.6695179E-2,-2.0961987E-2,2.419303E-2],"categories":[0,1,2,3,5,6,3,5],"categories_nodes":[10,13],"categories_segments":[0,6],"categories_sizes":[6,2],"default_left":[0,0,0,1,1,0,0,0,1,0,1,0,0,1,0,0,0,0,0,0,0,0,0,0,0,0,0,0,0,0,0],"id":21,"left_children":[1,3,5,7,9,11,13,15,17,19,21,23,25,27,29,-1,-1,-1,-1,-1,-1,-1,-1,-1,-1,-1,-1,-1,-1,-1,-1],"loss_changes":[4.1518774E2,1.01165726E2,6.697307E1,6.801672E1,5.6853466E1,2.0814533E1,1.3571213E1,3.5812943E1,1.6557877E1,2.479023E1,2.2926437E1,8.662056E0,1.2157605E1,5.08712E0,7.7121887E0,0E0,0E0,0E0,0E0,0E0,0E0,0E0,0E0,0E0,0E0,0E0,0E0,0E0,0E0,0E0,0E0],"parents":[2147483647,0,0,1,1,2,2,3,3,4,4,5,5,6,6,7,7,8,8,9,9,10,10,11,11,12,12,13,13,14,14],"right_children":[2,4,6,8,10,12,14,16,18,20,22,24,26,28,30,-1,-1,-1,-1,-1,-1,-1,-1,-1,-1,-1,-1,-1,-1,-1,-1],"split_conditions":[7.8407464E0,-2.3451405E2,2.117997E2,2.3816178E0,1.5976484E0,1.3255187E0,3.7677255E2,1.2083308E3,9.02967E-1,1E0,1E-45,1.7678015E3,1.5453024E3,1E-45,2.8151135E0,2.058119E-2,9.551339E-3,-1.4781666E-3,5.281715E-2,6.776006E-3,-1.744693E-4,3.002248E-2,7.994464E-3,-7.1949167E-3,-7.153565E-4,1.0690976E-2,-2.5083085E-3,-1.0795086E-2,-1.6695179E-2,-2.0961987E-2,2.419303E-2],"split_indices":[14,14,14,4,4,4,14,0,10,16,17,7,0,17,4,0,0,0,0,0,0,0,0,0,0,0,0,0,0,0,0],"split_type":[0,0,0,0,0,0,0,0,0,0,1,0,0,1,0,0,0,0,0,0,0,0,0,0,0,0,0,0,0,0,0],"sum_hessian":[3.987232E4,2.2674936E4,1.7197387E4,8.1569976E3,1.4517938E4,1.1232057E4,5.9653296E3,7.997372E3,1.5962547E2,1.3428825E4,1.0891132E3,9.602518E3,1.629539E3,4.217578E3,1.7477517E3,2.401335E3,5.596037E3,3.1676468E1,1.27949005E2,4.2881016E3,9.140724E3,5.8556366E2,5.0354944E2,8.23104E3,1.3714778E3,6.7088245E2,9.586565E2,3.029007E3,1.1885709E3,1.7303663E3,1.7385307E1],"tree_param":{"num_deleted":"0","num_feature":"18","num_nodes":"31","size_leaf_vector":"1"}},{"base_weights":[-3.6701976E-4,8.8398784E-2,-9.92941E-2,8.1904404E-2,7E-1,-6.8705685E-2,-2.166884E-1,2.1679418E-1,5.4594237E-2,-4.994753E-3,7E-1,-1.4644732E-2,-9.558812E-2,-1.96516E-1,-2.6297722E-2,1.5094654E-2,3.829183E-2,1.1555537E-3,1.0117273E-2,-1.1242661E-2,5.281715E-2,-1.5606417E-3,3.0937644E-2,-4.3693683E-3,-9.647438E-3,-1.5178984E-2,1.0388474E-2],"categories":[],"categories_nodes":[],"categories_segments":[],"categories_sizes":[],"default_left":[0,1,0,0,0,0,0,1,0,0,0,1,0,1,0,0,0,0,0,0,0,0,0,0,0,0,0],"id":22,"left_children":[1,3,5,7,9,11,13,15,17,-1,19,21,23,25,-1,-1,-1,-1,-1,-1,-1,-1,-1,-1,-1,-1,-1],"loss_changes":[3.515867E2,9.3837616E1,6.791118E1,7.6979645E1,1.7415482E1,2.1834251E1,1.0019653E1,1.6560303E1,5.4320118E1,0E0,5.091217E0,1.28651085E1,1.2163483E1,5.452362E0,0E0,0E0,0E0,0E0,0E0,0E0,0E0,0E0,0E0,0E0,0E0,0E0,0E0],"parents":[2147483647,0,0,1,1,2,2,3,3,4,4,5,5,6,6,7,7,8,8,10,10,11,11,12,12,13,13],"right_children":[2,4,6,8,10,12,14,16,18,-1,20,22,24,26,-1,-1,-1,-1,-1,-1,-1,-1,-1,-1,-1,-1,-1],"split_conditions":[-1.683944E1,2.9566824E0,2.685296E2,-3.8923883E2,6E-1,1E0,5.446635E2,1.5175894E0,1.0649189E0,-4.994753E-3,9.8294727E2,2.8151135E0,8.87796E1,2.023613E0,-2.6297722E-2,1.5094654E-2,3.829183E-2,1.1555537E-3,1.0117273E-2,-1.1242661E-2,5.281715E-2,-1.5606417E-3,3.0937644E-2,-4.3693683E-3,-9.647438E-3,-1.5178984E-2,1.0388474E-2],"split_indices":[14,2,14,14,6,16,14,4,4,0,0,4,14,4,0,0,0,0,0,0,0,0,0,0,0,0,0],"split_type":[0,0,0,0,0,0,0,0,0,0,0,0,0,0,0,0,0,0,0,0,0,0,0,0,0,0,0],"sum_hessian":[4.0026742E4,2.1097164E4,1.8929578E4,2.0908828E4,1.8833638E2,1.5023814E4,3.905764E3,3.5139617E3,1.7394867E4,2.874156E1,1.5959483E2,4.9924863E3,1.0031328E4,3.399543E3,5.0622086E2,3.3315422E3,1.8241937E2,1.1646635E4,5.748232E3,5.2733088E0,1.5432152E2,4.927731E3,6.475548E1,4.6351284E3,5.3961997E3,3.3550344E3,4.4508682E1],"tree_param":{"num_deleted":"0","num_feature":"18","num_nodes":"27","size_leaf_vector":"1"}},{"base_weights":[1.833864E-3,9.398668E-2,-9.874478E-2,8.666521E-2,6.87508E-1,-6.342247E-2,-2.0566747E-1,1.829356E-1,4.8853964E-2,7E-1,2.2019458E-1,-3.7326515E-2,-1.0808977E-1,-1.915806E-1,-3.5780543E-1,1.875831E-2,8.823972E-3,6.2129125E-3,1.2719359E-3,7.1617094E-4,5.281715E-2,9.604204E-3,4.3370917E-2,-3.3987109E-3,6.1350665E-3,-8.469556E-3,1.2541253E-2,-1.1892251E-2,-1.6782105E-2,4.4468404E-3,-2.7732542E-2],"categories":[0,1,2,6,1,2,3,5],"categories_nodes":[7,14],"categories_segments":[0,4],"categories_sizes":[4,4],"default_left":[0,1,0,0,0,0,0,1,0,0,0,1,0,0,1,0,0,0,0,0,0,0,0,0,0,0,0,0,0,0,0],"id":23,"left_children":[1,3,5,7,9,11,13,15,17,19,21,23,25,27,29,-1,-1,-1,-1,-1,-1,-1,-1,-1,-1,-1,-1,-1,-1,-1,-1],"loss_changes":[3.763379E2,9.174371E1,7.3249985E1,7.616452E1,2.6697075E1,1.6997337E1,9.943512E0,2.5416702E1,1.6108109E1,1.3066391E1,3.8093982E0,8.466905E0,6.24469E0,4.436325E0,1.7526627E0,0E0,0E0,0E0,0E0,0E0,0E0,0E0,0E0,0E0,0E0,0E0,0E0,0E0,0E0,0E0,0E0],"parents":[2147483647,0,0,1,1,2,2,3,3,4,4,5,5,6,6,7,7,8,8,9,9,10,10,11,11,12,12,13,13,14,14],"right_children":[2,4,6,8,10,12,14,16,18,20,22,24,26,28,30,-1,-1,-1,-1,-1,-1,-1,-1,-1,-1,-1,-1,-1,-1,-1,-1],"split_conditions":[5.6131965E-1,2.9566824E0,8.600893E-1,2.0368491E-1,5.239195E-1,7.47687E-1,9.7895724E-1,1E-45,3.9311084E-1,1.4102144E3,5.207351E-1,1.8180487E0,2.5562563E0,9.082777E-1,1E-45,1.875831E-2,8.823972E-3,6.2129125E-3,1.2719359E-3,7.1617094E-4,5.281715E-2,9.604204E-3,4.3370917E-2,-3.3987109E-3,6.1350665E-3,-8.469556E-3,1.2541253E-2,-1.1892251E-2,-1.6782105E-2,4.4468404E-3,-2.7732542E-2],"split_indices":[15,2,15,15,3,15,15,17,15,7,15,2,2,15,17,0,0,0,0,0,0,0,0,0,0,0,0,0,0,0,0],"split_type":[0,0,0,0,0,0,0,1,0,0,0,0,0,0,1,0,0,0,0,0,0,0,0,0,0,0,0,0,0,0,0],"sum_hessian":[4.0592316E4,2.1183656E4,1.940866E4,2.0931855E4,2.5180183E2,1.4595791E4,4.8128696E3,5.8967686E3,1.5035087E4,1.2935263E2,1.224492E2,9.219657E3,5.3761343E3,4.4165576E3,3.9631195E2,2.9477017E3,2.949067E3,7.342103E3,7.692984E3,2.7558937E1,1.0179369E2,1.0304746E2,1.9401737E1,8.659788E3,5.5986896E2,5.299081E3,7.705347E1,2.1178052E3,2.2987527E3,8.407531E0,3.8790442E2],"tree_param":{"num_deleted":"0","num_feature":"18","num_nodes":"31","size_leaf_vector":"1"}},{"base_weights":[1.1346693E-3,1.04808904E-1,-8.42871E-2,9.567088E-2,7E-1,-4.654636E-2,-1.8763778E-1,1.6504858E-1,5.1208872E-2,7E-1,2.6929635E-1,-6.244338E-2,2.6110046E-2,-1.5526302E-1,-2.7714393E-1,9.323991E-3,1.723164E-2,1.1498628E-3,7.924902E-3,5.281715E-2,-6.094028E-3,2.6220448E-2,-1.4766955E-2,-2.2450918E-3,-6.71137E-3,-4.2547856E-4,1.15696965E-2,-1.0733332E-2,-1.8156914E-2,-2.1339102E-2,1.71233E-2],"categories":[],"categories_nodes":[],"categories_segments":[],"categories_sizes":[],"default_left":[0,1,0,0,0,0,0,0,0,0,0,0,0,0,0,0,0,0,0,0,0,0,0,0,0,0,0,0,0,0,0],"id":24,"left_children":[1,3,5,7,9,11,13,15,17,19,21,23,25,27,29,-1,-1,-1,-1,-1,-1,-1,-1,-1,-1,-1,-1,-1,-1,-1,-1],"loss_changes":[3.5580283E2,1.0360651E2,8.586896E1,5.515477E1,2.1670044E1,1.8654087E1,1.6827896E1,1.8193405E1,2.1120514E1,8.660446E0,5.165578E0,1.1461601E1,1.1726249E1,4.6278687E0,4.8094635E0,0E0,0E0,0E0,0E0,0E0,0E0,0E0,0E0,0E0,0E0,0E0,0E0,0E0,0E0,0E0,0E0],"parents":[2147483647,0,0,1,1,2,2,3,3,4,4,5,5,6,6,7,7,8,8,9,9,10,10,11,11,12,12,13,13,14,14],"right_children":[2,4,6,8,10,12,14,16,18,20,22,24,26,28,30,-1,-1,-1,-1,-1,-1,-1,-1,-1,-1,-1,-1,-1,-1,-1,-1],"split_conditions":[5.0114596E-1,2.8151135E0,8.343191E-1,2.3871191E-1,3.7434274E-1,1.2599423E0,9.36457E-1,9.84092E-1,9.9980175E-1,2.3413367E0,1E0,6.5054923E-1,1E0,1E0,2.8151135E0,9.323991E-3,1.723164E-2,1.1498628E-3,7.924902E-3,5.281715E-2,-6.094028E-3,2.6220448E-2,-1.4766955E-2,-2.2450918E-3,-6.71137E-3,-4.2547856E-4,1.15696965E-2,-1.0733332E-2,-1.8156914E-2,-2.1339102E-2,1.71233E-2],"split_indices":[15,4,15,15,1,4,15,4,4,9,16,15,6,13,4,0,0,0,0,0,0,0,0,0,0,0,0,0,0,0,0],"split_type":[0,0,0,0,0,0,0,0,0,0,0,0,0,0,0,0,0,0,0,0,0,0,0,0,0,0,0,0,0,0,0],"sum_hessian":[4.016514E4,1.8143531E4,2.2021611E4,1.7890004E4,2.5352684E2,1.6136959E4,5.8846523E3,6.9813193E3,1.0908685E4,1.2753525E2,1.2599159E2,1.3240714E4,2.8962454E3,4.332761E3,1.5518915E3,4.2284487E3,2.7528704E3,6.543089E3,4.365595E3,1.1442505E2,1.3110199E1,1.0906093E2,1.6930664E1,5.9339873E3,7.3067266E3,2.3221104E3,5.7413513E2,3.7727026E3,5.6005835E2,1.5370593E3,1.483213E1],"tree_param":{"num_deleted":"0","num_feature":"18","num_nodes":"31","size_leaf_vector":"1"}},{"base_weights":[3.9268807E-3,9.070286E-2,-9.1265656E-2,8.345893E-2,6.451583E-1,-5.4625064E-2,-1.7342803E-1,1.4143848E-1,3.4563724E-2,7E-1,1.8837039E-1,-5.7891194E-2,1.8063772E-1,-1.4311302E-1,-2.5930485E-1,6.6976775E-3,1.4704882E-2,1.655819E-3,1.1201519E-2,5.281715E-2,1.77049E-2,4.558044E-2,8.223553E-3,-1.9372118E-3,-5.9423707E-3,2.3652403E-2,-6.3612144E-3,-1.3778163E-2,-8.504389E-3,-2.0059334E-2,1.1378831E-2],"categories":[0,1,3,5,6],"categories_nodes":[9],"categories_segments":[0],"categories_sizes":[5],"default_left":[0,1,0,0,0,1,0,0,0,1,0,0,1,1,0,0,0,0,0,0,0,0,0,0,0,0,0,0,0,0,0],"id":25,"left_children":[1,3,5,7,9,11,13,15,17,19,21,23,25,27,29,-1,-1,-1,-1,-1,-1,-1,-1,-1,-1,-1,-1,-1,-1,-1,-1],"loss_changes":[3.2893317E2,8.3365234E1,5.7114227E1,5.8283432E1,3.0764465E1,1.0155945E1,1.503273E1,2.6390778E1,1.6029274E1,1.6367645E0,3.9572659E0,8.703838E0,6.528097E0,5.0948105E0,4.3065186E0,0E0,0E0,0E0,0E0,0E0,0E0,0E0,0E0,0E0,0E0,0E0,0E0,0E0,0E0,0E0,0E0],"parents":[2147483647,0,0,1,1,2,2,3,3,4,4,5,5,6,6,7,7,8,8,9,9,10,10,11,11,12,12,13,13,14,14],"right_children":[2,4,6,8,10,12,14,16,18,20,22,24,26,28,30,-1,-1,-1,-1,-1,-1,-1,-1,-1,-1,-1,-1,-1,-1,-1,-1],"split_conditions":[5.582402E-1,2.8151135E0,8.343191E-1,3.009077E-1,3.9287162E-1,2.159759E0,9.36457E-1,9.0950924E-1,1.4818755E0,1E-45,-4.8987622E2,6.640408E-1,1.1409911E0,8.310436E-1,1.7522943E0,6.6976775E-3,1.4704882E-2,1.655819E-3,1.1201519E-2,5.281715E-2,1.77049E-2,4.558044E-2,8.223553E-3,-1.9372118E-3,-5.9423707E-3,2.3652403E-2,-6.3612144E-3,-1.3778163E-2,-8.504389E-3,-2.0059334E-2,1.1378831E-2],"split_indices":[15,4,15,15,3,4,15,4,4,17,14,15,8,10,3,0,0,0,0,0,0,0,0,0,0,0,0,0,0,0,0],"split_type":[0,0,0,0,0,0,0,0,0,1,0,0,0,0,0,0,0,0,0,0,0,0,0,0,0,0,0,0,0,0,0],"sum_hessian":[3.9809176E4,2.082537E4,1.8983807E4,2.0563145E4,2.6222488E2,1.3135356E4,5.8484507E3,9.402799E3,1.1160346E4,1.3674669E2,1.2547821E2,1.2959653E4,1.7570319E2,4.3335786E3,1.514872E3,4.7433105E3,4.659488E3,1.0053178E4,1.1071683E3,1.2212983E2,1.4616858E1,1.4194166E1,1.1128405E2,5.0989336E3,7.8607197E3,1.1634701E2,5.935618E1,1.8727994E3,2.4607793E3,1.4930043E3,2.1867737E1],"tree_param":{"num_deleted":"0","num_feature":"18","num_nodes":"31","size_leaf_vector":"1"}},{"base_weights":[1.546634E-5,8.0575004E-2,-9.065652E-2,7.2537996E-2,6.1829454E-1,-5.286016E-2,-1.7661454E-1,1.667883E-1,4.4256575E-2,7E-1,1.3395587E-1,-3.589723E-2,-9.1471516E-2,-1.4045352E-1,-2.5461027E-1,5.906568E-3,1.7061392E-2,1.7800365E-3,7.3667164E-3,-4.206954E-3,5.281715E-2,-1.9990117E-3,2.667131E-2,-2.834822E-3,3.216696E-2,-7.2136424E-3,2.3660187E-2,-2.125093E-2,-1.0086276E-2,-1.9767415E-2,1.3486744E-2],"categories":[],"categories_nodes":[],"categories_segments":[],"categories_sizes":[],"default_left":[0,1,0,0,0,0,0,0,0,1,0,0,0,0,0,0,0,0,0,0,0,0,0,0,0,0,0,0,0,0,0],"id":26,"left_children":[1,3,5,7,9,11,13,15,17,19,21,23,25,27,29,-1,-1,-1,-1,-1,-1,-1,-1,-1,-1,-1,-1,-1,-1,-1,-1],"loss_changes":[2.928934E2,9.151059E1,6.1237762E1,5.5739098E1,2.8602112E1,8.568981E0,1.6043365E1,2.5253906E1,1.7750595E1,1.2518494E1,3.7266736E0,7.1425543E0,6.860737E0,3.56678E0,6.068428E0,0E0,0E0,0E0,0E0,0E0,0E0,0E0,0E0,0E0,0E0,0E0,0E0,0E0,0E0,0E0,0E0],"parents":[2147483647,0,0,1,1,2,2,3,3,4,4,5,5,6,6,7,7,8,8,9,9,10,10,11,11,12,12,13,13,14,14],"right_children":[2,4,6,8,10,12,14,16,18,20,22,24,26,28,30,-1,-1,-1,-1,-1,-1,-1,-1,-1,-1,-1,-1,-1,-1,-1,-1],"split_conditions":[5.6131965E-1,2.8151135E0,8.343191E-1,1.2868079E3,5.3827786E-1,7.47687E-1,9.277856E-1,8.6715823E-1,1.1311624E0,5.055358E-1,1.1314726E0,2.120893E3,2.8151135E0,1.3557959E3,1.7522943E0,5.906568E-3,1.7061392E-2,1.7800365E-3,7.3667164E-3,-4.206954E-3,5.281715E-2,-1.9990117E-3,2.667131E-2,-2.834822E-3,3.216696E-2,-7.2136424E-3,2.3660187E-2,-2.125093E-2,-1.0086276E-2,-1.9767415E-2,1.3486744E-2],"split_indices":[15,4,15,0,1,15,15,4,3,9,1,0,4,0,3,0,0,0,0,0,0,0,0,0,0,0,0,0,0,0,0],"split_type":[0,0,0,0,0,0,0,0,0,0,0,0,0,0,0,0,0,0,0,0,0,0,0,0,0,0,0,0,0,0,0],"sum_hessian":[4.0086527E4,2.1227291E4,1.8859236E4,2.092094E4,3.0635028E2,1.3105625E4,5.753611E3,4.8224224E3,1.6098518E4,2.0762367E2,9.872661E1,9.112892E3,3.9927332E3,3.9417573E3,1.8118533E3,1.9405586E3,2.8818638E3,1.16111875E4,4.4873306E3,2.1123074E1,1.8650061E2,5.9877865E1,3.8848747E1,9.085135E3,2.7756886E1,3.9566328E3,3.6100433E1,1.7016008E2,3.7715972E3,1.7837177E3,2.813568E1],"tree_param":{"num_deleted":"0","num_feature":"18","num_nodes":"31","size_leaf_vector":"1"}},{"base_weights":[3.225407E-3,6.420128E-2,-9.623345E-2,5.711426E-2,5.6416225E-1,-7.220093E-2,-2.0843863E-1,1.1157366E-1,1.1450007E-2,7E-1,1.7330559E-1,-7.583777E-2,1.7593619E-1,-1.9248298E-1,-3.4865534E-1,1.7610695E-2,6.859965E-3,1.08184184E-4,1.3167469E-2,5.281715E-2,3.7471473E-4,3.0685565E-2,-5.4842816E-4,-4.2819725E-3,-8.801836E-3,5.281715E-2,8.84001E-3,-1.6736988E-2,-8.548559E-3,-2.7049204E-2,1.5910441E-2],"categories":[],"categories_nodes":[],"categories_segments":[],"categories_sizes":[],"default_left":[0,1,0,0,0,1,0,0,0,0,0,0,0,0,0,0,0,0,0,0,0,0,0,0,0,0,0,0,0,0,0],"id":27,"left_children":[1,3,5,7,9,11,13,15,17,19,21,23,25,27,29,-1,-1,-1,-1,-1,-1,-1,-1,-1,-1,-1,-1,-1,-1,-1,-1],"loss_changes":[2.4443031E2,8.83509E1,4.122325E1,6.1276047E1,3.214659E1,1.1467659E1,5.663719E0,2.8163162E1,2.1900742E1,1.2455536E1,6.293316E0,9.659569E0,5.8133693E0,5.5184174E0,1.9022217E0,0E0,0E0,0E0,0E0,0E0,0E0,0E0,0E0,0E0,0E0,0E0,0E0,0E0,0E0,0E0,0E0],"parents":[2147483647,0,0,1,1,2,2,3,3,4,4,5,5,6,6,7,7,8,8,9,9,10,10,11,11,12,12,13,13,14,14],"right_children":[2,4,6,8,10,12,14,16,18,20,22,24,26,28,30,-1,-1,-1,-1,-1,-1,-1,-1,-1,-1,-1,-1,-1,-1,-1,-1],"split_conditions":[2.6304565E1,2.8151135E0,3.0721667E2,-1.8164903E2,5.239195E-1,2.159759E0,6.185421E2,-5.3944556E2,1.5853027E0,2.152986E0,1.10719E0,1.8229478E2,-1.3548259E0,1.1380926E0,1.6512977E0,1.7610695E-2,6.859965E-3,1.08184184E-4,1.3167469E-2,5.281715E-2,3.7471473E-4,3.0685565E-2,-5.4842816E-4,-4.2819725E-3,-8.801836E-3,5.281715E-2,8.84001E-3,-1.6736988E-2,-8.548559E-3,-2.7049204E-2,1.5910441E-2],"split_indices":[14,4,14,14,3,4,14,14,10,9,9,14,12,2,3,0,0,0,0,0,0,0,0,0,0,0,0,0,0,0,0],"split_type":[0,0,0,0,0,0,0,0,0,0,0,0,0,0,0,0,0,0,0,0,0,0,0,0,0,0,0,0,0,0,0],"sum_hessian":[4.029322E4,2.4980342E4,1.5312875E4,2.4637334E4,3.4300937E2,1.2619229E4,2.6936462E3,1.1232879E4,1.3404454E4,1.9965584E2,1.4335355E2,1.2440771E4,1.7845753E2,2.4303528E3,2.6329333E2,1.6201647E3,9.612715E3,1.2634037E4,7.7041656E2,1.7379161E2,2.5864222E1,5.9480213E1,8.387333E1,8.485718E3,3.9550532E3,1.0072947E1,1.6838458E2,1.766015E3,6.6433777E2,2.607189E2,2.5744174E0],"tree_param":{"num_deleted":"0","num_feature":"18","num_nodes":"31","size_leaf_vector":"1"}},{"base_weights":[-1.095504E-3,7.822363E-2,-9.111851E-2,6.657635E-2,3.1391174E-1,-6.2318835E-2,-1.7882757E-1,1.2328929E-1,2.868229E-2,6.452316E-1,2.3838514E-1,-7.011263E-2,3.7254404E-2,-1.6551824E-1,-2.607575E-2,1.7200708E-2,7.884985E-3,4.826886E-3,-7.967404E-4,5.281715E-2,1.5576923E-4,1.9964779E-2,-1.5011889E-2,-4.0334314E-3,-8.1061E-3,1.31402565E-2,-1.7661822E-3,-1.0314783E-2,-1.5857859E-2],"categories":[0,1,2,3,5,6,1,2,6,4,5],"categories_nodes":[7,8,13],"categories_segments":[0,6,9],"categories_sizes":[6,3,2],"default_left":[0,0,0,0,0,1,0,1,1,0,1,0,0,1,0,0,0,0,0,0,0,0,0,0,0,0,0,0,0],"id":28,"left_children":[1,3,5,7,9,11,13,15,17,19,21,23,25,27,-1,-1,-1,-1,-1,-1,-1,-1,-1,-1,-1,-1,-1,-1,-1],"loss_changes":[2.8505908E2,5.8141098E1,4.71709E1,4.345626E1,2.4110512E1,1.0945557E1,9.932419E0,1.5798843E1,1.6807768E1,1.8964104E1,9.71212E0,8.089165E0,8.544036E0,5.356674E0,0E0,0E0,0E0,0E0,0E0,0E0,0E0,0E0,0E0,0E0,0E0,0E0,0E0,0E0,0E0],"parents":[2147483647,0,0,1,1,2,2,3,3,4,4,5,5,6,6,7,7,8,8,9,9,10,10,11,11,12,12,13,13],"right_children":[2,4,6,8,10,12,14,16,18,20,22,24,26,28,-1,-1,-1,-1,-1,-1,-1,-1,-1,-1,-1,-1,-1,-1,-1],"split_conditions":[5.582402E-1,2.1810884E0,8.552527E-1,2.7117074E-1,2.3550622E-1,1.6963584E0,9.7895724E-1,1E-45,1E-45,3.9725846E-1,2.4763823E0,7.598496E-1,1.3948374E3,1E-45,-2.607575E-2,1.7200708E-2,7.884985E-3,4.826886E-3,-7.967404E-4,5.281715E-2,1.5576923E-4,1.9964779E-2,-1.5011889E-2,-4.0334314E-3,-8.1061E-3,1.31402565E-2,-1.7661822E-3,-1.0314783E-2,-1.5857859E-2],"split_indices":[15,2,15,15,1,2,15,17,17,15,11,15,7,17,0,0,0,0,0,0,0,0,0,0,0,0,0,0,0],"split_type":[0,0,0,0,0,0,0,1,1,0,0,0,0,1,0,0,0,0,0,0,0,0,0,0,0,0,0,0,0],"sum_hessian":[3.9910016E4,2.1216725E4,1.8693291E4,2.0224438E4,9.922865E2,1.4079716E4,4.6135767E3,8.095687E3,1.2128751E4,1.763796E2,8.1590686E2,1.30592E4,1.02051556E3,4.282894E3,3.3068234E2,1.2224478E3,6.8732393E3,6.384079E3,5.7446714E3,1.3629442E2,4.0085167E1,7.7185144E2,4.405542E1,9.038672E3,4.0205283E3,3.101463E2,7.1036926E2,2.616879E3,1.6660154E3],"tree_param":{"num_deleted":"0","num_feature":"18","num_nodes":"29","size_leaf_vector":"1"}},{"base_weights":[2.3483E-3,1.1831163E-1,-2.5127223E-2,1.565729E-1,-4.0250935E-2,-2.8998984E-2,4.7469157E-1,2.9159358E-2,1.9716732E-1,-9.1398604E-2,3.2365102E-2,-9.7074896E-2,1.7467347E-3,7E-1,1.0976693E-1,-4.1095903E-3,1.1457621E-2,2.2950495E-2,1.0662608E-2,-9.079877E-3,5.24463E-3,3.0484043E-2,9.137426E-4,-3.2346058E-3,-1.087063E-2,4.6250876E-3,-1.4709049E-3,5.281715E-2,-1.1267332E-2,1.5542066E-2,-1.5044589E-2],"categories":[2],"categories_nodes":[1],"categories_segments":[0],"categories_sizes":[1],"default_left":[0,1,1,0,1,0,0,1,0,1,0,0,0,0,0,0,0,0,0,0,0,0,0,0,0,0,0,0,0,0,0],"id":29,"left_children":[1,3,5,7,9,11,13,15,17,19,21,23,25,27,29,-1,-1,-1,-1,-1,-1,-1,-1,-1,-1,-1,-1,-1,-1,-1,-1],"loss_changes":[1.2745913E2,4.652339E1,6.2663994E1,3.1902908E1,5.565563E0,6.718429E1,2.8735481E1,1.541992E1,2.7737823E1,4.1354747E0,4.6516147E0,2.5406319E1,2.7983353E1,1.1336548E1,3.9959924E0,0E0,0E0,0E0,0E0,0E0,0E0,0E0,0E0,0E0,0E0,0E0,0E0,0E0,0E0,0E0,0E0],"parents":[2147483647,0,0,1,1,2,2,3,3,4,4,5,5,6,6,7,7,8,8,9,9,10,10,11,11,12,12,13,13,14,14],"right_children":[2,4,6,8,10,12,14,16,18,20,22,24,26,28,30,-1,-1,-1,-1,-1,-1,-1,-1,-1,-1,-1,-1,-1,-1,-1,-1],"split_conditions":[1.3377968E3,1E-45,2.8151135E0,1.3022128E3,9.375204E-1,1.5332511E3,5.351564E-1,1.2599423E0,1E0,1.3521174E0,-9.985589E-1,1.5131191E3,1.539634E3,-2.6738244E-1,2.113067E0,-4.1095903E-3,1.1457621E-2,2.2950495E-2,1.0662608E-2,-9.079877E-3,5.24463E-3,3.0484043E-2,9.137426E-4,-3.2346058E-3,-1.087063E-2,4.6250876E-3,-1.4709049E-3,5.281715E-2,-1.1267332E-2,1.5542066E-2,-1.5044589E-2],"split_indices":[0,17,4,7,10,7,3,4,16,4,12,0,0,5,8,0,0,0,0,0,0,0,0,0,0,0,0,0,0,0,0],"split_type":[0,1,0,0,0,0,0,0,0,0,0,0,0,0,0,0,0,0,0,0,0,0,0,0,0,0,0,0,0,0,0],"sum_hessian":[3.999327E4,7.657118E3,3.2336152E4,6.168681E3,1.4884371E3,3.2092816E4,2.4333588E2,1.4928102E3,4.675871E3,8.7246423E2,6.1597284E2,9.981073E3,2.2111744E4,1.2230653E2,1.21029335E2,8.8958795E2,6.032222E2,1.5951204E3,3.0807507E3,7.4066376E2,1.318005E2,2.6362007E1,5.8961084E2,4.639992E3,5.341081E3,5.8106416E3,1.6301102E4,1.0838384E2,1.3922689E1,9.372547E1,2.7303864E1],"tree_param":{"num_deleted":"0","num_feature":"18","num_nodes":"31","size_leaf_vector":"1"}},{"base_weights":[1.6961576E-5,1.0837213E-1,-2.549891E-2,2.427014E-2,1.6483895E-1,-1.1975729E-1,-5.361762E-3,1.2760873E-1,-1.4064033E-2,2.3353572E-1,6.1641887E-2,-7.2859064E-2,-2.1066135E-1,4.3182902E-2,-2.612103E-2,-2.9579701E-3,1.3861392E-2,-5.293035E-3,3.7434986E-3,1.4012194E-2,2.6768954E-2,2.9964338E-3,2.6118422E-2,-7.442635E-3,4.6311956E-4,-2.2390274E-2,-1.2639609E-2,7.0403246E-3,-6.8495574E-4,-4.003701E-3,2.727107E-3],"categories":[1,2,6,1,2],"categories_nodes":[4,13],"categories_segments":[0,3],"categories_sizes":[3,2],"default_left":[0,0,0,0,1,0,0,0,1,0,0,0,0,1,0,0,0,0,0,0,0,0,0,0,0,0,0,0,0,0,0],"id":30,"left_children":[1,3,5,7,9,11,13,15,17,19,21,23,25,27,29,-1,-1,-1,-1,-1,-1,-1,-1,-1,-1,-1,-1,-1,-1,-1,-1],"loss_changes":[1.10604744E2,3.6188362E1,6.145672E1,1.2169624E1,3.2254074E1,2.421305E1,2.6899137E1,7.8179216E0,8.033715E0,1.5498306E1,1.1343304E1,7.677969E0,6.915489E0,2.0949575E1,3.1372501E1,0E0,0E0,0E0,0E0,0E0,0E0,0E0,0E0,0E0,0E0,0E0,0E0,0E0,0E0,0E0,0E0],"parents":[2147483647,0,0,1,1,2,2,3,3,4,4,5,5,6,6,7,7,8,8,9,9,10,10,11,11,12,12,13,13,14,14],"right_children":[2,4,6,8,10,12,14,16,18,20,22,24,26,28,30,-1,-1,-1,-1,-1,-1,-1,-1,-1,-1,-1,-1,-1,-1,-1,-1],"split_conditions":[1.3377968E3,1.4102144E3,1.439505E3,1.0831045E3,1E-45,1.5855079E3,1.536914E3,6.661538E-1,9.1893154E-1,1E0,1.8971086E3,8.333333E-1,1.3085609E3,1E-45,1.8160416E3,-2.9579701E-3,1.3861392E-2,-5.293035E-3,3.7434986E-3,1.4012194E-2,2.6768954E-2,2.9964338E-3,2.6118422E-2,-7.442635E-3,4.6311956E-4,-2.2390274E-2,-1.2639609E-2,7.0403246E-3,-6.8495574E-4,-4.003701E-3,2.727107E-3],"split_indices":[0,7,7,0,17,0,0,10,10,6,7,6,7,17,7,0,0,0,0,0,0,0,0,0,0,0,0,0,0,0,0],"split_type":[0,0,0,0,1,0,0,0,0,0,0,0,0,1,0,0,0,0,0,0,0,0,0,0,0,0,0,0,0,0,0],"sum_hessian":[3.9993777E4,7.6193696E3,3.2374406E4,3.0639294E3,4.55544E3,5.6940283E3,2.6680379E4,8.255232E2,2.2384062E3,2.7306357E3,1.8248043E3,3.762824E3,1.9312043E3,7.9900195E3,1.8690357E4,2.0818272E2,6.173405E2,1.1898456E3,1.0485607E3,1.9683076E3,7.623281E2,1.7001335E3,1.2467076E2,2.8359407E3,9.268833E2,6.3379803E2,1.2974064E3,4.076129E3,3.9138909E3,1.304621E4,5.644148E3],"tree_param":{"num_deleted":"0","num_feature":"18","num_nodes":"31","size_leaf_vector":"1"}},{"base_weights":[4.8127775E-3,5.985438E-2,-9.5332205E-2,4.0085316E-2,2.0205437E-1,-7.15481E-2,-2.1286589E-1,9.756697E-2,4.4887033E-3,2.568791E-1,1.0402706E-2,-3.083367E-2,-9.975958E-2,-1.8906033E-1,-2.4140868E-2,1.5763361E-2,5.870099E-3,-2.5951841E-3,1.9613858E-3,1.6424188E-2,3.7154477E-2,1.8049315E-2,-2.4803523E-3,-2.7229786E-3,2.0932404E-2,-5.297997E-3,-1.1395771E-2,-1.5696129E-2,-5.1713656E-3],"categories":[0,2,3,4,5,1,5,6],"categories_nodes":[10,12],"categories_segments":[0,5],"categories_sizes":[5,3],"default_left":[0,0,0,0,0,0,0,0,0,1,1,1,1,0,0,0,0,0,0,0,0,0,0,0,0,0,0,0,0],"id":31,"left_children":[1,3,5,7,9,11,13,15,17,19,21,23,25,27,-1,-1,-1,-1,-1,-1,-1,-1,-1,-1,-1,-1,-1,-1,-1],"loss_changes":[2.2215392E2,7.306689E1,3.987465E1,4.6732494E1,3.3324432E1,1.3648163E1,5.7873154E0,1.9136581E1,1.1805225E1,2.218155E1,7.0901775E0,7.956772E0,1.0582207E1,4.445038E0,0E0,0E0,0E0,0E0,0E0,0E0,0E0,0E0,0E0,0E0,0E0,0E0,0E0,0E0,0E0],"parents":[2147483647,0,0,1,1,2,2,3,3,4,4,5,5,6,6,7,7,8,8,9,9,10,10,11,11,12,12,13,13],"right_children":[2,4,6,8,10,12,14,16,18,20,22,24,26,28,-1,-1,-1,-1,-1,-1,-1,-1,-1,-1,-1,-1,-1,-1,-1],"split_conditions":[6.4846605E-1,1.4510502E0,9.082777E-1,2.9560247E-1,1.5212064E3,7.47687E-1,5.446635E2,5.302018E-2,7.9874957E-1,2.9566824E0,1E-45,2.159759E0,1E-45,1.3192567E0,-2.4140868E-2,1.5763361E-2,5.870099E-3,-2.5951841E-3,1.9613858E-3,1.6424188E-2,3.7154477E-2,1.8049315E-2,-2.4803523E-3,-2.7229786E-3,2.0932404E-2,-5.297997E-3,-1.1395771E-2,-1.5696129E-2,-5.1713656E-3],"split_indices":[15,4,15,15,0,15,14,15,10,2,17,4,17,10,0,0,0,0,0,0,0,0,0,0,0,0,0,0,0],"split_type":[0,0,0,0,0,0,0,0,0,0,1,0,1,0,0,0,0,0,0,0,0,0,0,0,0,0,0,0,0],"sum_hessian":[4.0291285E4,2.6002217E4,1.4289068E4,2.2834818E4,3.167399E3,1.1891665E4,2.3974036E3,8.729167E3,1.410565E4,2.4613826E3,7.060164E2,4.8720654E3,7.0195996E3,1.9740082E3,4.2339523E2,1.3080515E3,7.4211157E3,5.0221533E3,9.083497E3,2.1193743E3,3.4200824E2,1.0826727E2,5.9774915E2,4.7952583E3,7.680698E1,4.46184E3,2.5577595E3,1.7021154E3,2.7189282E2],"tree_param":{"num_deleted":"0","num_feature":"18","num_nodes":"29","size_leaf_vector":"1"}},{"base_weights":[-1.5300987E-3,6.457877E-2,-7.964022E-2,1.1492171E-1,2.9653234E-2,-5.8763698E-2,-1.9288367E-1,2.2989747E-1,9.135216E-2,-1.1062746E-2,6.592192E-2,-3.393206E-2,-9.40186E-2,-1.7459036E-1,-3.3058578E-1,3.7571337E-2,1.52309835E-2,2.3000373E-2,6.1720265E-3,-2.4056453E-3,3.8921623E-3,4.4455617E-3,2.3266096E-2,-4.4243135E-3,-5.9245486E-4,-4.0635425E-3,-9.944851E-3,-1.371734E-2,1.4256448E-2,-2.5772912E-2,2.6433151E-2],"categories":[0,1,2,3,5,6,1,4,5,6],"categories_nodes":[3,12],"categories_segments":[0,6],"categories_sizes":[6,4],"default_left":[0,0,0,1,0,0,0,0,0,0,1,1,1,0,0,0,0,0,0,0,0,0,0,0,0,0,0,0,0,0,0],"id":32,"left_children":[1,3,5,7,9,11,13,15,17,19,21,23,25,27,29,-1,-1,-1,-1,-1,-1,-1,-1,-1,-1,-1,-1,-1,-1,-1,-1],"loss_changes":[2.0768076E2,3.828083E1,4.3521606E1,2.405574E1,1.9006836E1,1.36165085E1,6.8999405E0,1.0814934E1,1.4975655E1,7.9226675E0,1.1455437E1,5.8906593E0,9.722641E0,6.85627E0,3.1381073E0,0E0,0E0,0E0,0E0,0E0,0E0,0E0,0E0,0E0,0E0,0E0,0E0,0E0,0E0,0E0,0E0],"parents":[2147483647,0,0,1,1,2,2,3,3,4,4,5,5,6,6,7,7,8,8,9,9,10,10,11,11,12,12,13,13,14,14],"right_children":[2,4,6,8,10,12,14,16,18,20,22,24,26,28,30,-1,-1,-1,-1,-1,-1,-1,-1,-1,-1,-1,-1,-1,-1,-1,-1],"split_conditions":[5.582402E-1,2.7117074E-1,8.934864E-1,1E-45,8.89857E-1,7.47687E-1,9.7895724E-1,3.4577864E-1,-7.651213E2,1.1311624E0,2.8151135E0,9.0775853E-1,1E-45,1.9277582E0,1.7107055E0,3.7571337E-2,1.52309835E-2,2.3000373E-2,6.1720265E-3,-2.4056453E-3,3.8921623E-3,4.4455617E-3,2.3266096E-2,-4.4243135E-3,-5.9245486E-4,-4.0635425E-3,-9.944851E-3,-1.371734E-2,1.4256448E-2,-2.5772912E-2,2.6433151E-2],"split_indices":[15,15,15,17,4,15,15,3,14,3,4,8,17,4,3,0,0,0,0,0,0,0,0,0,0,0,0,0,0,0,0],"split_type":[0,0,0,1,0,0,0,0,0,0,0,0,1,0,0,0,0,0,0,0,0,0,0,0,0,0,0,0,0,0,0],"sum_hessian":[4.0207652E4,2.17773E4,1.8430354E4,8.914628E3,1.2862673E4,1.5568734E4,2.8616184E3,1.5082462E3,7.406382E3,6.0616377E3,6.801035E3,9.141165E3,6.42757E3,2.5372322E3,3.2438617E2,1.3394943E2,1.3742968E3,3.0982184E2,7.09656E3,4.551681E3,1.5099565E3,6.6168267E3,1.8420857E2,4.6907954E3,4.450369E3,3.1222207E3,3.3053489E3,2.490635E3,4.659725E1,3.219754E2,2.4107578E0],"tree_param":{"num_deleted":"0","num_feature":"18","num_nodes":"31","size_leaf_vector":"1"}},{"base_weights":[2.1318696E-3,6.788115E-2,-6.618768E-2,4.9828954E-2,2.1126261E-1,-4.0201657E-2,-1.6170685E-1,1.8247667E-1,3.6839634E-2,1.4964968E-1,3.2047325E-1,-5.096419E-2,2.7345188E-2,-2.0439647E-1,-1.1388421E-1,9.268189E-3,2.3493031E-2,-9.1904023E-4,3.998244E-3,1.5692297E-2,6.3686837E-3,-5.40338E-3,2.704486E-2,-2.5997437E-3,-6.4449105E-3,-3.5143695E-3,6.078048E-3,-1.3744442E-2,-2.4067754E-2,5.8780382E-3,-9.275909E-3],"categories":[],"categories_nodes":[],"categories_segments":[],"categories_sizes":[],"default_left":[0,0,0,0,1,0,0,0,1,0,1,0,1,0,0,0,0,0,0,0,0,0,0,0,0,0,0,0,0,0,0],"id":33,"left_children":[1,3,5,7,9,11,13,15,17,19,21,23,25,27,29,-1,-1,-1,-1,-1,-1,-1,-1,-1,-1,-1,-1,-1,-1,-1,-1],"loss_changes":[1.8063206E2,5.2980408E1,4.891388E1,3.1333805E1,1.5138947E1,1.1283602E1,8.476532E0,1.2258251E1,1.313797E1,5.5122414E0,1.2362244E1,7.594162E0,8.419968E0,5.332741E0,3.527317E0,0E0,0E0,0E0,0E0,0E0,0E0,0E0,0E0,0E0,0E0,0E0,0E0,0E0,0E0,0E0,0E0],"parents":[2147483647,0,0,1,1,2,2,3,3,4,4,5,5,6,6,7,7,8,8,9,9,10,10,11,11,12,12,13,13,14,14],"right_children":[2,4,6,8,10,12,14,16,18,20,22,24,26,28,30,-1,-1,-1,-1,-1,-1,-1,-1,-1,-1,-1,-1,-1,-1,-1,-1],"split_conditions":[5.2794564E-1,1.4967887E0,8.600893E-1,-5.3944556E2,1E0,1.359603E0,1.413136E3,1.0324863E0,7.1454513E-1,1.5886659E3,5.267634E-1,7.47687E-1,8.470337E-1,9.746308E-1,1.7580733E-1,9.268189E-3,2.3493031E-2,-9.1904023E-4,3.998244E-3,1.5692297E-2,6.3686837E-3,-5.40338E-3,2.704486E-2,-2.5997437E-3,-6.4449105E-3,-3.5143695E-3,6.078048E-3,-1.3744442E-2,-2.4067754E-2,5.8780382E-3,-9.275909E-3],"split_indices":[15,4,15,14,6,4,7,2,10,7,10,15,10,15,2,0,0,0,0,0,0,0,0,0,0,0,0,0,0,0,0],"split_type":[0,0,0,0,0,0,0,0,0,0,0,0,0,0,0,0,0,0,0,0,0,0,0,0,0,0,0,0,0,0,0],"sum_hessian":[4.0201117E4,2.048593E4,1.9715188E4,1.8201797E4,2.2841333E3,1.5504991E4,4.210196E3,1.6169069E3,1.658489E4,1.468759E3,8.153743E2,1.33752295E4,2.1297617E3,2.2148093E3,1.9953865E3,1.1128384E3,5.0406848E2,4.1103374E3,1.2474553E4,7.690442E2,6.9971484E2,7.153471E1,7.438396E2,9.049814E3,4.3254155E3,8.9167303E2,1.2380887E3,1.8669491E3,3.478603E2,8.8016594E1,1.9073699E3],"tree_param":{"num_deleted":"0","num_feature":"18","num_nodes":"31","size_leaf_vector":"1"}},{"base_weights":[1.3348362E-3,6.226585E-2,-7.237118E-2,4.6047356E-2,1.8827659E-1,-4.150132E-2,-1.4558771E-1,1.8451504E-1,3.37388E-2,2.40827E-1,3.7673324E-2,-1.0824218E-1,-3.2004043E-2,-1.349627E-1,-3.2050034E-1,8.708586E-3,2.3104282E-2,4.790061E-4,4.9188654E-3,2.0865593E-2,-2.5040866E-3,-3.6017745E-4,1.752471E-2,-1.4253323E-2,-5.150083E-3,-2.8088703E-3,7.255936E-3,-1.2451957E-2,-7.339006E-3,1.5948242E-2,-2.5396066E-2],"categories":[0,2,3,1,2,3,5],"categories_nodes":[4,14],"categories_segments":[0,3],"categories_sizes":[3,4],"default_left":[0,0,0,0,1,0,0,0,0,0,0,0,0,0,1,0,0,0,0,0,0,0,0,0,0,0,0,0,0,0,0],"id":34,"left_children":[1,3,5,7,9,11,13,15,17,19,21,23,25,27,29,-1,-1,-1,-1,-1,-1,-1,-1,-1,-1,-1,-1,-1,-1,-1,-1],"loss_changes":[1.8089085E2,4.5015594E1,4.116593E1,3.327339E1,1.983458E1,8.113081E0,9.80117E0,1.3207108E1,1.54654255E1,1.8267464E1,5.4291544E0,5.075445E0,7.543729E0,5.6953735E0,3.0096645E0,0E0,0E0,0E0,0E0,0E0,0E0,0E0,0E0,0E0,0E0,0E0,0E0,0E0,0E0,0E0,0E0],"parents":[2147483647,0,0,1,1,2,2,3,3,4,4,5,5,6,6,7,7,8,8,9,9,10,10,11,11,12,12,13,13,14,14],"right_children":[2,4,6,8,10,12,14,16,18,20,22,24,26,28,30,-1,-1,-1,-1,-1,-1,-1,-1,-1,-1,-1,-1,-1,-1,-1,-1],"split_conditions":[5.6131965E-1,1.4967887E0,8.343191E-1,6.597091E-2,1E-45,5.399749E-1,9.7895724E-1,9.9859744E-1,8.89857E-1,2.152986E0,2.9566824E0,6.9903976E-1,1.9037643E3,9.4311756E-1,1E-45,8.708586E-3,2.3104282E-2,4.790061E-4,4.9188654E-3,2.0865593E-2,-2.5040866E-3,-3.6017745E-4,1.752471E-2,-1.4253323E-2,-5.150083E-3,-2.8088703E-3,7.255936E-3,-1.2451957E-2,-7.339006E-3,1.5948242E-2,-2.5396066E-2],"split_indices":[15,4,15,15,17,4,15,2,4,9,2,11,7,10,17,0,0,0,0,0,0,0,0,0,0,0,0,0,0,0,0],"split_type":[0,0,0,0,1,0,0,0,0,0,0,0,0,0,1,0,0,0,0,0,0,0,0,0,0,0,0,0,0,0,0],"sum_hessian":[4.0267484E4,2.2044604E4,1.8222883E4,1.9537605E4,2.5069983E3,1.2824517E4,5.3983667E3,1.5885597E3,1.7949045E4,1.8560225E3,6.5097577E2,1.5903591E3,1.1234157E4,5.0985596E3,2.998074E2,1.02018335E3,5.6837634E2,9.597616E3,8.35143E3,1.6419828E3,2.140396E2,5.388783E2,1.12097466E2,5.2019904E2,1.0701602E3,1.0798117E4,4.360394E2,2.8258335E3,2.2727258E3,6.806217E0,2.930012E2],"tree_param":{"num_deleted":"0","num_feature":"18","num_nodes":"31","size_leaf_vector":"1"}},{"base_weights":[1.5324441E-3,6.9268964E-2,-6.0918104E-2,5.407264E-2,2.1914037E-1,-2.4162924E-2,-1.2116606E-1,9.623945E-2,2.4662348E-2,1.2325674E-1,3.6405575E-1,-7.820767E-2,-4.863873E-3,-1.02633774E-1,-2.1487638E-1,4.373615E-3,1.067055E-2,-3.5535003E-4,4.229404E-3,7.84217E-3,3.938096E-2,2.0331968E-2,4.2847056E-2,-1.3147315E-2,-4.5863665E-3,-6.301785E-4,1.888959E-2,-8.118343E-3,1.15127135E-2,-1.6912403E-2,2.4551604E-2],"categories":[],"categories_nodes":[],"categories_segments":[],"categories_sizes":[],"default_left":[0,0,0,0,1,1,0,0,0,0,0,1,0,0,0,0,0,0,0,0,0,0,0,0,0,0,0,0,0,0,0],"id":35,"left_children":[1,3,5,7,9,11,13,15,17,19,21,23,25,27,29,-1,-1,-1,-1,-1,-1,-1,-1,-1,-1,-1,-1,-1,-1,-1,-1],"loss_changes":[1.6850963E2,4.3453865E1,4.5880493E1,2.1511814E1,2.416748E1,1.3431817E1,1.3512939E1,1.2283646E1,9.436196E0,7.9087086E0,1.2579582E1,5.611145E0,8.465688E0,8.40509E0,6.873745E0,0E0,0E0,0E0,0E0,0E0,0E0,0E0,0E0,0E0,0E0,0E0,0E0,0E0,0E0,0E0,0E0],"parents":[2147483647,0,0,1,1,2,2,3,3,4,4,5,5,6,6,7,7,8,8,9,9,10,10,11,11,12,12,13,13,14,14],"right_children":[2,4,6,8,10,12,14,16,18,20,22,24,26,28,30,-1,-1,-1,-1,-1,-1,-1,-1,-1,-1,-1,-1,-1,-1,-1,-1],"split_conditions":[5.0114596E-1,1.5976484E0,7.710144E-1,2.3871191E-1,1E0,6.8942827E-1,9.36457E-1,7.777778E-1,8.89857E-1,3.922949E-1,2.9566824E0,5.332251E-1,2.2812488E0,2.023613E0,2.3816178E0,4.373615E-3,1.067055E-2,-3.5535003E-4,4.229404E-3,7.84217E-3,3.938096E-2,2.0331968E-2,4.2847056E-2,-1.3147315E-2,-4.5863665E-3,-6.301785E-4,1.888959E-2,-8.118343E-3,1.15127135E-2,-1.6912403E-2,2.4551604E-2],"split_indices":[15,4,15,15,6,11,15,6,4,5,2,4,8,4,4,0,0,0,0,0,0,0,0,0,0,0,0,0,0,0,0],"split_type":[0,0,0,0,0,0,0,0,0,0,0,0,0,0,0,0,0,0,0,0,0,0,0,0,0,0,0,0,0,0,0],"sum_hessian":[3.98239E4,1.9103174E4,2.0720725E4,1.735142E4,1.7517535E3,1.2874358E4,7.846367E3,7.124301E3,1.0227119E4,1.0604492E3,6.913044E2,3.383157E3,9.491201E3,6.5606387E3,1.2857283E3,3.86381E3,3.2604907E3,5.2859414E3,4.941178E3,1.0181498E3,4.2299416E1,4.8103064E2,2.1027374E2,5.1180066E2,2.8713562E3,9.368566E3,1.2263539E2,6.438718E3,1.219211E2,1.2672593E3,1.8469059E1],"tree_param":{"num_deleted":"0","num_feature":"18","num_nodes":"31","size_leaf_vector":"1"}},{"base_weights":[-2.286705E-3,5.1497646E-2,-6.867025E-2,3.5986137E-2,1.4247699E-1,-4.4465255E-2,-1.5120721E-1,1.129807E-1,2.173359E-2,9.6293226E-2,2.2971615E-1,-3.100051E-2,-8.070741E-2,-1.1900247E-1,-2.2023232E-1,1.3778899E-2,3.4330836E-3,4.706004E-4,4.0658955E-3,2.0335685E-3,1.0469425E-2,4.135347E-2,1.2743278E-2,-5.55334E-3,-1.235531E-3,-8.455454E-3,-3.0883516E-3,-1.4748954E-2,-7.549645E-3,-1.4736017E-2,-2.5450965E-2],"categories":[0,1,2,3,6],"categories_nodes":[7],"categories_segments":[0],"categories_sizes":[5],"default_left":[0,0,0,0,1,0,0,1,0,1,0,1,0,0,0,0,0,0,0,0,0,0,0,0,0,0,0,0,0,0,0],"id":36,"left_children":[1,3,5,7,9,11,13,15,17,19,21,23,25,27,29,-1,-1,-1,-1,-1,-1,-1,-1,-1,-1,-1,-1,-1,-1,-1,-1],"loss_changes":[1.4316667E2,3.1231903E1,3.581697E1,2.0761936E1,1.2868721E1,6.761875E0,8.894974E0,1.3843105E1,7.961304E0,6.2154427E0,2.101891E1,6.3065863E0,4.661051E0,3.9261246E0,3.3895836E0,0E0,0E0,0E0,0E0,0E0,0E0,0E0,0E0,0E0,0E0,0E0,0E0,0E0,0E0,0E0,0E0],"parents":[2147483647,0,0,1,1,2,2,3,3,4,4,5,5,6,6,7,7,8,8,9,9,10,10,11,11,12,12,13,13,14,14],"right_children":[2,4,6,8,10,12,14,16,18,20,22,24,26,28,30,-1,-1,-1,-1,-1,-1,-1,-1,-1,-1,-1,-1,-1,-1,-1,-1],"split_conditions":[5.582402E-1,1E0,8.600893E-1,1.2148442E-1,1.1448938E0,7.710144E-1,9.36457E-1,1E-45,1.0771002E0,7.1428573E-1,2.3550622E-1,6.7920893E-1,9.445653E-1,1.5527819E3,9.8323184E-1,1.3778899E-2,3.4330836E-3,4.706004E-4,4.0658955E-3,2.0335685E-3,1.0469425E-2,4.135347E-2,1.2743278E-2,-5.55334E-3,-1.235531E-3,-8.455454E-3,-3.0883516E-3,-1.4748954E-2,-7.549645E-3,-1.4736017E-2,-2.5450965E-2],"split_indices":[15,6,15,15,10,15,15,17,3,13,1,11,1,0,15,0,0,0,0,0,0,0,0,0,0,0,0,0,0,0,0],"split_type":[0,0,0,0,0,0,0,1,0,0,0,0,0,0,0,0,0,0,0,0,0,0,0,0,0,0,0,0,0,0,0],"sum_hessian":[4.008713E4,2.2145758E4,1.7941373E4,1.892666E4,3.219097E3,1.3879606E4,4.0617666E3,2.950244E3,1.5976416E4,2.1125098E3,1.1065872E3,1.0127421E4,3.7521858E3,2.77996E3,1.2818065E3,1.4472587E3,1.5029854E3,1.0785053E4,5.1913633E3,8.057684E2,1.3067415E3,1.7033038E2,9.3625684E2,2.582622E3,7.544799E3,2.092532E3,1.6596538E3,5.41632E2,2.2383281E3,1.0690603E3,2.1274623E2],"tree_param":{"num_deleted":"0","num_feature":"18","num_nodes":"31","size_leaf_vector":"1"}},{"base_weights":[-1.817935E-3,4.398589E-2,-2.337506E-2,3.3903565E-2,3.1631562E-1,-5.2768625E-2,1.9550797E-2,1.251224E-2,8.053659E-2,5.4463685E-1,1.5847632E-1,-9.5677316E-2,-2.8935615E-2,7.243274E-3,7.952689E-2,2.1994773E-4,8.1340745E-3,3.7039123E-3,1.1637518E-2,8.554089E-4,5.281715E-2,-5.590178E-3,1.935038E-2,-1.3819903E-2,-5.9686336E-3,-9.030106E-3,-1.4231275E-3,-2.683991E-4,4.701352E-3,-9.615219E-3,6.822553E-3],"categories":[],"categories_nodes":[],"categories_segments":[],"categories_sizes":[],"default_left":[0,0,0,0,0,0,1,1,1,0,0,0,0,0,0,0,0,0,0,0,0,0,0,0,0,0,0,0,0,0,0],"id":37,"left_children":[1,3,5,7,9,11,13,15,17,19,21,23,25,27,29,-1,-1,-1,-1,-1,-1,-1,-1,-1,-1,-1,-1,-1,-1,-1,-1],"loss_changes":[3.9689453E1,3.526028E1,3.4491737E1,1.2374632E1,1.604367E1,1.6576572E1,8.199859E0,7.785096E0,9.000519E0,1.5925705E1,6.4641323E0,8.315605E0,9.53058E0,5.4887195E0,4.32936E0,0E0,0E0,0E0,0E0,0E0,0E0,0E0,0E0,0E0,0E0,0E0,0E0,0E0,0E0,0E0,0E0],"parents":[2147483647,0,0,1,1,2,2,3,3,4,4,5,5,6,6,7,7,8,8,9,9,10,10,11,11,12,12,13,13,14,14],"right_children":[2,4,6,8,10,12,14,16,18,20,22,24,26,28,30,-1,-1,-1,-1,-1,-1,-1,-1,-1,-1,-1,-1,-1,-1,-1,-1],"split_conditions":[1E0,2.9566824E0,1.6809144E3,1.1334014E0,4.5308843E-1,7.338541E-1,1.237597E0,1.3901598E0,1.2274263E0,1.2565437E3,7.1428573E-1,1.3238419E3,1.2098417E3,1.9481914E3,4.5136476E-1,2.1994773E-4,8.1340745E-3,3.7039123E-3,1.1637518E-2,8.554089E-4,5.281715E-2,-5.590178E-3,1.935038E-2,-1.3819903E-2,-5.9686336E-3,-9.030106E-3,-1.4231275E-3,-2.683991E-4,4.701352E-3,-9.615219E-3,6.822553E-3],"split_indices":[16,2,7,4,3,2,11,10,8,7,13,7,7,7,4,0,0,0,0,0,0,0,0,0,0,0,0,0,0,0,0],"split_type":[0,0,0,0,0,0,0,0,0,0,0,0,0,0,0,0,0,0,0,0,0,0,0,0,0,0,0,0,0,0,0],"sum_hessian":[4.0184562E4,1.2858166E4,2.7326396E4,1.2405181E4,4.5298486E2,1.6219072E4,1.1107323E4,8.509037E3,3.8961436E3,1.7955391E2,2.7343094E2,5.7857036E3,1.0433369E4,9.22131E3,1.8860135E3,7.7356978E3,7.733394E2,2.7373943E3,1.1587494E3,4.3188946E1,1.3636496E2,8.1454155E1,1.919768E2,9.1257104E2,4.873133E3,1.0365133E3,9.396855E3,7.7135957E3,1.507714E3,9.13237E1,1.79469E3],"tree_param":{"num_deleted":"0","num_feature":"18","num_nodes":"31","size_leaf_vector":"1"}},{"base_weights":[3.4210004E-3,4.748649E-2,-7.990332E-2,3.3329118E-2,1.559782E-1,-5.8854394E-2,-1.6168623E-1,1.0731853E-1,1.5893932E-2,2.06863E-1,1.1667557E-2,-6.245224E-2,1.991997E-1,-1.7821324E-1,-2.967823E-2,6.4458973E-3,1.688766E-2,-6.566577E-4,3.0565183E-3,1.7578484E-2,-4.2889593E-3,-4.6095676E-3,1.00682955E-2,-5.5814525E-3,-1.1144852E-3,2.868927E-2,-5.4346974E-4,-1.4533357E-2,-3.5737762E-3,-6.2929345E-3,1.899731E-2],"categories":[0,2,3,0,1,2,3,5,6],"categories_nodes":[4,12],"categories_segments":[0,3],"categories_sizes":[3,6],"default_left":[0,0,0,0,1,1,1,1,0,1,0,0,1,0,0,0,0,0,0,0,0,0,0,0,0,0,0,0,0,0,0],"id":38,"left_children":[1,3,5,7,9,11,13,15,17,19,21,23,25,27,29,-1,-1,-1,-1,-1,-1,-1,-1,-1,-1,-1,-1,-1,-1,-1,-1],"loss_changes":[1.4754036E2,4.0340324E1,2.3874413E1,2.9991364E1,2.2253426E1,1.0341198E1,6.1707764E0,1.1200382E1,1.1401138E1,1.5507179E1,7.101677E0,5.989834E0,5.7492895E0,4.7064133E0,5.0002627E0,0E0,0E0,0E0,0E0,0E0,0E0,0E0,0E0,0E0,0E0,0E0,0E0,0E0,0E0,0E0,0E0],"parents":[2147483647,0,0,1,1,2,2,3,3,4,4,5,5,6,6,7,7,8,8,9,9,10,10,11,11,12,12,13,13,14,14],"right_children":[2,4,6,8,10,12,14,16,18,20,22,24,26,28,30,-1,-1,-1,-1,-1,-1,-1,-1,-1,-1,-1,-1,-1,-1,-1,-1],"split_conditions":[6.4260304E-1,1.4967887E0,8.881423E-1,1.5884796E-1,1E-45,2.159759E0,1.5673398E0,1.3100095E0,8.6370224E-1,2.152986E0,-1.13337055E-1,8.75E-1,1E-45,1.4510502E0,1.8284271E0,6.4458973E-3,1.688766E-2,-6.566577E-4,3.0565183E-3,1.7578484E-2,-4.2889593E-3,-4.6095676E-3,1.00682955E-2,-5.5814525E-3,-1.1144852E-3,2.868927E-2,-5.4346974E-4,-1.4533357E-2,-3.5737762E-3,-6.2929345E-3,1.899731E-2],"split_indices":[15,4,15,15,17,4,8,8,4,9,5,6,17,4,10,0,0,0,0,0,0,0,0,0,0,0,0,0,0,0,0],"split_type":[0,0,0,0,1,0,0,0,0,0,0,0,1,0,0,0,0,0,0,0,0,0,0,0,0,0,0,0,0,0,0],"sum_hessian":[4.0171453E4,2.6277293E4,1.3894161E4,2.3250572E4,3.0267217E3,1.1057772E4,2.8363882E3,4.4285195E3,1.8822053E4,2.235905E3,7.908165E2,1.0909901E4,1.4787108E2,2.5190532E3,3.1733487E2,3.7361995E3,6.923202E2,9.416303E3,9.40575E3,2.0350654E3,2.0083966E2,4.9677325E2,2.940433E2,8.784432E3,2.1254695E3,7.627012E1,7.160097E1,2.2669175E3,2.5213591E2,2.697742E2,4.756066E1],"tree_param":{"num_deleted":"0","num_feature":"18","num_nodes":"31","size_leaf_vector":"1"}},{"base_weights":[6.297583E-4,8.435834E-2,-1.3279902E-2,1.0890847E-1,-3.0178517E-2,-1.5699787E-2,2.8161377E-1,3.294339E-2,1.4489132E-1,-6.615486E-2,7.637241E-2,-4.6360742E-2,5.832208E-3,4.7484425E-1,6.2063113E-2,-5.106164E-3,6.7570223E-3,5.84022E-3,1.6057272E-2,-6.8949945E-3,6.1413315E-3,2.2950422E-2,-2.1996864E-3,-9.434408E-3,-2.9980422E-3,-1.5755037E-3,1.7568172E-3,1.4533383E-2,5.281715E-2,-1.505757E-3,2.9063283E-2],"categories":[2],"categories_nodes":[1],"categories_segments":[0],"categories_sizes":[1],"default_left":[0,1,1,0,1,1,0,0,0,0,1,0,0,0,1,0,0,0,0,0,0,0,0,0,0,0,0,0,0,0,0],"id":39,"left_children":[1,3,5,7,9,11,13,15,17,19,21,23,25,27,29,-1,-1,-1,-1,-1,-1,-1,-1,-1,-1,-1,-1,-1,-1,-1,-1],"loss_changes":[4.6645985E1,1.6062622E1,2.4534584E1,1.2820286E1,3.905683E0,2.249562E1,1.1707415E1,8.679639E0,1.4519524E1,2.867328E0,6.249456E0,7.301178E0,9.335884E0,1.0218475E1,3.6851945E0,0E0,0E0,0E0,0E0,0E0,0E0,0E0,0E0,0E0,0E0,0E0,0E0,0E0,0E0,0E0,0E0],"parents":[2147483647,0,0,1,1,2,2,3,3,4,4,5,5,6,6,7,7,8,8,9,9,10,10,11,11,12,12,13,13,14,14],"right_children":[2,4,6,8,10,12,14,16,18,20,22,24,26,28,30,-1,-1,-1,-1,-1,-1,-1,-1,-1,-1,-1,-1,-1,-1,-1,-1],"split_conditions":[1.2644993E3,1E-45,2.9566824E0,7.77842E-1,1.1738737E0,8.405626E-1,5.351564E-1,-6.099739E-1,1.0226053E0,1.4675578E0,8.523412E-1,3.8535136E-1,7.7250195E-1,1.4387069E3,1.6298556E0,-5.106164E-3,6.7570223E-3,5.84022E-3,1.6057272E-2,-6.8949945E-3,6.1413315E-3,2.2950422E-2,-2.1996864E-3,-9.434408E-3,-2.9980422E-3,-1.5755037E-3,1.7568172E-3,1.4533383E-2,5.281715E-2,-1.505757E-3,2.9063283E-2],"split_indices":[0,17,2,10,3,10,3,12,2,9,9,10,2,0,10,0,0,0,0,0,0,0,0,0,0,0,0,0,0,0,0],"split_type":[0,1,0,0,0,0,0,0,0,0,0,0,0,0,0,0,0,0,0,0,0,0,0,0,0,0,0,0,0,0,0],"sum_hessian":[4.0041016E4,5.700258E3,3.4340758E4,4.694336E3,1.0059217E3,3.4066504E4,2.7425604E2,1.5123181E3,3.1820178E3,7.53594E2,2.5232767E2,1.4051342E4,2.001516E4,1.4241449E2,1.3184154E2,5.4411707E2,9.682011E2,1.6020691E3,1.5799487E3,6.453805E2,1.08213486E2,7.655254E1,1.7577512E2,1.0838394E3,1.2967502E4,7.908512E3,1.2106648E4,7.388753E1,6.852696E1,1.0933356E2,2.250799E1],"tree_param":{"num_deleted":"0","num_feature":"18","num_nodes":"31","size_leaf_vector":"1"}},{"base_weights":[3.0116814E-3,4.39391E-2,-6.9990106E-2,8.594728E-2,1.2620273E-2,-4.63809E-2,-1.3427132E-1,3.5318732E-2,1.2331103E-1,1.881895E-3,8.501868E-2,-5.90379E-2,8.46031E-3,-1.2089411E-1,-2.9625356E-1,5.319438E-3,-4.3357068E-4,1.3115737E-2,6.407284E-3,-7.5269784E-3,9.2177035E-4,1.1764044E-3,1.3023845E-2,-4.928994E-3,5.7116095E-3,5.281715E-2,2.8071762E-4,-9.657941E-3,5.174158E-3,-3.2244415E-3,-2.439684E-2],"categories":[],"categories_nodes":[],"categories_segments":[],"categories_sizes":[],"default_left":[0,0,0,0,0,1,0,0,0,1,0,0,0,0,0,0,0,0,0,0,0,0,0,0,0,0,0,0,0,0,0],"id":40,"left_children":[1,3,5,7,9,11,13,15,17,19,21,23,25,27,29,-1,-1,-1,-1,-1,-1,-1,-1,-1,-1,-1,-1,-1,-1,-1,-1],"loss_changes":[1.2073559E2,3.405992E1,2.1996223E1,2.0894203E1,1.1536588E1,7.378422E0,8.243118E0,6.7973905E0,1.2253227E1,1.3587577E1,1.1640846E1,7.341774E0,6.9768667E0,4.9072E0,1.9373112E0,0E0,0E0,0E0,0E0,0E0,0E0,0E0,0E0,0E0,0E0,0E0,0E0,0E0,0E0,0E0,0E0],"parents":[2147483647,0,0,1,1,2,2,3,3,4,4,5,5,6,6,7,7,8,8,9,9,10,10,11,11,12,12,13,13,14,14],"right_children":[2,4,6,8,10,12,14,16,18,20,22,24,26,28,30,-1,-1,-1,-1,-1,-1,-1,-1,-1,-1,-1,-1,-1,-1,-1,-1],"split_conditions":[6.307562E-1,3.1166634E-1,8.6255944E-1,8.6370224E-1,1.4399678E0,8.5714287E-1,9.7895724E-1,9.0597737E-1,1E0,4.7663128E-1,-3.7264636E-1,1.8676388E3,8.75E-1,1.7606549E0,5.276093E-1,5.319438E-3,-4.3357068E-4,1.3115737E-2,6.407284E-3,-7.5269784E-3,9.2177035E-4,1.1764044E-3,1.3023845E-2,-4.928994E-3,5.7116095E-3,5.281715E-2,2.8071762E-4,-9.657941E-3,5.174158E-3,-3.2244415E-3,-2.439684E-2],"split_indices":[15,15,15,4,4,6,15,11,16,11,5,7,6,4,4,0,0,0,0,0,0,0,0,0,0,0,0,0,0,0,0],"split_type":[0,0,0,0,0,0,0,0,0,0,0,0,0,0,0,0,0,0,0,0,0,0,0,0,0,0,0,0,0,0,0],"sum_hessian":[4.0398527E4,2.588737E4,1.451116E4,1.1052634E4,1.4834734E4,1.0620196E4,3.8909636E3,4.6978447E3,6.3547896E3,1.2923598E4,1.9111367E3,8.628391E3,1.9918057E3,3.603161E3,2.8780283E2,2.5280254E3,2.1698193E3,2.7356746E3,3.6191147E3,1.1883168E3,1.173528E4,1.0697734E3,8.413633E2,8.246452E3,3.8193854E2,7.0608363E0,1.9847448E3,3.474672E3,1.2848874E2,2.9170115E1,2.5863272E2],"tree_param":{"num_deleted":"0","num_feature":"18","num_nodes":"31","size_leaf_vector":"1"}},{"base_weights":[-1.2318236E-3,5.0246038E-2,-5.216988E-2,4.6027802E-2,2.989777E-1,-3.2198023E-2,-1.3606624E-1,7.070953E-2,1.5743718E-2,-5.0717676E-3,4.1645855E-1,-1.2905589E-2,-6.527805E-2,-1.2528203E-1,-2.5275076E-2,2.5688263E-3,7.6243626E-3,3.3048398E-3,-9.522915E-4,4.25267E-2,6.3123438E-3,-2.3071344E-3,2.513852E-3,-3.29296E-3,-8.113421E-3,-1.1891083E-2,-6.921469E-3],"categories":[0,1,5,6,0,1,2],"categories_nodes":[5,8],"categories_segments":[0,4],"categories_sizes":[4,3],"default_left":[0,1,0,0,0,1,0,1,1,0,0,0,0,0,0,0,0,0,0,0,0,0,0,0,0,0,0],"id":41,"left_children":[1,3,5,7,9,11,13,15,17,-1,19,21,23,25,-1,-1,-1,-1,-1,-1,-1,-1,-1,-1,-1,-1,-1],"loss_changes":[1.0554054E2,2.0926708E1,3.3873173E1,1.47123375E1,1.4474525E1,1.0428453E1,8.106003E0,1.2046814E1,7.045454E0,0E0,1.2114941E1,8.445725E0,5.477482E0,3.9273872E0,0E0,0E0,0E0,0E0,0E0,0E0,0E0,0E0,0E0,0E0,0E0,0E0,0E0],"parents":[2147483647,0,0,1,1,2,2,3,3,4,4,5,5,6,6,7,7,8,8,10,10,11,11,12,12,13,13],"right_children":[2,4,6,8,10,12,14,16,18,-1,20,22,24,26,-1,-1,-1,-1,-1,-1,-1,-1,-1,-1,-1,-1,-1],"split_conditions":[5.0432134E-1,2.9566824E0,8.6255944E-1,3.1166634E-1,1.4448264E3,1E-45,9.8323184E-1,8.386298E-1,1E-45,-5.0717676E-3,5.239195E-1,1.2309933E0,7.47687E-1,1.421428E3,-2.5275076E-2,2.5688263E-3,7.6243626E-3,3.3048398E-3,-9.522915E-4,4.25267E-2,6.3123438E-3,-2.3071344E-3,2.513852E-3,-3.29296E-3,-8.113421E-3,-1.1891083E-2,-6.921469E-3],"split_indices":[15,2,15,15,7,17,15,2,17,0,3,2,15,7,0,0,0,0,0,0,0,0,0,0,0,0,0],"split_type":[0,0,0,0,0,1,0,0,1,0,0,0,0,0,0,0,0,0,0,0,0,0,0,0,0,0,0],"sum_hessian":[4.0237945E4,2.0012969E4,2.0224977E4,1.9685744E4,3.272258E2,1.6342351E4,3.8826257E3,1.0841989E4,8.843754E3,8.0061295E1,2.4716449E2,1.032723E4,6.01512E3,3.6915923E3,1.9103339E2,4.914548E3,5.927442E3,4.444524E3,4.3992305E3,1.6869353E2,7.847097E1,7.472338E3,2.854893E3,3.985589E3,2.0295309E3,1.8699128E3,1.8216794E3],"tree_param":{"num_deleted":"0","num_feature":"18","num_nodes":"27","size_leaf_vector":"1"}},{"base_weights":[-1.7715287E-3,3.6649216E-2,-7.167017E-2,2.3075458E-2,1.1909404E-1,-5.6471925E-2,-1.8669142E-1,5.5121277E-2,5.3846464E-4,9.595635E-2,3.55883E-1,-6.741004E-2,1.9645678E-2,-1.6193171E-1,-3.0808467E-1,1.638663E-2,3.6781135E-3,-3.5920534E-3,1.041454E-3,4.2279116E-3,1.4206861E-2,3.9779745E-2,5.6575597E-3,-3.4372131E-3,-7.432303E-3,4.4793175E-3,-3.440477E-3,-1.50661785E-2,-6.75106E-3,-2.485817E-2,2.2224447E-2],"categories":[0,1,5,6],"categories_nodes":[11],"categories_segments":[0],"categories_sizes":[4],"default_left":[0,0,0,0,1,1,0,0,0,1,0,1,0,1,0,0,0,0,0,0,0,0,0,0,0,0,0,0,0,0,0],"id":42,"left_children":[1,3,5,7,9,11,13,15,17,19,21,23,25,27,29,-1,-1,-1,-1,-1,-1,-1,-1,-1,-1,-1,-1,-1,-1,-1,-1],"loss_changes":[1.0770958E2,2.8947983E1,2.480954E1,1.6054308E1,1.9846996E1,1.0475899E1,4.7042313E0,9.4219055E0,8.341712E0,1.2250654E1,1.5348106E1,7.446499E0,4.1203313E0,3.6984177E0,4.0793076E0,0E0,0E0,0E0,0E0,0E0,0E0,0E0,0E0,0E0,0E0,0E0,0E0,0E0,0E0,0E0,0E0],"parents":[2147483647,0,0,1,1,2,2,3,3,4,4,5,5,6,6,7,7,8,8,9,9,10,10,11,11,12,12,13,13,14,14],"right_children":[2,4,6,8,10,12,14,16,18,20,22,24,26,28,30,-1,-1,-1,-1,-1,-1,-1,-1,-1,-1,-1,-1,-1,-1,-1,-1],"split_conditions":[2.6304565E1,1E0,3.4650516E2,-2.0771709E2,2.8151135E0,1.359603E0,5.7947253E2,-7.651213E2,6.5424305E-1,1.1448938E0,3.3069652E-1,1E-45,1.6126178E2,1.0195934E0,1.4827433E0,1.638663E-2,3.6781135E-3,-3.5920534E-3,1.041454E-3,4.2279116E-3,1.4206861E-2,3.9779745E-2,5.6575597E-3,-3.4372131E-3,-7.432303E-3,4.4793175E-3,-3.440477E-3,-1.50661785E-2,-6.75106E-3,-2.485817E-2,2.2224447E-2],"split_indices":[14,6,14,14,4,4,14,14,4,10,1,17,14,10,3,0,0,0,0,0,0,0,0,0,0,0,0,0,0,0,0],"split_type":[0,0,0,0,0,0,0,0,0,0,0,1,0,0,0,0,0,0,0,0,0,0,0,0,0,0,0,0,0,0,0],"sum_hessian":[4.0095914E4,2.587566E4,1.4220253E4,2.2223865E4,3.6517942E3,1.2567934E4,1.6523191E3,9.172796E3,1.3051069E4,3.3338813E3,3.1791284E2,1.09893955E4,1.578538E3,1.3832368E3,2.6908224E2,3.401499E2,8.8326455E3,2.81587E3,1.0235199E4,2.3337722E3,1.0001092E3,1.9442615E2,1.23486694E2,6.461318E3,4.5280776E3,9.8150415E2,5.9703375E2,9.030243E2,4.802126E2,2.6231534E2,6.7668858E0],"tree_param":{"num_deleted":"0","num_feature":"18","num_nodes":"31","size_leaf_vector":"1"}},{"base_weights":[-2.349338E-3,3.1903815E-2,-6.578207E-2,8.338036E-2,1.1696158E-2,-4.762738E-2,-1.580671E-1,1.2858903E-1,7.0013143E-3,8.671866E-3,2.6461947E-1,-3.2398798E-2,-8.215615E-2,-1.7939278E-1,-2.277086E-3,4.4302572E-3,1.1765014E-2,4.015595E-3,-2.9372696E-3,-3.7639312E-4,4.048264E-3,3.3959664E-2,9.463384E-4,-4.0498003E-3,6.264349E-4,-2.5110475E-3,-7.7405325E-3,-1.40031325E-2,1.248796E-2,-8.205525E-3,1.50956465E-2],"categories":[1,2,6,1,5,6,2],"categories_nodes":[3,5,8],"categories_segments":[0,3,6],"categories_sizes":[3,3,1],"default_left":[0,0,0,1,1,1,1,1,1,0,0,0,0,0,0,0,0,0,0,0,0,0,0,0,0,0,0,0,0,0,0],"id":43,"left_children":[1,3,5,7,9,11,13,15,17,19,21,23,25,27,29,-1,-1,-1,-1,-1,-1,-1,-1,-1,-1,-1,-1,-1,-1,-1,-1],"loss_changes":[8.747798E1,2.7189981E1,2.3610126E1,2.5440147E1,1.4352636E1,6.192272E0,7.6997757E0,8.789993E0,5.840487E0,1.1408412E1,1.0333854E1,7.1036043E0,3.5851402E0,4.528122E0,6.257257E0,0E0,0E0,0E0,0E0,0E0,0E0,0E0,0E0,0E0,0E0,0E0,0E0,0E0,0E0,0E0,0E0],"parents":[2147483647,0,0,1,1,2,2,3,3,4,4,5,5,6,6,7,7,8,8,9,9,10,10,11,11,12,12,13,13,14,14],"right_children":[2,4,6,8,10,12,14,16,18,20,22,24,26,28,30,-1,-1,-1,-1,-1,-1,-1,-1,-1,-1,-1,-1,-1,-1,-1,-1],"split_conditions":[2.6304565E1,1.3377968E3,3.0721667E2,1E-45,2.9566824E0,1E-45,1.5412751E0,7.77842E-1,1E-45,1.233685E0,5.351564E-1,8E-1,9.306151E1,1.7522943E0,1.4476995E3,4.4302572E-3,1.1765014E-2,4.015595E-3,-2.9372696E-3,-3.7639312E-4,4.048264E-3,3.3959664E-2,9.463384E-4,-4.0498003E-3,6.264349E-4,-2.5110475E-3,-7.7405325E-3,-1.40031325E-2,1.248796E-2,-8.205525E-3,1.50956465E-2],"split_indices":[14,0,14,17,2,17,8,10,17,8,3,6,14,3,7,0,0,0,0,0,0,0,0,0,0,0,0,0,0,0,0],"split_type":[0,0,0,1,0,1,0,0,1,0,0,0,0,0,0,0,0,0,0,0,0,0,0,0,0,0,0,0,0,0,0],"sum_hessian":[4.025003E4,2.6138326E4,1.4111704E4,7.3634253E3,1.8774902E4,1.1799025E4,2.312678E3,4.62316E3,2.7402651E3,1.855877E4,2.1613211E2,8.195372E3,3.6036538E3,2.0334741E3,2.792038E2,1.3050078E3,3.3181523E3,1.3653976E3,1.3748676E3,1.4239366E4,4.3194033E3,1.2199085E2,9.414125E1,5.380976E3,2.8143958E3,1.0666521E3,2.5370017E3,2.000133E3,3.3341045E1,1.8463486E2,9.456894E1],"tree_param":{"num_deleted":"0","num_feature":"18","num_nodes":"31","size_leaf_vector":"1"}},{"base_weights":[2.3812274E-3,6.532529E-2,-3.5474814E-2,5.9662938E-2,3.0304578E-1,-7.4523673E-3,-8.924235E-2,9.2149004E-2,3.9224826E-2,6.879373E-2,4.3352425E-1,-1.9870913E-2,4.5950904E-2,-7.160321E-2,-1.7608604E-1,6.415508E-3,1.9532911E-2,2.5983157E-3,1.572422E-2,-3.5402838E-3,3.971669E-2,2.965416E-3,3.9568968E-2,-6.699561E-3,-8.697651E-4,2.3840035E-3,1.4027809E-2,-1.0177306E-2,-4.4203936E-3,-1.4926054E-2,8.688698E-5],"categories":[],"categories_nodes":[],"categories_segments":[],"categories_sizes":[],"default_left":[0,1,0,0,1,0,0,1,1,1,0,1,1,0,1,0,0,0,0,0,0,0,0,0,0,0,0,0,0,0,0],"id":44,"left_children":[1,3,5,7,9,11,13,15,17,19,21,23,25,27,29,-1,-1,-1,-1,-1,-1,-1,-1,-1,-1,-1,-1,-1,-1,-1,-1],"loss_changes":[9.613309E1,2.029367E1,3.7954575E1,9.810257E0,1.0565575E1,1.099261E1,1.3150887E1,6.6618996E0,7.3302E0,7.1409483E0,7.927883E0,7.726218E0,6.250865E0,5.873478E0,5.599163E0,0E0,0E0,0E0,0E0,0E0,0E0,0E0,0E0,0E0,0E0,0E0,0E0,0E0,0E0,0E0,0E0],"parents":[2147483647,0,0,1,1,2,2,3,3,4,4,5,5,6,6,7,7,8,8,9,9,10,10,11,11,12,12,13,13,14,14],"right_children":[2,4,6,8,10,12,14,16,18,20,22,24,26,28,30,-1,-1,-1,-1,-1,-1,-1,-1,-1,-1,-1,-1,-1,-1,-1,-1],"split_conditions":[3.9725846E-1,2.9566824E0,7.47687E-1,1.3330023E3,8E-1,1.2553217E0,9.277856E-1,2.1810884E0,2.0461833E0,1.6424259E0,6.7509484E-1,3.8481265E-1,1.760228E0,6.430805E-1,1.6128355E0,6.415508E-3,1.9532911E-2,2.5983157E-3,1.572422E-2,-3.5402838E-3,3.971669E-2,2.965416E-3,3.9568968E-2,-6.699561E-3,-8.697651E-4,2.3840035E-3,1.4027809E-2,-1.0177306E-2,-4.4203936E-3,-1.4926054E-2,8.688698E-5],"split_indices":[15,2,15,0,13,3,15,2,1,9,11,9,2,3,8,0,0,0,0,0,0,0,0,0,0,0,0,0,0,0,0],"split_type":[0,0,0,0,0,0,0,0,0,0,0,0,0,0,0,0,0,0,0,0,0,0,0,0,0,0,0,0,0,0,0],"sum_hessian":[4.033334E4,1.5145888E4,2.5187451E4,1.4800346E4,3.4554184E2,1.6562045E4,8.625407E3,5.707982E3,9.092364E3,1.2666802E2,2.1887381E2,1.34401455E4,3.1218987E3,7.177715E3,1.4476923E3,5.4822217E3,2.2576025E2,8.84862E3,2.4374368E2,1.05105545E2,2.1562479E1,4.2509552E1,1.7636426E2,1.4455731E3,1.1994573E4,2.837707E3,2.841917E2,1.2157885E3,5.9619263E3,1.2889868E3,1.5870547E2],"tree_param":{"num_deleted":"0","num_feature":"18",