{"learner":{"attributes":{"best_iteration":"360","best_score":"0.8498531242876751","scikit_learn":"{\"_estimator_type\": \"regressor\"}"},"feature_names":["home_elo","home_gf_adj5","home_ga_adj5","home_gf_adj10","home_ga_adj10","home_form5_perf","home_comp_share10","away_elo","away_gf_adj5","away_ga_adj5","away_gf_adj10","away_ga_adj10","away_form5_perf","away_comp_share10","elo_diff","elo_expected_home","true_home_advantage","match_type"],"feature_types":["float","float","float","float","float","float","float","float","float","float","float","float","float","float","float","float","int","c"],"gradient_booster":{"model":{"cats":{"enc":[{"offsets":[],"values":[]},{"offsets":[],"values":[]},{"offsets":[],"values":[]},{"offsets":[],"values":[]},{"offsets":[],"values":[]},{"offsets":[],"values":[]},{"offsets":[],"values":[]},{"offsets":[],"values":[]},{"offsets":[],"values":[]},{"offsets":[],"values":[]},{"offsets":[],"values":[]},{"offsets":[],"values":[]},{"offsets":[],"values":[]},{"offsets":[],"values":[]},{"offsets":[],"values":[]},{"offsets":[],"values":[]},{"offsets":[],"values":[]},{"offsets":[0,11,32,40,54,59,71,80],"values":[99,111,110,116,105,110,101,110,116,97,108,99,111,110,116,105,110,101,110,116,97,108,95,113,117,97,108,105,102,105,101,114,102,114,105,101,110,100,108,121,110,97,116,105,111,110,115,95,108,101,97,103,117,101,111,116,104,101,114,119,99,95,113,117,97,108,105,102,105,101,114,119,111,114,108,100,95,99,117,112]}],"feature_segments":[0,0,0,0,0,0,0,0,0,0,0,0,0,0,0,0,0,0,7],"sorted_idx":[0,1,2,3,4,5,6]},"gbtree_model_param":{"num_parallel_tree":"1","num_trees":"411"},"iteration_indptr":[0,1,2,3,4,5,6,7,8,9,10,11,12,13,14,15,16,17,18,19,20,21,22,23,24,25,26,27,28,29,30,31,32,33,34,35,36,37,38,39,40,41,42,43,44,45,46,47,48,49,50,51,52,53,54,55,56,57,58,59,60,61,62,63,64,65,66,67,68,69,70,71,72,73,74,75,76,77,78,79,80,81,82,83,84,85,86,87,88,89,90,91,92,93,94,95,96,97,98,99,100,101,102,103,104,105,106,107,108,109,110,111,112,113,114,115,116,117,118,119,120,121,122,123,124,125,126,127,128,129,130,131,132,133,134,135,136,137,138,139,140,141,142,143,144,145,146,147,148,149,150,151,152,153,154,155,156,157,158,159,160,161,162,163,164,165,166,167,168,169,170,171,172,173,174,175,176,177,178,179,180,181,182,183,184,185,186,187,188,189,190,191,192,193,194,195,196,197,198,199,200,201,202,203,204,205,206,207,208,209,210,211,212,213,214,215,216,217,218,219,220,221,222,223,224,225,226,227,228,229,230,231,232,233,234,235,236,237,238,239,240,241,242,243,244,245,246,247,248,249,250,251,252,253,254,255,256,257,258,259,260,261,262,263,264,265,266,267,268,269,270,271,272,273,274,275,276,277,278,279,280,281,282,283,284,285,286,287,288,289,290,291,292,293,294,295,296,297,298,299,300,301,302,303,304,305,306,307,308,309,310,311,312,313,314,315,316,317,318,319,320,321,322,323,324,325,326,327,328,329,330,331,332,333,334,335,336,337,338,339,340,341,342,343,344,345,346,347,348,349,350,351,352,353,354,355,356,357,358,359,360,361,362,363,364,365,366,367,368,369,370,371,372,373,374,375,376,377,378,379,380,381,382,383,384,385,386,387,388,389,390,391,392,393,394,395,396,397,398,399,400,401,402,403,404,405,406,407,408,409,410,411],"tree_info":[0,0,0,0,0,0,0,0,0,0,0,0,0,0,0,0,0,0,0,0,0,0,0,0,0,0,0,0,0,0,0,0,0,0,0,0,0,0,0,0,0,0,0,0,0,0,0,0,0,0,0,0,0,0,0,0,0,0,0,0,0,0,0,0,0,0,0,0,0,0,0,0,0,0,0,0,0,0,0,0,0,0,0,0,0,0,0,0,0,0,0,0,0,0,0,0,0,0,0,0,0,0,0,0,0,0,0,0,0,0,0,0,0,0,0,0,0,0,0,0,0,0,0,0,0,0,0,0,0,0,0,0,0,0,0,0,0,0,0,0,0,0,0,0,0,0,0,0,0,0,0,0,0,0,0,0,0,0,0,0,0,0,0,0,0,0,0,0,0,0,0,0,0,0,0,0,0,0,0,0,0,0,0,0,0,0,0,0,0,0,0,0,0,0,0,0,0,0,0,0,0,0,0,0,0,0,0,0,0,0,0,0,0,0,0,0,0,0,0,0,0,0,0,0,0,0,0,0,0,0,0,0,0,0,0,0,0,0,0,0,0,0,0,0,0,0,0,0,0,0,0,0,0,0,0,0,0,0,0,0,0,0,0,0,0,0,0,0,0,0,0,0,0,0,0,0,0,0,0,0,0,0,0,0,0,0,0,0,0,0,0,0,0,0,0,0,0,0,0,0,0,0,0,0,0,0,0,0,0,0,0,0,0,0,0,0,0,0,0,0,0,0,0,0,0,0,0,0,0,0,0,0,0,0,0,0,0,0,0,0,0,0,0,0,0,0,0,0,0,0,0,0,0,0,0,0,0,0,0,0,0,0,0,0,0,0,0,0,0,0,0,0,0,0,0,0,0,0,0,0,0,0,0,0,0,0,0,0,0,0,0,0,0,0,0,0,0,0,0,0,0,0,0,0,0,0,0,0,0,0,0],"trees":[{"base_weights":[-3.4690625E-3,3.9018553E-1,-1.2587042E-1,7E-1,2.6976052E-1,-2.8964527E-2,-2.4453714E-1,7E-1,5.09367E-1,2.2503081E-1,7E-1,-3.847085E-2,7E-1,-2.015678E-1,-3.3506015E-1,8.273853E-3,3.5E-2,2.0434216E-2,3.5E-2,2.0430466E-2,9.188977E-3,3.5E-2,-2.3466805E-3,3.3170208E-3,-4.451505E-3,3.5E-2,1.0342262E-2,-1.0516654E-2,3.0658196E-3,-1.7363494E-2,-7.854744E-3],"categories":[0,1,2,6],"categories_nodes":[3],"categories_segments":[0],"categories_sizes":[4],"default_left":[0,0,0,1,1,1,0,0,0,0,0,0,0,0,1,0,0,0,0,0,0,0,0,0,0,0,0,0,0,0,0],"id":0,"left_children":[1,3,5,7,9,11,13,15,17,19,21,23,25,27,29,-1,-1,-1,-1,-1,-1,-1,-1,-1,-1,-1,-1,-1,-1,-1,-1],"loss_changes":[1.139822E3,2.3111841E2,2.0749988E2,2.6875244E1,1.4518451E2,7.076262E1,3.148404E1,7.4921875E0,1.7189072E1,3.0667877E1,6.3299103E0,5.19954E1,1.5585556E1,1.2693314E1,5.6156006E0,0E0,0E0,0E0,0E0,0E0,0E0,0E0,0E0,0E0,0E0,0E0,0E0,0E0,0E0,0E0,0E0],"parents":[2147483647,0,0,1,1,2,2,3,3,4,4,5,5,6,6,7,7,8,8,9,9,10,10,11,11,12,12,13,13,14,14],"right_children":[2,4,6,8,10,12,14,16,18,20,22,24,26,28,30,-1,-1,-1,-1,-1,-1,-1,-1,-1,-1,-1,-1,-1,-1,-1,-1],"split_conditions":[3.9287025E-1,1.5796848E-1,7.460203E-1,1E-45,2.0750558E0,2.2702222E0,9.031085E-1,5.044737E-1,1.0327967E0,2.0758907E-1,3.1478174E0,5.2425224E-1,-3.1174007E-1,1.7726156E0,1.5466374E0,8.273853E-3,3.5E-2,2.0434216E-2,3.5E-2,2.0430466E-2,9.188977E-3,3.5E-2,-2.3466805E-3,3.3170208E-3,-4.451505E-3,3.5E-2,1.0342262E-2,-1.0516654E-2,3.0658196E-3,-1.7363494E-2,-7.854744E-3],"split_indices":[15,15,15,17,4,4,15,4,2,15,9,15,12,4,4,0,0,0,0,0,0,0,0,0,0,0,0,0,0,0,0],"split_type":[0,0,0,1,0,0,0,0,0,0,0,0,0,0,0,0,0,0,0,0,0,0,0,0,0,0,0,0,0,0,0],"sum_hessian":[2.365366E4,5.609803E3,1.8043855E4,1.4501532E3,4.15965E3,9.933325E3,8.1105317E3,6.9813873E2,7.520144E2,4.058633E3,1.0101686E2,9.809859E3,1.2346506E2,5.502052E3,2.60848E3,2.693783E1,6.712009E2,5.2977734E2,2.2223709E2,7.4303516E2,3.315598E3,8.979277E1,1.1224096E1,3.1921328E3,6.617727E3,5.83653E1,6.5099754E1,5.324711E3,1.7734071E2,2.4401184E3,1.6836143E2],"tree_param":{"num_deleted":"0","num_feature":"18","num_nodes":"31","size_leaf_vector":"1"}},{"base_weights":[2.5763928E-3,4.2201552E-1,-1.08661465E-1,6.9556546E-1,2.811123E-1,-1.1151495E-2,-2.386799E-1,4.4025812E-1,7E-1,2.4544215E-1,7E-1,-2.1363616E-2,6.7757106E-1,-2.0000932E-1,-3.252143E-1,1.3204006E-2,3.5E-2,3.5E-2,1.9925646E-2,1.9848341E-2,8.330712E-3,3.5E-2,1.1067079E-2,3.878422E-3,-3.9431355E-3,3.5E-2,-6.397041E-4,-1.0513403E-2,4.403998E-3,-1.679806E-2,-7.508822E-3],"categories":[0,2,6],"categories_nodes":[8],"categories_segments":[0],"categories_sizes":[3],"default_left":[0,0,0,0,1,1,0,0,1,0,0,0,0,0,1,0,0,0,0,0,0,0,0,0,0,0,0,0,0,0,0],"id":1,"left_children":[1,3,5,7,9,11,13,15,17,19,21,23,25,27,29,-1,-1,-1,-1,-1,-1,-1,-1,-1,-1,-1,-1,-1,-1,-1,-1],"loss_changes":[1.11063E3,1.921258E2,2.3852617E2,4.812195E1,8.36597E1,7.563833E1,2.6916473E1,4.142209E1,1.1238403E1,3.8220398E1,4.45549E0,6.0282085E1,1.0454407E1,1.6495941E1,4.6311646E0,0E0,0E0,0E0,0E0,0E0,0E0,0E0,0E0,0E0,0E0,0E0,0E0,0E0,0E0,0E0,0E0],"parents":[2147483647,0,0,1,1,2,2,3,3,4,4,5,5,6,6,7,7,8,8,9,9,10,10,11,11,12,12,13,13,14,14],"right_children":[2,4,6,8,10,12,14,16,18,20,22,24,26,28,30,-1,-1,-1,-1,-1,-1,-1,-1,-1,-1,-1,-1,-1,-1,-1,-1],"split_conditions":[3.564423E-1,1.318405E3,7.4392474E-1,9.0856E-1,1.6943887E0,2.2702222E0,9.031085E-1,1.6804905E3,1E-45,2.0758907E-1,1.5371134E3,5.2060425E-1,1.489084E3,1.7726156E0,1.5466374E0,1.3204006E-2,3.5E-2,3.5E-2,1.9925646E-2,1.9848341E-2,8.330712E-3,3.5E-2,1.1067079E-2,3.878422E-3,-3.9431355E-3,3.5E-2,-6.397041E-4,-1.0513403E-2,4.403998E-3,-1.679806E-2,-7.508822E-3],"split_indices":[15,0,15,4,4,4,15,7,17,15,0,15,0,4,4,0,0,0,0,0,0,0,0,0,0,0,0,0,0,0,0],"split_type":[0,0,0,0,0,0,0,0,1,0,0,0,0,0,0,0,0,0,0,0,0,0,0,0,0,0,0,0,0,0,0],"sum_hessian":[2.38019E4,4.98865E3,1.881325E4,1.694672E3,3.293978E3,1.0751231E4,8.0620195E3,7.2003467E2,9.746373E2,3.2044023E3,8.95757E1,1.0595101E4,1.561312E2,5.574287E3,2.4877324E3,4.7555197E2,2.4448271E2,8.46605E2,1.280323E2,1.095183E3,2.1092195E3,6.899051E1,2.0585186E1,3.8942922E3,6.7008076E3,1.3543468E2,2.069652E1,5.382875E3,1.9141196E2,2.3429607E3,1.447716E2],"tree_param":{"num_deleted":"0","num_feature":"18","num_nodes":"31","size_leaf_vector":"1"}},{"base_weights":[-1.4129091E-3,3.8427874E-1,-1.0620347E-1,7E-1,2.920341E-1,1.1169711E-2,-2.0968491E-1,7E-1,4.9033076E-1,2.4786754E-1,7E-1,2.5206183E-3,7E-1,-1.7271182E-1,-3.182403E-1,3.5E-2,1.1758319E-2,3.5E-2,1.8754674E-2,1.8996678E-2,9.65025E-3,3.5E-2,6.269113E-3,3.530637E-3,-2.5709253E-3,3.5E-2,-9.216887E-3,-6.451075E-3,-9.972559E-3,-1.2951873E-2,-1.7806271E-2],"categories":[0,1,2,6],"categories_nodes":[3],"categories_segments":[0],"categories_sizes":[4],"default_left":[0,0,0,1,1,1,0,0,0,0,0,0,0,0,0,0,0,0,0,0,0,0,0,0,0,0,0,0,0,0,0],"id":2,"left_children":[1,3,5,7,9,11,13,15,17,19,21,23,25,27,29,-1,-1,-1,-1,-1,-1,-1,-1,-1,-1,-1,-1,-1,-1,-1,-1],"loss_changes":[9.598717E2,1.5716211E2,2.268314E2,2.4031311E1,1.1991611E2,6.4176125E1,3.9780487E1,4.3810425E0,1.961528E1,2.7708405E1,6.6749725E0,3.1841524E1,5.762932E0,8.625946E0,5.560684E0,0E0,0E0,0E0,0E0,0E0,0E0,0E0,0E0,0E0,0E0,0E0,0E0,0E0,0E0,0E0,0E0],"parents":[2147483647,0,0,1,1,2,2,3,3,4,4,5,5,6,6,7,7,8,8,9,9,10,10,11,11,12,12,13,13,14,14],"right_children":[2,4,6,8,10,12,14,16,18,20,22,24,26,28,30,-1,-1,-1,-1,-1,-1,-1,-1,-1,-1,-1,-1,-1,-1,-1,-1],"split_conditions":[3.564423E-1,1.2046335E-1,6.835425E-1,1E-45,1.9837042E0,2.671313E0,9.031085E-1,1.1235479E0,4.284241E-2,2.0054978E-1,1.7432567E3,5.1796496E-1,-1.3687165E-1,7.69474E-1,9.3597203E-1,3.5E-2,1.1758319E-2,3.5E-2,1.8754674E-2,1.8996678E-2,9.65025E-3,3.5E-2,6.269113E-3,3.530637E-3,-2.5709253E-3,3.5E-2,-9.216887E-3,-6.451075E-3,-9.972559E-3,-1.2951873E-2,-1.7806271E-2],"split_indices":[15,15,15,17,2,2,15,12,15,15,7,15,5,15,15,0,0,0,0,0,0,0,0,0,0,0,0,0,0,0,0],"split_type":[0,0,0,1,0,0,0,0,0,0,0,0,0,0,0,0,0,0,0,0,0,0,0,0,0,0,0,0,0,0,0],"sum_hessian":[2.3747287E4,5.072991E3,1.8674297E4,1.0879156E3,3.9850757E3,8.750261E3,9.924036E3,5.31121E2,5.5679474E2,3.833355E3,1.517205E2,8.667494E3,8.276706E1,7.404659E3,2.5193765E3,5.09577E2,2.1543966E1,1.3505118E2,4.2174356E2,1.1233301E3,2.710025E3,1.3102069E2,2.0699821E1,3.8309893E3,4.836505E3,7.577152E1,6.9955316E0,2.813468E3,4.591191E3,9.8615515E2,1.5332214E3],"tree_param":{"num_deleted":"0","num_feature":"18","num_nodes":"31","size_leaf_vector":"1"}},{"base_weights":[-2.0344426E-4,3.8911462E-1,-1.0390643E-1,3.1731975E-1,7E-1,-1.1921951E-2,-2.3496051E-1,7E-1,2.2619782E-1,7E-1,2.2885743E-1,-2.0682232E-2,6.489552E-1,-1.952518E-1,-3.185814E-1,9.924023E-3,3.5E-2,1.621952E-2,8.5309595E-3,-8.2706325E-3,3.5E-2,-3.2747935E-3,1.6059717E-2,3.0830128E-3,-3.677774E-3,3.5E-2,-5.679933E-3,-1.02220755E-2,3.8392108E-3,-1.6504822E-2,-7.591091E-3],"categories":[],"categories_nodes":[],"categories_segments":[],"categories_sizes":[],"default_left":[0,1,0,0,0,1,0,0,0,0,0,0,0,0,1,0,0,0,0,0,0,0,0,0,0,0,0,0,0,0,0],"id":3,"left_children":[1,3,5,7,9,11,13,15,17,19,21,23,25,27,29,-1,-1,-1,-1,-1,-1,-1,-1,-1,-1,-1,-1,-1,-1,-1,-1],"loss_changes":[9.664274E2,1.6664606E2,2.2786218E2,1.5932962E2,2.352893E1,6.432113E1,2.582254E1,1.669754E1,1.9723312E1,7.4174805E0,2.9620152E0,4.773587E1,1.2088181E1,1.3235733E1,4.7665863E0,0E0,0E0,0E0,0E0,0E0,0E0,0E0,0E0,0E0,0E0,0E0,0E0,0E0,0E0,0E0,0E0],"parents":[2147483647,0,0,1,1,2,2,3,3,4,4,5,5,6,6,7,7,8,8,9,9,10,10,11,11,12,12,13,13,14,14],"right_children":[2,4,6,8,10,12,14,16,18,20,22,24,26,28,30,-1,-1,-1,-1,-1,-1,-1,-1,-1,-1,-1,-1,-1,-1,-1,-1],"split_conditions":[3.4809306E-1,1.3918601E0,7.4840295E-1,-4.465253E2,1.5371134E3,2.2702222E0,9.031085E-1,5.208434E-1,2.0758907E-1,1.1687571E3,1.5899907E3,5.287254E-1,1.590892E3,1.7726156E0,1.4968064E0,9.924023E-3,3.5E-2,1.621952E-2,8.5309595E-3,-8.2706325E-3,3.5E-2,-3.2747935E-3,1.6059717E-2,3.0830128E-3,-3.677774E-3,3.5E-2,-5.679933E-3,-1.02220755E-2,3.8392108E-3,-1.6504822E-2,-7.591091E-3],"split_indices":[15,4,15,14,0,4,15,4,15,7,0,15,7,4,4,0,0,0,0,0,0,0,0,0,0,0,0,0,0,0,0],"split_type":[0,0,0,0,0,0,0,0,0,0,0,0,0,0,0,0,0,0,0,0,0,0,0,0,0,0,0,0,0,0,0],"sum_hessian":[2.3935203E4,5.033997E3,1.8901205E4,4.463276E3,5.707214E2,1.1106703E4,7.794502E3,8.400952E2,3.6231807E3,4.6351627E2,1.0720508E2,1.0962359E4,1.4434325E2,5.2871494E3,2.507353E3,6.733394E1,7.727612E2,1.3078044E3,2.3153762E3,9.558195E0,4.5395807E2,2.5668678E1,8.15364E1,4.2865337E3,6.675826E3,1.2576923E2,1.8574013E1,5.1146196E3,1.725296E2,2.3444824E3,1.6287056E2],"tree_param":{"num_deleted":"0","num_feature":"18","num_nodes":"31","size_leaf_vector":"1"}},{"base_weights":[1.7805845E-3,2.9889277E-1,-1.2148041E-1,5.431017E-1,1.8795373E-1,-2.0023108E-2,-2.1261524E-1,3.936805E-1,7E-1,1.7757751E-1,7E-1,-3.9803743E-2,2.0948483E-1,-1.6415985E-1,-2.9559276E-1,1.5854932E-2,3.5E-2,3.5E-2,1.7923083E-2,1.5301448E-2,5.992324E-3,9.896736E-3,3.5E-2,1.0478278E-3,-3.5146668E-3,7.084248E-3,3.5E-2,-8.75024E-3,1.2879188E-2,-1.3823673E-2,-2.081377E-2],"categories":[0,2,3,6],"categories_nodes":[8],"categories_segments":[0],"categories_sizes":[4],"default_left":[0,0,0,0,1,0,0,0,1,0,0,0,1,1,0,0,0,0,0,0,0,0,0,0,0,0,0,0,0,0,0],"id":4,"left_children":[1,3,5,7,9,11,13,15,17,19,21,23,25,27,29,-1,-1,-1,-1,-1,-1,-1,-1,-1,-1,-1,-1,-1,-1,-1,-1],"loss_changes":[8.664592E2,1.8784631E2,1.5461209E2,8.8831726E1,4.243631E1,3.5936264E1,3.5369965E1,5.208467E1,1.7039886E1,3.5124054E1,2.2308083E0,1.3500764E1,2.3950571E1,2.5492035E1,7.3754272E0,0E0,0E0,0E0,0E0,0E0,0E0,0E0,0E0,0E0,0E0,0E0,0E0,0E0,0E0,0E0,0E0],"parents":[2147483647,0,0,1,1,2,2,3,3,4,4,5,5,6,6,7,7,8,8,9,9,10,10,11,11,12,12,13,13,14,14],"right_children":[2,4,6,8,10,12,14,16,18,20,22,24,26,28,30,-1,-1,-1,-1,-1,-1,-1,-1,-1,-1,-1,-1,-1,-1,-1,-1],"split_conditions":[-1.1229876E2,1.3289508E3,8.983901E1,1.23957E0,2.2702222E0,1.6981459E0,2.676231E2,1.799336E3,1E-45,-2.7544232E2,2.319772E0,-4.205151E1,1.8146482E0,1.7726156E0,5.5639844E2,1.5854932E-2,3.5E-2,3.5E-2,1.7923083E-2,1.5301448E-2,5.992324E-3,9.896736E-3,3.5E-2,1.0478278E-3,-3.5146668E-3,7.084248E-3,3.5E-2,-8.75024E-3,1.2879188E-2,-1.3823673E-2,-2.081377E-2],"split_indices":[14,0,14,2,4,2,14,7,17,14,2,14,8,4,14,0,0,0,0,0,0,0,0,0,0,0,0,0,0,0,0],"split_type":[0,0,0,0,0,0,0,0,1,0,0,0,0,0,0,0,0,0,0,0,0,0,0,0,0,0,0,0,0,0,0],"sum_hessian":[2.3657314E4,6.9363335E3,1.672098E4,2.165514E3,4.7708193E3,7.912965E3,8.808016E3,1.5193286E3,6.461854E2,4.740431E3,3.0388268E1,7.285845E3,6.2711975E2,5.562643E3,3.2453723E3,1.3305939E3,1.887347E2,4.9690527E2,1.4928015E2,1.4685685E3,3.2718625E3,9.793908E0,2.059436E1,2.4345452E3,4.8513003E3,5.6223566E2,6.488405E1,5.423759E3,1.3888454E2,2.804377E3,4.4099542E2],"tree_param":{"num_deleted":"0","num_feature":"18","num_nodes":"31","size_leaf_vector":"1"}},{"base_weights":[2.530487E-4,2.4988312E-1,-1.278315E-1,6.9273645E-1,1.9012927E-1,-3.9039716E-2,-2.149933E-1,7E-1,4.82446E-1,1.603637E-1,7E-1,-4.62034E-2,7E-1,-1.8162577E-1,-3.397154E-1,2.4873512E-2,3.5E-2,3.315934E-2,1.949122E-2,5.8638696E-3,1.3888254E-2,-1.0131243E-2,3.5E-2,-2.9609215E-3,6.0231187E-3,7.5700353E-3,3.5E-2,-9.54424E-3,3.0045572E-3,-1.843793E-2,-1.3907536E-2],"categories":[],"categories_nodes":[],"categories_segments":[],"categories_sizes":[],"default_left":[0,0,0,0,1,1,0,0,0,0,0,0,1,0,0,0,0,0,0,0,0,0,0,0,0,0,0,0,0,0,0],"id":5,"left_children":[1,3,5,7,9,11,13,15,17,19,21,23,25,27,29,-1,-1,-1,-1,-1,-1,-1,-1,-1,-1,-1,-1,-1,-1,-1,-1],"loss_changes":[7.6350055E2,2.1414474E2,1.22128815E2,1.8868927E1,1.6854053E2,4.3153893E1,3.308029E1,6.504059E0,6.606674E0,3.5128662E1,6.429474E0,1.6813484E1,8.100864E0,1.407756E1,2.9008331E0,0E0,0E0,0E0,0E0,0E0,0E0,0E0,0E0,0E0,0E0,0E0,0E0,0E0,0E0,0E0,0E0],"parents":[2147483647,0,0,1,1,2,2,3,3,4,4,5,5,6,6,7,7,8,8,9,9,10,10,11,11,12,12,13,13,14,14],"right_children":[2,4,6,8,10,12,14,16,18,20,22,24,26,28,30,-1,-1,-1,-1,-1,-1,-1,-1,-1,-1,-1,-1,-1,-1,-1,-1],"split_conditions":[-8.3134575E1,-4.465253E2,1.0966486E2,-5.4430914E2,1.9434015E0,2.5958068E0,3.6573514E2,7.720509E-1,-2.2843276E-1,1.1037217E0,9.788351E2,1.5196737E0,8.896068E-1,1.7726156E0,1.3912767E3,2.4873512E-2,3.5E-2,3.315934E-2,1.949122E-2,5.8638696E-3,1.3888254E-2,-1.0131243E-2,3.5E-2,-2.9609215E-3,6.0231187E-3,7.5700353E-3,3.5E-2,-9.54424E-3,3.0045572E-3,-1.843793E-2,-1.3907536E-2],"split_indices":[14,14,14,14,4,4,14,4,5,4,0,4,10,4,7,0,0,0,0,0,0,0,0,0,0,0,0,0,0,0,0],"split_type":[0,0,0,0,0,0,0,0,0,0,0,0,0,0,0,0,0,0,0,0,0,0,0,0,0,0,0,0,0,0,0],"sum_hessian":[2.387698E4,8.096458E3,1.5780522E4,9.6131036E2,7.1351475E3,7.8178853E3,7.9626367E3,5.522146E2,4.0909576E2,6.950067E3,1.8508061E2,7.7468613E3,7.1024086E1,6.2839233E3,1.6787136E3,1.6951018E2,3.827044E2,1.3652408E2,2.725717E2,5.0856367E3,1.8644302E3,7.4929295E0,1.7758768E2,7.186322E3,5.605394E2,2.754473E1,4.347936E1,6.052299E3,2.3162451E2,1.1372329E3,5.414807E2],"tree_param":{"num_deleted":"0","num_feature":"18","num_nodes":"31","size_leaf_vector":"1"}},{"base_weights":[1.7655668E-3,2.6402074E-1,-1.3453773E-1,5.488315E-1,1.7106028E-1,-4.7411256E-2,-2.3005813E-1,4.385858E-1,7E-1,1.4564955E-1,7E-1,-5.6682784E-2,5.8658963E-1,-1.9012609E-1,-3.1454983E-1,3.4229573E-2,1.7248912E-2,3.6056489E-3,3.5E-2,4.240382E-3,1.0582877E-2,3.5E-2,-2.6751037E-3,3.8447935E-4,-4.218647E-3,3.5E-2,5.622665E-3,-9.980186E-3,3.927489E-3,-1.5025253E-2,-2.1576343E-2],"categories":[0,1,2,3,5,6],"categories_nodes":[12],"categories_segments":[0],"categories_sizes":[6],"default_left":[0,0,0,0,1,1,0,0,0,0,0,0,1,0,0,0,0,0,0,0,0,0,0,0,0,0,0,0,0,0,0],"id":6,"left_children":[1,3,5,7,9,11,13,15,17,19,21,23,25,27,29,-1,-1,-1,-1,-1,-1,-1,-1,-1,-1,-1,-1,-1,-1,-1,-1],"loss_changes":[8.475501E2,2.1459222E2,1.298306E2,6.67865E1,1.1155246E2,4.800212E1,2.5049011E1,3.7796173E1,1.9339294E0,2.3803764E1,1.5523102E1,1.4338604E1,1.6415562E1,1.28906555E1,3.791748E0,0E0,0E0,0E0,0E0,0E0,0E0,0E0,0E0,0E0,0E0,0E0,0E0,0E0,0E0,0E0,0E0],"parents":[2147483647,0,0,1,1,2,2,3,3,4,4,5,5,6,6,7,7,8,8,9,9,10,10,11,11,12,12,13,13,14,14],"right_children":[2,4,6,8,10,12,14,16,18,20,22,24,26,28,30,-1,-1,-1,-1,-1,-1,-1,-1,-1,-1,-1,-1,-1,-1,-1,-1],"split_conditions":[4.6996373E-1,1.7805497E-1,7.4840295E-1,1.272734E0,2.0750558E0,2.2702222E0,9.031085E-1,-5.4430914E2,1.3020264E3,9.114118E-1,-4.4293262E1,5.623223E-1,1E-45,1.7726156E0,9.8476934E-1,3.4229573E-2,1.7248912E-2,3.6056489E-3,3.5E-2,4.240382E-3,1.0582877E-2,3.5E-2,-2.6751037E-3,3.8447935E-4,-4.218647E-3,3.5E-2,5.622665E-3,-9.980186E-3,3.927489E-3,-1.5025253E-2,-2.1576343E-2],"split_indices":[15,15,15,4,4,4,15,14,7,4,14,15,17,4,15,0,0,0,0,0,0,0,0,0,0,0,0,0,0,0,0],"split_type":[0,0,0,0,0,0,0,0,0,0,0,0,1,0,0,0,0,0,0,0,0,0,0,0,0,0,0,0,0,0,0],"sum_hessian":[2.3708191E4,8.107661E3,1.5600531E4,1.9938948E3,6.113766E3,8.159526E3,7.441005E3,1.6505658E3,3.4332904E2,5.9306255E3,1.8314061E2,8.04282E3,1.1670637E2,5.055126E3,2.3858787E3,4.5320517E2,1.1973606E3,5.1484013E0,3.3818063E2,3.0872668E3,2.8433586E3,1.5593692E2,2.7203697E1,2.4193E3,5.6235195E3,6.434918E1,5.2357185E1,4.8831294E3,1.719969E2,2.133313E3,2.5256569E2],"tree_param":{"num_deleted":"0","num_feature":"18","num_nodes":"31","size_leaf_vector":"1"}},{"base_weights":[1.8226106E-3,3.081244E-1,-1.07297845E-1,2.4724945E-1,7E-1,-2.2652589E-2,-2.2234963E-1,5.742856E-1,1.8158561E-1,7E-1,3.0550063E-1,-3.261604E-2,6.45915E-1,-1.819482E-1,-3.094856E-1,3.5E-2,2.146688E-2,1.171204E-2,5.038747E-3,3.5E-2,-8.084639E-3,3.5E-2,6.663968E-3,2.0455099E-3,-3.6281894E-3,3.5E-2,1.0589181E-2,-9.609611E-3,5.134286E-3,-1.3175859E-2,-1.7549122E-2],"categories":[0,2,3,6,0,1,2,3,5,6],"categories_nodes":[4,12],"categories_segments":[0,4],"categories_sizes":[4,6],"default_left":[0,1,0,0,1,1,0,0,0,0,0,0,1,0,0,0,0,0,0,0,0,0,0,0,0,0,0,0,0,0,0],"id":7,"left_children":[1,3,5,7,9,11,13,15,17,19,21,23,25,27,29,-1,-1,-1,-1,-1,-1,-1,-1,-1,-1,-1,-1,-1,-1,-1,-1],"loss_changes":[7.899122E2,1.7950183E2,1.6969395E2,1.1862323E2,3.2397583E1,6.690291E1,2.5945343E1,2.260675E1,1.9574387E1,1.39140625E1,1.5826626E1,2.9063604E1,1.5733433E1,1.474057E1,4.36792E0,0E0,0E0,0E0,0E0,0E0,0E0,0E0,0E0,0E0,0E0,0E0,0E0,0E0,0E0,0E0,0E0],"parents":[2147483647,0,0,1,1,2,2,3,3,4,4,5,5,6,6,7,7,8,8,9,9,10,10,11,11,12,12,13,13,14,14],"right_children":[2,4,6,8,10,12,14,16,18,20,22,24,26,28,30,-1,-1,-1,-1,-1,-1,-1,-1,-1,-1,-1,-1,-1,-1,-1,-1],"split_conditions":[3.9287025E-1,1.4012718E0,7.4840295E-1,-4.465253E2,1E-45,2.2702222E0,9.031085E-1,5.2362915E-2,2.936367E-1,2.7875154E0,2.0054978E-1,5.325075E-1,1E-45,1.7726156E0,9.427609E-1,3.5E-2,2.146688E-2,1.171204E-2,5.038747E-3,3.5E-2,-8.084639E-3,3.5E-2,6.663968E-3,2.0455099E-3,-3.6281894E-3,3.5E-2,1.0589181E-2,-9.609611E-3,5.134286E-3,-1.3175859E-2,-1.7549122E-2],"split_indices":[15,4,15,14,17,4,15,15,15,9,15,15,17,4,15,0,0,0,0,0,0,0,0,0,0,0,0,0,0,0,0],"split_type":[0,0,0,0,1,0,0,0,0,0,0,0,1,0,0,0,0,0,0,0,0,0,0,0,0,0,0,0,0,0,0],"sum_hessian":[2.3631242E4,6.206824E3,1.7424418E4,5.527777E3,6.7904736E2,1.0039447E4,7.38497E3,9.2301105E2,4.604766E3,4.6872766E2,2.1031973E2,9.892967E3,1.4648056E2,5.0476626E3,2.3373076E3,4.0939304E2,5.13618E2,2.7869363E3,1.8178297E3,4.5032864E2,1.8399015E1,5.811764E1,1.5220209E2,3.4827437E3,6.410223E3,7.7606544E1,6.887402E1,4.872621E3,1.7504152E2,1.1123938E3,1.2249138E3],"tree_param":{"num_deleted":"0","num_feature":"18","num_nodes":"31","size_leaf_vector":"1"}},{"base_weights":[-1.0533478E-3,2.4558468E-1,-1.2573627E-1,2.0713705E-1,7E-1,-5.3579953E-2,-2.2574247E-1,3.964595E-1,1.1323217E-1,7E-1,1.3481769E-1,-5.7949796E-2,7E-1,-1.9397973E-1,-3.4670174E-1,3.5E-2,1.715604E-2,2.9561974E-3,8.783796E-3,3.5E-2,-3.3952352E-3,2.3202654E-2,-7.088709E-4,-6.2242594E-5,-4.4256025E-3,2.4655317E-3,3.5E-2,-1.0120525E-2,8.788975E-4,-1.9299485E-2,-1.4759719E-2],"categories":[0,2,3,6],"categories_nodes":[4],"categories_segments":[0],"categories_sizes":[4],"default_left":[0,1,0,0,1,1,0,0,0,0,0,0,0,0,0,0,0,0,0,0,0,0,0,0,0,0,0,0,0,0,0],"id":8,"left_children":[1,3,5,7,9,11,13,15,17,19,21,23,25,27,29,-1,-1,-1,-1,-1,-1,-1,-1,-1,-1,-1,-1,-1,-1,-1,-1],"loss_changes":[7.3600336E2,1.907178E2,1.1470407E2,1.3540378E2,3.4162933E1,4.002823E1,2.553012E1,4.2779785E1,1.7201294E1,1.532431E1,5.3281617E0,1.5943977E1,6.8755493E0,9.419403E0,2.6875305E0,0E0,0E0,0E0,0E0,0E0,0E0,0E0,0E0,0E0,0E0,0E0,0E0,0E0,0E0,0E0,0E0],"parents":[2147483647,0,0,1,1,2,2,3,3,4,4,5,5,6,6,7,7,8,8,9,9,10,10,11,11,12,12,13,13,14,14],"right_children":[2,4,6,8,10,12,14,16,18,20,22,24,26,28,30,-1,-1,-1,-1,-1,-1,-1,-1,-1,-1,-1,-1,-1,-1,-1,-1],"split_conditions":[4.5561674E-1,1.6943887E0,7.69474E-1,2.0758907E-1,1E-45,3.0638058E0,9.3597203E-1,4.284241E-2,9.114118E-1,2.7875154E0,2.4043895E-1,5.7484084E-1,1.4307764E3,1.7258127E0,1.3269371E3,3.5E-2,1.715604E-2,2.9561974E-3,8.783796E-3,3.5E-2,-3.3952352E-3,2.3202654E-2,-7.088709E-4,-6.2242594E-5,-4.4256025E-3,2.4655317E-3,3.5E-2,-1.0120525E-2,8.788975E-4,-1.9299485E-2,-1.4759719E-2],"split_indices":[15,4,15,15,17,2,15,15,4,9,15,15,7,4,7,0,0,0,0,0,0,0,0,0,0,0,0,0,0,0,0],"split_type":[0,0,0,0,1,0,0,0,0,0,0,0,0,0,0,0,0,0,0,0,0,0,0,0,0,0,0,0,0,0,0],"sum_hessian":[2.393186E4,8.035564E3,1.5896295E4,7.6177666E3,4.1779706E2,9.234772E3,6.661523E3,2.5246252E3,5.0931416E3,3.1031393E2,1.0748315E2,9.199114E3,3.565858E1,5.2781377E3,1.383385E3,3.587998E2,2.1658254E3,2.7297383E3,2.363403E3,2.844954E2,2.5818535E1,3.2828114E1,7.465503E1,3.2220288E3,5.977085E3,1.639633E1,1.926225E1,5.075902E3,2.022362E2,7.810977E2,6.0228723E2],"tree_param":{"num_deleted":"0","num_feature":"18","num_nodes":"31","size_leaf_vector":"1"}},{"base_weights":[5.200855E-4,2.5649706E-1,-1.0913651E-1,2.2175609E-1,7E-1,-1.979265E-2,-1.9736886E-1,5.609231E-1,1.6104893E-1,7E-1,2.2566637E-1,-3.0843286E-2,5.610491E-1,-1.4933653E-1,-2.820436E-1,3.5E-2,2.0325769E-2,6.0872384E-3,1.3749793E-2,1.2436554E-2,3.5E-2,6.443545E-3,3.5E-2,-2.1442564E-3,5.6012087E-3,3.4985688E-2,-1.4730046E-2,-7.697513E-3,2.5899697E-2,-1.5423191E-2,-1.0245305E-2],"categories":[0,2,3,1,2,6],"categories_nodes":[4,7],"categories_segments":[0,3],"categories_sizes":[3,3],"default_left":[0,1,0,0,1,1,0,1,0,0,1,0,1,1,0,0,0,0,0,0,0,0,0,0,0,0,0,0,0,0,0],"id":9,"left_children":[1,3,5,7,9,11,13,15,17,19,21,23,25,27,29,-1,-1,-1,-1,-1,-1,-1,-1,-1,-1,-1,-1,-1,-1,-1,-1],"loss_changes":[6.6782324E2,1.6014664E2,1.3129872E2,1.4071683E2,1.648648E1,5.314577E1,3.40412E1,2.6694214E1,2.5950684E1,9.482025E0,5.2178607E0,1.3980524E1,1.8547646E1,1.6549171E1,6.1160583E0,0E0,0E0,0E0,0E0,0E0,0E0,0E0,0E0,0E0,0E0,0E0,0E0,0E0,0E0,0E0,0E0],"parents":[2147483647,0,0,1,1,2,2,3,3,4,4,5,5,6,6,7,7,8,8,9,9,10,10,11,11,12,12,13,13,14,14],"right_children":[2,4,6,8,10,12,14,16,18,20,22,24,26,28,30,-1,-1,-1,-1,-1,-1,-1,-1,-1,-1,-1,-1,-1,-1,-1,-1],"split_conditions":[-1.20695625E2,1.7726156E0,8.983901E1,-4.465253E2,1E-45,2.2702222E0,2.676231E2,1E-45,1.1171268E0,1.3845809E3,1.9727515E0,1.5356115E0,3.1143372E0,2.671313E0,1.5168109E3,3.5E-2,2.0325769E-2,6.0872384E-3,1.3749793E-2,1.2436554E-2,3.5E-2,6.443545E-3,3.5E-2,-2.1442564E-3,5.6012087E-3,3.4985688E-2,-1.4730046E-2,-7.697513E-3,2.5899697E-2,-1.5423191E-2,-1.0245305E-2],"split_indices":[14,4,14,14,17,4,14,17,4,7,10,10,11,2,7,0,0,0,0,0,0,0,0,0,0,0,0,0,0,0,0],"split_type":[0,0,0,0,1,0,0,1,0,0,0,0,0,0,0,0,0,0,0,0,0,0,0,0,0,0,0,0,0,0,0],"sum_hessian":[2.3789723E4,7.134337E3,1.6655385E4,6.8376655E3,2.966715E2,8.276176E3,8.37921E3,1.0368136E3,5.800852E3,2.2221777E2,7.4453735E1,8.122589E3,1.5358705E2,5.348181E3,3.0310288E3,4.8915204E2,5.476615E2,4.3146504E3,1.4862014E3,4.796791E1,1.7424986E2,6.854378E1,5.909958E0,7.491826E3,6.307624E2,1.3232501E2,2.1262043E1,5.3122236E3,3.5957767E1,2.2555024E3,7.755263E2],"tree_param":{"num_deleted":"0","num_feature":"18","num_nodes":"31","size_leaf_vector":"1"}},{"base_weights":[1.2968607E-3,2.3776013E-1,-1.0186851E-1,2.0987417E-1,7E-1,-8.386171E-3,-1.9359007E-1,6.215037E-1,1.7011046E-1,2.0569628E-1,7E-1,-1.8487269E-2,5.7191473E-1,-1.455573E-1,-2.748013E-1,2.1454902E-2,3.5E-2,1.4684178E-2,6.5460294E-3,3.5E-2,-3.340796E-3,3.5E-2,-3.1599854E-3,-1.8665284E-3,5.0212643E-3,3.5E-2,8.458432E-3,-7.874963E-3,1.1887395E-2,-1.2689315E-2,-1.9512078E-2],"categories":[0,1,3,0,1,2,3,5,6],"categories_nodes":[10,12],"categories_segments":[0,3],"categories_sizes":[3,6],"default_left":[0,1,0,0,0,1,0,0,0,0,1,0,1,1,0,0,0,0,0,0,0,0,0,0,0,0,0,0,0,0,0],"id":10,"left_children":[1,3,5,7,9,11,13,15,17,19,21,23,25,27,29,-1,-1,-1,-1,-1,-1,-1,-1,-1,-1,-1,-1,-1,-1,-1,-1],"loss_changes":[5.783622E2,1.2882211E2,1.4153304E2,1.1354947E2,1.4991135E1,4.793541E1,3.2460785E1,1.8694534E1,3.0633377E1,9.335715E0,9.5854645E0,1.8012394E1,1.3931633E1,2.401146E1,7.410202E0,0E0,0E0,0E0,0E0,0E0,0E0,0E0,0E0,0E0,0E0,0E0,0E0,0E0,0E0,0E0,0E0],"parents":[2147483647,0,0,1,1,2,2,3,3,4,4,5,5,6,6,7,7,8,8,9,9,10,10,11,11,12,12,13,13,14,14],"right_children":[2,4,6,8,10,12,14,16,18,20,22,24,26,28,30,-1,-1,-1,-1,-1,-1,-1,-1,-1,-1,-1,-1,-1,-1,-1,-1],"split_conditions":[-1.20695625E2,1.8207029E0,8.983901E1,-5.4430914E2,6E-1,2.2702222E0,2.6406805E2,9.4349617E-1,-3.3472717E2,-2.399223E2,1E-45,1.4272784E0,1E-45,1.7726156E0,5.279522E2,2.1454902E-2,3.5E-2,1.4684178E-2,6.5460294E-3,3.5E-2,-3.340796E-3,3.5E-2,-3.1599854E-3,-1.8665284E-3,5.0212643E-3,3.5E-2,8.458432E-3,-7.874963E-3,1.1887395E-2,-1.2689315E-2,-1.9512078E-2],"split_indices":[14,4,14,14,6,4,14,2,14,14,17,2,17,4,14,0,0,0,0,0,0,0,0,0,0,0,0,0,0,0,0],"split_type":[0,0,0,0,0,0,0,0,0,0,1,0,1,0,0,0,0,0,0,0,0,0,0,0,0,0,0,0,0,0,0],"sum_hessian":[2.370641E4,7.200647E3,1.6505762E4,6.9427764E3,2.5787073E2,8.17496E3,8.330803E3,6.1030786E2,6.3324683E3,6.2360035E1,1.955107E2,8.0360474E3,1.3891257E2,5.2364634E3,3.0943389E3,3.1173825E2,2.985696E2,1.5231605E3,4.8093076E3,2.0321636E1,4.2038395E1,1.7921297E2,1.6297726E1,6.9374077E3,1.0986398E3,8.0586464E1,5.83261E1,5.078821E3,1.5764267E2,2.6204958E3,4.73843E2],"tree_param":{"num_deleted":"0","num_feature":"18","num_nodes":"31","size_leaf_vector":"1"}},{"base_weights":[3.1288678E-3,2.921822E-1,-9.0492904E-2,2.546442E-1,7E-1,-1.2624771E-2,-2.0874894E-1,4.8837674E-1,1.8168238E-1,7E-1,-6.585747E-2,-2.8481847E-2,1.6754338E-1,-1.6788256E-1,-3.0013803E-1,3.3634868E-2,1.6503327E-2,1.3771581E-2,7.0566484E-3,3.5E-2,1.5370495E-2,6.619604E-3,-2.1001E-2,1.9012612E-3,-3.060782E-3,1.4391636E-2,2.6188483E-3,-8.897636E-3,4.7391723E-3,-1.2606101E-2,-1.7142963E-2],"categories":[0,1,2,3,6,0,2,3,6],"categories_nodes":[7,9],"categories_segments":[0,5],"categories_sizes":[5,4],"default_left":[0,1,0,0,0,0,0,1,0,1,0,0,0,0,0,0,0,0,0,0,0,0,0,0,0,0,0,0,0,0,0],"id":11,"left_children":[1,3,5,7,9,11,13,15,17,19,21,23,25,27,29,-1,-1,-1,-1,-1,-1,-1,-1,-1,-1,-1,-1,-1,-1,-1,-1],"loss_changes":[6.462769E2,1.3417395E2,1.6610718E2,9.503909E1,9.718445E0,3.1082405E1,2.6697998E1,3.84834E1,1.6127838E1,8.423431E0,1.2776189E0,2.1770113E1,1.2177147E1,1.3113434E1,4.450577E0,0E0,0E0,0E0,0E0,0E0,0E0,0E0,0E0,0E0,0E0,0E0,0E0,0E0,0E0,0E0,0E0],"parents":[2147483647,0,0,1,1,2,2,3,3,4,4,5,5,6,6,7,7,8,8,9,9,10,10,11,11,12,12,13,13,14,14],"right_children":[2,4,6,8,10,12,14,16,18,20,22,24,26,28,30,-1,-1,-1,-1,-1,-1,-1,-1,-1,-1,-1,-1,-1,-1,-1,-1],"split_conditions":[3.564423E-1,1.7726156E0,7.4840295E-1,1.2046335E-1,2.7875154E0,1.5196737E0,9.031085E-1,1E-45,2.0054978E-1,1E-45,2.319772E0,5.042929E-1,5.4233116E-1,1.7726156E0,9.427609E-1,3.3634868E-2,1.6503327E-2,1.3771581E-2,7.0566484E-3,3.5E-2,1.5370495E-2,6.619604E-3,-2.1001E-2,1.9012612E-3,-3.060782E-3,1.4391636E-2,2.6188483E-3,-8.897636E-3,4.7391723E-3,-1.2606101E-2,-1.7142963E-2],"split_indices":[15,4,15,15,9,4,15,17,15,17,2,15,15,4,15,0,0,0,0,0,0,0,0,0,0,0,0,0,0,0,0],"split_type":[0,0,0,0,0,0,0,1,0,1,0,0,0,0,0,0,0,0,0,0,0,0,0,0,0,0,0,0,0,0,0],"sum_hessian":[2.3879645E4,5.841655E3,1.803799E4,5.577184E3,2.6447076E2,1.0876946E4,7.1610435E3,1.3254436E3,4.2517407E3,2.480663E2,1.6404459E1,9.997851E3,8.7909534E2,4.9502715E3,2.210772E3,6.109107E2,7.145329E2,1.2819985E3,2.9697422E3,1.9123438E2,5.683192E1,1.0918688E1,5.485771E0,3.2976567E3,6.700194E3,4.2925095E2,4.4984442E2,4.7678047E3,1.8246689E2,1.0441327E3,1.1666393E3],"tree_param":{"num_deleted":"0","num_feature":"18","num_nodes":"31","size_leaf_vector":"1"}},{"base_weights":[-1.0389747E-3,1.6594306E-1,-1.467682E-1,1.4339216E-1,7E-1,-7.537861E-2,-2.1949664E-1,3.477191E-1,7.451885E-2,7E-1,-2.5485498E-1,-9.080063E-2,4.1162472E-2,-1.9028467E-1,-3.1860813E-1,2.6338091E-2,1.381367E-2,7.2548403E-3,1.7247191E-3,3.5E-2,4.557462E-3,-2.0376695E-2,-1.6116085E-6,-6.5532783E-3,-3.0780793E-3,-4.230413E-3,8.806249E-3,-9.948475E-3,5.6606205E-3,-1.6106077E-2,2.3595365E-2],"categories":[],"categories_nodes":[],"categories_segments":[],"categories_sizes":[],"default_left":[0,1,0,0,1,1,0,0,0,0,0,0,0,0,1,0,0,0,0,0,0,0,0,0,0,0,0,0,0,0,0],"id":12,"left_children":[1,3,5,7,9,11,13,15,17,19,21,23,25,27,29,-1,-1,-1,-1,-1,-1,-1,-1,-1,-1,-1,-1,-1,-1,-1,-1],"loss_changes":[5.762553E2,1.6001605E2,6.563782E1,1.5023805E2,2.401352E1,1.1475613E1,1.8073242E1,3.4284424E1,2.2557465E1,1.1176239E1,1.0456012E0,6.6286774E0,1.2688384E1,1.2779907E1,4.1078796E0,0E0,0E0,0E0,0E0,0E0,0E0,0E0,0E0,0E0,0E0,0E0,0E0,0E0,0E0,0E0,0E0],"parents":[2147483647,0,0,1,1,2,2,3,3,4,4,5,5,6,6,7,7,8,8,9,9,10,10,11,11,12,12,13,13,14,14],"right_children":[2,4,6,8,10,12,14,16,18,20,22,24,26,28,30,-1,-1,-1,-1,-1,-1,-1,-1,-1,-1,-1,-1,-1,-1,-1,-1],"split_conditions":[5.5942315E-1,1.9434015E0,7.69474E-1,2.0054978E-1,3.1478174E0,1.4905012E0,3.6573514E2,7.365917E-2,3.4809306E-1,1.489084E3,5.1992065E-1,8.4676164E-1,1.0232735E0,1.8763994E0,2.5958068E0,2.6338091E-2,1.381367E-2,7.2548403E-3,1.7247191E-3,3.5E-2,4.557462E-3,-2.0376695E-2,-1.6116085E-6,-6.5532783E-3,-3.0780793E-3,-4.230413E-3,8.806249E-3,-9.948475E-3,5.6606205E-3,-1.6106077E-2,2.3595365E-2],"split_indices":[15,4,15,15,9,9,14,15,15,0,8,10,4,4,4,0,0,0,0,0,0,0,0,0,0,0,0,0,0,0,0],"split_type":[0,0,0,0,0,0,0,0,0,0,0,0,0,0,0,0,0,0,0,0,0,0,0,0,0,0,0,0,0,0,0],"sum_hessian":[2.3678918E4,1.1034749E4,1.2644169E4,1.0676714E4,3.580344E2,6.381844E3,6.262325E3,2.6905608E3,7.9861533E3,3.3215906E2,2.5875341E1,5.636218E3,7.456262E2,4.8390044E3,1.4233208E3,7.655987E2,1.924962E3,2.889055E3,5.0970986E3,3.0168808E2,3.0470985E1,1.580586E1,1.0069482E1,2.3695876E3,3.2666301E3,3.861492E2,3.5947702E2,4.704719E3,1.3428517E2,1.4176128E3,5.707935E0],"tree_param":{"num_deleted":"0","num_feature":"18","num_nodes":"31","size_leaf_vector":"1"}},{"base_weights":[1.5266868E-4,1.886427E-1,-1.2664478E-1,1.6293824E-1,7E-1,-5.0544493E-2,-2.0563596E-1,4.2115638E-1,1.1539885E-1,7E-1,2.070468E-1,-5.611523E-2,7E-1,-1.669309E-1,-2.9045126E-1,1.5889835E-2,3.0855704E-2,9.460221E-3,3.3278426E-3,3.5E-2,-3.5508354E-5,-5.360688E-3,2.4248665E-2,-4.2296834E-3,-1.6488315E-4,9.3931435E-3,3.5E-2,-9.269359E-3,-3.937136E-3,-1.3435739E-2,-1.959524E-2],"categories":[],"categories_nodes":[],"categories_segments":[],"categories_sizes":[],"default_left":[0,1,0,0,0,1,0,1,0,0,0,0,0,0,0,0,0,0,0,0,0,0,0,0,0,0,0,0,0,0,0],"id":13,"left_children":[1,3,5,7,9,11,13,15,17,19,21,23,25,27,29,-1,-1,-1,-1,-1,-1,-1,-1,-1,-1,-1,-1,-1,-1,-1,-1],"loss_changes":[5.736629E2,1.3724838E2,8.624866E1,1.1323767E2,3.6979782E1,3.7138245E1,2.3064667E1,2.8858368E1,2.8087372E1,6.932831E0,1.35196E1,1.0932516E1,5.065178E0,7.8580627E0,4.7569427E0,0E0,0E0,0E0,0E0,0E0,0E0,0E0,0E0,0E0,0E0,0E0,0E0,0E0,0E0,0E0,0E0],"parents":[2147483647,0,0,1,1,2,2,3,3,4,4,5,5,6,6,7,7,8,8,9,9,10,10,11,11,12,12,13,13,14,14],"right_children":[2,4,6,8,10,12,14,16,18,20,22,24,26,28,30,-1,-1,-1,-1,-1,-1,-1,-1,-1,-1,-1,-1,-1,-1,-1,-1],"split_conditions":[5.042929E-1,1.9837042E0,7.4840295E-1,1.2046335E-1,3.429924E-1,3.0638058E0,9.031085E-1,1.042913E0,2.9876274E-1,2.5311239E0,-5.9410286E-1,1.0322108E0,6E-1,1.7081985E3,5.5639844E2,1.5889835E-2,3.0855704E-2,9.460221E-3,3.3278426E-3,3.5E-2,-3.5508354E-5,-5.360688E-3,2.4248665E-2,-4.2296834E-3,-1.6488315E-4,9.3931435E-3,3.5E-2,-9.269359E-3,-3.937136E-3,-1.3435739E-2,-1.959524E-2],"split_indices":[15,2,15,15,15,2,15,2,15,9,5,11,6,7,14,0,0,0,0,0,0,0,0,0,0,0,0,0,0,0,0],"split_type":[0,0,0,0,0,0,0,0,0,0,0,0,0,0,0,0,0,0,0,0,0,0,0,0,0,0,0,0,0,0,0],"sum_hessian":[2.400058E4,9.651986E3,1.4348594E4,9.227627E3,4.243597E2,7.3088613E3,7.039733E3,1.4334958E3,7.794131E3,2.7116467E2,1.5319504E2,7.2673633E3,4.1498142E1,4.8358735E3,2.2038594E3,9.402003E2,4.932955E2,3.102716E3,4.6914146E3,2.5704678E2,1.4117889E1,7.2186104E1,8.100894E1,4.721175E3,2.5461885E3,2.017996E1,2.131818E1,3.9980488E3,8.3782446E2,1.8180006E3,3.8585886E2],"tree_param":{"num_deleted":"0","num_feature":"18","num_nodes":"31","size_leaf_vector":"1"}},{"base_weights":[5.96799E-3,2.4242459E-1,-9.061681E-2,2.1164739E-1,7E-1,-1.7591497E-2,-1.971237E-1,5.120546E-1,1.6849397E-1,7E-1,9.853477E-3,-2.7144138E-2,5.2793103E-1,-1.6001953E-1,-2.8183252E-1,1.767002E-2,3.5E-2,1.2853677E-2,6.177798E-3,3.5E-2,-2.1131365E-2,-1.2087497E-2,2.1993319E-2,1.212768E-3,-3.2947182E-3,3.2953236E-2,-2.637804E-3,-8.478068E-3,5.4204366E-3,-1.4686334E-2,-4.634924E-3],"categories":[],"categories_nodes":[],"categories_segments":[],"categories_sizes":[],"default_left":[0,1,0,0,0,1,0,0,0,0,0,0,0,0,1,0,0,0,0,0,0,0,0,0,0,0,0,0,0,0,0],"id":14,"left_children":[1,3,5,7,9,11,13,15,17,19,21,23,25,27,29,-1,-1,-1,-1,-1,-1,-1,-1,-1,-1,-1,-1,-1,-1,-1,-1],"loss_changes":[5.425568E2,1.4386716E2,1.3118347E2,8.6171936E1,9.381958E0,5.216484E1,2.1518219E1,3.296852E1,2.3133682E1,7.972168E0,2.3487687E0,1.9592684E1,1.3152962E1,1.2243996E1,4.6708984E0,0E0,0E0,0E0,0E0,0E0,0E0,0E0,0E0,0E0,0E0,0E0,0E0,0E0,0E0,0E0,0E0],"parents":[2147483647,0,0,1,1,2,2,3,3,4,4,5,5,6,6,7,7,8,8,9,9,10,10,11,11,12,12,13,13,14,14],"right_children":[2,4,6,8,10,12,14,16,18,20,22,24,26,28,30,-1,-1,-1,-1,-1,-1,-1,-1,-1,-1,-1,-1,-1,-1,-1,-1],"split_conditions":[3.9287025E-1,1.9434015E0,7.4840295E-1,7.365917E-2,1.7124764E0,2.2702222E0,9.031085E-1,1.042913E0,2.0054978E-1,-8.7660675E1,1.303891E3,5.5942315E-1,1.0433667E-1,1.7726156E0,1.5466374E0,1.767002E-2,3.5E-2,1.2853677E-2,6.177798E-3,3.5E-2,-2.1131365E-2,-1.2087497E-2,2.1993319E-2,1.212768E-3,-3.2947182E-3,3.2953236E-2,-2.637804E-3,-8.478068E-3,5.4204366E-3,-1.4686334E-2,-4.634924E-3],"split_indices":[15,4,15,15,1,4,15,2,15,14,0,15,12,4,4,0,0,0,0,0,0,0,0,0,0,0,0,0,0,0,0],"split_type":[0,0,0,0,0,0,0,0,0,0,0,0,0,0,0,0,0,0,0,0,0,0,0,0,0,0,0,0,0,0,0],"sum_hessian":[2.3754682E4,6.8886187E3,1.6866064E4,6.652882E3,2.3573718E2,1.0006429E4,6.859635E3,8.3427985E2,5.818602E3,2.1601093E2,1.9726267E1,9.835156E3,1.7127309E2,4.7722026E3,2.087432E3,5.2312244E2,3.111574E2,1.9567778E3,3.861824E3,2.102965E2,5.714423E0,1.2720958E1,7.005309E0,4.227734E3,5.607422E3,1.3961055E2,3.1662529E1,4.6087437E3,1.6345879E2,1.9634054E3,1.24026566E2],"tree_param":{"num_deleted":"0","num_feature":"18","num_nodes":"31","size_leaf_vector":"1"}},{"base_weights":[3.2143823E-3,1.9767922E-1,-1.1258815E-1,1.7139885E-1,7E-1,-4.4753224E-2,-2.0864272E-1,3.163317E-1,9.4827116E-2,7E-1,-9.31815E-2,-4.9685415E-2,7E-1,-1.6742907E-1,-2.88239E-1,1.3079542E-2,2.6816403E-2,2.7492861E-3,7.952961E-3,3.5E-2,1.1952258E-2,1.1016147E-2,-9.173225E-3,-5.1396857E-3,-8.1196736E-4,3.5E-2,3.386377E-4,-8.7587675E-3,4.970267E-3,-1.4723544E-2,4.1565294E-3],"categories":[0,2,3,6],"categories_nodes":[9],"categories_segments":[0],"categories_sizes":[4],"default_left":[0,1,0,0,0,1,0,1,0,1,0,0,0,0,1,0,0,0,0,0,0,0,0,0,0,0,0,0,0,0,0],"id":15,"left_children":[1,3,5,7,9,11,13,15,17,19,21,23,25,27,29,-1,-1,-1,-1,-1,-1,-1,-1,-1,-1,-1,-1,-1,-1,-1,-1],"loss_changes":[5.334756E2,1.5471408E2,9.673645E1,9.474341E1,1.5880157E1,4.2190685E1,2.0111176E1,3.5406586E1,1.429443E1,1.2073547E1,7.768958E-1,1.5390095E1,5.7123947E0,8.391235E0,4.873108E0,0E0,0E0,0E0,0E0,0E0,0E0,0E0,0E0,0E0,0E0,0E0,0E0,0E0,0E0,0E0,0E0],"parents":[2147483647,0,0,1,1,2,2,3,3,4,4,5,5,6,6,7,7,8,8,9,9,10,10,11,11,12,12,13,13,14,14],"right_children":[2,4,6,8,10,12,14,16,18,20,22,24,26,28,30,-1,-1,-1,-1,-1,-1,-1,-1,-1,-1,-1,-1,-1,-1,-1,-1],"split_conditions":[4.6996373E-1,1.9434015E0,7.69474E-1,2.0758907E-1,4.5926234E-1,3.0638058E0,9.031085E-1,1.2531062E0,1.00077E0,1E-45,1E-1,7.6115E-1,-5.469304E-1,1.8763994E0,1.8763994E0,1.3079542E-2,2.6816403E-2,2.7492861E-3,7.952961E-3,3.5E-2,1.1952258E-2,1.1016147E-2,-9.173225E-3,-5.1396857E-3,-8.1196736E-4,3.5E-2,3.386377E-4,-8.7587675E-3,4.970267E-3,-1.4723544E-2,4.1565294E-3],"split_indices":[15,4,15,15,15,2,15,2,4,17,6,2,12,4,4,0,0,0,0,0,0,0,0,0,0,0,0,0,0,0,0],"split_type":[0,0,0,0,0,0,0,0,0,1,0,0,0,0,0,0,0,0,0,0,0,0,0,0,0,0,0,0,0,0,0],"sum_hessian":[2.3687482E4,8.840726E3,1.4846758E4,8.538868E3,3.0185776E2,8.702447E3,6.1443105E3,2.9507117E3,5.5881562E3,2.768377E2,2.5020046E1,8.664244E3,3.8203033E1,4.0502573E3,2.094053E3,2.3645408E3,5.861708E2,3.4500452E3,2.1381113E3,2.1870941E2,5.812831E1,5.272191E0,1.9747854E1,3.347209E3,5.317035E3,2.6296543E1,1.1906488E1,3.9363284E3,1.1392896E2,2.0596968E3,3.435626E1],"tree_param":{"num_deleted":"0","num_feature":"18","num_nodes":"31","size_leaf_vector":"1"}},{"base_weights":[-9.2248624E-4,2.2177146E-1,-4.635387E-2,-6.558178E-2,3.1257647E-1,-1.7304957E-1,-1.6010602E-3,-1.8630625E-1,7.7832796E-2,2.5424162E-1,7E-1,-1.8520412E-1,4.2494267E-1,1.0491473E-1,-4.430545E-2,3.5E-2,-1.0066434E-2,-5.9019152E-5,2.0691218E-2,7.154576E-3,1.795349E-2,3.5E-2,1.4930946E-2,-5.2369735E-3,-1.1904466E-2,1.891179E-3,3.5E-2,4.227038E-3,3.5E-2,-4.598564E-3,2.8179807E-3],"categories":[],"categories_nodes":[],"categories_segments":[],"categories_sizes":[],"default_left":[0,0,0,1,0,1,0,0,1,0,0,0,0,1,0,0,0,0,0,0,0,0,0,0,0,0,0,0,0,0,0],"id":16,"left_children":[1,3,5,7,9,11,13,15,17,19,21,23,25,27,29,-1,-1,-1,-1,-1,-1,-1,-1,-1,-1,-1,-1,-1,-1,-1,-1],"loss_changes":[2.3951025E2,1.046861E2,1.1148361E2,1.670523E1,7.536804E1,3.7382233E1,6.610059E1,7.7062626E0,1.1716287E1,3.1226013E1,1.5818451E1,2.1383072E1,1.5953608E1,6.67061E1,4.9777763E1,0E0,0E0,0E0,0E0,0E0,0E0,0E0,0E0,0E0,0E0,0E0,0E0,0E0,0E0,0E0,0E0],"parents":[2147483647,0,0,1,1,2,2,3,3,4,4,5,5,6,6,7,7,8,8,9,9,10,10,11,11,12,12,13,13,14,14],"right_children":[2,4,6,8,10,12,14,16,18,20,22,24,26,28,30,-1,-1,-1,-1,-1,-1,-1,-1,-1,-1,-1,-1,-1,-1,-1,-1],"split_conditions":[1.3382534E3,1.2467357E3,1.4763334E3,1.1171268E0,1.8207577E0,2.2702222E0,1.5563237E3,3.6247206E-1,1.8872122E0,1.5064272E3,1.4032701E0,1.489084E3,7.1428573E-1,2.2702222E0,1.8138091E3,3.5E-2,-1.0066434E-2,-5.9019152E-5,2.0691218E-2,7.154576E-3,1.795349E-2,3.5E-2,1.4930946E-2,-5.2369735E-3,-1.1904466E-2,1.891179E-3,3.5E-2,4.227038E-3,3.5E-2,-4.598564E-3,2.8179807E-3],"split_indices":[0,7,7,4,2,4,0,11,9,7,11,0,13,4,7,0,0,0,0,0,0,0,0,0,0,0,0,0,0,0,0],"split_type":[0,0,0,0,0,0,0,0,0,0,0,0,0,0,0,0,0,0,0,0,0,0,0,0,0,0,0,0,0,0,0],"sum_hessian":[2.3671336E4,4.0102332E3,1.9661102E4,9.630213E2,3.047212E3,5.1313438E3,1.4529759E4,5.2271106E2,4.403102E2,2.6833691E3,3.638429E2,5.0298003E3,1.0154337E2,4.1577637E3,1.0371995E4,7.222842E0,5.154882E2,3.5728586E2,8.302435E1,1.3035597E3,1.3798093E3,2.6361533E2,1.0022756E2,1.9959501E3,3.03385E3,5.4194786E1,4.7348583E1,4.064377E3,9.3386765E1,7.039034E3,3.3329607E3],"tree_param":{"num_deleted":"0","num_feature":"18","num_nodes":"31","size_leaf_vector":"1"}},{"base_weights":[1.7912689E-3,1.4896517E-1,-1.338171E-1,1.2859465E-1,7E-1,-7.007007E-2,-2.0092049E-1,2.8903055E-1,7.037749E-2,9.530653E-2,7E-1,-1.84378E-1,-5.6915067E-2,-1.705713E-1,-3.1983155E-1,1.1592553E-2,2.4447715E-2,1.6499686E-3,6.3432665E-3,1.994894E-2,-1.1859282E-2,3.5E-2,8.116671E-4,-1.0174075E-2,5.4881372E-3,-3.563456E-3,2.1706044E-3,-9.118852E-3,7.8842876E-4,-1.7937012E-2,-1.1686223E-2],"categories":[],"categories_nodes":[],"categories_segments":[],"categories_sizes":[],"default_left":[0,1,0,0,0,0,0,0,0,0,0,0,1,0,0,0,0,0,0,0,0,0,0,0,0,0,0,0,0,0,0],"id":17,"left_children":[1,3,5,7,9,11,13,15,17,19,21,23,25,27,29,-1,-1,-1,-1,-1,-1,-1,-1,-1,-1,-1,-1,-1,-1,-1,-1],"loss_changes":[4.7246304E2,1.4692403E2,5.268875E1,1.0280345E2,1.5261124E1,9.492752E0,2.1604767E1,3.339035E1,1.705391E1,4.4440007E0,8.16803E0,3.6848717E0,8.167046E0,1.0526077E1,4.000801E0,0E0,0E0,0E0,0E0,0E0,0E0,0E0,0E0,0E0,0E0,0E0,0E0,0E0,0E0,0E0,0E0],"parents":[2147483647,0,0,1,1,2,2,3,3,4,4,5,5,6,6,7,7,8,8,9,9,10,10,11,11,12,12,13,13,14,14],"right_children":[2,4,6,8,10,12,14,16,18,20,22,24,26,28,30,-1,-1,-1,-1,-1,-1,-1,-1,-1,-1,-1,-1,-1,-1,-1,-1],"split_conditions":[5.5942315E-1,2.0750558E0,7.69474E-1,2.0758907E-1,5.248459E-1,4.9900013E-1,9.3597203E-1,1.2531062E0,9.876451E-1,3.2873902E-1,9.7573775E-1,1.1235479E0,1.4905012E0,1.5689666E0,1.3912767E3,1.1592553E-2,2.4447715E-2,1.6499686E-3,6.3432665E-3,1.994894E-2,-1.1859282E-2,3.5E-2,8.116671E-4,-1.0174075E-2,5.4881372E-3,-3.563456E-3,2.1706044E-3,-9.118852E-3,7.8842876E-4,-1.7937012E-2,-1.1686223E-2],"split_indices":[15,4,15,15,10,4,15,2,4,15,12,12,9,4,7,0,0,0,0,0,0,0,0,0,0,0,0,0,0,0,0],"split_type":[0,0,0,0,0,0,0,0,0,0,0,0,0,0,0,0,0,0,0,0,0,0,0,0,0,0,0,0,0,0,0],"sum_hessian":[2.3670852E4,1.1351321E4,1.231953E4,1.1007824E4,3.4349698E2,6.318813E3,6.0007173E3,2.9298174E3,8.0780073E3,4.2076427E1,3.0142053E2,6.5079956E2,5.6680137E3,4.7825264E3,1.218191E3,2.2799084E3,6.49909E2,4.8622383E3,3.2157688E3,2.1886787E1,2.018964E1,2.8390213E2,1.7518408E1,6.1139935E2,3.9400204E1,4.958831E3,7.091823E2,4.4975977E3,2.8492853E2,8.3687244E2,3.8131857E2],"tree_param":{"num_deleted":"0","num_feature":"18","num_nodes":"31","size_leaf_vector":"1"}},{"base_weights":[3.8896953E-3,1.4620173E-1,-1.3278845E-1,1.25363E-1,7E-1,-1.0016333E-1,-2.7069747E-1,3.0112797E-1,7.4972294E-2,7E-1,3.1825855E-1,-1.07896656E-1,1.4374672E-1,-3.056976E-1,-2.161671E-1,1.8969605E-2,9.517375E-3,7.7336445E-3,2.2542318E-3,1.1239991E-2,3.5E-2,8.757513E-3,3.5E-2,-3.517909E-3,-7.778679E-3,1.7441658E-2,-2.6052073E-4,-1.5482497E-2,1.8774645E-2,-1.1771671E-2,-5.538943E-4],"categories":[],"categories_nodes":[],"categories_segments":[],"categories_sizes":[],"default_left":[0,1,0,0,0,1,0,0,0,0,0,0,0,1,0,0,0,0,0,0,0,0,0,0,0,0,0,0,0,0,0],"id":18,"left_children":[1,3,5,7,9,11,13,15,17,19,21,23,25,27,29,-1,-1,-1,-1,-1,-1,-1,-1,-1,-1,-1,-1,-1,-1,-1,-1],"loss_changes":[4.6292044E2,1.3509297E2,5.459433E1,9.952634E1,3.0001617E1,1.8536606E1,4.3655243E0,2.1638016E1,2.0804276E1,8.743301E0,1.802192E1,1.7023384E1,9.233192E0,3.9172974E0,3.5975494E0,0E0,0E0,0E0,0E0,0E0,0E0,0E0,0E0,0E0,0E0,0E0,0E0,0E0,0E0,0E0,0E0],"parents":[2147483647,0,0,1,1,2,2,3,3,4,4,5,5,6,6,7,7,8,8,9,9,10,10,11,11,12,12,13,13,14,14],"right_children":[2,4,6,8,10,12,14,16,18,20,22,24,26,28,30,-1,-1,-1,-1,-1,-1,-1,-1,-1,-1,-1,-1,-1,-1,-1,-1],"split_conditions":[5.623223E-1,1.9434015E0,8.9185965E-1,1.7805497E-1,3.3384562E-1,1.7726156E0,1.4228674E3,1.318405E3,2.9876274E-1,1.3845809E3,5.325075E-1,7.4840295E-1,1.3215969E3,2.319772E0,1.4968064E0,1.8969605E-2,9.517375E-3,7.7336445E-3,2.2542318E-3,1.1239991E-2,3.5E-2,8.757513E-3,3.5E-2,-3.517909E-3,-7.778679E-3,1.7441658E-2,-2.6052073E-4,-1.5482497E-2,1.8774645E-2,-1.1771671E-2,-5.538943E-4],"split_indices":[15,4,15,15,15,4,7,0,15,7,15,15,7,2,4,0,0,0,0,0,0,0,0,0,0,0,0,0,0,0,0],"split_type":[0,0,0,0,0,0,0,0,0,0,0,0,0,0,0,0,0,0,0,0,0,0,0,0,0,0,0,0,0,0,0],"sum_hessian":[2.3797385E4,1.1658377E4,1.2139007E4,1.1238675E4,4.1970276E2,9.818073E3,2.3209338E3,2.5030283E3,8.735646E3,2.1146439E2,2.0823836E2,9.516892E3,3.0118164E2,1.4108068E3,9.1012695E2,1.4653582E3,1.03767E3,2.3813064E3,6.35434E3,3.9888817E1,1.7157558E2,1.768923E2,3.134605E1,5.325964E3,4.1909277E3,1.26151924E2,1.7502972E2,1.4032106E3,7.5962305E0,8.318355E2,7.829144E1],"tree_param":{"num_deleted":"0","num_feature":"18","num_nodes":"31","size_leaf_vector":"1"}},{"base_weights":[3.7216987E-3,1.5228458E-1,-1.0821498E-1,3.0123618E-1,8.943632E-2,-7.370038E-2,-2.4318129E-1,2.527524E-1,6.697605E-1,8.500645E-2,7E-1,-3.2067645E-2,-1.228921E-1,-1.9161102E-1,-3.0343583E-1,1.5264568E-2,2.0100537E-3,3.5E-2,1.1534822E-2,-3.1011195E-3,4.9550193E-3,-9.072971E-3,3.5E-2,-2.4504557E-3,6.5752463E-3,-6.340665E-3,2.1221636E-2,-1.0057848E-2,2.3275742E-3,-1.5733853E-2,-3.655427E-3],"categories":[0,2,6,0,1,2,3,6],"categories_nodes":[7,8],"categories_segments":[0,3],"categories_sizes":[3,5],"default_left":[0,0,0,1,1,0,0,1,1,0,1,0,1,1,1,0,0,0,0,0,0,0,0,0,0,0,0,0,0,0,0],"id":19,"left_children":[1,3,5,7,9,11,13,15,17,19,21,23,25,27,29,-1,-1,-1,-1,-1,-1,-1,-1,-1,-1,-1,-1,-1,-1,-1,-1],"loss_changes":[3.9361435E2,9.518506E1,6.286322E1,5.3747345E1,2.1241997E1,2.2014248E1,8.48259E0,2.9785858E1,1.690448E1,1.4737389E1,8.131142E0,1.6146542E1,1.0629776E1,3.382576E0,3.2544708E0,0E0,0E0,0E0,0E0,0E0,0E0,0E0,0E0,0E0,0E0,0E0,0E0,0E0,0E0,0E0,0E0],"parents":[2147483647,0,0,1,1,2,2,3,3,4,4,5,5,6,6,7,7,8,8,9,9,10,10,11,11,12,12,13,13,14,14],"right_children":[2,4,6,8,10,12,14,16,18,20,22,24,26,28,30,-1,-1,-1,-1,-1,-1,-1,-1,-1,-1,-1,-1,-1,-1,-1,-1],"split_conditions":[-5.834488E1,1.3289508E3,2.6406805E2,1.7959392E0,3.0638058E0,8.983901E1,3.7406412E2,1E-45,1E-45,3.818376E-1,4.449486E-1,1.6981459E0,2.671313E0,1.8527089E0,1.8527089E0,1.5264568E-2,2.0100537E-3,3.5E-2,1.1534822E-2,-3.1011195E-3,4.9550193E-3,-9.072971E-3,3.5E-2,-2.4504557E-3,6.5752463E-3,-6.340665E-3,2.1221636E-2,-1.0057848E-2,2.3275742E-3,-1.5733853E-2,-3.655427E-3],"split_indices":[14,0,14,2,2,14,14,17,17,2,9,2,2,2,2,0,0,0,0,0,0,0,0,0,0,0,0,0,0,0,0],"split_type":[0,0,0,0,0,0,0,1,1,0,0,0,0,0,0,0,0,0,0,0,0,0,0,0,0,0,0,0,0,0,0],"sum_hessian":[2.366746E4,1.0169755E4,1.3497705E4,3.0165881E3,7.153167E3,1.0750144E4,2.7475618E3,2.6673518E3,3.4923624E2,7.1079326E3,4.5234398E1,5.823314E3,4.92683E3,1.4827205E3,1.2648413E3,2.138352E3,5.2899963E2,2.6980444E2,7.943181E1,6.2145667E2,6.486476E3,1.0095837E1,3.513856E1,5.2774233E3,5.458905E2,4.8925464E3,3.4283333E1,1.4257303E3,5.699015E1,1.2056335E3,5.9207756E1],"tree_param":{"num_deleted":"0","num_feature":"18","num_nodes":"31","size_leaf_vector":"1"}},{"base_weights":[-3.6799926E-3,1.5818937E-1,-9.890357E-2,1.3991183E-1,6.9447863E-1,-5.1786706E-2,-2.2785915E-1,3.409671E-1,1.0440467E-1,7E-1,2.0395483E-1,-6.82249E-2,1.3277397E-1,-1.9564755E-1,-3.0984983E-1,1.1817884E-2,2.5261862E-2,3.3600223E-3,8.542956E-3,3.5E-2,1.0435967E-2,2.5514781E-2,-1.0671869E-2,-1.8831732E-3,-6.3942336E-3,2.2800784E-3,1.851759E-2,-1.1541538E-2,-8.15029E-3,-1.5712969E-2,2.3114396E-2],"categories":[],"categories_nodes":[],"categories_segments":[],"categories_sizes":[],"default_left":[0,1,0,0,0,0,0,0,0,0,0,0,1,0,1,0,0,0,0,0,0,0,0,0,0,0,0,0,0,0,0],"id":20,"left_children":[1,3,5,7,9,11,13,15,17,19,21,23,25,27,29,-1,-1,-1,-1,-1,-1,-1,-1,-1,-1,-1,-1,-1,-1,-1,-1],"loss_changes":[3.644666E2,8.574887E1,9.0444534E1,6.0434967E1,1.653537E1,3.3092896E1,1.0460281E1,2.1721054E1,1.7791199E1,7.5505676E0,8.9606285E0,1.8253155E1,1.846019E1,3.2500305E0,3.965065E0,0E0,0E0,0E0,0E0,0E0,0E0,0E0,0E0,0E0,0E0,0E0,0E0,0E0,0E0,0E0,0E0],"parents":[2147483647,0,0,1,1,2,2,3,3,4,4,5,5,6,6,7,7,8,8,9,9,10,10,11,11,12,12,13,13,14,14],"right_children":[2,4,6,8,10,12,14,16,18,20,22,24,26,28,30,-1,-1,-1,-1,-1,-1,-1,-1,-1,-1,-1,-1,-1,-1,-1,-1],"split_conditions":[-9.585743E1,1.9434015E0,2.1189847E2,-4.465253E2,1.5328606E0,1.5196737E0,3.9156998E2,1.042913E0,1.0198098E0,2.1479745E0,1E0,8.983901E1,1.3148186E0,1.4282926E3,3.0638058E0,1.1817884E-2,2.5261862E-2,3.3600223E-3,8.542956E-3,3.5E-2,1.0435967E-2,2.5514781E-2,-1.0671869E-2,-1.8831732E-3,-6.3942336E-3,2.2800784E-3,1.851759E-2,-1.1541538E-2,-8.15029E-3,-1.5712969E-2,2.3114396E-2],"split_indices":[14,4,14,14,8,4,14,2,4,9,16,14,8,7,2,0,0,0,0,0,0,0,0,0,0,0,0,0,0,0,0],"split_type":[0,0,0,0,0,0,0,0,0,0,0,0,0,0,0,0,0,0,0,0,0,0,0,0,0,0,0,0,0,0,0],"sum_hessian":[2.3643494E4,8.75697E3,1.4886524E4,8.469574E3,2.8739474E2,1.0903928E4,3.9825964E3,1.2699612E3,7.1996133E3,2.1916733E2,6.822742E1,1.0012756E4,8.9117175E2,2.861707E3,1.1208896E3,7.773642E2,4.92597E2,4.616883E3,2.5827307E3,1.8685324E2,3.2314095E1,3.9219833E1,2.9007584E1,6.6221245E3,3.390631E3,6.5282733E2,2.3834447E2,1.3743164E3,1.4873905E3,1.1151144E3,5.7752285E0],"tree_param":{"num_deleted":"0","num_feature":"18","num_nodes":"31","size_leaf_vector":"1"}},{"base_weights":[3.136558E-3,1.5899803E-1,-9.839117E-2,2.949216E-1,9.85728E-2,-3.8954865E-2,-1.8724751E-1,2.4784663E-1,5.4760605E-1,8.827178E-2,7E-1,-4.3765042E-2,7E-1,-1.5957946E-1,-3.007353E-1,3.316993E-2,1.0922342E-2,3.2045532E-2,1.0840376E-2,7.886318E-3,2.919225E-3,3.5E-2,2.7421063E-3,-8.095144E-3,-1.5636533E-3,3.5E-2,6.5385476E-3,-8.3982665E-3,2.26956E-3,-1.5736079E-2,-1.8978799E-3],"categories":[0,2,3,6],"categories_nodes":[8],"categories_segments":[0],"categories_sizes":[4],"default_left":[0,0,0,0,1,1,0,0,1,0,0,0,0,0,1,0,0,0,0,0,0,0,0,0,0,0,0,0,0,0,0],"id":21,"left_children":[1,3,5,7,9,11,13,15,17,19,21,23,25,27,29,-1,-1,-1,-1,-1,-1,-1,-1,-1,-1,-1,-1,-1,-1,-1,-1],"loss_changes":[3.731851E2,7.637352E1,7.541336E1,3.3911102E1,4.375684E1,3.7540478E1,1.7923737E1,2.9354492E1,1.3709274E1,1.3160297E1,1.4226418E1,1.2563545E1,4.9313583E0,7.920845E0,4.1070786E0,0E0,0E0,0E0,0E0,0E0,0E0,0E0,0E0,0E0,0E0,0E0,0E0,0E0,0E0,0E0,0E0],"parents":[2147483647,0,0,1,1,2,2,3,3,4,4,5,5,6,6,7,7,8,8,9,9,10,10,11,11,12,12,13,13,14,14],"right_children":[2,4,6,8,10,12,14,16,18,20,22,24,26,28,30,-1,-1,-1,-1,-1,-1,-1,-1,-1,-1,-1,-1,-1,-1,-1,-1],"split_conditions":[4.6996373E-1,1.318405E3,7.69474E-1,1.6175902E0,2.2702222E0,3.0638058E0,9.3597203E-1,1.9420523E-2,1E-45,2.3481613E-1,3.9287025E-1,4.9900013E-1,-5.469304E-1,1.7726156E0,1.8527089E0,3.316993E-2,1.0922342E-2,3.2045532E-2,1.0840376E-2,7.886318E-3,2.919225E-3,3.5E-2,2.7421063E-3,-8.095144E-3,-1.5636533E-3,3.5E-2,6.5385476E-3,-8.3982665E-3,2.26956E-3,-1.5736079E-2,-1.8978799E-3],"split_indices":[15,0,15,2,4,2,15,15,17,15,15,4,12,4,2,0,0,0,0,0,0,0,0,0,0,0,0,0,0,0,0],"split_type":[0,0,0,0,0,0,0,0,1,0,0,0,0,0,0,0,0,0,0,0,0,0,0,0,0,0,0,0,0,0,0],"sum_hessian":[2.3581111E4,9.301397E3,1.4279714E4,2.8612576E3,6.4401396E3,8.557208E3,5.722506E3,2.4135881E3,4.4766928E2,6.343279E3,9.686074E1,8.515616E3,4.1591576E1,4.6027676E3,1.1197382E3,1.58051E2,2.255537E3,3.484488E2,9.92205E1,1.9071069E3,4.4361724E3,6.2504166E1,3.4356575E1,8.131945E2,7.702422E3,2.5860119E1,1.5731459E1,4.4220317E3,1.8073589E2,1.0629646E3,5.6773624E1],"tree_param":{"num_deleted":"0","num_feature":"18","num_nodes":"31","size_leaf_vector":"1"}},{"base_weights":[-2.4121115E-3,1.5475135E-1,-8.754396E-2,1.351323E-1,6.973725E-1,-5.5257052E-2,-2.4687113E-1,3.0966246E-1,9.892823E-2,7E-1,4.3883566E-2,-7.098735E-2,1.283046E-1,-2.017892E-1,-3.1187415E-1,2.0896053E-2,1.0363042E-2,3.8787187E-3,1.262095E-2,1.3317001E-2,3.5E-2,-1.09977815E-2,9.480613E-3,-7.2701374E-4,-5.4789237E-3,1.1917583E-2,2.3588715E-3,-1.1427057E-2,-4.0936037E-3,-1.5829397E-2,2.4262812E-2],"categories":[1,2,6],"categories_nodes":[7],"categories_segments":[0],"categories_sizes":[3],"default_left":[0,1,0,0,0,0,0,1,0,0,0,0,0,1,0,0,0,0,0,0,0,0,0,0,0,0,0,0,0,0,0],"id":22,"left_children":[1,3,5,7,9,11,13,15,17,19,21,23,25,27,29,-1,-1,-1,-1,-1,-1,-1,-1,-1,-1,-1,-1,-1,-1,-1,-1],"loss_changes":[3.16964E2,8.851694E1,7.9033936E1,5.0736588E1,1.4240692E1,3.6906662E1,7.52388E0,1.5210159E1,2.1794922E1,7.5203857E0,1.3575529E0,2.5638721E1,8.996668E0,4.894539E0,4.1305237E0,0E0,0E0,0E0,0E0,0E0,0E0,0E0,0E0,0E0,0E0,0E0,0E0,0E0,0E0,0E0,0E0],"parents":[2147483647,0,0,1,1,2,2,3,3,4,4,5,5,6,6,7,7,8,8,9,9,10,10,11,11,12,12,13,13,14,14],"right_children":[2,4,6,8,10,12,14,16,18,20,22,24,26,28,30,-1,-1,-1,-1,-1,-1,-1,-1,-1,-1,-1,-1,-1,-1,-1,-1],"split_conditions":[-1.1229876E2,1.9434015E0,2.676231E2,-4.465253E2,1.7124764E0,1.5196737E0,3.9156998E2,1E-45,1.347633E0,1.2852017E3,1.303891E3,2.1884308E1,1E0,1.3131727E0,2.9045117E0,2.0896053E-2,1.0363042E-2,3.8787187E-3,1.262095E-2,1.3317001E-2,3.5E-2,-1.09977815E-2,9.480613E-3,-7.2701374E-4,-5.4789237E-3,1.1917583E-2,2.3588715E-3,-1.1427057E-2,-4.0936037E-3,-1.5829397E-2,2.4262812E-2],"split_indices":[14,4,14,14,1,4,14,17,4,7,0,14,16,2,4,0,0,0,0,0,0,0,0,0,0,0,0,0,0,0,0],"split_type":[0,0,0,0,0,0,0,1,0,0,0,0,0,0,0,0,0,0,0,0,0,0,0,0,0,0,0,0,0,0,0],"sum_hessian":[2.3688057E4,8.322647E3,1.5365409E4,8.033439E3,2.892084E2,1.2777463E4,2.5879463E3,1.3788445E3,6.654594E3,2.5598518E2,3.322322E1,1.176949E4,1.0079723E3,1.5305554E3,1.0573909E3,6.687565E2,7.100881E2,5.843187E3,8.1140735E2,4.159471E1,2.1439047E2,1.163995E1,2.158327E1,4.7796665E3,6.9898237E3,4.2692322E2,5.810491E2,1.2506466E3,2.7990878E2,1.051774E3,5.6167355E0],"tree_param":{"num_deleted":"0","num_feature":"18","num_nodes":"31","size_leaf_vector":"1"}},{"base_weights":[-2.3239225E-3,1.7272525E-1,-8.215015E-2,1.5560147E-1,7E-1,-2.1314869E-2,-1.7840508E-1,2.7046666E-1,9.9516355E-2,1.1855795E-1,7E-1,-3.4702707E-2,1.1944862E-1,-1.5123154E-1,-3.035058E-1,1.0684611E-2,2.2054428E-2,7.1333027E-3,2.3066725E-3,1.3692096E-2,-2.4169232E-3,3.5E-2,5.5049974E-3,4.7905277E-4,-2.8962132E-3,1.0681725E-2,-2.809724E-4,-7.90181E-3,2.5320877E-3,-1.6381303E-2,-9.492193E-3],"categories":[1,2],"categories_nodes":[8],"categories_segments":[0],"categories_sizes":[2],"default_left":[0,1,0,0,1,0,0,0,1,0,0,0,0,0,1,0,0,0,0,0,0,0,0,0,0,0,0,0,0,0,0],"id":23,"left_children":[1,3,5,7,9,11,13,15,17,19,21,23,25,27,29,-1,-1,-1,-1,-1,-1,-1,-1,-1,-1,-1,-1,-1,-1,-1,-1],"loss_changes":[3.3346237E2,7.6676956E1,9.596969E1,4.6818954E1,1.846888E1,1.893178E1,2.153035E1,2.3010117E1,1.1251751E1,1.4665983E0,5.5306244E0,9.432713E0,1.0279074E1,7.1736374E0,3.0402298E0,0E0,0E0,0E0,0E0,0E0,0E0,0E0,0E0,0E0,0E0,0E0,0E0,0E0,0E0,0E0,0E0],"parents":[2147483647,0,0,1,1,2,2,3,3,4,4,5,5,6,6,7,7,8,8,9,9,10,10,11,11,12,12,13,13,14,14],"right_children":[2,4,6,8,10,12,14,16,18,20,22,24,26,28,30,-1,-1,-1,-1,-1,-1,-1,-1,-1,-1,-1,-1,-1,-1,-1,-1],"split_conditions":[3.9287025E-1,2.319772E0,7.4840295E-1,1.6507226E-1,8.251196E-1,1.6981459E0,9.3597203E-1,1.23957E0,1E-45,6.512207E-1,1.5297909E0,5.2425224E-1,1.5083298E3,2.101819E0,1.3660283E0,1.0684611E-2,2.2054428E-2,7.1333027E-3,2.3066725E-3,1.3692096E-2,-2.4169232E-3,3.5E-2,5.5049974E-3,4.7905277E-4,-2.8962132E-3,1.0681725E-2,-2.809724E-4,-7.90181E-3,2.5320877E-3,-1.6381303E-2,-9.492193E-3],"split_indices":[15,2,15,15,10,2,15,2,17,10,3,15,0,2,2,0,0,0,0,0,0,0,0,0,0,0,0,0,0,0,0],"split_type":[0,0,0,0,0,0,0,0,1,0,0,0,0,0,0,0,0,0,0,0,0,0,0,0,0,0,0,0,0,0,0],"sum_hessian":[2.3861873E4,7.473104E3,1.638877E4,7.2706846E3,2.024193E2,1.0042748E4,6.346021E3,2.384101E3,4.8865835E3,5.5078945E1,1.4734035E2,9.171236E3,8.7151135E2,5.2153804E3,1.1306405E3,1.7905485E3,5.9355273E2,2.7013745E3,2.185209E3,2.8200142E1,2.6878803E1,1.3103882E2,1.6301535E1,3.1550703E3,6.0161665E3,4.9672842E2,3.7478293E2,5.045525E3,1.698552E2,9.311571E2,1.9948346E2],"tree_param":{"num_deleted":"0","num_feature":"18","num_nodes":"31","size_leaf_vector":"1"}},{"base_weights":[3.5301468E-3,1.3740182E-1,-1.0143536E-1,1.1779686E-1,6.156998E-1,-4.2223718E-2,-1.8250014E-1,2.3247047E-1,6.826148E-2,7E-1,2.6604187E-1,-5.0751593E-2,3.7832358E-1,-1.4434405E-1,-2.6097763E-1,1.0114394E-2,2.2773419E-2,6.12469E-3,2.2739877E-3,3.5E-2,-6.941229E-3,3.1831995E-2,2.9739868E-3,-8.037604E-3,-1.9101072E-3,2.3465797E-3,3.5E-2,-7.819767E-3,-1.6573363E-3,-1.3607313E-2,-5.1824434E-4],"categories":[],"categories_nodes":[],"categories_segments":[],"categories_sizes":[],"default_left":[0,1,0,0,0,1,0,0,0,0,1,0,1,0,1,0,0,0,0,0,0,0,0,0,0,0,0,0,0,0,0],"id":24,"left_children":[1,3,5,7,9,11,13,15,17,19,21,23,25,27,29,-1,-1,-1,-1,-1,-1,-1,-1,-1,-1,-1,-1,-1,-1,-1,-1],"loss_changes":[3.3272836E2,9.750798E1,6.369844E1,5.6775864E1,2.6601578E1,2.7530987E1,1.6736847E1,2.0204437E1,8.622349E0,1.0320419E1,1.2157797E1,1.0374273E1,1.7853142E1,5.048958E0,5.123314E0,0E0,0E0,0E0,0E0,0E0,0E0,0E0,0E0,0E0,0E0,0E0,0E0,0E0,0E0,0E0,0E0],"parents":[2147483647,0,0,1,1,2,2,3,3,4,4,5,5,6,6,7,7,8,8,9,9,10,10,11,11,12,12,13,13,14,14],"right_children":[2,4,6,8,10,12,14,16,18,20,22,24,26,28,30,-1,-1,-1,-1,-1,-1,-1,-1,-1,-1,-1,-1,-1,-1,-1,-1],"split_conditions":[5.042929E-1,1.9434015E0,7.69474E-1,1.9617215E-1,3.429924E-1,2.2702222E0,9.031085E-1,1.3698704E0,2.9876274E-1,2.7875154E0,9.6163803E-1,4.9900013E-1,7.5E-1,1.9839634E3,1.6943887E0,1.0114394E-2,2.2773419E-2,6.12469E-3,2.2739877E-3,3.5E-2,-6.941229E-3,3.1831995E-2,2.9739868E-3,-8.037604E-3,-1.9101072E-3,2.3465797E-3,3.5E-2,-7.819767E-3,-1.6573363E-3,-1.3607313E-2,-5.1824434E-4],"split_indices":[15,4,15,15,15,4,15,4,15,9,11,4,13,0,4,0,0,0,0,0,0,0,0,0,0,0,0,0,0,0,0],"split_type":[0,0,0,0,0,0,0,0,0,0,0,0,0,0,0,0,0,0,0,0,0,0,0,0,0,0,0,0,0,0,0],"sum_hessian":[2.3676525E4,1.0405357E4,1.3271168E4,9.996843E3,4.0851422E2,7.6701953E3,5.6009727E3,3.0145396E3,6.9823037E3,2.5020102E2,1.5831322E2,7.518612E3,1.515834E2,3.770553E3,1.8304199E3,2.656845E3,3.5769467E2,2.0641587E3,4.918145E3,2.3583716E2,1.4363859E1,5.5914185E1,1.02399025E2,7.6871716E2,6.749895E3,7.902803E1,7.255538E1,3.4015005E3,3.6905246E2,1.7522448E3,7.817517E1],"tree_param":{"num_deleted":"0","num_feature":"18","num_nodes":"31","size_leaf_vector":"1"}},{"base_weights":[-3.7128488E-3,1.3567023E-1,-9.730804E-2,1.1887417E-1,5.5337894E-1,-3.8204208E-2,-1.8665683E-1,2.3414163E-1,7.074661E-2,7E-1,1.7512727E-1,-4.981277E-2,1.16768E-1,-1.6090398E-1,-3.009335E-1,1.8641464E-2,8.972814E-3,-2.738288E-3,4.0686447E-3,3.5E-2,7.6552094E-3,-1.3888921E-2,1.6442372E-2,-7.7387537E-3,-1.8881351E-3,1.2334222E-3,1.1502036E-2,-8.388589E-3,1.2523747E-3,-1.32607985E-2,-1.8818488E-2],"categories":[0,2,3,6],"categories_nodes":[9],"categories_segments":[0],"categories_sizes":[4],"default_left":[0,1,0,0,0,1,0,0,0,1,0,0,0,1,0,0,0,0,0,0,0,0,0,0,0,0,0,0,0,0,0],"id":25,"left_children":[1,3,5,7,9,11,13,15,17,19,21,23,25,27,29,-1,-1,-1,-1,-1,-1,-1,-1,-1,-1,-1,-1,-1,-1,-1,-1],"loss_changes":[3.0706073E2,6.627495E1,7.435622E1,5.0419327E1,3.3285088E1,1.5255187E1,1.6450104E1,2.0239487E1,8.560478E0,9.406311E0,1.0611123E1,9.969097E0,6.159938E0,5.8497086E0,2.6750793E0,0E0,0E0,0E0,0E0,0E0,0E0,0E0,0E0,0E0,0E0,0E0,0E0,0E0,0E0,0E0,0E0],"parents":[2147483647,0,0,1,1,2,2,3,3,4,4,5,5,6,6,7,7,8,8,9,9,10,10,11,11,12,12,13,13,14,14],"right_children":[2,4,6,8,10,12,14,16,18,20,22,24,26,28,30,-1,-1,-1,-1,-1,-1,-1,-1,-1,-1,-1,-1,-1,-1,-1,-1],"split_conditions":[4.6996373E-1,1.9434015E0,7.69474E-1,1.318405E3,3.3384562E-1,1.5196737E0,9.388477E-1,7.365917E-2,3.670981E-1,1E-45,-8.5881793E-1,4.9900013E-1,1.020488E0,1.6943887E0,5.5639844E2,1.8641464E-2,8.972814E-3,-2.738288E-3,4.0686447E-3,3.5E-2,7.6552094E-3,-1.3888921E-2,1.6442372E-2,-7.7387537E-3,-1.8881351E-3,1.2334222E-3,1.1502036E-2,-8.388589E-3,1.2523747E-3,-1.32607985E-2,-1.8818488E-2],"split_indices":[15,4,15,0,15,4,15,15,2,17,5,4,3,4,14,0,0,0,0,0,0,0,0,0,0,0,0,0,0,0,0],"split_type":[0,0,0,0,0,0,0,0,0,1,0,0,0,0,0,0,0,0,0,0,0,0,0,0,0,0,0,0,0,0,0],"sum_hessian":[2.3535508E4,9.454823E3,1.4080685E4,9.090576E3,3.6424728E2,8.475563E3,5.605121E3,2.676466E3,6.41411E3,2.1414606E2,1.5010121E2,7.885556E3,5.900078E2,4.5762476E3,1.0288735E3,7.552521E2,1.921214E3,5.0032816E2,5.9137817E3,1.820586E2,3.2087475E1,3.7831432E1,1.1226978E2,8.10844E2,7.074712E3,3.2608942E2,2.6391837E2,4.4133457E3,1.6290186E2,7.0132544E2,3.2754807E2],"tree_param":{"num_deleted":"0","num_feature":"18","num_nodes":"31","size_leaf_vector":"1"}},{"base_weights":[7.1566305E-3,1.19882785E-1,-1.0719713E-1,1.0343675E-1,5.62042E-1,-7.2745584E-2,-2.3560117E-1,2.1772675E-1,5.6340154E-2,7E-1,2.25968E-1,-3.8377285E-2,-1.2274484E-1,-2.2073452E-1,-4.146304E-1,8.146997E-3,1.5843151E-2,1.9858768E-3,8.997894E-3,3.5E-2,-8.9471005E-3,-3.842922E-3,2.0462455E-2,-6.7078345E-3,-1.1053532E-3,-8.07774E-3,-3.164731E-3,-1.1173463E-2,3.3108007E-2,-2.2888549E-2,-1.7086226E-2],"categories":[],"categories_nodes":[],"categories_segments":[],"categories_sizes":[],"default_left":[0,1,0,0,0,0,0,0,0,0,0,1,0,1,0,0,0,0,0,0,0,0,0,0,0,0,0,0,0,0,0],"id":26,"left_children":[1,3,5,7,9,11,13,15,17,19,21,23,25,27,29,-1,-1,-1,-1,-1,-1,-1,-1,-1,-1,-1,-1,-1,-1,-1,-1],"loss_changes":[3.0459546E2,8.647026E1,5.1872787E1,6.1747086E1,3.1353897E1,1.5890305E1,6.5117645E0,1.8132431E1,1.6692142E1,2.01745E1,9.901821E0,8.54196E0,8.682701E0,5.684143E0,4.3828583E-1,0E0,0E0,0E0,0E0,0E0,0E0,0E0,0E0,0E0,0E0,0E0,0E0,0E0,0E0,0E0,0E0],"parents":[2147483647,0,0,1,1,2,2,3,3,4,4,5,5,6,6,7,7,8,8,9,9,10,10,11,11,12,12,13,13,14,14],"right_children":[2,4,6,8,10,12,14,16,18,20,22,24,26,28,30,-1,-1,-1,-1,-1,-1,-1,-1,-1,-1,-1,-1,-1,-1,-1,-1],"split_conditions":[5.566183E-1,2.0750558E0,2.676231E2,2.0758907E-1,9.338318E-1,7.460203E-1,9.8476934E-1,1.0419806E0,1.3562007E0,3.1478174E0,1.1683915E0,5.4268837E-1,9.66543E-1,2.9045117E0,-1.199485E-2,8.146997E-3,1.5843151E-2,1.9858768E-3,8.997894E-3,3.5E-2,-8.9471005E-3,-3.842922E-3,2.0462455E-2,-6.7078345E-3,-1.1053532E-3,-8.07774E-3,-3.164731E-3,-1.1173463E-2,3.3108007E-2,-2.2888549E-2,-1.7086226E-2],"split_indices":[15,4,14,15,3,15,15,4,10,9,3,4,4,4,12,0,0,0,0,0,0,0,0,0,0,0,0,0,0,0,0],"split_type":[0,0,0,0,0,0,0,0,0,0,0,0,0,0,0,0,0,0,0,0,0,0,0,0,0,0,0,0,0,0,0],"sum_hessian":[2.3627162E4,1.1898231E4,1.1728932E4,1.1472739E4,4.254925E2,9.248951E3,2.4799807E3,3.3469717E3,8.125767E3,2.4865567E2,1.7683682E2,5.48231E3,3.7666409E3,2.291894E3,1.8808672E2,2.1573655E3,1.1896062E3,7.1637886E3,9.619786E2,2.2290685E2,2.5748825E1,6.6893166E1,1.09943665E2,7.950094E2,4.6873003E3,2.2778867E3,1.4887542E3,2.2855613E3,6.332573E0,1.1484853E2,7.323819E1],"tree_param":{"num_deleted":"0","num_feature":"18","num_nodes":"31","size_leaf_vector":"1"}},{"base_weights":[2.185999E-3,9.344637E-2,-1.14043474E-1,2.1133277E-1,4.4816412E-2,-7.845325E-2,-2.2706138E-1,1.5323126E-1,3.7542924E-1,3.996713E-2,7E-1,-8.666279E-2,4.203116E-1,-2.0949355E-1,-3.5816243E-1,1.10320775E-2,2.1288998E-3,2.9793633E-2,1.5361032E-2,5.173166E-3,8.5447636E-4,3.5E-2,-1.8106261E-3,-6.8942695E-3,-3.2596036E-3,3.5E-2,3.4726036E-3,-1.151483E-2,-5.8843293E-3,-1.8610856E-2,8.926324E-3],"categories":[],"categories_nodes":[],"categories_segments":[],"categories_sizes":[],"default_left":[0,0,0,1,1,1,0,0,0,0,0,0,0,1,0,0,0,0,0,0,0,0,0,0,0,0,0,0,0,0,0],"id":27,"left_children":[1,3,5,7,9,11,13,15,17,19,21,23,25,27,29,-1,-1,-1,-1,-1,-1,-1,-1,-1,-1,-1,-1,-1,-1,-1,-1],"loss_changes":[2.5056245E2,7.5849E1,4.177301E1,3.6784195E1,3.6071625E1,3.23963E1,5.6545715E0,2.1289642E1,1.4999344E1,1.353096E1,9.513248E0,8.542793E0,1.3716486E1,4.167259E0,2.2731972E0,0E0,0E0,0E0,0E0,0E0,0E0,0E0,0E0,0E0,0E0,0E0,0E0,0E0,0E0,0E0,0E0],"parents":[2147483647,0,0,1,1,2,2,3,3,4,4,5,5,6,6,7,7,8,8,9,9,10,10,11,11,12,12,13,13,14,14],"right_children":[2,4,6,8,10,12,14,16,18,20,22,24,26,28,30,-1,-1,-1,-1,-1,-1,-1,-1,-1,-1,-1,-1,-1,-1,-1,-1],"split_conditions":[8.550646E0,1.3476863E3,2.6406805E2,1.294387E0,3.0638058E0,2.2702222E0,5.5639844E2,-2.4901524E2,-3.8932724E2,-2.304734E2,-9.2602615E1,7.1856755E-1,-4.7283238E-1,1.3131727E0,1.5016494E0,1.10320775E-2,2.1288998E-3,2.9793633E-2,1.5361032E-2,5.173166E-3,8.5447636E-4,3.5E-2,-1.8106261E-3,-6.8942695E-3,-3.2596036E-3,3.5E-2,3.4726036E-3,-1.151483E-2,-5.8843293E-3,-1.8610856E-2,8.926324E-3],"split_indices":[14,0,14,4,2,4,14,14,14,14,14,10,12,2,3,0,0,0,0,0,0,0,0,0,0,0,0,0,0,0,0],"split_type":[0,0,0,0,0,0,0,0,0,0,0,0,0,0,0,0,0,0,0,0,0,0,0,0,0,0,0,0,0,0,0],"sum_hessian":[2.362004E4,1.3231335E4,1.0388704E4,3.8631428E3,9.368191E3,7.9019976E3,2.486707E3,2.854416E3,1.0087269E3,9.314951E3,5.324016E1,7.7748516E3,1.27145905E2,2.1951501E3,2.9155704E2,1.7731898E3,1.0812261E3,2.3653462E2,7.721923E2,2.4662944E3,6.848657E3,3.5784283E1,1.7455881E1,2.2947812E3,5.4800703E3,6.72019E1,5.9944004E1,1.7883984E3,4.0675165E2,2.844153E2,7.1417413E0],"tree_param":{"num_deleted":"0","num_feature":"18","num_nodes":"31","size_leaf_vector":"1"}},{"base_weights":[1.1846605E-3,1.10826366E-1,-9.9621534E-2,1.8336561E-1,4.352175E-2,-4.1239705E-2,-1.7333707E-1,1.6422407E-1,5.2739996E-1,3.4390997E-2,3.0049244E-1,-6.063721E-2,4.7774337E-2,-1.4598028E-1,-2.961269E-1,1.8401176E-2,7.1244435E-3,5.0378186E-3,3.1046284E-2,1.1334268E-3,8.007204E-3,6.793387E-3,3.1958077E-2,-3.341506E-3,4.2956253E-3,-2.9341882E-4,1.0391039E-2,-1.1271837E-2,-6.6031474E-3,-1.6032213E-2,-7.987521E-3],"categories":[],"categories_nodes":[],"categories_segments":[],"categories_sizes":[],"default_left":[0,0,0,1,0,1,0,0,0,0,1,0,0,0,0,0,0,0,0,0,0,0,0,0,0,0,0,0,0,0,0],"id":28,"left_children":[1,3,5,7,9,11,13,15,17,19,21,23,25,27,29,-1,-1,-1,-1,-1,-1,-1,-1,-1,-1,-1,-1,-1,-1,-1,-1],"loss_changes":[2.611429E2,5.5247543E1,5.296939E1,3.578183E1,1.3767298E1,1.1866018E1,1.8230743E1,2.280925E1,1.137426E1,8.357109E0,1.1139431E1,5.125992E0,1.0560132E1,4.892105E0,3.2596512E0,0E0,0E0,0E0,0E0,0E0,0E0,0E0,0E0,0E0,0E0,0E0,0E0,0E0,0E0,0E0,0E0],"parents":[2147483647,0,0,1,1,2,2,3,3,4,4,5,5,6,6,7,7,8,8,9,9,10,10,11,11,12,12,13,13,14,14],"right_children":[2,4,6,8,10,12,14,16,18,20,22,24,26,28,30,-1,-1,-1,-1,-1,-1,-1,-1,-1,-1,-1,-1,-1,-1,-1,-1],"split_conditions":[5.325075E-1,2.9876274E-1,7.69474E-1,1.9837042E0,2.160902E0,1.2401577E0,9.3597203E-1,4.284241E-2,7.2273064E-1,1.6981459E0,8.5714287E-1,1.9486125E3,1.4128064E0,6.225206E-1,1.5196715E3,1.8401176E-2,7.1244435E-3,5.0378186E-3,3.1046284E-2,1.1334268E-3,8.007204E-3,6.793387E-3,3.1958077E-2,-3.341506E-3,4.2956253E-3,-2.9341882E-4,1.0391039E-2,-1.1271837E-2,-6.6031474E-3,-1.6032213E-2,-7.987521E-3],"split_indices":[15,15,15,2,1,11,15,15,11,2,13,7,2,3,7,0,0,0,0,0,0,0,0,0,0,0,0,0,0,0,0],"split_type":[0,0,0,0,0,0,0,0,0,0,0,0,0,0,0,0,0,0,0,0,0,0,0,0,0,0,0,0,0,0,0],"sum_hessian":[2.3625367E4,1.1316689E4,1.2308679E4,5.4457114E3,5.8709775E3,6.869598E3,5.439081E3,5.16009E3,2.856219E2,5.6706216E3,2.0035625E2,5.6407188E3,1.2288792E3,4.4498677E3,9.892133E2,4.957525E2,4.6643374E3,5.172792E1,2.3389397E2,5.1881704E3,4.8245117E2,1.3576366E2,6.45926E1,5.412539E3,2.2817955E2,9.211132E2,3.077659E2,6.609861E2,3.7888816E3,8.373296E2,1.5188376E2],"tree_param":{"num_deleted":"0","num_feature":"18","num_nodes":"31","size_leaf_vector":"1"}},{"base_weights":[1.2975071E-3,1.4754854E-1,-3.4980934E-2,2.3008231E-2,2.4136618E-1,-1.3733327E-1,-2.6759335E-3,-6.756387E-2,1.2278051E-1,1.9973925E-1,6.962844E-1,-1.5136081E-1,4.056314E-1,7.0419095E-2,-3.3949926E-2,2.0050605E-4,-8.222713E-3,7.5283396E-4,9.827368E-3,1.4575128E-2,5.797247E-3,2.0952756E-3,3.5E-2,-4.063495E-3,-9.840446E-3,-4.1320577E-4,3.5E-2,2.6253492E-3,2.239404E-2,-3.806033E-3,2.3817623E-3],"categories":[2,5,0,1,2,3,6],"categories_nodes":[7,9],"categories_segments":[0,2],"categories_sizes":[2,5],"default_left":[0,0,0,0,1,1,0,1,0,1,0,0,0,0,0,0,0,0,0,0,0,0,0,0,0,0,0,0,0,0,0],"id":29,"left_children":[1,3,5,7,9,11,13,15,17,19,21,23,25,27,29,-1,-1,-1,-1,-1,-1,-1,-1,-1,-1,-1,-1,-1,-1,-1,-1],"loss_changes":[1.2542848E2,5.4892677E1,6.2629692E1,1.8260767E1,5.0606216E1,3.4671738E1,3.2916718E1,7.347278E0,7.637245E0,1.8854546E1,1.2774498E1,1.409716E1,1.473436E1,2.9149263E1,3.4699783E1,0E0,0E0,0E0,0E0,0E0,0E0,0E0,0E0,0E0,0E0,0E0,0E0,0E0,0E0,0E0,0E0],"parents":[2147483647,0,0,1,1,2,2,3,3,4,4,5,5,6,6,7,7,8,8,9,9,10,10,11,11,12,12,13,13,14,14],"right_children":[2,4,6,8,10,12,14,16,18,20,22,24,26,28,30,-1,-1,-1,-1,-1,-1,-1,-1,-1,-1,-1,-1,-1,-1,-1,-1],"split_conditions":[1.3476863E3,1.4092856E3,1.4739303E3,1.1424075E0,1.7726156E0,2.2702222E0,1.5563237E3,1E-45,1.2039309E3,1E-45,6.25E-1,1.4856821E3,7E-1,2.2702222E0,1.8138091E3,2.0050605E-4,-8.222713E-3,7.5283396E-4,9.827368E-3,1.4575128E-2,5.797247E-3,2.0952756E-3,3.5E-2,-4.063495E-3,-9.840446E-3,-4.1320577E-4,3.5E-2,2.6253492E-3,2.239404E-2,-3.806033E-3,2.3817623E-3],"split_indices":[0,7,7,4,4,4,0,17,7,17,6,0,13,4,7,0,0,0,0,0,0,0,0,0,0,0,0,0,0,0,0],"split_type":[0,0,0,0,0,0,0,1,0,1,0,0,0,0,0,0,0,0,0,0,0,0,0,0,0,0,0,0,0,0,0],"sum_hessian":[2.363809E4,4.6975522E3,1.8940537E4,2.0188414E3,2.678711E3,4.543154E3,1.4397384E4,1.0583796E3,9.604618E2,2.4554646E3,2.2324628E2,4.4294404E3,1.1371366E2,4.3137754E3,1.0083608E4,6.092664E2,4.4911322E2,3.908689E2,5.695929E2,1.1708193E3,1.2846453E3,2.963485E1,1.9361142E2,1.7434491E3,2.6859912E3,4.91649E1,6.454876E1,4.1194307E3,1.9434485E2,6.647589E3,3.4360193E3],"tree_param":{"num_deleted":"0","num_feature":"18","num_nodes":"31","size_leaf_vector":"1"}},{"base_weights":[8.8992674E-4,1.3031667E-1,-7.958013E-2,2.5570434E-1,9.883256E-2,-2.1952087E-2,-1.6069874E-1,3.4780294E-1,1.5753739E-1,4.084324E-1,8.771521E-2,-3.1062722E-2,8.760249E-2,-1.3497974E-1,-2.867763E-1,2.1708736E-2,9.142634E-3,1.4484289E-2,4.4588256E-3,3.5E-2,3.2091625E-3,3.632073E-3,9.925603E-3,-2.4994425E-3,3.594389E-4,2.1748004E-2,2.7352152E-3,-6.7992914E-3,3.3626985E-2,-1.5766054E-2,-6.5468447E-3],"categories":[0,1,2,6],"categories_nodes":[3],"categories_segments":[0],"categories_sizes":[4],"default_left":[0,0,0,1,0,0,0,0,1,0,1,0,0,0,0,0,0,0,0,0,0,0,0,0,0,0,0,0,0,0,0],"id":30,"left_children":[1,3,5,7,9,11,13,15,17,19,21,23,25,27,29,-1,-1,-1,-1,-1,-1,-1,-1,-1,-1,-1,-1,-1,-1,-1,-1],"loss_changes":[2.4559619E2,3.5664017E1,6.796942E1,1.6343758E1,2.4841393E1,8.489014E0,1.9544006E1,1.3241478E1,7.922079E0,4.491594E1,1.16404E1,5.683613E0,7.4387493E0,4.1681137E0,4.5065155E0,0E0,0E0,0E0,0E0,0E0,0E0,0E0,0E0,0E0,0E0,0E0,0E0,0E0,0E0,0E0,0E0],"parents":[2147483647,0,0,1,1,2,2,3,3,4,4,5,5,6,6,7,7,8,8,9,9,10,10,11,11,12,12,13,13,14,14],"right_children":[2,4,6,8,10,12,14,16,18,20,22,24,26,28,30,-1,-1,-1,-1,-1,-1,-1,-1,-1,-1,-1,-1,-1,-1,-1,-1],"split_conditions":[4.4452414E-1,1.2046335E-1,7.4840295E-1,1E-45,2.9635617E-1,1.5560608E0,9.3597203E-1,1.2245049E3,5.9631056E-1,-6.219631E-1,1.3641475E0,1.0322108E0,2.2222222E-1,2.0150067E3,1.5141387E3,2.1708736E-2,9.142634E-3,1.4484289E-2,4.4588256E-3,3.5E-2,3.2091625E-3,3.632073E-3,9.925603E-3,-2.4994425E-3,3.594389E-4,2.1748004E-2,2.7352152E-3,-6.7992914E-3,3.3626985E-2,-1.5766054E-2,-6.5468447E-3],"split_indices":[15,15,15,17,3,10,15,0,3,5,10,11,6,7,7,0,0,0,0,0,0,0,0,0,0,0,0,0,0,0,0],"split_type":[0,0,0,1,0,0,0,0,0,0,0,0,0,0,0,0,0,0,0,0,0,0,0,0,0,0,0,0,0,0,0],"sum_hessian":[2.357906E4,9.039482E3,1.4539578E4,1.8127915E3,7.2266914E3,8.501348E3,6.038231E3,9.339924E2,8.7879913E2,2.4926758E2,6.977424E3,7.84931E3,6.520376E2,5.0168887E3,1.0213421E3,6.119363E2,3.220561E2,2.9851068E2,5.8028845E2,8.532148E1,1.6394609E2,6.143294E3,8.341299E2,5.2509375E3,2.5983726E3,5.5354298E1,5.966833E2,5.0114766E3,5.412133E0,8.623617E2,1.5898041E2],"tree_param":{"num_deleted":"0","num_feature":"18","num_nodes":"31","size_leaf_vector":"1"}},{"base_weights":[6.3278754E-3,1.02336355E-1,-9.9643305E-2,9.503121E-2,7E-1,-7.261182E-2,-2.2564045E-1,1.9331317E-1,4.9887847E-2,3.5E-2,3.1477612E-1,-3.856417E-2,-1.1905762E-1,-2.3944303E-1,-2.193231E-2,7.799352E-3,1.8181248E-2,1.7650822E-3,9.295049E-3,7.9942085E-3,3.5E-2,-2.4419862E-3,5.9299166E-3,-6.406778E-3,1.018612E-2,-1.0068541E-2,-1.4381354E-2,-2.1320334E-2,2.9394084E-3],"categories":[],"categories_nodes":[],"categories_segments":[],"categories_sizes":[],"default_left":[0,1,0,0,0,0,1,0,0,0,0,1,1,0,1,0,0,0,0,0,0,0,0,0,0,0,0,0,0],"id":31,"left_children":[1,3,5,7,9,11,13,15,17,-1,19,21,23,25,27,-1,-1,-1,-1,-1,-1,-1,-1,-1,-1,-1,-1,-1,-1],"loss_changes":[2.4132834E2,6.7340775E1,3.8384827E1,5.470227E1,9.660278E0,1.4678066E1,5.593292E0,2.4615143E1,1.6760422E1,0E0,4.24509E0,8.660073E0,1.1532505E1,3.3628616E0,4.1863713E0,0E0,0E0,0E0,0E0,0E0,0E0,0E0,0E0,0E0,0E0,0E0,0E0,0E0,0E0],"parents":[2147483647,0,0,1,1,2,2,3,3,4,4,5,5,6,6,7,7,8,8,10,10,11,11,12,12,13,13,14,14],"right_children":[2,4,6,8,10,12,14,16,18,-1,20,22,24,26,28,-1,-1,-1,-1,-1,-1,-1,-1,-1,-1,-1,-1,-1,-1],"split_conditions":[5.623223E-1,3.0638058E0,8.9185965E-1,2.1904211E-1,3.7601912E-1,7.4840295E-1,1.5466374E0,1.294387E0,1.5196737E0,3.5E-2,5.2425224E-1,1.5560608E0,1.7726156E0,9.427609E-1,4.5284528E-1,7.799352E-3,1.8181248E-2,1.7650822E-3,9.295049E-3,7.9942085E-3,3.5E-2,-2.4419862E-3,5.9299166E-3,-6.406778E-3,1.018612E-2,-1.0068541E-2,-1.4381354E-2,-2.1320334E-2,2.9394084E-3],"split_indices":[15,2,15,15,3,15,4,4,4,0,15,10,4,15,10,0,0,0,0,0,0,0,0,0,0,0,0,0,0],"split_type":[0,0,0,0,0,0,0,0,0,0,0,0,0,0,0,0,0,0,0,0,0,0,0,0,0,0,0,0,0],"sum_hessian":[2.3717799E4,1.244386E4,1.1273938E4,1.2330462E4,1.13398575E2,9.2837705E3,1.9901675E3,3.880001E3,8.450461E3,4.5999233E1,6.739934E1,5.3579155E3,3.9258552E3,1.8637131E3,1.2645434E2,3.1840823E3,6.9591864E2,7.633135E3,8.173265E2,5.0025352E1,1.7373987E1,5.029751E3,3.2816446E2,3.8190503E3,1.0680488E2,1.0439913E3,8.197218E2,2.0325377E1,1.0612897E2],"tree_param":{"num_deleted":"0","num_feature":"18","num_nodes":"29","size_leaf_vector":"1"}},{"base_weights":[4.4736485E-3,1.0287609E-1,-1.0127074E-1,2.1537955E-1,5.960204E-2,-6.585052E-2,-1.8705723E-1,1.3269813E-1,3.0998075E-1,5.4119434E-2,7E-1,-6.9575004E-2,2.6714486E-1,-1.5453573E-1,-2.6560536E-1,3.8654977E-3,1.4716073E-2,1.8814484E-2,9.729379E-3,5.0958856E-3,1.1900658E-3,-1.2974673E-3,3.5E-2,-4.346074E-3,-2.3310732E-4,1.9268347E-2,-1.4184332E-2,1.8218135E-2,-7.93544E-3,-1.2200005E-2,-2.1828819E-2],"categories":[0,1,2,3,6],"categories_nodes":[8],"categories_segments":[0],"categories_sizes":[5],"default_left":[0,0,0,0,1,0,0,0,1,0,0,0,0,0,0,0,0,0,0,0,0,0,0,0,0,0,0,0,0,0,0],"id":32,"left_children":[1,3,5,7,9,11,13,15,17,19,21,23,25,27,29,-1,-1,-1,-1,-1,-1,-1,-1,-1,-1,-1,-1,-1,-1,-1,-1],"loss_changes":[2.4669147E2,5.9772995E1,3.4711327E1,2.6638733E1,3.375757E1,1.0051659E1,8.4882965E0,1.6286999E1,1.2093353E1,1.2753532E1,1.686256E1,9.00877E0,5.9497766E0,5.176159E0,3.4996567E0,0E0,0E0,0E0,0E0,0E0,0E0,0E0,0E0,0E0,0E0,0E0,0E0,0E0,0E0,0E0,0E0],"parents":[2147483647,0,0,1,1,2,2,3,3,4,4,5,5,6,6,7,7,8,8,9,9,10,10,11,11,12,12,13,13,14,14],"right_children":[2,4,6,8,10,12,14,16,18,20,22,24,26,28,30,-1,-1,-1,-1,-1,-1,-1,-1,-1,-1,-1,-1,-1,-1,-1,-1],"split_conditions":[5.5942315E-1,1.318405E3,2.1805725E2,1.0757028E0,2.9045117E0,2.0907715E3,3.84536E2,1.7081985E3,1E-45,3.1846735E-1,6E-1,1.2217269E0,1E0,1.9194208E-1,7.026727E2,3.8654977E-3,1.4716073E-2,1.8814484E-2,9.729379E-3,5.0958856E-3,1.1900658E-3,-1.2974673E-3,3.5E-2,-4.346074E-3,-2.3310732E-4,1.9268347E-2,-1.4184332E-2,1.8218135E-2,-7.93544E-3,-1.2200005E-2,-2.1828819E-2],"split_indices":[15,0,14,4,4,0,14,7,17,15,6,11,6,11,14,0,0,0,0,0,0,0,0,0,0,0,0,0,0,0,0],"split_type":[0,0,0,0,0,0,0,0,1,0,0,0,0,0,0,0,0,0,0,0,0,0,0,0,0,0,0,0,0,0,0],"sum_hessian":[2.3705785E4,1.2279185E4,1.14266E4,3.4099783E3,8.869206E3,8.0886567E3,3.3379429E3,1.8209081E3,1.5890701E3,8.801352E3,6.7855125E1,7.9999697E3,8.86869E1,2.3626824E3,9.752605E2,1.3572559E3,4.6365222E2,1.0077316E3,5.813385E2,3.415017E3,5.386334E3,3.1926905E1,3.592822E1,6.312705E3,1.6872649E3,7.326318E1,1.5423707E1,1.8160954E1,2.3445215E3,8.680002E2,1.0726031E2],"tree_param":{"num_deleted":"0","num_feature":"18","num_nodes":"31","size_leaf_vector":"1"}},{"base_weights":[2.9785791E-3,9.418427E-2,-9.555846E-2,8.600834E-2,7E-1,-6.458797E-2,-2.1854869E-1,1.9023931E-1,4.630843E-2,7E-1,2.0819698E-1,-1.6815102E-1,-5.0251078E-2,-2.6430967E-1,-1.4976764E-1,1.3017382E-2,3.6317743E-3,4.4792164E-3,6.2066887E-4,1.5486737E-2,3.5E-2,4.4626403E-3,3.2688264E-2,-3.9376724E-3,-1.11625185E-2,-1.1760483E-3,-4.6120617E-3,-1.1914062E-2,-1.7864393E-2,-7.040754E-4,-9.422112E-3],"categories":[0,1,2,6,2,3,5,0,2,3,4,5],"categories_nodes":[7,11,14],"categories_segments":[0,4,7],"categories_sizes":[4,3,5],"default_left":[0,1,0,0,0,0,0,1,0,0,0,1,0,0,1,0,0,0,0,0,0,0,0,0,0,0,0,0,0,0,0],"id":33,"left_children":[1,3,5,7,9,11,13,15,17,19,21,23,25,27,29,-1,-1,-1,-1,-1,-1,-1,-1,-1,-1,-1,-1,-1,-1,-1,-1],"loss_changes":[2.1247946E2,7.56186E1,4.327427E1,5.028862E1,1.6153275E1,1.3473148E1,7.154503E0,2.7621468E1,1.2912561E1,1.114914E0,3.5884628E0,5.4190235E0,8.951447E0,3.233284E0,4.801304E0,0E0,0E0,0E0,0E0,0E0,0E0,0E0,0E0,0E0,0E0,0E0,0E0,0E0,0E0,0E0,0E0],"parents":[2147483647,0,0,1,1,2,2,3,3,4,4,5,5,6,6,7,7,8,8,9,9,10,10,11,11,12,12,13,13,14,14],"right_children":[2,4,6,8,10,12,14,16,18,20,22,24,26,28,30,-1,-1,-1,-1,-1,-1,-1,-1,-1,-1,-1,-1,-1,-1,-1,-1],"split_conditions":[5.5942315E-1,3.0638058E0,2.676231E2,1.318405E3,3.746622E-1,5.2623034E-1,1.4228674E3,1E-45,3.386441E-1,1.0966274E3,5.2425224E-1,1E-45,7.4840295E-1,9.7213256E-1,1E-45,1.3017382E-2,3.6317743E-3,4.4792164E-3,6.2066887E-4,1.5486737E-2,3.5E-2,4.4626403E-3,3.2688264E-2,-3.9376724E-3,-1.11625185E-2,-1.1760483E-3,-4.6120617E-3,-1.1914062E-2,-1.7864393E-2,-7.040754E-4,-9.422112E-3],"split_indices":[15,2,14,0,1,4,7,17,15,0,15,17,15,15,17,0,0,0,0,0,0,0,0,0,0,0,0,0,0,0,0],"split_type":[0,0,0,0,0,0,0,1,0,0,0,1,0,0,1,0,0,0,0,0,0,0,0,0,0,0,0,0,0,0,0],"sum_hessian":[2.3640613E4,1.2277047E4,1.1363567E4,1.2154121E4,1.2292535E2,9.078909E3,2.284658E3,3.3513792E3,8.802742E3,5.511461E1,6.781073E1,1.1027112E3,7.976198E3,1.370201E3,9.144568E2,2.0989172E3,1.2524619E3,3.8656223E3,4.93712E3,9.537485E0,4.5577126E1,5.447025E1,1.3340485E1,4.2141055E2,6.813006E2,4.874651E3,3.101547E3,1.073302E3,2.9689908E2,2.031364E2,7.113204E2],"tree_param":{"num_deleted":"0","num_feature":"18","num_nodes":"31","size_leaf_vector":"1"}},{"base_weights":[3.773045E-3,1.0552688E-1,-8.935674E-2,9.122851E-2,4.461573E-1,-6.2324975E-2,-2.0636609E-1,2.3545831E-1,6.449549E-2,5.882183E-1,-1.0576836E-2,-7.851775E-2,1.589627E-2,-2.5471812E-1,-1.3845178E-1,1.5869612E-2,6.839003E-3,2.0236722E-3,6.250225E-3,3.422118E-2,5.9553627E-3,6.4701135E-3,-1.5600825E-2,-2.745726E-3,-6.0299695E-3,-8.094103E-3,2.3231597E-3,-1.2933658E-2,2.3804553E-2,-2.0175344E-4,-8.893433E-3],"categories":[1,2,6,0,1,2,3,6,0,2,3,4,5],"categories_nodes":[7,9,14],"categories_segments":[0,3,8],"categories_sizes":[3,5,5],"default_left":[0,1,0,0,0,1,0,1,0,1,0,0,0,1,1,0,0,0,0,0,0,0,0,0,0,0,0,0,0,0,0],"id":34,"left_children":[1,3,5,7,9,11,13,15,17,19,21,23,25,27,29,-1,-1,-1,-1,-1,-1,-1,-1,-1,-1,-1,-1,-1,-1,-1,-1],"loss_changes":[2.2647308E2,5.5583E1,3.945543E1,4.2250183E1,2.9841545E1,1.2842136E1,7.65316E0,1.3811958E1,1.3438984E1,1.574823E1,4.684949E0,8.33614E0,9.460572E0,4.0726547E0,5.169794E0,0E0,0E0,0E0,0E0,0E0,0E0,0E0,0E0,0E0,0E0,0E0,0E0,0E0,0E0,0E0,0E0],"parents":[2147483647,0,0,1,1,2,2,3,3,4,4,5,5,6,6,7,7,8,8,9,9,10,10,11,11,12,12,13,13,14,14],"right_children":[2,4,6,8,10,12,14,16,18,20,22,24,26,28,30,-1,-1,-1,-1,-1,-1,-1,-1,-1,-1,-1,-1,-1,-1,-1,-1],"split_conditions":[5.1796496E-1,1.9434015E0,2.676231E2,1.11607656E-1,3.8207898E-1,1.3728787E0,1.4228674E3,1E-45,1.1037217E0,1E-45,1.8434508E0,7.4840295E-1,5.67745E-1,2.671313E0,1E-45,1.5869612E-2,6.839003E-3,2.0236722E-3,6.250225E-3,3.422118E-2,5.9553627E-3,6.4701135E-3,-1.5600825E-2,-2.745726E-3,-6.0299695E-3,-8.094103E-3,2.3231597E-3,-1.2933658E-2,2.3804553E-2,-2.0175344E-4,-8.893433E-3],"split_indices":[15,4,14,15,15,9,7,17,4,17,8,15,10,2,17,0,0,0,0,0,0,0,0,0,0,0,0,0,0,0,0],"split_type":[0,0,0,0,0,0,0,1,0,1,0,0,0,0,1,0,0,0,0,0,0,0,0,0,0,0,0,0,0,0,0],"sum_hessian":[2.3896865E4,1.1419623E4,1.2477242E4,1.0960799E4,4.5882495E2,1.013692E4,2.3403218E3,1.712691E3,9.248107E3,3.497516E2,1.0907336E2,8.398352E3,1.738568E3,1.3654384E3,9.748835E2,9.3452527E2,7.781657E2,6.6211743E3,2.6269333E3,2.8985013E2,5.9901474E1,7.487465E1,3.4198715E1,5.381961E3,3.016391E3,2.5443996E2,1.484128E3,1.3587312E3,6.7071733E0,2.2130542E2,7.5357806E2],"tree_param":{"num_deleted":"0","num_feature":"18","num_nodes":"31","size_leaf_vector":"1"}},{"base_weights":[6.6879444E-4,7.553185E-2,-1.07969396E-1,1.5469274E-1,2.1372303E-2,-8.243157E-2,-2.2978209E-1,1.3491863E-1,4.9892104E-1,4.0265294E-3,1.4075401E-1,-8.580409E-2,2.7383956E-1,-2.1079475E-1,-4.020497E-1,2.104469E-2,6.273817E-3,1.9941302E-2,3.5E-2,-4.9567124E-4,6.056325E-3,2.1857359E-2,5.758322E-3,-2.5316037E-3,-5.802857E-3,-2.922044E-4,2.139878E-2,-1.2187498E-2,-6.023789E-3,-9.1857015E-4,-2.0864902E-2],"categories":[],"categories_nodes":[],"categories_segments":[],"categories_sizes":[],"default_left":[0,0,0,1,0,1,0,0,0,0,0,0,1,1,0,0,0,0,0,0,0,0,0,0,0,0,0,0,0,0,0],"id":35,"left_children":[1,3,5,7,9,11,13,15,17,19,21,23,25,27,29,-1,-1,-1,-1,-1,-1,-1,-1,-1,-1,-1,-1,-1,-1,-1,-1],"loss_changes":[1.912646E2,5.9688354E1,2.9827286E1,3.8430603E1,1.7120638E1,9.555279E0,5.3523483E0,1.4393394E1,1.0249046E1,1.1787158E1,7.9043922E0,8.357014E0,3.219737E0,4.4333725E0,9.513645E-1,0E0,0E0,0E0,0E0,0E0,0E0,0E0,0E0,0E0,0E0,0E0,0E0,0E0,0E0,0E0,0E0],"parents":[2147483647,0,0,1,1,2,2,3,3,4,4,5,5,6,6,7,7,8,8,9,9,10,10,11,11,12,12,13,13,14,14],"right_children":[2,4,6,8,10,12,14,16,18,20,22,24,26,28,30,-1,-1,-1,-1,-1,-1,-1,-1,-1,-1,-1,-1,-1,-1,-1,-1],"split_conditions":[6.149149E-1,2.9876274E-1,9.031085E-1,1.8207029E0,1.4371953E0,2.671313E0,9.8476934E-1,-7.7512885E2,3.0638058E0,1.3641475E0,3.6561662E-1,7.4392474E-1,1.3815744E0,1.0983716E0,1.5671724E3,2.104469E-2,6.273817E-3,1.9941302E-2,3.5E-2,-4.9567124E-4,6.056325E-3,2.1857359E-2,5.758322E-3,-2.5316037E-3,-5.802857E-3,-2.922044E-4,2.139878E-2,-1.2187498E-2,-6.023789E-3,-9.1857015E-4,-2.0864902E-2],"split_indices":[15,15,15,4,4,2,15,14,2,10,1,15,9,4,0,0,0,0,0,0,0,0,0,0,0,0,0,0,0,0,0],"split_type":[0,0,0,0,0,0,0,0,0,0,0,0,0,0,0,0,0,0,0,0,0,0,0,0,0,0,0,0,0,0,0],"sum_hessian":[2.3515139E4,1.3921842E4,9.593297E3,5.6547974E3,8.267045E3,7.932036E3,1.661261E3,5.348922E3,3.0587558E2,7.219158E3,1.0478865E3,7.8584062E3,7.362971E1,1.4983378E3,1.6292323E2,1.6957237E2,5.179349E3,2.5418617E2,5.1689415E1,6.452006E3,7.6715204E2,8.199656E1,9.658899E2,3.635024E3,4.223383E3,2.6502449E1,4.7127262E1,1.0965387E3,4.0179913E2,6.31176E0,1.5661147E2],"tree_param":{"num_deleted":"0","num_feature":"18","num_nodes":"31","size_leaf_vector":"1"}},{"base_weights":[2.83152E-3,7.8456774E-2,-1.1370969E-1,1.5722787E-1,2.6008654E-2,-9.5944256E-2,-2.718653E-1,2.9041573E-1,1.20035835E-1,1.4796246E-2,2.0324472E-1,-6.013355E-2,-1.3281348E-1,-2.4149473E-1,-3.6002672E-1,3.251321E-2,1.1894859E-2,1.3406667E-2,4.97319E-3,-8.602455E-3,9.978756E-4,3.5E-2,8.280129E-3,-3.7784774E-3,4.2767213E-3,-8.320375E-3,-4.904216E-3,-1.440582E-2,-8.003961E-3,1.0991374E-2,-1.9436112E-2],"categories":[1,2,3,5,6],"categories_nodes":[3],"categories_segments":[0],"categories_sizes":[5],"default_left":[0,0,0,1,1,0,0,0,0,0,0,1,1,0,0,0,0,0,0,0,0,0,0,0,0,0,0,0,0,0,0],"id":36,"left_children":[1,3,5,7,9,11,13,15,17,19,21,23,25,27,29,-1,-1,-1,-1,-1,-1,-1,-1,-1,-1,-1,-1,-1,-1,-1,-1],"loss_changes":[2.0785228E2,5.90849E1,2.6050987E1,2.82818E1,1.7061382E1,1.1010513E1,2.4210892E0,2.341455E1,1.3592911E1,7.792682E0,1.2536301E1,9.529625E0,4.7800293E0,2.6098976E0,4.045059E0,0E0,0E0,0E0,0E0,0E0,0E0,0E0,0E0,0E0,0E0,0E0,0E0,0E0,0E0,0E0,0E0],"parents":[2147483647,0,0,1,1,2,2,3,3,4,4,5,5,6,6,7,7,8,8,9,9,10,10,11,11,12,12,13,13,14,14],"right_children":[2,4,6,8,10,12,14,16,18,20,22,24,26,28,30,-1,-1,-1,-1,-1,-1,-1,-1,-1,-1,-1,-1,-1,-1,-1,-1],"split_conditions":[6.256211E-1,2.9876274E-1,9.3597203E-1,1E-45,1.5732168E0,7.723569E-1,1.1428304E0,3.9073366E-1,4.284241E-2,3.2315376E-1,2.3482174E-1,1.4427557E0,8.6536247E-1,1.3912767E3,1E-1,3.251321E-2,1.1894859E-2,1.3406667E-2,4.97319E-3,-8.602455E-3,9.978756E-4,3.5E-2,8.280129E-3,-3.7784774E-3,4.2767213E-3,-8.320375E-3,-4.904216E-3,-1.440582E-2,-8.003961E-3,1.0991374E-2,-1.9436112E-2],"split_indices":[15,15,15,17,10,15,11,3,15,11,1,11,10,7,6,0,0,0,0,0,0,0,0,0,0,0,0,0,0,0,0],"split_type":[0,0,0,1,0,0,0,0,0,0,0,0,0,0,0,0,0,0,0,0,0,0,0,0,0,0,0,0,0,0,0],"sum_hessian":[2.3581498E4,1.4301426E4,9.280073E3,5.7154595E3,8.585966E3,8.344367E3,9.3570605E2,1.246135E3,4.469324E3,8.0761323E3,5.0983344E2,4.2342827E3,4.110084E3,6.9873804E2,2.3696805E2,1.5725668E2,1.0888783E3,5.436403E2,3.925684E3,2.1622256E2,7.8599097E3,2.3816715E1,4.8601672E2,3.8290146E3,4.0526794E2,2.0872583E3,2.0228258E3,4.426949E2,2.5604315E2,1.0859901E1,2.2610814E2],"tree_param":{"num_deleted":"0","num_feature":"18","num_nodes":"31","size_leaf_vector":"1"}},{"base_weights":[5.5433908E-3,1.2548427E-1,-2.6979534E-2,1.0067306E-1,4.0771642E-1,-1.2173549E-1,1.9414756E-3,3.7960317E-2,2.0073773E-1,2.516868E-1,6.741587E-1,-1.3773593E-1,2.4916752E-1,-1.5199089E-2,8.511998E-2,-7.370405E-3,3.207877E-3,6.3073086E-3,1.4871843E-2,7.987378E-3,2.741894E-2,3.5E-2,-7.843535E-3,-1.16414325E-2,-5.2590356E-3,4.08937E-3,3.5E-2,2.5341774E-3,-2.445149E-3,5.5498276E-3,3.5874668E-4],"categories":[],"categories_nodes":[],"categories_segments":[],"categories_sizes":[],"default_left":[0,1,0,0,0,0,0,0,0,0,0,0,1,0,0,0,0,0,0,0,0,0,0,0,0,0,0,0,0,0,0],"id":37,"left_children":[1,3,5,7,9,11,13,15,17,19,21,23,25,27,29,-1,-1,-1,-1,-1,-1,-1,-1,-1,-1,-1,-1,-1,-1,-1,-1],"loss_changes":[9.229025E1,3.5299683E1,5.1006393E1,2.9112194E1,1.6770958E1,2.5864113E1,2.03336E1,1.3867996E1,1.2855949E1,6.966154E0,9.12841E0,1.289431E1,1.6706541E1,2.6260386E1,4.9140987E0,0E0,0E0,0E0,0E0,0E0,0E0,0E0,0E0,0E0,0E0,0E0,0E0,0E0,0E0,0E0,0E0],"parents":[2147483647,0,0,1,1,2,2,3,3,4,4,5,5,6,6,7,7,8,8,9,9,10,10,11,11,12,12,13,13,14,14],"right_children":[2,4,6,8,10,12,14,16,18,20,22,24,26,28,30,-1,-1,-1,-1,-1,-1,-1,-1,-1,-1,-1,-1,-1,-1,-1,-1],"split_conditions":[1.3476863E3,1.9434015E0,1.4763334E3,1.5451234E3,1.4815747E3,2.2702222E0,1.8971373E3,1.0886934E3,9.574084E-1,-3.5485655E-1,1.5759028E0,1.2910312E3,1.4504857E0,1.5563237E3,1.924877E3,-7.370405E-3,3.207877E-3,6.3073086E-3,1.4871843E-2,7.987378E-3,2.741894E-2,3.5E-2,-7.843535E-3,-1.16414325E-2,-5.2590356E-3,4.08937E-3,3.5E-2,2.5341774E-3,-2.445149E-3,5.5498276E-3,3.5874668E-4],"split_indices":[0,4,7,7,7,4,7,7,2,5,1,7,8,0,0,0,0,0,0,0,0,0,0,0,0,0,0,0,0,0,0],"split_type":[0,0,0,0,0,0,0,0,0,0,0,0,0,0,0,0,0,0,0,0,0,0,0,0,0,0,0,0,0,0,0],"sum_hessian":[2.365727E4,5.0458574E3,1.8611412E4,4.6393647E3,4.0649295E2,4.3514004E3,1.4260013E4,2.8528193E3,1.7865454E3,2.575912E2,1.4890176E2,4.172051E3,1.7935008E2,1.1824217E4,2.4357952E3,3.5267883E2,2.5001404E3,1.0098636E3,7.7668176E2,1.9782683E2,5.976437E1,1.366654E2,1.2236361E1,1.0624673E3,3.1095833E3,1.399067E2,3.944339E1,4.001597E3,7.8226206E3,1.8283776E3,6.074176E2],"tree_param":{"num_deleted":"0","num_feature":"18","num_nodes":"31","size_leaf_vector":"1"}},{"base_weights":[-3.1124798E-3,6.595751E-2,-1.0496454E-1,1.6993333E-1,2.951134E-2,-8.8126116E-2,-2.6293775E-1,9.68773E-2,2.4252822E-1,2.007564E-2,2.854548E-1,-9.214136E-2,1.8968132E-1,-2.6826122E-1,1.172589E-2,5.2072443E-3,-8.219912E-3,1.0033859E-2,1.8149687E-2,2.6650687E-3,-9.277756E-4,1.9167513E-2,-1.1976083E-3,-2.7856687E-3,-6.0764975E-3,-6.4963223E-3,2.794652E-2,-1.2801669E-2,-2.3372104E-2],"categories":[1,2],"categories_nodes":[9],"categories_segments":[0],"categories_sizes":[2],"default_left":[0,0,0,1,1,1,0,1,0,1,1,0,1,0,0,0,0,0,0,0,0,0,0,0,0,0,0,0,0],"id":38,"left_children":[1,3,5,7,9,11,13,15,17,19,21,23,25,27,-1,-1,-1,-1,-1,-1,-1,-1,-1,-1,-1,-1,-1,-1,-1],"loss_changes":[1.6601024E2,5.3283356E1,2.5342781E1,1.9331902E1,2.5142885E1,9.631638E0,2.49403E0,3.4742775E0,9.1527405E0,1.2893331E1,1.12218E1,9.089676E0,1.4603199E1,2.0937119E0,0E0,0E0,0E0,0E0,0E0,0E0,0E0,0E0,0E0,0E0,0E0,0E0,0E0,0E0,0E0],"parents":[2147483647,0,0,1,1,2,2,3,3,4,4,5,5,6,6,7,7,8,8,9,9,10,10,11,11,12,12,13,13],"right_children":[2,4,6,8,10,12,14,16,18,20,22,24,26,28,-1,-1,-1,-1,-1,-1,-1,-1,-1,-1,-1,-1,-1,-1,-1],"split_conditions":[6.149149E-1,2.0054978E-1,9.3597203E-1,9.163395E-1,2.0750558E0,2.0750558E0,1.6405442E0,8.9831775E-1,1.4012718E0,1E-45,2.359879E0,7.4840295E-1,1.3815744E0,7.890914E2,1.172589E-2,5.2072443E-3,-8.219912E-3,1.0033859E-2,1.8149687E-2,2.6650687E-3,-9.277756E-4,1.9167513E-2,-1.1976083E-3,-2.7856687E-3,-6.0764975E-3,-6.4963223E-3,2.794652E-2,-1.2801669E-2,-2.3372104E-2],"split_indices":[15,15,15,2,4,4,12,2,4,17,9,15,9,14,0,0,0,0,0,0,0,0,0,0,0,0,0,0,0],"split_type":[0,0,0,0,0,0,0,0,0,1,0,0,0,0,0,0,0,0,0,0,0,0,0,0,0,0,0,0,0],"sum_hessian":[2.3596037E4,1.4061034E4,9.535002E3,3.6485552E3,1.04124795E4,8.617968E3,9.170348E2,1.819665E3,1.8288901E3,1.0043298E4,3.6918124E2,8.495843E3,1.2212501E2,9.07781E2,9.2538E0,1.7710045E3,4.8660526E1,1.359315E3,4.6957523E2,5.3991973E3,4.6441006E3,2.8026672E2,8.891453E1,3.7948792E3,4.7009634E3,6.5810295E1,5.631472E1,8.574282E2,5.0352757E1],"tree_param":{"num_deleted":"0","num_feature":"18","num_nodes":"29","size_leaf_vector":"1"}},{"base_weights":[1.421853E-3,9.72157E-2,-3.120423E-2,8.760146E-2,6.8525165E-1,-3.3830907E-2,4.7970963E-1,2.8298603E-2,1.46381E-1,7E-1,6.320832E-2,-9.897651E-2,-2.1728052E-2,7E-1,1.8337917E-1,-1.2119467E-4,7.90168E-3,9.763601E-3,3.2028654E-3,-8.3824955E-3,3.5E-2,-7.876449E-3,1.0197728E-2,-5.625701E-3,4.368244E-3,-2.7317079E-3,9.769397E-5,3.5E-2,5.731045E-3,2.1885246E-2,-3.4715682E-3],"categories":[0,1,2,6],"categories_nodes":[8],"categories_segments":[0],"categories_sizes":[4],"default_left":[0,1,1,1,0,0,0,0,1,0,0,1,0,0,0,0,0,0,0,0,0,0,0,0,0,0,0,0,0,0,0],"id":39,"left_children":[1,3,5,7,9,11,13,15,17,19,21,23,25,27,29,-1,-1,-1,-1,-1,-1,-1,-1,-1,-1,-1,-1,-1,-1,-1,-1],"loss_changes":[7.419829E1,3.4039032E1,2.378201E1,2.0686134E1,1.5785019E1,1.3889898E1,1.022171E1,1.1781901E1,1.1984516E1,9.801086E0,1.2806653E0,6.9728146E0,1.1580404E1,4.2735558E0,3.670559E0,0E0,0E0,0E0,0E0,0E0,0E0,0E0,0E0,0E0,0E0,0E0,0E0,0E0,0E0,0E0,0E0],"parents":[2147483647,0,0,1,1,2,2,3,3,4,4,5,5,6,6,7,7,8,8,9,9,10,10,11,11,12,12,13,13,14,14],"right_children":[2,4,6,8,10,12,14,16,18,20,22,24,26,28,30,-1,-1,-1,-1,-1,-1,-1,-1,-1,-1,-1,-1,-1,-1,-1,-1],"split_conditions":[1.3856779E3,3.0638058E0,3.0638058E0,9.097016E-1,3.746622E-1,4.5270756E-1,1.2477444E0,1.3698704E0,1E-45,1.0827797E3,6.051537E-1,1.4446872E0,8.4929186E-1,7.489261E-2,1.0020849E0,-1.2119467E-4,7.90168E-3,9.763601E-3,3.2028654E-3,-8.3824955E-3,3.5E-2,-7.876449E-3,1.0197728E-2,-5.625701E-3,4.368244E-3,-2.7317079E-3,9.769397E-5,3.5E-2,5.731045E-3,2.1885246E-2,-3.4715682E-3],"split_indices":[0,2,2,10,1,2,11,4,17,0,3,10,10,12,8,0,0,0,0,0,0,0,0,0,0,0,0,0,0,0,0],"split_type":[0,0,0,0,0,0,0,0,1,0,0,0,0,0,0,0,0,0,0,0,0,0,0,0,0,0,0,0,0,0,0],"sum_hessian":[2.3738611E4,6.030476E3,1.7708135E4,5.9345957E3,9.588019E1,1.761849E4,8.964534E1,2.9548853E3,2.9797107E3,5.6692905E1,3.9187286E1,2.7592422E3,1.4859248E4,3.402976E1,5.561558E1,2.3899124E3,5.6497296E2,1.8686001E3,1.1111106E3,1.2670116E1,4.402279E1,1.5211425E1,2.397586E1,2.572732E3,1.8651015E2,6.2180054E3,8.641242E3,2.1128418E1,1.29013405E1,2.7360123E1,2.8255459E1],"tree_param":{"num_deleted":"0","num_feature":"18","num_nodes":"31","size_leaf_vector":"1"}},{"base_weights":[8.8325125E-4,9.492251E-2,-7.297257E-2,1.688495E-1,5.529022E-2,-5.2629266E-2,-2.2654377E-1,8.8825926E-2,2.2690201E-1,4.825423E-2,4.5045537E-1,-2.5782814E-2,-1.04332425E-1,-2.5212032E-1,-1.0062699E-1,1.5264946E-2,3.576772E-3,1.7811323E-2,9.090958E-3,7.59948E-4,4.6325657E-3,3.5E-2,1.1157091E-2,-1.7832041E-3,4.908801E-3,-6.9038323E-3,-3.2723409E-3,4.3003927E-3,-1.2994721E-2,-6.144499E-3,3.5E-2],"categories":[],"categories_nodes":[],"categories_segments":[],"categories_sizes":[],"default_left":[0,0,0,0,1,0,1,0,0,0,0,1,0,0,0,0,0,0,0,0,0,0,0,0,0,0,0,0,0,0,0],"id":40,"left_children":[1,3,5,7,9,11,13,15,17,19,21,23,25,27,29,-1,-1,-1,-1,-1,-1,-1,-1,-1,-1,-1,-1,-1,-1,-1,-1],"loss_changes":[1.6627994E2,3.0847008E1,4.1881767E1,1.705249E1,1.9044746E1,1.6435097E1,5.0252533E0,5.767605E0,1.2349525E1,9.887986E0,1.4320049E1,9.552906E0,5.3014526E0,3.447029E0,5.392065E0,0E0,0E0,0E0,0E0,0E0,0E0,0E0,0E0,0E0,0E0,0E0,0E0,0E0,0E0,0E0,0E0],"parents":[2147483647,0,0,1,1,2,2,3,3,4,4,5,5,6,6,7,7,8,8,9,9,10,10,11,11,12,12,13,13,14,14],"right_children":[2,4,6,8,10,12,14,16,18,20,22,24,26,28,30,-1,-1,-1,-1,-1,-1,-1,-1,-1,-1,-1,-1,-1,-1,-1,-1],"split_conditions":[4.6996373E-1,1.3333937E3,9.031085E-1,9.474823E-1,2.2702222E0,7.4840295E-1,1.3660283E0,-3.8653988E-1,7.365917E-2,1.8138091E3,2.9635617E-1,1.6981459E0,9.0570694E-1,1E-1,9.190541E-1,1.5264946E-2,3.576772E-3,1.7811323E-2,9.090958E-3,7.59948E-4,4.6325657E-3,3.5E-2,1.1157091E-2,-1.7832041E-3,4.908801E-3,-6.9038323E-3,-3.2723409E-3,4.3003927E-3,-1.2994721E-2,-6.144499E-3,3.5E-2],"split_indices":[15,0,15,2,4,15,2,5,15,7,3,2,4,13,5,0,0,0,0,0,0,0,0,0,0,0,0,0,0,0,0],"split_type":[0,0,0,0,0,0,0,0,0,0,0,0,0,0,0,0,0,0,0,0,0,0,0,0,0,0,0,0,0,0,0],"sum_hessian":[2.39392E4,1.0530554E4,1.34086455E4,3.6740356E3,6.8565186E3,1.1841381E4,1.5672645E3,1.54577E3,2.1282654E3,6.737675E3,1.18843414E2,7.7952554E3,4.0461252E3,1.3018309E3,2.6543356E2,1.1310199E2,1.4326681E3,5.483552E2,1.5799103E3,3.862926E3,2.874749E3,2.1894365E1,9.694904E1,7.2204E3,5.748555E2,2.1649075E3,1.8812179E3,2.9032253E1,1.2727987E3,2.598986E2,5.534975E0],"tree_param":{"num_deleted":"0","num_feature":"18","num_nodes":"31","size_leaf_vector":"1"}},{"base_weights":[3.3201189E-3,7.9193346E-2,-8.6741E-2,7.159982E-2,6.301651E-1,-6.0972657E-2,-2.1266553E-1,1.6641761E-1,4.4342652E-2,7E-1,8.433713E-2,-3.388558E-2,-9.834365E-2,-2.5823835E-1,-1.4550978E-1,5.5402936E-3,1.2668776E-2,1.5283184E-3,7.1085743E-3,5.6131976E-3,3.5E-2,-7.089652E-3,1.9817768E-2,-2.2519464E-3,5.2741123E-3,-5.8343974E-3,-1.868096E-4,-1.3339388E-2,9.261559E-3,8.4184995E-4,-9.99707E-3],"categories":[0,2,3,4,5],"categories_nodes":[14],"categories_segments":[0],"categories_sizes":[5],"default_left":[0,1,0,0,0,0,0,0,0,0,0,1,0,1,1,0,0,0,0,0,0,0,0,0,0,0,0,0,0,0,0],"id":41,"left_children":[1,3,5,7,9,11,13,15,17,19,21,23,25,27,29,-1,-1,-1,-1,-1,-1,-1,-1,-1,-1,-1,-1,-1,-1,-1,-1],"loss_changes":[1.6162271E2,5.3664215E1,3.5080505E1,3.2722275E1,3.2260033E1,9.086147E0,5.583847E0,1.3644325E1,1.3254126E1,4.8979263E0,6.3107886E0,8.09934E0,6.547333E0,4.1931458E0,6.5854034E0,0E0,0E0,0E0,0E0,0E0,0E0,0E0,0E0,0E0,0E0,0E0,0E0,0E0,0E0,0E0,0E0],"parents":[2147483647,0,0,1,1,2,2,3,3,4,4,5,5,6,6,7,7,8,8,9,9,10,10,11,11,12,12,13,13,14,14],"right_children":[2,4,6,8,10,12,14,16,18,20,22,24,26,28,30,-1,-1,-1,-1,-1,-1,-1,-1,-1,-1,-1,-1,-1,-1,-1,-1],"split_conditions":[5.623223E-1,3.0638058E0,8.9185965E-1,1.6507226E-1,3.746622E-1,7.4840295E-1,1.4200627E3,1.053131E0,1.3753185E0,1.2174052E3,1.1683915E0,1.6981459E0,1.716286E3,1.7178175E0,1E-45,5.5402936E-3,1.2668776E-2,1.5283184E-3,7.1085743E-3,5.6131976E-3,3.5E-2,-7.089652E-3,1.9817768E-2,-2.2519464E-3,5.2741123E-3,-5.8343974E-3,-1.868096E-4,-1.3339388E-2,9.261559E-3,8.4184995E-4,-9.99707E-3],"split_indices":[15,2,15,15,1,15,7,2,10,7,3,2,7,3,17,0,0,0,0,0,0,0,0,0,0,0,0,0,0,0,0],"split_type":[0,0,0,0,0,0,0,0,0,0,0,0,0,0,1,0,0,0,0,0,0,0,0,0,0,0,0,0,0,0,0],"sum_hessian":[2.3650467E4,1.2836393E4,1.0814074E4,1.2663E4,1.7339229E2,8.9783E3,1.8357744E3,2.8262825E3,9.836718E3,8.574606E1,8.764623E1,5.2064736E3,3.7718262E3,1.0919302E3,7.4384424E2,1.7252295E3,1.101053E3,8.6236455E3,1.2130718E3,1.4597597E1,7.114846E1,5.1133568E1,3.651267E1,4.82131E3,3.851636E2,3.159055E3,6.127712E2,1.0716685E3,2.0261711E1,1.8694778E2,5.568964E2],"tree_param":{"num_deleted":"0","num_feature":"18","num_nodes":"31","size_leaf_vector":"1"}},{"base_weights":[-2.1486802E-3,7.384299E-2,-8.0302574E-2,5.3357027E-2,2.1239145E-1,-5.6102946E-2,-1.8894088E-1,2.1220273E-1,3.87548E-2,2.945504E-1,8.143788E-2,-6.4800985E-2,5.6725908E-2,-1.7022869E-1,-3.3554196E-1,9.801695E-3,3.468251E-2,1.6735934E-3,1.0586499E-2,2.9535463E-2,1.1999584E-2,5.6190058E-3,-9.6285865E-3,-1.8920203E-3,-4.7326996E-3,-3.8445473E-3,7.954956E-3,-8.8951215E-3,9.2143165E-3,-1.7637638E-2,1.3560747E-2],"categories":[0,1,2,3,6],"categories_nodes":[4],"categories_segments":[0],"categories_sizes":[5],"default_left":[0,1,0,0,1,1,0,1,1,0,0,0,1,1,0,0,0,0,0,0,0,0,0,0,0,0,0,0,0,0,0],"id":42,"left_children":[1,3,5,7,9,11,13,15,17,19,21,23,25,27,29,-1,-1,-1,-1,-1,-1,-1,-1,-1,-1,-1,-1,-1,-1,-1,-1],"loss_changes":[1.4028499E2,3.3980347E1,3.0603462E1,2.4195139E1,1.6570282E1,9.351191E0,5.7611084E0,6.7007484E0,8.726677E0,1.516584E1,5.0747313E0,7.1141777E0,9.344585E0,5.1551323E0,2.5919628E0,0E0,0E0,0E0,0E0,0E0,0E0,0E0,0E0,0E0,0E0,0E0,0E0,0E0,0E0,0E0,0E0],"parents":[2147483647,0,0,1,1,2,2,3,3,4,4,5,5,6,6,7,7,8,8,9,9,10,10,11,11,12,12,13,13,14,14],"right_children":[2,4,6,8,10,12,14,16,18,20,22,24,26,28,30,-1,-1,-1,-1,-1,-1,-1,-1,-1,-1,-1,-1,-1,-1,-1,-1],"split_conditions":[-4.205151E1,1.4012718E0,2.676231E2,-5.4430914E2,1E-45,1.5196737E0,5.5639844E2,1.3204974E0,1.8861126E0,3.7601912E-1,1.6902682E0,8.983901E1,6.666667E-1,1.8763994E0,1.4597555E0,9.801695E-3,3.468251E-2,1.6735934E-3,1.0586499E-2,2.9535463E-2,1.1999584E-2,5.6190058E-3,-9.6285865E-3,-1.8920203E-3,-4.7326996E-3,-3.8445473E-3,7.954956E-3,-8.8951215E-3,9.2143165E-3,-1.7637638E-2,1.3560747E-2],"split_indices":[14,4,14,14,17,4,14,4,8,3,1,14,13,4,3,0,0,0,0,0,0,0,0,0,0,0,0,0,0,0,0],"split_type":[0,0,0,0,1,0,0,0,0,0,0,0,0,0,0,0,0,0,0,0,0,0,0,0,0,0,0,0,0,0,0],"sum_hessian":[2.3618805E4,1.1975083E4,1.1643722E4,1.0433725E4,1.5413589E3,9.523777E3,2.1199438E3,8.7725494E2,9.556469E3,9.463679E2,5.9499097E2,8.842527E3,6.8125E2,1.881899E3,2.3804486E2,8.501121E2,2.7142822E1,9.274408E3,2.8206122E2,1.4569124E2,8.006767E2,5.351496E2,5.9841312E1,4.6475454E3,4.194982E3,2.956363E2,3.856137E2,1.8425146E3,3.9384388E1,2.3188599E2,6.158874E0],"tree_param":{"num_deleted":"0","num_feature":"18","num_nodes":"31","size_leaf_vector":"1"}},{"base_weights":[-1.2777643E-3,5.788102E-2,-1.1002755E-1,5.2084573E-2,5.7868975E-1,-7.982432E-2,-1.97373E-1,1.1543337E-1,8.3455E-3,7E-1,1.1040861E-1,-1.57374E-1,-6.452618E-2,-3.4421167E-1,-1.8050279E-1,2.930277E-3,7.5280555E-3,-3.0915128E-4,6.074774E-3,-8.199512E-3,3.5E-2,-3.124051E-3,1.9267183E-2,-8.630197E-3,1.6579336E-3,-3.560944E-3,6.200994E-3,-1.790436E-2,3.784978E-3,-1.0297283E-2,-3.75829E-3],"categories":[],"categories_nodes":[],"categories_segments":[],"categories_sizes":[],"default_left":[0,1,0,0,0,0,0,0,1,0,0,1,0,1,1,0,0,0,0,0,0,0,0,0,0,0,0,0,0,0,0],"id":43,"left_children":[1,3,5,7,9,11,13,15,17,19,21,23,25,27,29,-1,-1,-1,-1,-1,-1,-1,-1,-1,-1,-1,-1,-1,-1,-1,-1],"loss_changes":[1.5241171E2,4.6289646E1,2.2003891E1,4.2048393E1,3.109901E1,7.3498077E0,5.248863E0,1.2364494E1,1.4760449E1,7.3577576E0,4.6832266E0,2.9698467E0,6.5495663E0,1.3079586E0,5.1439934E0,0E0,0E0,0E0,0E0,0E0,0E0,0E0,0E0,0E0,0E0,0E0,0E0,0E0,0E0,0E0,0E0],"parents":[2147483647,0,0,1,1,2,2,3,3,4,4,5,5,6,6,7,7,8,8,9,9,10,10,11,11,12,12,13,13,14,14],"right_children":[2,4,6,8,10,12,14,16,18,20,22,24,26,28,30,-1,-1,-1,-1,-1,-1,-1,-1,-1,-1,-1,-1,-1,-1,-1,-1],"split_conditions":[6.494549E-1,3.0638058E0,2.676231E2,3.088436E-1,3.7601912E-1,4.476297E-1,1.053905E3,7.9778224E-1,1.3753185E0,1.0629142E3,1.1683915E0,1.4314346E0,1.9090443E3,1.5297909E0,1.3131727E0,2.930277E-3,7.5280555E-3,-3.0915128E-4,6.074774E-3,-8.199512E-3,3.5E-2,-3.124051E-3,1.9267183E-2,-8.630197E-3,1.6579336E-3,-3.560944E-3,6.200994E-3,-1.790436E-2,3.784978E-3,-1.0297283E-2,-3.75829E-3],"split_indices":[15,2,14,15,3,2,7,2,10,0,3,10,7,3,2,0,0,0,0,0,0,0,0,0,0,0,0,0,0,0,0],"split_type":[0,0,0,0,0,0,0,0,0,0,0,0,0,0,0,0,0,0,0,0,0,0,0,0,0,0,0,0,0,0,0],"sum_hessian":[2.3688314E4,1.5342576E4,8.345738E3,1.5174786E4,1.6779085E2,6.2027876E3,2.1429512E3,6.1973345E3,8.977451E3,7.077243E1,9.701842E1,1.02047705E3,5.1823105E3,2.1883188E2,1.9241194E3,2.3684492E3,3.8288853E3,7.9567456E3,1.02070557E3,9.513039E0,6.1259388E1,6.0037373E1,3.6981045E1,9.450315E2,7.544558E1,5.0052637E3,1.7704651E2,2.1197462E2,6.85725E0,1.5490177E3,3.7510168E2],"tree_param":{"num_deleted":"0","num_feature":"18","num_nodes":"31","size_leaf_vector":"1"}},{"base_weights":[5.408478E-4,6.861227E-2,-8.031975E-2,5.414284E-2,2.2517292E-1,-5.4273758E-2,-1.8847843E-1,2.2576022E-1,4.099555E-2,5.0925833E-1,1.8421227E-1,-6.2854804E-2,6.0504198E-2,-1.7634715E-1,-3.4903985E-1,8.883579E-3,2.1031965E-2,4.080604E-3,5.265688E-4,1.0362753E-2,3.5E-2,1.4325539E-2,5.17522E-3,-3.2105912E-3,2.1925945E-2,3.5E-2,2.1393762E-3,-9.9839745E-3,-3.8882971E-3,-2.1703739E-2,-1.3127655E-2],"categories":[],"categories_nodes":[],"categories_segments":[],"categories_sizes":[],"default_left":[0,0,0,0,0,1,0,0,0,0,0,0,0,1,0,0,0,0,0,0,0,0,0,0,0,0,0,0,0,0,0],"id":44,"left_children":[1,3,5,7,9,11,13,15,17,19,21,23,25,27,29,-1,-1,-1,-1,-1,-1,-1,-1,-1,-1,-1,-1,-1,-1,-1,-1],